{"learner":{"attributes":{},"feature_names":[],"feature_types":[],"gradient_booster":{"model":{"gbtree_model_param":{"num_parallel_tree":"1","num_trees":"1500"},"iteration_indptr":[0,2,4,6,8,10,12,14,16,18,20,22,24,26,28,30,32,34,36,38,40,42,44,46,48,50,52,54,56,58,60,62,64,66,68,70,72,74,76,78,80,82,84,86,88,90,92,94,96,98,100,102,104,106,108,110,112,114,116,118,120,122,124,126,128,130,132,134,136,138,140,142,144,146,148,150,152,154,156,158,160,162,164,166,168,170,172,174,176,178,180,182,184,186,188,190,192,194,196,198,200,202,204,206,208,210,212,214,216,218,220,222,224,226,228,230,232,234,236,238,240,242,244,246,248,250,252,254,256,258,260,262,264,266,268,270,272,274,276,278,280,282,284,286,288,290,292,294,296,298,300,302,304,306,308,310,312,314,316,318,320,322,324,326,328,330,332,334,336,338,340,342,344,346,348,350,352,354,356,358,360,362,364,366,368,370,372,374,376,378,380,382,384,386,388,390,392,394,396,398,400,402,404,406,408,410,412,414,416,418,420,422,424,426,428,430,432,434,436,438,440,442,444,446,448,450,452,454,456,458,460,462,464,466,468,470,472,474,476,478,480,482,484,486,488,490,492,494,496,498,500,502,504,506,508,510,512,514,516,518,520,522,524,526,528,530,532,534,536,538,540,542,544,546,548,550,552,554,556,558,560,562,564,566,568,570,572,574,576,578,580,582,584,586,588,590,592,594,596,598,600,602,604,606,608,610,612,614,616,618,620,622,624,626,628,630,632,634,636,638,640,642,644,646,648,650,652,654,656,658,660,662,664,666,668,670,672,674,676,678,680,682,684,686,688,690,692,694,696,698,700,702,704,706,708,710,712,714,716,718,720,722,724,726,728,730,732,734,736,738,740,742,744,746,748,750,752,754,756,758,760,762,764,766,768,770,772,774,776,778,780,782,784,786,788,790,792,794,796,798,800,802,804,806,808,810,812,814,816,818,820,822,824,826,828,830,832,834,836,838,840,842,844,846,848,850,852,854,856,858,860,862,864,866,868,870,872,874,876,878,880,882,884,886,888,890,892,894,896,898,900,902,904,906,908,910,912,914,916,918,920,922,924,926,928,930,932,934,936,938,940,942,944,946,948,950,952,954,956,958,960,962,964,966,968,970,972,974,976,978,980,982,984,986,988,990,992,994,996,998,1000,1002,1004,1006,1008,1010,1012,1014,1016,1018,1020,1022,1024,1026,1028,1030,1032,1034,1036,1038,1040,1042,1044,1046,1048,1050,1052,1054,1056,1058,1060,1062,1064,1066,1068,1070,1072,1074,1076,1078,1080,1082,1084,1086,1088,1090,1092,1094,1096,1098,1100,1102,1104,1106,1108,1110,1112,1114,1116,1118,1120,1122,1124,1126,1128,1130,1132,1134,1136,1138,1140,1142,1144,1146,1148,1150,1152,1154,1156,1158,1160,1162,1164,1166,1168,1170,1172,1174,1176,1178,1180,1182,1184,1186,1188,1190,1192,1194,1196,1198,1200,1202,1204,1206,1208,1210,1212,1214,1216,1218,1220,1222,1224,1226,1228,1230,1232,1234,1236,1238,1240,1242,1244,1246,1248,1250,1252,1254,1256,1258,1260,1262,1264,1266,1268,1270,1272,1274,1276,1278,1280,1282,1284,1286,1288,1290,1292,1294,1296,1298,1300,1302,1304,1306,1308,1310,1312,1314,1316,1318,1320,1322,1324,1326,1328,1330,1332,1334,1336,1338,1340,1342,1344,1346,1348,1350,1352,1354,1356,1358,1360,1362,1364,1366,1368,1370,1372,1374,1376,1378,1380,1382,1384,1386,1388,1390,1392,1394,1396,1398,1400,1402,1404,1406,1408,1410,1412,1414,1416,1418,1420,1422,1424,1426,1428,1430,1432,1434,1436,1438,1440,1442,1444,1446,1448,1450,1452,1454,1456,1458,1460,1462,1464,1466,1468,1470,1472,1474,1476,1478,1480,1482,1484,1486,1488,1490,1492,1494,1496,1498,1500],"tree_info":[0,1,0,1,0,1,0,1,0,1,0,1,0,1,0,1,0,1,0,1,0,1,0,1,0,1,0,1,0,1,0,1,0,1,0,1,0,1,0,1,0,1,0,1,0,1,0,1,0,1,0,1,0,1,0,1,0,1,0,1,0,1,0,1,0,1,0,1,0,1,0,1,0,1,0,1,0,1,0,1,0,1,0,1,0,1,0,1,0,1,0,1,0,1,0,1,0,1,0,1,0,1,0,1,0,1,0,1,0,1,0,1,0,1,0,1,0,1,0,1,0,1,0,1,0,1,0,1,0,1,0,1,0,1,0,1,0,1,0,1,0,1,0,1,0,1,0,1,0,1,0,1,0,1,0,1,0,1,0,1,0,1,0,1,0,1,0,1,0,1,0,1,0,1,0,1,0,1,0,1,0,1,0,1,0,1,0,1,0,1,0,1,0,1,0,1,0,1,0,1,0,1,0,1,0,1,0,1,0,1,0,1,0,1,0,1,0,1,0,1,0,1,0,1,0,1,0,1,0,1,0,1,0,1,0,1,0,1,0,1,0,1,0,1,0,1,0,1,0,1,0,1,0,1,0,1,0,1,0,1,0,1,0,1,0,1,0,1,0,1,0,1,0,1,0,1,0,1,0,1,0,1,0,1,0,1,0,1,0,1,0,1,0,1,0,1,0,1,0,1,0,1,0,1,0,1,0,1,0,1,0,1,0,1,0,1,0,1,0,1,0,1,0,1,0,1,0,1,0,1,0,1,0,1,0,1,0,1,0,1,0,1,0,1,0,1,0,1,0,1,0,1,0,1,0,1,0,1,0,1,0,1,0,1,0,1,0,1,0,1,0,1,0,1,0,1,0,1,0,1,0,1,0,1,0,1,0,1,0,1,0,1,0,1,0,1,0,1,0,1,0,1,0,1,0,1,0,1,0,1,0,1,0,1,0,1,0,1,0,1,0,1,0,1,0,1,0,1,0,1,0,1,0,1,0,1,0,1,0,1,0,1,0,1,0,1,0,1,0,1,0,1,0,1,0,1,0,1,0,1,0,1,0,1,0,1,0,1,0,1,0,1,0,1,0,1,0,1,0,1,0,1,0,1,0,1,0,1,0,1,0,1,0,1,0,1,0,1,0,1,0,1,0,1,0,1,0,1,0,1,0,1,0,1,0,1,0,1,0,1,0,1,0,1,0,1,0,1,0,1,0,1,0,1,0,1,0,1,0,1,0,1,0,1,0,1,0,1,0,1,0,1,0,1,0,1,0,1,0,1,0,1,0,1,0,1,0,1,0,1,0,1,0,1,0,1,0,1,0,1,0,1,0,1,0,1,0,1,0,1,0,1,0,1,0,1,0,1,0,1,0,1,0,1,0,1,0,1,0,1,0,1,0,1,0,1,0,1,0,1,0,1,0,1,0,1,0,1,0,1,0,1,0,1,0,1,0,1,0,1,0,1,0,1,0,1,0,1,0,1,0,1,0,1,0,1,0,1,0,1,0,1,0,1,0,1,0,1,0,1,0,1,0,1,0,1,0,1,0,1,0,1,0,1,0,1,0,1,0,1,0,1,0,1,0,1,0,1,0,1,0,1,0,1,0,1,0,1,0,1,0,1,0,1,0,1,0,1,0,1,0,1,0,1,0,1,0,1,0,1,0,1,0,1,0,1,0,1,0,1,0,1,0,1,0,1,0,1,0,1,0,1,0,1,0,1,0,1,0,1,0,1,0,1,0,1,0,1,0,1,0,1,0,1,0,1,0,1,0,1,0,1,0,1,0,1,0,1,0,1,0,1,0,1,0,1,0,1,0,1,0,1,0,1,0,1,0,1,0,1,0,1,0,1,0,1,0,1,0,1,0,1,0,1,0,1,0,1,0,1,0,1,0,1,0,1,0,1,0,1,0,1,0,1,0,1,0,1,0,1,0,1,0,1,0,1,0,1,0,1,0,1,0,1,0,1,0,1,0,1,0,1,0,1,0,1,0,1,0,1,0,1,0,1,0,1,0,1,0,1,0,1,0,1,0,1,0,1,0,1,0,1,0,1,0,1,0,1,0,1,0,1,0,1,0,1,0,1,0,1,0,1,0,1,0,1,0,1,0,1,0,1,0,1,0,1,0,1,0,1,0,1,0,1,0,1,0,1,0,1,0,1,0,1,0,1,0,1,0,1,0,1,0,1,0,1,0,1,0,1,0,1,0,1,0,1,0,1,0,1,0,1,0,1,0,1,0,1,0,1,0,1,0,1,0,1,0,1,0,1,0,1,0,1,0,1,0,1,0,1,0,1,0,1,0,1,0,1,0,1,0,1,0,1,0,1,0,1,0,1,0,1,0,1,0,1,0,1,0,1,0,1,0,1,0,1,0,1,0,1,0,1,0,1,0,1,0,1,0,1,0,1,0,1,0,1,0,1,0,1,0,1,0,1,0,1,0,1,0,1,0,1,0,1,0,1,0,1,0,1,0,1,0,1,0,1,0,1,0,1,0,1,0,1,0,1,0,1,0,1,0,1,0,1,0,1,0,1,0,1,0,1,0,1,0,1,0,1,0,1,0,1,0,1,0,1,0,1,0,1,0,1,0,1,0,1,0,1,0,1,0,1,0,1,0,1,0,1,0,1,0,1,0,1,0,1,0,1,0,1,0,1,0,1,0,1,0,1,0,1,0,1,0,1,0,1,0,1,0,1,0,1,0,1,0,1,0,1,0,1,0,1,0,1,0,1,0,1,0,1,0,1,0,1,0,1,0,1,0,1,0,1,0,1,0,1,0,1,0,1,0,1,0,1,0,1,0,1,0,1,0,1,0,1,0,1,0,1,0,1,0,1,0,1,0,1,0,1,0,1,0,1,0,1,0,1,0,1,0,1,0,1,0,1,0,1,0,1,0,1,0,1,0,1,0,1,0,1,0,1,0,1,0,1,0,1,0,1,0,1,0,1,0,1,0,1,0,1,0,1,0,1,0,1,0,1,0,1,0,1,0,1,0,1,0,1,0,1,0,1,0,1,0,1,0,1,0,1,0,1,0,1,0,1,0,1,0,1,0,1,0,1,0,1,0,1,0,1,0,1,0,1,0,1,0,1,0,1,0,1,0,1,0,1,0,1,0,1,0,1,0,1,0,1,0,1,0,1,0,1,0,1,0,1,0,1,0,1,0,1,0,1,0,1,0,1,0,1,0,1,0,1,0,1,0,1,0,1,0,1,0,1,0,1,0,1,0,1,0,1,0,1,0,1,0,1,0,1,0,1,0,1,0,1,0,1,0,1,0,1,0,1,0,1,0,1,0,1,0,1,0,1,0,1,0,1,0,1,0,1,0,1,0,1,0,1,0,1,0,1,0,1,0,1,0,1,0,1,0,1,0,1,0,1,0,1,0,1,0,1],"trees":[{"base_weights":[-1.4984985E-1,1.2464242E-1,-3.092074E-1,-1.432258E-1,2.4865511E-1,-1.4618312E-1,-4.928085E-1,6.5155805E-4,-3.1678486E-3,9.3040295E-4,3.5552194E-3,-5.9551076E-5,-2.79965E-3,-3.956961E-3,-6.2322277E-3],"categories":[],"categories_nodes":[],"categories_segments":[],"categories_sizes":[],"default_left":[0,0,0,0,0,0,0,0,0,0,0,0,0,0,0],"id":0,"left_children":[1,3,5,7,9,11,13,-1,-1,-1,-1,-1,-1,-1,-1],"loss_changes":[2.9136304E2,8.1322655E1,1.2605905E2,2.8049694E1,2.778901E1,4.189872E1,2.4848755E1,0E0,0E0,0E0,0E0,0E0,0E0,0E0,0E0],"parents":[2147483647,0,0,1,1,2,2,3,3,4,4,5,5,6,6],"right_children":[2,4,6,8,10,12,14,-1,-1,-1,-1,-1,-1,-1,-1],"split_conditions":[4.58E-1,-2E0,1.4E1,-4.7E0,2.4E1,2.8E0,2.3E1,6.5155805E-4,-3.1678486E-3,9.3040295E-4,3.5552194E-3,-5.9551076E-5,-2.79965E-3,-3.956961E-3,-6.2322277E-3],"split_indices":[3,77,80,25,51,25,80,0,0,0,0,0,0,0,0],"split_type":[0,0,0,0,0,0,0,0,0,0,0,0,0,0,0],"sum_hessian":[6.659E3,2.446E3,4.213E3,7.74E2,1.672E3,2.2325E3,1.9805E3,3.52E2,4.22E2,6.815E2,9.905E2,1.0905E3,1.142E3,1.1375E3,8.43E2],"tree_param":{"num_deleted":"0","num_feature":"106","num_nodes":"15","size_leaf_vector":"1"}},{"base_weights":[1.4984985E-1,-1.2464242E-1,3.092074E-1,1.432258E-1,-2.4865511E-1,1.4618312E-1,4.928085E-1,-6.5155805E-4,3.1678486E-3,-9.3040295E-4,-3.5552194E-3,5.9551076E-5,2.79965E-3,3.956961E-3,6.2322277E-3],"categories":[],"categories_nodes":[],"categories_segments":[],"categories_sizes":[],"default_left":[0,0,0,0,0,0,0,0,0,0,0,0,0,0,0],"id":1,"left_children":[1,3,5,7,9,11,13,-1,-1,-1,-1,-1,-1,-1,-1],"loss_changes":[2.9136304E2,8.1322655E1,1.2605905E2,2.8049694E1,2.778901E1,4.189872E1,2.4848755E1,0E0,0E0,0E0,0E0,0E0,0E0,0E0,0E0],"parents":[2147483647,0,0,1,1,2,2,3,3,4,4,5,5,6,6],"right_children":[2,4,6,8,10,12,14,-1,-1,-1,-1,-1,-1,-1,-1],"split_conditions":[4.58E-1,-2E0,1.4E1,-4.7E0,2.4E1,2.8E0,2.3E1,-6.5155805E-4,3.1678486E-3,-9.3040295E-4,-3.5552194E-3,5.9551076E-5,2.79965E-3,3.956961E-3,6.2322277E-3],"split_indices":[3,77,80,25,51,25,80,0,0,0,0,0,0,0,0],"split_type":[0,0,0,0,0,0,0,0,0,0,0,0,0,0,0],"sum_hessian":[6.659E3,2.446E3,4.213E3,7.74E2,1.672E3,2.2325E3,1.9805E3,3.52E2,4.22E2,6.815E2,9.905E2,1.0905E3,1.142E3,1.1375E3,8.43E2],"tree_param":{"num_deleted":"0","num_feature":"106","num_nodes":"15","size_leaf_vector":"1"}},{"base_weights":[-1.4835472E-1,1.2339768E-1,-3.0612272E-1,-1.4179762E-1,2.4617319E-1,-1.4472315E-1,-4.8789796E-1,6.4506085E-4,-3.1362763E-3,9.211131E-4,3.5197479E-3,-2.8802997E-3,-1.6190505E-4,-3.917487E-3,-6.1702183E-3],"categories":[],"categories_nodes":[],"categories_segments":[],"categories_sizes":[],"default_left":[0,0,0,0,0,0,0,0,0,0,0,0,0,0,0],"id":2,"left_children":[1,3,5,7,9,11,13,-1,-1,-1,-1,-1,-1,-1,-1],"loss_changes":[2.8557425E2,7.970741E1,1.23559784E2,2.7493183E1,2.7237244E1,4.1135357E1,2.4358368E1,0E0,0E0,0E0,0E0,0E0,0E0,0E0,0E0],"parents":[2147483647,0,0,1,1,2,2,3,3,4,4,5,5,6,6],"right_children":[2,4,6,8,10,12,14,-1,-1,-1,-1,-1,-1,-1,-1],"split_conditions":[4.58E-1,-2E0,1.4E1,-4.7E0,2.4E1,9E0,2.3E1,6.4506085E-4,-3.1362763E-3,9.211131E-4,3.5197479E-3,-2.8802997E-3,-1.6190505E-4,-3.917487E-3,-6.1702183E-3],"split_indices":[3,77,80,25,51,51,80,0,0,0,0,0,0,0,0],"split_type":[0,0,0,0,0,0,0,0,0,0,0,0,0,0,0],"sum_hessian":[6.6589233E3,2.4459824E3,4.2129404E3,7.7399567E2,1.6719868E3,2.232491E3,1.9804496E3,3.5199985E2,4.219958E2,6.814994E2,9.904875E2,1.0549921E3,1.177499E3,1.1374822E3,8.429673E2],"tree_param":{"num_deleted":"0","num_feature":"106","num_nodes":"15","size_leaf_vector":"1"}},{"base_weights":[1.4835474E-1,-1.2339769E-1,3.0612278E-1,1.4179759E-1,-2.4617319E-1,1.4472313E-1,4.8789805E-1,-6.4506114E-4,3.1362763E-3,-9.211131E-4,-3.5197479E-3,2.8802997E-3,1.6190478E-4,3.917488E-3,6.1702193E-3],"categories":[],"categories_nodes":[],"categories_segments":[],"categories_sizes":[],"default_left":[0,0,0,0,0,0,0,0,0,0,0,0,0,0,0],"id":3,"left_children":[1,3,5,7,9,11,13,-1,-1,-1,-1,-1,-1,-1,-1],"loss_changes":[2.8557428E2,7.97074E1,1.23559906E2,2.7493183E1,2.7237244E1,4.113537E1,2.4358337E1,0E0,0E0,0E0,0E0,0E0,0E0,0E0,0E0],"parents":[2147483647,0,0,1,1,2,2,3,3,4,4,5,5,6,6],"right_children":[2,4,6,8,10,12,14,-1,-1,-1,-1,-1,-1,-1,-1],"split_conditions":[4.58E-1,-2E0,1.4E1,-4.7E0,2.4E1,9E0,2.3E1,-6.4506114E-4,3.1362763E-3,-9.211131E-4,-3.5197479E-3,2.8802997E-3,1.6190478E-4,3.917488E-3,6.1702193E-3],"split_indices":[3,77,80,25,51,51,80,0,0,0,0,0,0,0,0],"split_type":[0,0,0,0,0,0,0,0,0,0,0,0,0,0,0],"sum_hessian":[6.658923E3,2.4459824E3,4.2129404E3,7.7399567E2,1.6719868E3,2.232491E3,1.9804495E3,3.5199988E2,4.219958E2,6.814994E2,9.904875E2,1.0549921E3,1.177499E3,1.1374822E3,8.429672E2],"tree_param":{"num_deleted":"0","num_feature":"106","num_nodes":"15","size_leaf_vector":"1"}},{"base_weights":[-1.4687793E-1,1.221671E-1,-3.0307734E-1,-1.4038521E-1,2.4371979E-1,-1.4327891E-1,-4.830608E-1,6.386295E-4,-3.1050805E-3,1.4988879E-3,4.154812E-3,-5.6329583E-5,-2.7460146E-3,-3.8785276E-3,-6.109295E-3],"categories":[],"categories_nodes":[],"categories_segments":[],"categories_sizes":[],"default_left":[0,0,0,0,0,0,0,0,0,0,0,0,0,0,0],"id":4,"left_children":[1,3,5,7,9,11,13,-1,-1,-1,-1,-1,-1,-1,-1],"loss_changes":[2.7990857E2,7.812541E1,1.211232E2,2.6948368E1,2.6899872E1,4.0370617E1,2.3883606E1,0E0,0E0,0E0,0E0,0E0,0E0,0E0,0E0],"parents":[2147483647,0,0,1,1,2,2,3,3,4,4,5,5,6,6],"right_children":[2,4,6,8,10,12,14,-1,-1,-1,-1,-1,-1,-1,-1],"split_conditions":[4.58E-1,-2E0,1.4E1,-4.7E0,2.7E1,2.8E0,2.3E1,6.386295E-4,-3.1050805E-3,1.4988879E-3,4.154812E-3,-5.6329583E-5,-2.7460146E-3,-3.8785276E-3,-6.109295E-3],"split_indices":[3,77,80,25,51,25,80,0,0,0,0,0,0,0,0],"split_type":[0,0,0,0,0,0,0,0,0,0,0,0,0,0,0],"sum_hessian":[6.6586963E3,2.4459307E3,4.2127656E3,7.739826E2,1.671948E3,2.2324656E3,1.9802998E3,3.5199942E2,4.219832E2,1.0824775E3,5.8947046E2,1.0904996E3,1.1419661E3,1.1374294E3,8.4287036E2],"tree_param":{"num_deleted":"0","num_feature":"106","num_nodes":"15","size_leaf_vector":"1"}},{"base_weights":[1.4687793E-1,-1.221671E-1,3.0307734E-1,1.403852E-1,-2.4371977E-1,1.4327899E-1,4.8306075E-1,-6.3863036E-4,3.1050807E-3,-1.4988881E-3,-4.1548116E-3,5.6330733E-5,2.7460149E-3,3.8785266E-3,6.109295E-3],"categories":[],"categories_nodes":[],"categories_segments":[],"categories_sizes":[],"default_left":[0,0,0,0,0,0,0,0,0,0,0,0,0,0,0],"id":5,"left_children":[1,3,5,7,9,11,13,-1,-1,-1,-1,-1,-1,-1,-1],"loss_changes":[2.799086E2,7.81254E1,1.2112314E2,2.694838E1,2.6899864E1,4.0370594E1,2.3883636E1,0E0,0E0,0E0,0E0,0E0,0E0,0E0,0E0],"parents":[2147483647,0,0,1,1,2,2,3,3,4,4,5,5,6,6],"right_children":[2,4,6,8,10,12,14,-1,-1,-1,-1,-1,-1,-1,-1],"split_conditions":[4.58E-1,-2E0,1.4E1,-4.7E0,2.7E1,2.8E0,2.3E1,-6.3863036E-4,3.1050807E-3,-1.4988881E-3,-4.1548116E-3,5.6330733E-5,2.7460149E-3,3.8785266E-3,6.109295E-3],"split_indices":[3,77,80,25,51,25,80,0,0,0,0,0,0,0,0],"split_type":[0,0,0,0,0,0,0,0,0,0,0,0,0,0,0],"sum_hessian":[6.6586963E3,2.4459307E3,4.2127656E3,7.739826E2,1.671948E3,2.2324658E3,1.9802998E3,3.519994E2,4.2198322E2,1.0824775E3,5.8947046E2,1.0904996E3,1.1419662E3,1.1374294E3,8.4287036E2],"tree_param":{"num_deleted":"0","num_feature":"106","num_nodes":"15","size_leaf_vector":"1"}},{"base_weights":[-1.4541875E-1,1.2095078E-1,-3.000703E-1,-1.3898839E-1,2.4129464E-1,-1.4185014E-1,-4.7829488E-1,6.322628E-4,-3.0742532E-3,8.969582E-4,3.4541418E-3,-2.8252956E-3,-1.5681556E-4,-3.84007E-3,-6.04942E-3],"categories":[],"categories_nodes":[],"categories_segments":[],"categories_sizes":[],"default_left":[0,0,0,0,0,0,0,0,0,0,0,0,0,0,0],"id":6,"left_children":[1,3,5,7,9,11,13,-1,-1,-1,-1,-1,-1,-1,-1],"loss_changes":[2.7436368E2,7.6576096E1,1.1874686E2,2.641494E1,2.6374557E1,3.9637318E1,2.3424042E1,0E0,0E0,0E0,0E0,0E0,0E0,0E0,0E0],"parents":[2147483647,0,0,1,1,2,2,3,3,4,4,5,5,6,6],"right_children":[2,4,6,8,10,12,14,-1,-1,-1,-1,-1,-1,-1,-1],"split_conditions":[4.58E-1,-2E0,1.4E1,-4.7E0,2.4E1,9E0,2.3E1,6.322628E-4,-3.0742532E-3,8.969582E-4,3.4541418E-3,-2.8252956E-3,-1.5681556E-4,-3.84007E-3,-6.04942E-3],"split_indices":[3,77,80,25,51,51,80,0,0,0,0,0,0,0,0],"split_type":[0,0,0,0,0,0,0,0,0,0,0,0,0,0,0],"sum_hessian":[6.658327E3,2.4458499E3,4.2124775E3,7.739613E2,1.6718885E3,2.2324233E3,1.980054E3,3.519987E2,4.2196265E2,6.814924E2,9.903962E2,1.0549276E3,1.1774957E3,1.1373429E3,8.427111E2],"tree_param":{"num_deleted":"0","num_feature":"106","num_nodes":"15","size_leaf_vector":"1"}},{"base_weights":[1.4541873E-1,-1.2095074E-1,3.0007026E-1,1.3898839E-1,-2.4129458E-1,1.4185008E-1,4.7829482E-1,-6.322628E-4,3.0742532E-3,-8.9695735E-4,-3.4541416E-3,2.8252944E-3,1.5681556E-4,3.840069E-3,6.0494207E-3],"categories":[],"categories_nodes":[],"categories_segments":[],"categories_sizes":[],"default_left":[0,0,0,0,0,0,0,0,0,0,0,0,0,0,0],"id":7,"left_children":[1,3,5,7,9,11,13,-1,-1,-1,-1,-1,-1,-1,-1],"loss_changes":[2.7436356E2,7.657608E1,1.1874686E2,2.641494E1,2.637458E1,3.9637287E1,2.3424042E1,0E0,0E0,0E0,0E0,0E0,0E0,0E0,0E0],"parents":[2147483647,0,0,1,1,2,2,3,3,4,4,5,5,6,6],"right_children":[2,4,6,8,10,12,14,-1,-1,-1,-1,-1,-1,-1,-1],"split_conditions":[4.58E-1,-2E0,1.4E1,-4.7E0,2.4E1,9E0,2.3E1,-6.322628E-4,3.0742532E-3,-8.9695735E-4,-3.4541416E-3,2.8252944E-3,1.5681556E-4,3.840069E-3,6.0494207E-3],"split_indices":[3,77,80,25,51,51,80,0,0,0,0,0,0,0,0],"split_type":[0,0,0,0,0,0,0,0,0,0,0,0,0,0,0],"sum_hessian":[6.658327E3,2.4458499E3,4.2124775E3,7.739613E2,1.6718885E3,2.2324233E3,1.9800541E3,3.519987E2,4.2196265E2,6.8149243E2,9.903961E2,1.0549276E3,1.1774957E3,1.1373429E3,8.427112E2],"tree_param":{"num_deleted":"0","num_feature":"106","num_nodes":"15","size_leaf_vector":"1"}},{"base_weights":[-1.4397739E-1,1.1974773E-1,-2.971008E-1,-1.3760693E-1,2.3889664E-1,-1.404366E-1,-4.7359836E-1,6.259596E-4,-3.0437883E-3,1.465554E-3,4.0795305E-3,-5.3210315E-5,-2.693562E-3,-3.802103E-3,-5.990565E-3],"categories":[],"categories_nodes":[],"categories_segments":[],"categories_sizes":[],"default_left":[0,0,0,0,0,0,0,0,0,0,0,0,0,0,0],"id":8,"left_children":[1,3,5,7,9,11,13,-1,-1,-1,-1,-1,-1,-1,-1],"loss_changes":[2.6893518E2,7.5058395E1,1.1642874E2,2.589265E1,2.605413E1,3.890168E1,2.2978851E1,0E0,0E0,0E0,0E0,0E0,0E0,0E0,0E0],"parents":[2147483647,0,0,1,1,2,2,3,3,4,4,5,5,6,6],"right_children":[2,4,6,8,10,12,14,-1,-1,-1,-1,-1,-1,-1,-1],"split_conditions":[4.58E-1,-2E0,1.4E1,-4.7E0,2.7E1,2.8E0,2.3E1,6.259596E-4,-3.0437883E-3,1.465554E-3,4.0795305E-3,-5.3210315E-5,-2.693562E-3,-3.802103E-3,-5.990565E-3],"split_indices":[3,77,80,25,51,25,80,0,0,0,0,0,0,0,0],"split_type":[0,0,0,0,0,0,0,0,0,0,0,0,0,0,0],"sum_hessian":[6.6578154E3,2.4457346E3,4.2120806E3,7.7393195E2,1.6718026E3,2.2323657E3,1.9797151E3,3.5199768E2,4.2193427E2,1.0824297E3,5.893729E2,1.0904985E3,1.1418671E3,1.1372235E3,8.424916E2],"tree_param":{"num_deleted":"0","num_feature":"106","num_nodes":"15","size_leaf_vector":"1"}},{"base_weights":[1.4397739E-1,-1.1974773E-1,2.971008E-1,1.376069E-1,-2.3889661E-1,1.404366E-1,4.7359836E-1,-6.2595995E-4,3.043788E-3,-1.4655538E-3,-4.0795305E-3,5.3209988E-5,2.6935628E-3,3.8021028E-3,5.990565E-3],"categories":[],"categories_nodes":[],"categories_segments":[],"categories_sizes":[],"default_left":[0,0,0,0,0,0,0,0,0,0,0,0,0,0,0],"id":9,"left_children":[1,3,5,7,9,11,13,-1,-1,-1,-1,-1,-1,-1,-1],"loss_changes":[2.6893518E2,7.5058365E1,1.1642874E2,2.5892654E1,2.6054146E1,3.890169E1,2.2978882E1,0E0,0E0,0E0,0E0,0E0,0E0,0E0,0E0],"parents":[2147483647,0,0,1,1,2,2,3,3,4,4,5,5,6,6],"right_children":[2,4,6,8,10,12,14,-1,-1,-1,-1,-1,-1,-1,-1],"split_conditions":[4.58E-1,-2E0,1.4E1,-4.7E0,2.7E1,2.8E0,2.3E1,-6.2595995E-4,3.043788E-3,-1.4655538E-3,-4.0795305E-3,5.3209988E-5,2.6935628E-3,3.8021028E-3,5.990565E-3],"split_indices":[3,77,80,25,51,25,80,0,0,0,0,0,0,0,0],"split_type":[0,0,0,0,0,0,0,0,0,0,0,0,0,0,0],"sum_hessian":[6.6578154E3,2.4457346E3,4.2120806E3,7.7393195E2,1.6718026E3,2.2323657E3,1.9797151E3,3.5199768E2,4.2193423E2,1.0824297E3,5.893729E2,1.0904984E3,1.1418672E3,1.1372234E3,8.4249164E2],"tree_param":{"num_deleted":"0","num_feature":"106","num_nodes":"15","size_leaf_vector":"1"}},{"base_weights":[-1.4255302E-1,1.18558474E-1,-2.941682E-1,-1.3624062E-1,2.3652597E-1,-1.3903812E-1,-4.6896952E-1,6.1971985E-4,-3.01368E-3,1.4509453E-3,4.039357E-3,-2.7715059E-3,-1.5186115E-4,-3.7646182E-3,-5.932695E-3],"categories":[],"categories_nodes":[],"categories_segments":[],"categories_sizes":[],"default_left":[0,0,0,0,0,0,0,0,0,0,0,0,0,0,0],"id":10,"left_children":[1,3,5,7,9,11,13,-1,-1,-1,-1,-1,-1,-1,-1],"loss_changes":[2.6362158E2,7.35719E1,1.1416705E2,2.5381239E1,2.5544556E1,3.8197372E1,2.2547363E1,0E0,0E0,0E0,0E0,0E0,0E0,0E0,0E0],"parents":[2147483647,0,0,1,1,2,2,3,3,4,4,5,5,6,6],"right_children":[2,4,6,8,10,12,14,-1,-1,-1,-1,-1,-1,-1,-1],"split_conditions":[4.58E-1,-2E0,1.4E1,-4.7E0,2.7E1,9E0,2.3E1,6.1971985E-4,-3.01368E-3,1.4509453E-3,4.039357E-3,-2.7715059E-3,-1.5186115E-4,-3.7646182E-3,-5.932695E-3],"split_indices":[3,77,80,25,51,51,80,0,0,0,0,0,0,0,0],"split_type":[0,0,0,0,0,0,0,0,0,0,0,0,0,0,0],"sum_hessian":[6.6571694E3,2.445592E3,4.2115776E3,7.738947E2,1.6716973E3,2.2322917E3,1.9792856E3,3.519964E2,4.2189832E2,1.0824048E3,5.8929254E2,1.0548014E3,1.1774904E3,1.1370721E3,8.4221356E2],"tree_param":{"num_deleted":"0","num_feature":"106","num_nodes":"15","size_leaf_vector":"1"}},{"base_weights":[1.4255303E-1,-1.1855847E-1,2.941682E-1,1.3624066E-1,-2.3652598E-1,1.3903812E-1,4.6896955E-1,-6.1971985E-4,3.0136812E-3,-1.4509455E-3,-4.039357E-3,2.7715059E-3,1.5186124E-4,3.7646187E-3,5.932695E-3],"categories":[],"categories_nodes":[],"categories_segments":[],"categories_sizes":[],"default_left":[0,0,0,0,0,0,0,0,0,0,0,0,0,0,0],"id":11,"left_children":[1,3,5,7,9,11,13,-1,-1,-1,-1,-1,-1,-1,-1],"loss_changes":[2.636216E2,7.357194E1,1.1416702E2,2.5381252E1,2.5544548E1,3.819737E1,2.2547424E1,0E0,0E0,0E0,0E0,0E0,0E0,0E0,0E0],"parents":[2147483647,0,0,1,1,2,2,3,3,4,4,5,5,6,6],"right_children":[2,4,6,8,10,12,14,-1,-1,-1,-1,-1,-1,-1,-1],"split_conditions":[4.58E-1,-2E0,1.4E1,-4.7E0,2.7E1,9E0,2.3E1,-6.1971985E-4,3.0136812E-3,-1.4509455E-3,-4.039357E-3,2.7715059E-3,1.5186124E-4,3.7646187E-3,5.932695E-3],"split_indices":[3,77,80,25,51,51,80,0,0,0,0,0,0,0,0],"split_type":[0,0,0,0,0,0,0,0,0,0,0,0,0,0,0],"sum_hessian":[6.6571694E3,2.445592E3,4.2115776E3,7.738947E2,1.6716973E3,2.2322917E3,1.9792858E3,3.519964E2,4.218983E2,1.0824048E3,5.8929254E2,1.0548014E3,1.1774904E3,1.1370721E3,8.422136E2],"tree_param":{"num_deleted":"0","num_feature":"106","num_nodes":"15","size_leaf_vector":"1"}},{"base_weights":[-1.4114562E-1,1.1738249E-1,-2.912717E-1,-1.348892E-1,2.3418203E-1,-1.3765453E-1,-4.644066E-1,6.135435E-4,-2.9839226E-3,8.589142E-4,3.3605727E-3,-5.0189625E-5,-2.6422553E-3,-3.7276046E-3,-5.875783E-3],"categories":[],"categories_nodes":[],"categories_segments":[],"categories_sizes":[],"default_left":[0,0,0,0,0,0,0,0,0,0,0,0,0,0,0],"id":12,"left_children":[1,3,5,7,9,11,13,-1,-1,-1,-1,-1,-1,-1,-1],"loss_changes":[2.584196E2,7.211586E1,1.1195981E2,2.4880466E1,2.5238869E1,3.748929E1,2.2129028E1,0E0,0E0,0E0,0E0,0E0,0E0,0E0,0E0],"parents":[2147483647,0,0,1,1,2,2,3,3,4,4,5,5,6,6],"right_children":[2,4,6,8,10,12,14,-1,-1,-1,-1,-1,-1,-1,-1],"split_conditions":[4.58E-1,-2E0,1.4E1,-4.7E0,2.4E1,2.8E0,2.3E1,6.135435E-4,-2.9839226E-3,8.589142E-4,3.3605727E-3,-5.0189625E-5,-2.6422553E-3,-3.7276046E-3,-5.875783E-3],"split_indices":[3,77,80,25,51,25,80,0,0,0,0,0,0,0,0],"split_type":[0,0,0,0,0,0,0,0,0,0,0,0,0,0,0],"sum_hessian":[6.6563916E3,2.445419E3,4.2109727E3,7.738498E2,1.6715691E3,2.2322036E3,1.978769E3,3.5199487E2,4.2185495E2,6.81465E2,9.9010406E2,1.0904966E3,1.141707E3,1.1368901E3,8.418789E2],"tree_param":{"num_deleted":"0","num_feature":"106","num_nodes":"15","size_leaf_vector":"1"}},{"base_weights":[1.411456E-1,-1.1738254E-1,2.912717E-1,1.3488916E-1,-2.3418209E-1,1.3765457E-1,4.6440655E-1,-6.135435E-4,2.9839217E-3,-8.589142E-4,-3.3605737E-3,5.018958E-5,2.6422567E-3,3.7276044E-3,5.875782E-3],"categories":[],"categories_nodes":[],"categories_segments":[],"categories_sizes":[],"default_left":[0,0,0,0,0,0,0,0,0,0,0,0,0,0,0],"id":13,"left_children":[1,3,5,7,9,11,13,-1,-1,-1,-1,-1,-1,-1,-1],"loss_changes":[2.5841968E2,7.211586E1,1.11959656E2,2.4880455E1,2.5238892E1,3.748932E1,2.2129028E1,0E0,0E0,0E0,0E0,0E0,0E0,0E0,0E0],"parents":[2147483647,0,0,1,1,2,2,3,3,4,4,5,5,6,6],"right_children":[2,4,6,8,10,12,14,-1,-1,-1,-1,-1,-1,-1,-1],"split_conditions":[4.58E-1,-2E0,1.4E1,-4.7E0,2.4E1,2.8E0,2.3E1,-6.135435E-4,2.9839217E-3,-8.589142E-4,-3.3605737E-3,5.018958E-5,2.6422567E-3,3.7276044E-3,5.875782E-3],"split_indices":[3,77,80,25,51,25,80,0,0,0,0,0,0,0,0],"split_type":[0,0,0,0,0,0,0,0,0,0,0,0,0,0,0],"sum_hessian":[6.656391E3,2.445419E3,4.210972E3,7.7384985E2,1.671569E3,2.2322034E3,1.9787689E3,3.5199487E2,4.2185498E2,6.81465E2,9.90104E2,1.0904966E3,1.1417069E3,1.13689E3,8.4187885E2],"tree_param":{"num_deleted":"0","num_feature":"106","num_nodes":"15","size_leaf_vector":"1"}},{"base_weights":[-1.3975501E-1,1.1621914E-1,-2.884106E-1,-1.3355245E-1,2.3186378E-1,-1.3628563E-1,-4.5990792E-1,6.535487E-4,-2.9170096E-3,1.41872E-3,3.9668116E-3,-2.7188947E-3,-1.4703916E-4,-3.6910519E-3,-5.8197994E-3],"categories":[],"categories_nodes":[],"categories_segments":[],"categories_sizes":[],"default_left":[0,0,0,0,0,0,0,0,0,0,0,0,0,0,0],"id":14,"left_children":[1,3,5,7,9,11,13,-1,-1,-1,-1,-1,-1,-1,-1],"loss_changes":[2.533259E2,7.0689285E1,1.0980521E2,2.4391796E1,2.4749382E1,3.6813E1,2.1723175E1,0E0,0E0,0E0,0E0,0E0,0E0,0E0,0E0],"parents":[2147483647,0,0,1,1,2,2,3,3,4,4,5,5,6,6],"right_children":[2,4,6,8,10,12,14,-1,-1,-1,-1,-1,-1,-1,-1],"split_conditions":[4.58E-1,-2E0,1.4E1,-4.9E0,2.7E1,9E0,2.3E1,6.535487E-4,-2.9170096E-3,1.41872E-3,3.9668116E-3,-2.7188947E-3,-1.4703916E-4,-3.6910519E-3,-5.8197994E-3],"split_indices":[3,77,80,25,51,51,80,0,0,0,0,0,0,0,0],"split_type":[0,0,0,0,0,0,0,0,0,0,0,0,0,0,0],"sum_hessian":[6.655483E3,2.445216E3,4.210267E3,7.7379767E2,1.6714185E3,2.2320999E3,1.9781671E3,3.429933E2,4.3080438E2,1.0823218E3,5.890967E2,1.0546168E3,1.177483E3,1.1366781E3,8.414891E2],"tree_param":{"num_deleted":"0","num_feature":"106","num_nodes":"15","size_leaf_vector":"1"}},{"base_weights":[1.3975498E-1,-1.1621918E-1,2.8841054E-1,1.3355243E-1,-2.3186381E-1,1.3628559E-1,4.5990786E-1,-6.535487E-4,2.9170092E-3,-1.4187207E-3,-3.966811E-3,2.7188938E-3,1.4703916E-4,3.6910519E-3,5.819798E-3],"categories":[],"categories_nodes":[],"categories_segments":[],"categories_sizes":[],"default_left":[0,0,0,0,0,0,0,0,0,0,0,0,0,0,0],"id":15,"left_children":[1,3,5,7,9,11,13,-1,-1,-1,-1,-1,-1,-1,-1],"loss_changes":[2.5332593E2,7.06893E1,1.09805145E2,2.4391788E1,2.4749367E1,3.6812977E1,2.1723206E1,0E0,0E0,0E0,0E0,0E0,0E0,0E0,0E0],"parents":[2147483647,0,0,1,1,2,2,3,3,4,4,5,5,6,6],"right_children":[2,4,6,8,10,12,14,-1,-1,-1,-1,-1,-1,-1,-1],"split_conditions":[4.58E-1,-2E0,1.4E1,-4.9E0,2.7E1,9E0,2.3E1,-6.535487E-4,2.9170092E-3,-1.4187207E-3,-3.966811E-3,2.7188938E-3,1.4703916E-4,3.6910519E-3,5.819798E-3],"split_indices":[3,77,80,25,51,51,80,0,0,0,0,0,0,0,0],"split_type":[0,0,0,0,0,0,0,0,0,0,0,0,0,0,0],"sum_hessian":[6.655483E3,2.445216E3,4.210267E3,7.737976E2,1.6714185E3,2.2320999E3,1.9781672E3,3.429933E2,4.3080435E2,1.0823218E3,5.890966E2,1.0546168E3,1.177483E3,1.1366781E3,8.4148914E2],"tree_param":{"num_deleted":"0","num_feature":"106","num_nodes":"15","size_leaf_vector":"1"}},{"base_weights":[-1.3838051E-1,-2.6463535E-1,1.5730768E-1,-1.13892995E-1,-4.3608513E-1,-9.397068E-2,2.721976E-1,1.1102234E-4,-2.5883769E-3,-5.8689336E-3,-3.545208E-3,7.6538004E-4,-2.6320256E-3,4.2947745E-3,1.7767356E-3],"categories":[],"categories_nodes":[],"categories_segments":[],"categories_sizes":[],"default_left":[0,0,0,0,0,0,0,0,0,0,0,0,0,0,0],"id":16,"left_children":[1,3,5,7,9,11,13,-1,-1,-1,-1,-1,-1,-1,-1],"loss_changes":[2.4850348E2,1.20499695E2,5.753589E1,4.4996086E1,2.6630981E1,1.8077526E1,2.0251007E1,0E0,0E0,0E0,0E0,0E0,0E0,0E0,0E0],"parents":[2147483647,0,0,1,1,2,2,3,3,4,4,5,5,6,6],"right_children":[2,4,6,8,10,12,14,-1,-1,-1,-1,-1,-1,-1,-1],"split_conditions":[2E1,1.4E1,-2E0,2.8E0,8E0,-4.9E0,-6.4E0,1.1102234E-4,-2.5883769E-3,-5.8689336E-3,-3.545208E-3,7.6538004E-4,-2.6320256E-3,4.2947745E-3,1.7767356E-3],"split_indices":[28,80,77,25,51,25,25,0,0,0,0,0,0,0,0],"split_type":[0,0,0,0,0,0,0,0,0,0,0,0,0,0,0],"sum_hessian":[6.654453E3,4.6633647E3,1.9910885E3,2.482426E3,2.1809387E3,6.2478625E2,1.3663022E3,1.3334387E3,1.1489873E3,7.633495E2,1.4175894E3,3.1149197E2,3.132943E2,5.1156265E2,8.547396E2],"tree_param":{"num_deleted":"0","num_feature":"106","num_nodes":"15","size_leaf_vector":"1"}},{"base_weights":[1.3838048E-1,2.6463532E-1,-1.5730768E-1,1.13892905E-1,4.3608513E-1,9.397069E-2,-2.721976E-1,-1.1102317E-4,2.588376E-3,5.8689336E-3,3.545208E-3,-7.6538004E-4,2.632026E-3,-4.2947745E-3,-1.7767358E-3],"categories":[],"categories_nodes":[],"categories_segments":[],"categories_sizes":[],"default_left":[0,0,0,0,0,0,0,0,0,0,0,0,0,0,0],"id":17,"left_children":[1,3,5,7,9,11,13,-1,-1,-1,-1,-1,-1,-1,-1],"loss_changes":[2.4850342E2,1.20499725E2,5.7535892E1,4.4996086E1,2.6631042E1,1.8077528E1,2.0251E1,0E0,0E0,0E0,0E0,0E0,0E0,0E0,0E0],"parents":[2147483647,0,0,1,1,2,2,3,3,4,4,5,5,6,6],"right_children":[2,4,6,8,10,12,14,-1,-1,-1,-1,-1,-1,-1,-1],"split_conditions":[2E1,1.4E1,-2E0,2.8E0,8E0,-4.9E0,-6.4E0,-1.1102317E-4,2.588376E-3,5.8689336E-3,3.545208E-3,-7.6538004E-4,2.632026E-3,-4.2947745E-3,-1.7767358E-3],"split_indices":[28,80,77,25,51,25,25,0,0,0,0,0,0,0,0],"split_type":[0,0,0,0,0,0,0,0,0,0,0,0,0,0,0],"sum_hessian":[6.6544536E3,4.663365E3,1.9910885E3,2.4824263E3,2.180939E3,6.247863E2,1.3663022E3,1.3334387E3,1.1489874E3,7.633495E2,1.4175894E3,3.1149197E2,3.1329434E2,5.1156265E2,8.547396E2],"tree_param":{"num_deleted":"0","num_feature":"106","num_nodes":"15","size_leaf_vector":"1"}},{"base_weights":[-1.3702033E-1,1.1412724E-1,-2.829013E-1,-1.3084467E-1,2.275554E-1,-1.3368355E-1,-4.5122057E-1,5.9831404E-4,-2.897707E-3,8.288326E-4,3.2698684E-3,-2.6675165E-3,-1.4401498E-4,-3.6117476E-3,-5.723369E-3],"categories":[],"categories_nodes":[],"categories_segments":[],"categories_sizes":[],"default_left":[0,0,0,0,0,0,0,0,0,0,0,0,0,0,0],"id":18,"left_children":[1,3,5,7,9,11,13,-1,-1,-1,-1,-1,-1,-1,-1],"loss_changes":[2.438328E2,6.798886E1,1.0566971E2,2.349261E1,2.4025513E1,3.543742E1,2.1362976E1,0E0,0E0,0E0,0E0,0E0,0E0,0E0,0E0],"parents":[2147483647,0,0,1,1,2,2,3,3,4,4,5,5,6,6],"right_children":[2,4,6,8,10,12,14,-1,-1,-1,-1,-1,-1,-1,-1],"split_conditions":[4.58E-1,-2E0,1.4E1,-4.7E0,2.4E1,9E0,2.3E1,5.9831404E-4,-2.897707E-3,8.288326E-4,3.2698684E-3,-2.6675165E-3,-1.4401498E-4,-3.6117476E-3,-5.723369E-3],"split_indices":[3,77,80,25,51,51,80,0,0,0,0,0,0,0,0],"split_type":[0,0,0,0,0,0,0,0,0,0,0,0,0,0,0],"sum_hessian":[6.653371E3,2.444741E3,4.2086304E3,7.7367456E2,1.6710664E3,2.231852E3,1.9767784E3,3.5198914E2,4.2168546E2,6.814275E2,9.8963885E2,1.0543778E3,1.1774741E3,1.1361053E3,8.4067303E2],"tree_param":{"num_deleted":"0","num_feature":"106","num_nodes":"15","size_leaf_vector":"1"}},{"base_weights":[1.3702035E-1,-1.14127226E-1,2.8290132E-1,1.3084465E-1,-2.2755535E-1,1.3368355E-1,4.5122063E-1,-5.9831375E-4,2.8977066E-3,-8.288321E-4,-3.2698682E-3,2.6675165E-3,1.4401502E-4,3.611748E-3,5.723369E-3],"categories":[],"categories_nodes":[],"categories_segments":[],"categories_sizes":[],"default_left":[0,0,0,0,0,0,0,0,0,0,0,0,0,0,0],"id":19,"left_children":[1,3,5,7,9,11,13,-1,-1,-1,-1,-1,-1,-1,-1],"loss_changes":[2.438328E2,6.7988846E1,1.0566977E2,2.3492592E1,2.4025505E1,3.5437412E1,2.1362976E1,0E0,0E0,0E0,0E0,0E0,0E0,0E0,0E0],"parents":[2147483647,0,0,1,1,2,2,3,3,4,4,5,5,6,6],"right_children":[2,4,6,8,10,12,14,-1,-1,-1,-1,-1,-1,-1,-1],"split_conditions":[4.58E-1,-2E0,1.4E1,-4.7E0,2.4E1,9E0,2.3E1,-5.9831375E-4,2.8977066E-3,-8.288321E-4,-3.2698682E-3,2.6675165E-3,1.4401502E-4,3.611748E-3,5.723369E-3],"split_indices":[3,77,80,25,51,51,80,0,0,0,0,0,0,0,0],"split_type":[0,0,0,0,0,0,0,0,0,0,0,0,0,0,0],"sum_hessian":[6.6533716E3,2.444741E3,4.2086304E3,7.7367456E2,1.6710664E3,2.231852E3,1.9767783E3,3.519891E2,4.216855E2,6.8142755E2,9.896389E2,1.0543778E3,1.1774741E3,1.1361053E3,8.4067303E2],"tree_param":{"num_deleted":"0","num_feature":"106","num_nodes":"15","size_leaf_vector":"1"}},{"base_weights":[-1.3567771E-1,-3.2966527E-1,4.9932037E-2,-1.7857753E-1,-4.8471025E-1,-1.804484E-1,1.7517209E-1,-2.5151288E-3,-2.0905783E-5,-3.8880974E-3,-6.3198335E-3,6.3157623E-4,-3.0980562E-3,5.5681117E-4,3.3077272E-3],"categories":[],"categories_nodes":[],"categories_segments":[],"categories_sizes":[],"default_left":[0,0,0,0,0,0,0,0,0,0,0,0,0,0,0],"id":20,"left_children":[1,3,5,7,9,11,13,-1,-1,-1,-1,-1,-1,-1,-1],"loss_changes":[2.3956827E2,7.612253E1,9.8155624E1,2.1228779E1,2.2422974E1,3.7776814E1,4.095401E1,0E0,0E0,0E0,0E0,0E0,0E0,0E0,0E0],"parents":[2147483647,0,0,1,1,2,2,3,3,4,4,5,5,6,6],"right_children":[2,4,6,8,10,12,14,-1,-1,-1,-1,-1,-1,-1,-1],"split_conditions":[1.5E1,1.3E1,-1.4E0,6E0,2.3E1,-4.7E0,2.4E1,-2.5151288E-3,-2.0905783E-5,-3.8880974E-3,-6.3198335E-3,6.3157623E-4,-3.0980562E-3,5.5681117E-4,3.3077272E-3],"split_indices":[51,80,77,77,80,25,51,0,0,0,0,0,0,0,0],"split_type":[0,0,0,0,0,0,0,0,0,0,0,0,0,0,0],"sum_hessian":[6.652111E3,3.2522688E3,3.399842E3,1.6482445E3,1.6040244E3,1.1971785E3,2.2026633E3,1.1659688E3,4.822757E2,9.7364886E2,6.303755E2,4.1540262E2,7.817759E2,1.246665E3,9.559984E2],"tree_param":{"num_deleted":"0","num_feature":"106","num_nodes":"15","size_leaf_vector":"1"}},{"base_weights":[1.3567773E-1,3.296653E-1,-4.9932025E-2,1.7857759E-1,4.8471028E-1,1.8044838E-1,-1.7517208E-1,2.5151293E-3,2.0906324E-5,3.8880974E-3,6.319834E-3,-6.315756E-4,3.098056E-3,-5.5681093E-4,-3.307727E-3],"categories":[],"categories_nodes":[],"categories_segments":[],"categories_sizes":[],"default_left":[0,0,0,0,0,0,0,0,0,0,0,0,0,0,0],"id":21,"left_children":[1,3,5,7,9,11,13,-1,-1,-1,-1,-1,-1,-1,-1],"loss_changes":[2.395683E2,7.612256E1,9.815561E1,2.1228779E1,2.2422943E1,3.777679E1,4.095401E1,0E0,0E0,0E0,0E0,0E0,0E0,0E0,0E0],"parents":[2147483647,0,0,1,1,2,2,3,3,4,4,5,5,6,6],"right_children":[2,4,6,8,10,12,14,-1,-1,-1,-1,-1,-1,-1,-1],"split_conditions":[1.5E1,1.3E1,-1.4E0,6E0,2.3E1,-4.7E0,2.4E1,2.5151293E-3,2.0906324E-5,3.8880974E-3,6.319834E-3,-6.315756E-4,3.098056E-3,-5.5681093E-4,-3.307727E-3],"split_indices":[51,80,77,77,80,25,51,0,0,0,0,0,0,0,0],"split_type":[0,0,0,0,0,0,0,0,0,0,0,0,0,0,0],"sum_hessian":[6.652111E3,3.2522688E3,3.399842E3,1.6482445E3,1.6040243E3,1.1971785E3,2.2026633E3,1.1659688E3,4.822757E2,9.736488E2,6.303755E2,4.1540262E2,7.817759E2,1.246665E3,9.559984E2],"tree_param":{"num_deleted":"0","num_feature":"106","num_nodes":"15","size_leaf_vector":"1"}},{"base_weights":[-1.3434853E-1,-2.5724354E-1,1.5340316E-1,-1.1061244E-1,-4.2417476E-1,-9.064565E-2,2.650038E-1,1.1366327E-4,-2.5210371E-3,-5.7249544E-3,-3.4399717E-3,7.4550934E-4,-2.546882E-3,4.19145E-3,1.7241364E-3],"categories":[],"categories_nodes":[],"categories_segments":[],"categories_sizes":[],"default_left":[0,0,0,0,0,0,0,0,0,0,0,0,0,0,0],"id":22,"left_children":[1,3,5,7,9,11,13,-1,-1,-1,-1,-1,-1,-1,-1],"loss_changes":[2.3527025E2,1.1405429E2,5.4260075E1,4.2856804E1,2.5721771E1,1.6972683E1,1.9433533E1,0E0,0E0,0E0,0E0,0E0,0E0,0E0,0E0],"parents":[2147483647,0,0,1,1,2,2,3,3,4,4,5,5,6,6],"right_children":[2,4,6,8,10,12,14,-1,-1,-1,-1,-1,-1,-1,-1],"split_conditions":[2E1,1.4E1,-2E0,2.8E0,8E0,-4.9E0,-6.4E0,1.1366327E-4,-2.5210371E-3,-5.7249544E-3,-3.4399717E-3,7.4550934E-4,-2.546882E-3,4.19145E-3,1.7241364E-3],"split_indices":[28,80,77,25,51,25,25,0,0,0,0,0,0,0,0],"split_type":[0,0,0,0,0,0,0,0,0,0,0,0,0,0,0],"sum_hessian":[6.6508447E3,4.6605083E3,1.9903367E3,2.4820005E3,2.1785076E3,6.2461456E2,1.3657222E3,1.3334022E3,1.1485983E3,7.622602E2,1.4162474E3,3.114844E2,3.1313016E2,5.111871E2,8.54535E2],"tree_param":{"num_deleted":"0","num_feature":"106","num_nodes":"15","size_leaf_vector":"1"}},{"base_weights":[1.3434853E-1,2.5724354E-1,-1.5340315E-1,1.1061239E-1,4.2417482E-1,9.0645686E-2,-2.6500383E-1,-1.1366353E-4,2.5210362E-3,5.724956E-3,3.439972E-3,-7.4550934E-4,2.5468825E-3,-4.191451E-3,-1.7241358E-3],"categories":[],"categories_nodes":[],"categories_segments":[],"categories_sizes":[],"default_left":[0,0,0,0,0,0,0,0,0,0,0,0,0,0,0],"id":23,"left_children":[1,3,5,7,9,11,13,-1,-1,-1,-1,-1,-1,-1,-1],"loss_changes":[2.3527026E2,1.1405435E2,5.4260094E1,4.2856777E1,2.5721771E1,1.697269E1,1.9433556E1,0E0,0E0,0E0,0E0,0E0,0E0,0E0,0E0],"parents":[2147483647,0,0,1,1,2,2,3,3,4,4,5,5,6,6],"right_children":[2,4,6,8,10,12,14,-1,-1,-1,-1,-1,-1,-1,-1],"split_conditions":[2E1,1.4E1,-2E0,2.8E0,8E0,-4.9E0,-6.4E0,-1.1366353E-4,2.5210362E-3,5.724956E-3,3.439972E-3,-7.4550934E-4,2.5468825E-3,-4.191451E-3,-1.7241358E-3],"split_indices":[28,80,77,25,51,25,25,0,0,0,0,0,0,0,0],"split_type":[0,0,0,0,0,0,0,0,0,0,0,0,0,0,0],"sum_hessian":[6.6508447E3,4.6605083E3,1.9903367E3,2.4820005E3,2.1785076E3,6.2461456E2,1.3657222E3,1.3334022E3,1.1485983E3,7.6226013E2,1.4162473E3,3.114844E2,3.1313016E2,5.111871E2,8.5453503E2],"tree_param":{"num_deleted":"0","num_feature":"106","num_nodes":"15","size_leaf_vector":"1"}},{"base_weights":[-1.3303456E-1,-3.2358244E-1,4.923043E-2,-1.7522097E-1,-4.759503E-1,-1.7709337E-1,1.7225067E-1,-2.4748163E-3,-3.868321E-6,-3.8092767E-3,-6.2198406E-3,6.193358E-4,-3.040726E-3,5.510324E-4,3.248576E-3],"categories":[],"categories_nodes":[],"categories_segments":[],"categories_sizes":[],"default_left":[0,0,0,0,0,0,0,0,0,0,0,0,0,0,0],"id":24,"left_children":[1,3,5,7,9,11,13,-1,-1,-1,-1,-1,-1,-1,-1],"loss_changes":[2.3098712E2,7.341788E1,9.469373E1,2.0832493E1,2.2013977E1,3.6373177E1,3.9369606E1,0E0,0E0,0E0,0E0,0E0,0E0,0E0,0E0],"parents":[2147483647,0,0,1,1,2,2,3,3,4,4,5,5,6,6],"right_children":[2,4,6,8,10,12,14,-1,-1,-1,-1,-1,-1,-1,-1],"split_conditions":[1.5E1,1.3E1,-1.4E0,6E0,2.3E1,-4.7E0,2.4E1,-2.4748163E-3,-3.868321E-6,-3.8092767E-3,-6.2198406E-3,6.193358E-4,-3.040726E-3,5.510324E-4,3.248576E-3],"split_indices":[51,80,77,77,80,25,51,0,0,0,0,0,0,0,0],"split_type":[0,0,0,0,0,0,0,0,0,0,0,0,0,0,0],"sum_hessian":[6.6494404E3,3.2504749E3,3.3989656E3,1.6479786E3,1.6024962E3,1.1967788E3,2.202187E3,1.165748E3,4.8223062E2,9.729904E2,6.295058E2,4.1537854E2,7.814002E2,1.2466034E3,9.555835E2],"tree_param":{"num_deleted":"0","num_feature":"106","num_nodes":"15","size_leaf_vector":"1"}},{"base_weights":[1.3303454E-1,3.2358244E-1,-4.923047E-2,1.7522095E-1,4.7595033E-1,1.7709333E-1,-1.7225072E-1,2.4748163E-3,3.86754E-6,3.809277E-3,6.219841E-3,-6.1933656E-4,3.0407258E-3,-5.5103254E-4,-3.248577E-3],"categories":[],"categories_nodes":[],"categories_segments":[],"categories_sizes":[],"default_left":[0,0,0,0,0,0,0,0,0,0,0,0,0,0,0],"id":25,"left_children":[1,3,5,7,9,11,13,-1,-1,-1,-1,-1,-1,-1,-1],"loss_changes":[2.3098715E2,7.341788E1,9.469375E1,2.0832508E1,2.2014038E1,3.637318E1,3.936962E1,0E0,0E0,0E0,0E0,0E0,0E0,0E0,0E0],"parents":[2147483647,0,0,1,1,2,2,3,3,4,4,5,5,6,6],"right_children":[2,4,6,8,10,12,14,-1,-1,-1,-1,-1,-1,-1,-1],"split_conditions":[1.5E1,1.3E1,-1.4E0,6E0,2.3E1,-4.7E0,2.4E1,2.4748163E-3,3.86754E-6,3.809277E-3,6.219841E-3,-6.1933656E-4,3.0407258E-3,-5.5103254E-4,-3.248577E-3],"split_indices":[51,80,77,77,80,25,51,0,0,0,0,0,0,0,0],"split_type":[0,0,0,0,0,0,0,0,0,0,0,0,0,0,0],"sum_hessian":[6.6494404E3,3.250475E3,3.3989656E3,1.6479788E3,1.6024963E3,1.1967787E3,2.2021868E3,1.165748E3,4.8223062E2,9.729905E2,6.295058E2,4.1537854E2,7.814002E2,1.2466034E3,9.5558344E2],"tree_param":{"num_deleted":"0","num_feature":"106","num_nodes":"15","size_leaf_vector":"1"}},{"base_weights":[-1.3173549E-1,-2.524488E-1,1.5085661E-1,-1.08452134E-1,-4.165051E-1,-8.8540405E-2,2.603438E-1,1.1666257E-4,-2.478197E-3,-5.626894E-3,-3.3752716E-3,7.319195E-4,-2.492067E-3,4.121733E-3,1.6918393E-3],"categories":[],"categories_nodes":[],"categories_segments":[],"categories_sizes":[],"default_left":[0,0,0,0,0,0,0,0,0,0,0,0,0,0,0],"id":26,"left_children":[1,3,5,7,9,11,13,-1,-1,-1,-1,-1,-1,-1,-1],"loss_changes":[2.2685172E2,1.1002261E2,5.2201786E1,4.15643E1,2.4950806E1,1.6271246E1,1.8840172E1,0E0,0E0,0E0,0E0,0E0,0E0,0E0,0E0],"parents":[2147483647,0,0,1,1,2,2,3,3,4,4,5,5,6,6],"right_children":[2,4,6,8,10,12,14,-1,-1,-1,-1,-1,-1,-1,-1],"split_conditions":[2E1,1.4E1,-2E0,2.8E0,8E0,-4.9E0,-6.4E0,1.1666257E-4,-2.478197E-3,-5.626894E-3,-3.3752716E-3,7.319195E-4,-2.492067E-3,4.121733E-3,1.6918393E-3],"split_indices":[28,80,77,25,51,25,25,0,0,0,0,0,0,0,0],"split_type":[0,0,0,0,0,0,0,0,0,0,0,0,0,0,0],"sum_hessian":[6.647964E3,4.6582373E3,1.9897266E3,2.48167E3,2.1765674E3,6.244779E2,1.3652487E3,1.3333748E3,1.1482953E3,7.613049E2,1.4152626E3,3.114778E2,3.130001E2,5.1086536E2,8.543833E2],"tree_param":{"num_deleted":"0","num_feature":"106","num_nodes":"15","size_leaf_vector":"1"}},{"base_weights":[1.3173549E-1,2.524488E-1,-1.5085666E-1,1.0845215E-1,4.1650513E-1,8.854038E-2,-2.6034382E-1,-1.1666257E-4,2.4781974E-3,5.6268945E-3,3.3752716E-3,-7.319198E-4,2.492067E-3,-4.121733E-3,-1.69184E-3],"categories":[],"categories_nodes":[],"categories_segments":[],"categories_sizes":[],"default_left":[0,0,0,0,0,0,0,0,0,0,0,0,0,0,0],"id":27,"left_children":[1,3,5,7,9,11,13,-1,-1,-1,-1,-1,-1,-1,-1],"loss_changes":[2.2685178E2,1.1002258E2,5.2201797E1,4.1564312E1,2.4950836E1,1.6271246E1,1.884018E1,0E0,0E0,0E0,0E0,0E0,0E0,0E0,0E0],"parents":[2147483647,0,0,1,1,2,2,3,3,4,4,5,5,6,6],"right_children":[2,4,6,8,10,12,14,-1,-1,-1,-1,-1,-1,-1,-1],"split_conditions":[2E1,1.4E1,-2E0,2.8E0,8E0,-4.9E0,-6.4E0,-1.1666257E-4,2.4781974E-3,5.6268945E-3,3.3752716E-3,-7.319198E-4,2.492067E-3,-4.121733E-3,-1.69184E-3],"split_indices":[28,80,77,25,51,25,25,0,0,0,0,0,0,0,0],"split_type":[0,0,0,0,0,0,0,0,0,0,0,0,0,0,0],"sum_hessian":[6.647964E3,4.6582373E3,1.9897267E3,2.48167E3,2.1765674E3,6.244779E2,1.3652488E3,1.3333748E3,1.1482953E3,7.613049E2,1.4152626E3,3.1147784E2,3.130001E2,5.108654E2,8.543833E2],"tree_param":{"num_deleted":"0","num_feature":"106","num_nodes":"15","size_leaf_vector":"1"}},{"base_weights":[-1.3045104E-1,-3.1763938E-1,4.853832E-2,-1.7193063E-1,-4.6742097E-1,-1.9165954E-1,1.6048723E-1,-2.4352625E-3,1.2699968E-5,-3.7324047E-3,-6.1228145E-3,4.231625E-4,-3.162163E-3,4.66706E-4,3.07171E-3],"categories":[],"categories_nodes":[],"categories_segments":[],"categories_sizes":[],"default_left":[0,0,0,0,0,0,0,0,0,0,0,0,0,0,0],"id":28,"left_children":[1,3,5,7,9,11,13,-1,-1,-1,-1,-1,-1,-1,-1],"loss_changes":[2.2273337E2,7.083594E1,9.142861E1,2.0444511E1,2.162384E1,3.15173E1,3.8700916E1,0E0,0E0,0E0,0E0,0E0,0E0,0E0,0E0],"parents":[2147483647,0,0,1,1,2,2,3,3,4,4,5,5,6,6],"right_children":[2,4,6,8,10,12,14,-1,-1,-1,-1,-1,-1,-1,-1],"split_conditions":[1.5E1,1.3E1,-1.9E0,6E0,2.3E1,-4.7E0,2.4E1,-2.4352625E-3,1.2699968E-5,-3.7324047E-3,-6.1228145E-3,4.231625E-4,-3.162163E-3,4.66706E-4,3.07171E-3],"split_indices":[51,80,77,77,80,25,51,0,0,0,0,0,0,0,0],"split_type":[0,0,0,0,0,0,0,0,0,0,0,0,0,0,0],"sum_hessian":[6.64636E3,3.2483928E3,3.397967E3,1.6476719E3,1.6007208E3,1.0800013E3,2.3179656E3,1.1654895E3,4.8218246E2,9.7221515E2,6.285056E2,3.754296E2,7.045718E2,1.3059531E3,1.0120125E3],"tree_param":{"num_deleted":"0","num_feature":"106","num_nodes":"15","size_leaf_vector":"1"}},{"base_weights":[1.3045105E-1,3.176394E-1,-4.853832E-2,1.7193069E-1,4.67421E-1,1.9165954E-1,-1.6048723E-1,2.4352637E-3,-1.2699972E-5,3.7324047E-3,6.1228145E-3,-4.231625E-4,3.162163E-3,-4.667059E-4,-3.07171E-3],"categories":[],"categories_nodes":[],"categories_segments":[],"categories_sizes":[],"default_left":[0,0,0,0,0,0,0,0,0,0,0,0,0,0,0],"id":29,"left_children":[1,3,5,7,9,11,13,-1,-1,-1,-1,-1,-1,-1,-1],"loss_changes":[2.2273338E2,7.083594E1,9.1428604E1,2.044453E1,2.162384E1,3.1517292E1,3.8700916E1,0E0,0E0,0E0,0E0,0E0,0E0,0E0,0E0],"parents":[2147483647,0,0,1,1,2,2,3,3,4,4,5,5,6,6],"right_children":[2,4,6,8,10,12,14,-1,-1,-1,-1,-1,-1,-1,-1],"split_conditions":[1.5E1,1.3E1,-1.9E0,6E0,2.3E1,-4.7E0,2.4E1,2.4352637E-3,-1.2699972E-5,3.7324047E-3,6.1228145E-3,-4.231625E-4,3.162163E-3,-4.667059E-4,-3.07171E-3],"split_indices":[51,80,77,77,80,25,51,0,0,0,0,0,0,0,0],"split_type":[0,0,0,0,0,0,0,0,0,0,0,0,0,0,0],"sum_hessian":[6.64636E3,3.2483928E3,3.397967E3,1.647672E3,1.6007208E3,1.0800013E3,2.3179656E3,1.1654895E3,4.8218246E2,9.7221515E2,6.285056E2,3.754296E2,7.045718E2,1.3059531E3,1.0120126E3],"tree_param":{"num_deleted":"0","num_feature":"106","num_nodes":"15","size_leaf_vector":"1"}},{"base_weights":[-1.2918127E-1,1.0888424E-1,-2.6756698E-1,-1.2244126E-1,2.1600722E-1,-4.8777607E-1,-1.6327408E-1,6.1172777E-4,-2.6865145E-3,1.318887E-3,3.7032901E-3,-3.914617E-3,-5.8906768E-3,-3.205984E-3,-5.485094E-4],"categories":[],"categories_nodes":[],"categories_segments":[],"categories_sizes":[],"default_left":[0,0,0,0,0,0,0,0,0,0,0,0,0,0,0],"id":30,"left_children":[1,3,5,7,9,11,13,-1,-1,-1,-1,-1,-1,-1,-1],"loss_changes":[2.1897025E2,6.0582092E1,9.644702E1,2.0798096E1,2.1637802E1,1.294278E1,4.8659187E1,0E0,0E0,0E0,0E0,0E0,0E0,0E0,0E0],"parents":[2147483647,0,0,1,1,2,2,3,3,4,4,5,5,6,6],"right_children":[2,4,6,8,10,12,14,-1,-1,-1,-1,-1,-1,-1,-1],"split_conditions":[4.58E-1,-2E0,-1.4E0,-4.9E0,2.7E1,2.3E1,8E0,6.1172777E-4,-2.6865145E-3,1.318887E-3,3.7032901E-3,-3.914617E-3,-5.8906768E-3,-3.205984E-3,-5.485094E-4],"split_indices":[3,77,77,25,51,1,51,0,0,0,0,0,0,0,0],"split_type":[0,0,0,0,0,0,0,0,0,0,0,0,0,0,0],"sum_hessian":[6.644682E3,2.4427031E3,4.201979E3,7.730995E2,1.6696038E3,1.349308E3,2.8526711E3,3.4297073E2,4.3012872E2,1.0817904E3,5.8781335E2,6.941406E2,6.5516736E2,1.1630717E3,1.6895994E3],"tree_param":{"num_deleted":"0","num_feature":"106","num_nodes":"15","size_leaf_vector":"1"}},{"base_weights":[1.2918127E-1,-1.0888425E-1,2.6756698E-1,1.2244123E-1,-2.1600723E-1,4.8777607E-1,1.6327406E-1,-6.1172753E-4,2.6865136E-3,-1.3188873E-3,-3.7032894E-3,3.914617E-3,5.8906768E-3,3.205984E-3,5.485094E-4],"categories":[],"categories_nodes":[],"categories_segments":[],"categories_sizes":[],"default_left":[0,0,0,0,0,0,0,0,0,0,0,0,0,0,0],"id":31,"left_children":[1,3,5,7,9,11,13,-1,-1,-1,-1,-1,-1,-1,-1],"loss_changes":[2.1897026E2,6.0582077E1,9.644702E1,2.0798084E1,2.1637787E1,1.294281E1,4.865918E1,0E0,0E0,0E0,0E0,0E0,0E0,0E0,0E0],"parents":[2147483647,0,0,1,1,2,2,3,3,4,4,5,5,6,6],"right_children":[2,4,6,8,10,12,14,-1,-1,-1,-1,-1,-1,-1,-1],"split_conditions":[4.58E-1,-2E0,-1.4E0,-4.9E0,2.7E1,2.3E1,8E0,-6.1172753E-4,2.6865136E-3,-1.3188873E-3,-3.7032894E-3,3.914617E-3,5.8906768E-3,3.205984E-3,5.485094E-4],"split_indices":[3,77,77,25,51,1,51,0,0,0,0,0,0,0,0],"split_type":[0,0,0,0,0,0,0,0,0,0,0,0,0,0,0],"sum_hessian":[6.644682E3,2.4427031E3,4.201979E3,7.730995E2,1.6696038E3,1.349308E3,2.8526711E3,3.429707E2,4.3012875E2,1.0817904E3,5.8781335E2,6.9414056E2,6.5516736E2,1.1630717E3,1.6895995E3],"tree_param":{"num_deleted":"0","num_feature":"106","num_nodes":"15","size_leaf_vector":"1"}},{"base_weights":[-1.2792538E-1,-2.4547856E-1,1.4718257E-1,-1.04939274E-1,-4.0579936E-1,2.840598E-1,-3.468456E-2,1.2250633E-4,-2.409732E-3,-5.4914313E-3,-3.2842937E-3,4.1967323E-3,1.84467E-3,1.1693562E-3,-1.9050246E-3],"categories":[],"categories_nodes":[],"categories_segments":[],"categories_sizes":[],"default_left":[0,0,0,0,0,0,0,0,0,0,0,0,0,0,0],"id":32,"left_children":[1,3,5,7,9,11,13,-1,-1,-1,-1,-1,-1,-1,-1],"loss_changes":[2.1489929E2,1.04846985E2,4.9539227E1,3.9570885E1,2.3933044E1,1.525679E1,2.0228874E1,0E0,0E0,0E0,0E0,0E0,0E0,0E0,0E0],"parents":[2147483647,0,0,1,1,2,2,3,3,4,4,5,5,6,6],"right_children":[2,4,6,8,10,12,14,-1,-1,-1,-1,-1,-1,-1,-1],"split_conditions":[2E1,1.4E1,1.8E1,2.8E0,8E0,-5.9E0,-4.9E0,1.2250633E-4,-2.409732E-3,-5.4914313E-3,-3.2842937E-3,4.1967323E-3,1.84467E-3,1.1693562E-3,-1.9050246E-3],"split_indices":[28,80,103,25,51,25,25,0,0,0,0,0,0,0,0],"split_type":[0,0,0,0,0,0,0,0,0,0,0,0,0,0,0],"sum_hessian":[6.64292E3,4.654267E3,1.9886531E3,2.481024E3,2.1732432E3,1.1343524E3,8.543006E2,1.3333153E3,1.1477086E3,7.596807E2,1.4135625E3,4.7895523E2,6.553972E2,4.3310904E2,4.2119156E2],"tree_param":{"num_deleted":"0","num_feature":"106","num_nodes":"15","size_leaf_vector":"1"}},{"base_weights":[1.2792538E-1,2.4547856E-1,-1.4718257E-1,1.0493926E-1,4.0579936E-1,-2.840598E-1,3.4684587E-2,-1.2250629E-4,2.4097315E-3,5.4914313E-3,3.2842937E-3,-4.196732E-3,-1.8446702E-3,-1.1693554E-3,1.9050244E-3],"categories":[],"categories_nodes":[],"categories_segments":[],"categories_sizes":[],"default_left":[0,0,0,0,0,0,0,0,0,0,0,0,0,0,0],"id":33,"left_children":[1,3,5,7,9,11,13,-1,-1,-1,-1,-1,-1,-1,-1],"loss_changes":[2.1489923E2,1.04847015E2,4.953923E1,3.957086E1,2.3933044E1,1.5256783E1,2.022886E1,0E0,0E0,0E0,0E0,0E0,0E0,0E0,0E0],"parents":[2147483647,0,0,1,1,2,2,3,3,4,4,5,5,6,6],"right_children":[2,4,6,8,10,12,14,-1,-1,-1,-1,-1,-1,-1,-1],"split_conditions":[2E1,1.4E1,1.8E1,2.8E0,8E0,-5.9E0,-4.9E0,-1.2250629E-4,2.4097315E-3,5.4914313E-3,3.2842937E-3,-4.196732E-3,-1.8446702E-3,-1.1693554E-3,1.9050244E-3],"split_indices":[28,80,103,25,51,25,25,0,0,0,0,0,0,0,0],"split_type":[0,0,0,0,0,0,0,0,0,0,0,0,0,0,0],"sum_hessian":[6.64292E3,4.654267E3,1.9886531E3,2.481024E3,2.1732432E3,1.1343524E3,8.543006E2,1.3333152E3,1.1477086E3,7.596807E2,1.4135625E3,4.789552E2,6.553972E2,4.3310904E2,4.2119156E2],"tree_param":{"num_deleted":"0","num_feature":"106","num_nodes":"15","size_leaf_vector":"1"}},{"base_weights":[-1.2668261E-1,-3.0914083E-1,4.768326E-2,-1.6679405E-1,-4.556845E-1,-1.6899775E-1,1.6541345E-1,-2.3771238E-3,4.7300415E-5,-3.6290938E-3,-5.9858696E-3,5.870208E-4,-2.901211E-3,5.378296E-4,3.110081E-3],"categories":[],"categories_nodes":[],"categories_segments":[],"categories_sizes":[],"default_left":[0,0,0,0,0,0,0,0,0,0,0,0,0,0,0],"id":34,"left_children":[1,3,5,7,9,11,13,-1,-1,-1,-1,-1,-1,-1,-1],"loss_changes":[2.1132886E2,6.763257E1,8.669067E1,2.0048725E1,2.0978912E1,3.301603E1,3.576749E1,0E0,0E0,0E0,0E0,0E0,0E0,0E0,0E0],"parents":[2147483647,0,0,1,1,2,2,3,3,4,4,5,5,6,6],"right_children":[2,4,6,8,10,12,14,-1,-1,-1,-1,-1,-1,-1,-1],"split_conditions":[1.5E1,1.3E1,-1.4E0,6E0,2.3E1,-4.7E0,2.4E1,-2.3771238E-3,4.7300415E-5,-3.6290938E-3,-5.9858696E-3,5.870208E-4,-2.901211E-3,5.378296E-4,3.110081E-3],"split_indices":[51,80,77,77,80,25,51,0,0,0,0,0,0,0,0],"split_type":[0,0,0,0,0,0,0,0,0,0,0,0,0,0,0],"sum_hessian":[6.641072E3,3.2448523E3,3.3962192E3,1.6470809E3,1.5977715E3,1.195493E3,2.2007263E3,1.16501E3,4.820709E2,9.709505E2,6.26821E2,4.1529507E2,7.8019794E2,1.2464308E3,9.542954E2],"tree_param":{"num_deleted":"0","num_feature":"106","num_nodes":"15","size_leaf_vector":"1"}},{"base_weights":[1.2668262E-1,3.0914083E-1,-4.7683246E-2,1.6679408E-1,4.5568448E-1,1.689978E-1,-1.6541345E-1,2.3771243E-3,-4.73007E-5,3.6290933E-3,5.9858696E-3,-5.870202E-4,2.9012116E-3,-5.3783006E-4,-3.1100803E-3],"categories":[],"categories_nodes":[],"categories_segments":[],"categories_sizes":[],"default_left":[0,0,0,0,0,0,0,0,0,0,0,0,0,0,0],"id":35,"left_children":[1,3,5,7,9,11,13,-1,-1,-1,-1,-1,-1,-1,-1],"loss_changes":[2.1132886E2,6.763248E1,8.669069E1,2.0048733E1,2.0979004E1,3.301603E1,3.5767467E1,0E0,0E0,0E0,0E0,0E0,0E0,0E0,0E0],"parents":[2147483647,0,0,1,1,2,2,3,3,4,4,5,5,6,6],"right_children":[2,4,6,8,10,12,14,-1,-1,-1,-1,-1,-1,-1,-1],"split_conditions":[1.5E1,1.3E1,-1.4E0,6E0,2.3E1,-4.7E0,2.4E1,2.3771243E-3,-4.73007E-5,3.6290933E-3,5.9858696E-3,-5.870202E-4,2.9012116E-3,-5.3783006E-4,-3.1100803E-3],"split_indices":[51,80,77,77,80,25,51,0,0,0,0,0,0,0,0],"split_type":[0,0,0,0,0,0,0,0,0,0,0,0,0,0,0],"sum_hessian":[6.641072E3,3.2448523E3,3.3962192E3,1.6470809E3,1.5977715E3,1.195493E3,2.2007263E3,1.16501E3,4.8207086E2,9.7095056E2,6.268209E2,4.152951E2,7.8019794E2,1.2464308E3,9.542954E2],"tree_param":{"num_deleted":"0","num_feature":"106","num_nodes":"15","size_leaf_vector":"1"}},{"base_weights":[-1.2545452E-1,1.0620184E-1,-2.6018012E-1,-1.1899346E-1,2.1049711E-1,-4.7561124E-1,-1.583163E-1,5.502963E-4,-2.643324E-3,1.2863036E-3,3.6082813E-3,-3.8050115E-3,-5.757157E-3,-3.123203E-3,-5.2253425E-4],"categories":[],"categories_nodes":[],"categories_segments":[],"categories_sizes":[],"default_left":[0,0,0,0,0,0,0,0,0,0,0,0,0,0,0],"id":36,"left_children":[1,3,5,7,9,11,13,-1,-1,-1,-1,-1,-1,-1,-1],"loss_changes":[2.0726636E2,5.73895E1,9.2064026E1,1.9584423E1,2.0502335E1,1.2609955E1,4.6572952E1,0E0,0E0,0E0,0E0,0E0,0E0,0E0,0E0],"parents":[2147483647,0,0,1,1,2,2,3,3,4,4,5,5,6,6],"right_children":[2,4,6,8,10,12,14,-1,-1,-1,-1,-1,-1,-1,-1],"split_conditions":[4.58E-1,-2E0,-1.4E0,-4.7E0,2.7E1,2.3E1,8E0,5.502963E-4,-2.643324E-3,1.2863036E-3,3.6082813E-3,-3.8050115E-3,-5.757157E-3,-3.123203E-3,-5.2253425E-4],"split_indices":[3,77,77,25,51,1,51,0,0,0,0,0,0,0,0],"split_type":[0,0,0,0,0,0,0,0,0,0,0,0,0,0,0],"sum_hessian":[6.639131E3,2.441412E3,4.1977188E3,7.727475E2,1.6686646E3,1.3464503E3,2.8512683E3,3.5195358E2,4.2079395E2,1.0815393E3,5.871252E2,6.929112E2,6.535391E2,1.1620372E3,1.6892311E3],"tree_param":{"num_deleted":"0","num_feature":"106","num_nodes":"15","size_leaf_vector":"1"}},{"base_weights":[1.2545453E-1,-1.0620184E-1,2.6018012E-1,1.1899346E-1,-2.1049711E-1,4.7561124E-1,1.5831631E-1,-5.502955E-4,2.6433235E-3,-1.2863039E-3,-3.6082815E-3,3.805011E-3,5.7571577E-3,3.123203E-3,5.225346E-4],"categories":[],"categories_nodes":[],"categories_segments":[],"categories_sizes":[],"default_left":[0,0,0,0,0,0,0,0,0,0,0,0,0,0,0],"id":37,"left_children":[1,3,5,7,9,11,13,-1,-1,-1,-1,-1,-1,-1,-1],"loss_changes":[2.0726639E2,5.7389503E1,9.2064026E1,1.958441E1,2.0502335E1,1.2609985E1,4.6572937E1,0E0,0E0,0E0,0E0,0E0,0E0,0E0,0E0],"parents":[2147483647,0,0,1,1,2,2,3,3,4,4,5,5,6,6],"right_children":[2,4,6,8,10,12,14,-1,-1,-1,-1,-1,-1,-1,-1],"split_conditions":[4.58E-1,-2E0,-1.4E0,-4.7E0,2.7E1,2.3E1,8E0,-5.502955E-4,2.6433235E-3,-1.2863039E-3,-3.6082815E-3,3.805011E-3,5.7571577E-3,3.123203E-3,5.225346E-4],"split_indices":[3,77,77,25,51,1,51,0,0,0,0,0,0,0,0],"split_type":[0,0,0,0,0,0,0,0,0,0,0,0,0,0,0],"sum_hessian":[6.639131E3,2.441412E3,4.1977188E3,7.7274756E2,1.6686646E3,1.3464503E3,2.8512683E3,3.519536E2,4.2079395E2,1.0815393E3,5.871252E2,6.929112E2,6.535391E2,1.1620372E3,1.6892311E3],"tree_param":{"num_deleted":"0","num_feature":"106","num_nodes":"15","size_leaf_vector":"1"}},{"base_weights":[-1.2423981E-1,-3.035566E-1,4.704844E-2,-1.6327702E-1,-4.4813412E-1,-1.8254776E-1,1.5399668E-1,-2.3348816E-3,6.4992004E-5,-3.5669766E-3,-5.891515E-3,6.0894636E-5,-3.2265326E-3,4.554023E-4,2.9395397E-3],"categories":[],"categories_nodes":[],"categories_segments":[],"categories_sizes":[],"default_left":[0,0,0,0,0,0,0,0,0,0,0,0,0,0,0],"id":38,"left_children":[1,3,5,7,9,11,13,-1,-1,-1,-1,-1,-1,-1,-1],"loss_changes":[2.0390286E2,6.570276E1,8.341471E1,1.9641602E1,2.0376007E1,2.8535522E1,3.516152E1,0E0,0E0,0E0,0E0,0E0,0E0,0E0,0E0],"parents":[2147483647,0,0,1,1,2,2,3,3,4,4,5,5,6,6],"right_children":[2,4,6,8,10,12,14,-1,-1,-1,-1,-1,-1,-1,-1],"split_conditions":[1.5E1,1.3E1,-1.9E0,6E0,2.3E1,-3.7E0,2.4E1,-2.3348816E-3,6.4992004E-5,-3.5669766E-3,-5.891515E-3,6.0894636E-5,-3.2265326E-3,4.554023E-4,2.9395397E-3],"split_indices":[51,80,77,77,80,25,51,0,0,0,0,0,0,0,0],"split_type":[0,0,0,0,0,0,0,0,0,0,0,0,0,0,0],"sum_hessian":[6.63711E3,3.2421858E3,3.394924E3,1.6466328E3,1.5955529E3,1.0786259E3,2.316298E3,1.1646254E3,4.820075E2,9.7007825E2,6.254746E2,4.601028E2,6.185231E2,1.3057584E3,1.0105397E3],"tree_param":{"num_deleted":"0","num_feature":"106","num_nodes":"15","size_leaf_vector":"1"}},{"base_weights":[1.2423982E-1,3.035566E-1,-4.7048423E-2,1.63277E-1,4.4813415E-1,1.8254775E-1,-1.5399666E-1,2.334881E-3,-6.499119E-5,3.566977E-3,5.8915154E-3,-6.0894563E-5,3.2265326E-3,-4.5540213E-4,-2.9395397E-3],"categories":[],"categories_nodes":[],"categories_segments":[],"categories_sizes":[],"default_left":[0,0,0,0,0,0,0,0,0,0,0,0,0,0,0],"id":39,"left_children":[1,3,5,7,9,11,13,-1,-1,-1,-1,-1,-1,-1,-1],"loss_changes":[2.0390286E2,6.570279E1,8.34147E1,1.964159E1,2.0375977E1,2.8535515E1,3.516152E1,0E0,0E0,0E0,0E0,0E0,0E0,0E0,0E0],"parents":[2147483647,0,0,1,1,2,2,3,3,4,4,5,5,6,6],"right_children":[2,4,6,8,10,12,14,-1,-1,-1,-1,-1,-1,-1,-1],"split_conditions":[1.5E1,1.3E1,-1.9E0,6E0,2.3E1,-3.7E0,2.4E1,2.334881E-3,-6.499119E-5,3.566977E-3,5.8915154E-3,-6.0894563E-5,3.2265326E-3,-4.5540213E-4,-2.9395397E-3],"split_indices":[51,80,77,77,80,25,51,0,0,0,0,0,0,0,0],"split_type":[0,0,0,0,0,0,0,0,0,0,0,0,0,0,0],"sum_hessian":[6.63711E3,3.2421858E3,3.394924E3,1.6466329E3,1.5955529E3,1.078626E3,2.316298E3,1.1646254E3,4.820075E2,9.7007825E2,6.254746E2,4.601028E2,6.1852313E2,1.3057584E3,1.0105397E3],"tree_param":{"num_deleted":"0","num_feature":"106","num_nodes":"15","size_leaf_vector":"1"}},{"base_weights":[-1.2303855E-1,-2.3661512E-1,1.4262293E-1,-1.0055948E-1,-3.9213553E-1,-1.984312E-2,2.8676674E-1,1.317491E-4,-2.3267244E-3,-5.3208917E-3,-3.1671005E-3,1.1432951E-3,-1.7004187E-3,4.2226557E-3,1.882037E-3],"categories":[],"categories_nodes":[],"categories_segments":[],"categories_sizes":[],"default_left":[0,0,0,0,0,0,0,0,0,0,0,0,0,0,0],"id":40,"left_children":[1,3,5,7,9,11,13,-1,-1,-1,-1,-1,-1,-1,-1],"loss_changes":[2.0026158E2,9.833063E1,4.656204E1,3.728232E1,2.2727325E1,1.8873058E1,1.3989838E1,0E0,0E0,0E0,0E0,0E0,0E0,0E0,0E0],"parents":[2147483647,0,0,1,1,2,2,3,3,4,4,5,5,6,6],"right_children":[2,4,6,8,10,12,14,-1,-1,-1,-1,-1,-1,-1,-1],"split_conditions":[2E1,1.4E1,-2E-1,2.8E0,8E0,-4.7E0,-5.9E0,1.317491E-4,-2.3267244E-3,-5.3208917E-3,-3.1671005E-3,1.1432951E-3,-1.7004187E-3,4.2226557E-3,1.882037E-3],"split_indices":[28,80,77,25,51,25,25,0,0,0,0,0,0,0,0],"split_type":[0,0,0,0,0,0,0,0,0,0,0,0,0,0,0],"sum_hessian":[6.6350107E3,4.647993E3,1.9870176E3,2.4800183E3,2.1679749E3,9.3454456E2,1.052473E3,1.333191E3,1.1468273E3,7.571016E2,1.4108734E3,4.9373215E2,4.408124E2,4.4181158E2,6.106615E2],"tree_param":{"num_deleted":"0","num_feature":"106","num_nodes":"15","size_leaf_vector":"1"}},{"base_weights":[1.2303854E-1,2.366151E-1,-1.4262295E-1,1.0055948E-1,3.9213553E-1,1.9843118E-2,-2.8676677E-1,-1.3174949E-4,2.3267246E-3,5.3208917E-3,3.1671003E-3,-1.1432945E-3,1.7004181E-3,-4.2226557E-3,-1.8820374E-3],"categories":[],"categories_nodes":[],"categories_segments":[],"categories_sizes":[],"default_left":[0,0,0,0,0,0,0,0,0,0,0,0,0,0,0],"id":41,"left_children":[1,3,5,7,9,11,13,-1,-1,-1,-1,-1,-1,-1,-1],"loss_changes":[2.0026157E2,9.833063E1,4.6562046E1,3.7282326E1,2.2727295E1,1.8873047E1,1.3989838E1,0E0,0E0,0E0,0E0,0E0,0E0,0E0,0E0],"parents":[2147483647,0,0,1,1,2,2,3,3,4,4,5,5,6,6],"right_children":[2,4,6,8,10,12,14,-1,-1,-1,-1,-1,-1,-1,-1],"split_conditions":[2E1,1.4E1,-2E-1,2.8E0,8E0,-4.7E0,-5.9E0,-1.3174949E-4,2.3267246E-3,5.3208917E-3,3.1671003E-3,-1.1432945E-3,1.7004181E-3,-4.2226557E-3,-1.8820374E-3],"split_indices":[28,80,77,25,51,25,25,0,0,0,0,0,0,0,0],"split_type":[0,0,0,0,0,0,0,0,0,0,0,0,0,0,0],"sum_hessian":[6.6350107E3,4.647993E3,1.9870176E3,2.4800183E3,2.1679749E3,9.3454456E2,1.052473E3,1.333191E3,1.1468274E3,7.571016E2,1.4108734E3,4.9373218E2,4.4081238E2,4.4181158E2,6.1066144E2],"tree_param":{"num_deleted":"0","num_feature":"106","num_nodes":"15","size_leaf_vector":"1"}},{"base_weights":[-1.2184897E-1,-2.9805523E-1,4.638046E-2,-2.1086785E-1,-5.230827E-1,-1.6276067E-1,1.5996991E-1,-2.6755515E-3,6.190416E-5,-5.61528E-3,-2.6003656E-3,5.6395173E-4,-2.7949282E-3,5.2523887E-4,3.0028033E-3],"categories":[],"categories_nodes":[],"categories_segments":[],"categories_sizes":[],"default_left":[0,0,0,0,0,0,0,0,0,0,0,0,0,0,0],"id":42,"left_children":[1,3,5,7,9,11,13,-1,-1,-1,-1,-1,-1,-1,-1],"loss_changes":[1.9666167E2,6.3461853E1,8.066914E1,2.875798E1,8.9978485E0,3.0593924E1,3.3156017E1,0E0,0E0,0E0,0E0,0E0,0E0,0E0,0E0],"parents":[2147483647,0,0,1,1,2,2,3,3,4,4,5,5,6,6],"right_children":[2,4,6,8,10,12,14,-1,-1,-1,-1,-1,-1,-1,-1],"split_conditions":[1.5E1,2E1,-1.4E0,6E0,-1.4E0,-4.7E0,2.4E1,-2.6755515E-3,6.190416E-5,-5.61528E-3,-2.6003656E-3,5.6395173E-4,-2.7949282E-3,5.2523887E-4,3.0028033E-3],"split_indices":[51,80,77,77,77,25,51,0,0,0,0,0,0,0,0],"split_type":[0,0,0,0,0,0,0,0,0,0,0,0,0,0,0],"sum_hessian":[6.6328535E3,3.2392444E3,3.3936091E3,2.3360671E3,9.031773E2,1.1942749E3,2.1993342E3,1.8521294E3,4.8393774E2,7.8701654E2,1.1616075E2,4.1522955E2,7.7904535E2,1.2463142E3,9.530201E2],"tree_param":{"num_deleted":"0","num_feature":"106","num_nodes":"15","size_leaf_vector":"1"}},{"base_weights":[1.2184897E-1,2.980552E-1,-4.638045E-2,2.1086784E-1,5.230826E-1,1.6276069E-1,-1.599699E-1,2.6755512E-3,-6.19047E-5,5.61528E-3,2.6003653E-3,-5.639515E-4,2.7949284E-3,-5.252389E-4,-3.0028033E-3],"categories":[],"categories_nodes":[],"categories_segments":[],"categories_sizes":[],"default_left":[0,0,0,0,0,0,0,0,0,0,0,0,0,0,0],"id":43,"left_children":[1,3,5,7,9,11,13,-1,-1,-1,-1,-1,-1,-1,-1],"loss_changes":[1.9666165E2,6.3461823E1,8.066915E1,2.875798E1,8.997864E0,3.0593925E1,3.3156013E1,0E0,0E0,0E0,0E0,0E0,0E0,0E0,0E0],"parents":[2147483647,0,0,1,1,2,2,3,3,4,4,5,5,6,6],"right_children":[2,4,6,8,10,12,14,-1,-1,-1,-1,-1,-1,-1,-1],"split_conditions":[1.5E1,2E1,-1.4E0,6E0,-1.4E0,-4.7E0,2.4E1,2.6755512E-3,-6.19047E-5,5.61528E-3,2.6003653E-3,-5.639515E-4,2.7949284E-3,-5.252389E-4,-3.0028033E-3],"split_indices":[51,80,77,77,77,25,51,0,0,0,0,0,0,0,0],"split_type":[0,0,0,0,0,0,0,0,0,0,0,0,0,0,0],"sum_hessian":[6.6328535E3,3.2392444E3,3.3936091E3,2.3360671E3,9.031773E2,1.1942749E3,2.1993342E3,1.8521294E3,4.8393774E2,7.8701654E2,1.1616075E2,4.1522952E2,7.7904535E2,1.2463142E3,9.530201E2],"tree_param":{"num_deleted":"0","num_feature":"106","num_nodes":"15","size_leaf_vector":"1"}},{"base_weights":[-1.20672986E-1,-2.322687E-1,1.402787E-1,-9.845784E-2,-3.8539532E-1,-1.5583941E-1,2.1738353E-1,1.3508323E-4,-2.2856763E-3,-5.236262E-3,-3.109704E-3,-2.698758E-3,3.356633E-4,9.862764E-4,3.310734E-3],"categories":[],"categories_nodes":[],"categories_segments":[],"categories_sizes":[],"default_left":[0,0,0,0,0,0,0,0,0,0,0,0,0,0,0],"id":44,"left_children":[1,3,5,7,9,11,13,-1,-1,-1,-1,-1,-1,-1,-1],"loss_changes":[1.9315273E2,9.5148605E1,4.5403877E1,3.613817E1,2.2121155E1,8.888548E0,2.1259064E1,0E0,0E0,0E0,0E0,0E0,0E0,0E0,0E0],"parents":[2147483647,0,0,1,1,2,2,3,3,4,4,5,5,6,6],"right_children":[2,4,6,8,10,12,14,-1,-1,-1,-1,-1,-1,-1,-1],"split_conditions":[2E1,1.4E1,3.59E-1,2.8E0,8E0,2.6E1,2.6E1,1.3508323E-4,-2.2856763E-3,-5.236262E-3,-3.109704E-3,-2.698758E-3,3.356633E-4,9.862764E-4,3.310734E-3],"split_indices":[28,80,55,25,51,28,51,0,0,0,0,0,0,0,0],"split_type":[0,0,0,0,0,0,0,0,0,0,0,0,0,0,0],"sum_hessian":[6.630624E3,4.6445127E3,1.9861113E3,2.4794602E3,2.1650525E3,4.1010358E2,1.5760078E3,1.3331295E3,1.1463306E3,7.55609E2,1.4094435E3,2.5571762E2,1.5438596E2,7.717432E2,8.042646E2],"tree_param":{"num_deleted":"0","num_feature":"106","num_nodes":"15","size_leaf_vector":"1"}},{"base_weights":[1.20672986E-1,2.3226872E-1,-1.402787E-1,9.8457865E-2,3.8539532E-1,1.5583943E-1,-2.1738353E-1,-1.3508284E-4,2.285676E-3,5.2362625E-3,3.1097035E-3,2.6987582E-3,-3.3566303E-4,-9.862767E-4,-3.310734E-3],"categories":[],"categories_nodes":[],"categories_segments":[],"categories_sizes":[],"default_left":[0,0,0,0,0,0,0,0,0,0,0,0,0,0,0],"id":45,"left_children":[1,3,5,7,9,11,13,-1,-1,-1,-1,-1,-1,-1,-1],"loss_changes":[1.9315271E2,9.5148605E1,4.5403885E1,3.6138153E1,2.2121155E1,8.888546E0,2.1259056E1,0E0,0E0,0E0,0E0,0E0,0E0,0E0,0E0],"parents":[2147483647,0,0,1,1,2,2,3,3,4,4,5,5,6,6],"right_children":[2,4,6,8,10,12,14,-1,-1,-1,-1,-1,-1,-1,-1],"split_conditions":[2E1,1.4E1,3.59E-1,2.8E0,8E0,2.6E1,2.6E1,-1.3508284E-4,2.285676E-3,5.2362625E-3,3.1097035E-3,2.6987582E-3,-3.3566303E-4,-9.862767E-4,-3.310734E-3],"split_indices":[28,80,55,25,51,28,51,0,0,0,0,0,0,0,0],"split_type":[0,0,0,0,0,0,0,0,0,0,0,0,0,0,0],"sum_hessian":[6.630624E3,4.6445127E3,1.9861113E3,2.4794602E3,2.1650525E3,4.1010358E2,1.5760078E3,1.3331296E3,1.1463306E3,7.55609E2,1.4094435E3,2.5571762E2,1.5438596E2,7.717432E2,8.042646E2],"tree_param":{"num_deleted":"0","num_feature":"106","num_nodes":"15","size_leaf_vector":"1"}},{"base_weights":[-1.1950898E-1,-2.9266977E-1,4.5721214E-2,-2.0672789E-1,-5.1482725E-1,-1.7662051E-1,1.4925563E-1,-2.627469E-3,7.659381E-5,-4.3367306E-3,-6.404629E-3,5.8137928E-5,-3.1230864E-3,4.512032E-4,2.838019E-3],"categories":[],"categories_nodes":[],"categories_segments":[],"categories_sizes":[],"default_left":[0,0,0,0,0,0,0,0,0,0,0,0,0,0,0],"id":46,"left_children":[1,3,5,7,9,11,13,-1,-1,-1,-1,-1,-1,-1,-1],"loss_changes":[1.8968835E2,6.1698853E1,7.813844E1,2.8054749E1,8.921967E0,2.6699745E1,3.2432533E1,0E0,0E0,0E0,0E0,0E0,0E0,0E0,0E0],"parents":[2147483647,0,0,1,1,2,2,3,3,4,4,5,5,6,6],"right_children":[2,4,6,8,10,12,14,-1,-1,-1,-1,-1,-1,-1,-1],"split_conditions":[1.5E1,2E1,-1.9E0,6E0,2.7E1,-3.7E0,2.4E1,-2.627469E-3,7.659381E-5,-4.3367306E-3,-6.404629E-3,5.8137928E-5,-3.1230864E-3,4.512032E-4,2.838019E-3],"split_indices":[51,80,77,77,103,25,51,0,0,0,0,0,0,0,0],"split_type":[0,0,0,0,0,0,0,0,0,0,0,0,0,0,0],"sum_hessian":[6.628351E3,3.2361274E3,3.3922239E3,2.3348274E3,9.0130005E2,1.0775223E3,2.3147017E3,1.8509514E3,4.838759E2,5.502917E2,3.5100836E2,4.6000168E2,6.175206E2,1.3055643E3,1.0091372E3],"tree_param":{"num_deleted":"0","num_feature":"106","num_nodes":"15","size_leaf_vector":"1"}},{"base_weights":[1.19508974E-1,2.9266974E-1,-4.57212E-2,2.0672786E-1,5.1482725E-1,1.7662051E-1,-1.492556E-1,2.6274687E-3,-7.659386E-5,4.33673E-3,6.404629E-3,-5.8137884E-5,3.1230864E-3,-4.512027E-4,-2.8380193E-3],"categories":[],"categories_nodes":[],"categories_segments":[],"categories_sizes":[],"default_left":[0,0,0,0,0,0,0,0,0,0,0,0,0,0,0],"id":47,"left_children":[1,3,5,7,9,11,13,-1,-1,-1,-1,-1,-1,-1,-1],"loss_changes":[1.896883E2,6.1698853E1,7.8138435E1,2.805474E1,8.921997E0,2.6699738E1,3.2432556E1,0E0,0E0,0E0,0E0,0E0,0E0,0E0,0E0],"parents":[2147483647,0,0,1,1,2,2,3,3,4,4,5,5,6,6],"right_children":[2,4,6,8,10,12,14,-1,-1,-1,-1,-1,-1,-1,-1],"split_conditions":[1.5E1,2E1,-1.9E0,6E0,2.7E1,-3.7E0,2.4E1,2.6274687E-3,-7.659386E-5,4.33673E-3,6.404629E-3,-5.8137884E-5,3.1230864E-3,-4.512027E-4,-2.8380193E-3],"split_indices":[51,80,77,77,103,25,51,0,0,0,0,0,0,0,0],"split_type":[0,0,0,0,0,0,0,0,0,0,0,0,0,0,0],"sum_hessian":[6.628351E3,3.2361274E3,3.3922239E3,2.3348274E3,9.0130005E2,1.0775223E3,2.3147014E3,1.8509514E3,4.8387592E2,5.502917E2,3.5100836E2,4.600017E2,6.175206E2,1.3055643E3,1.0091372E3],"tree_param":{"num_deleted":"0","num_feature":"106","num_nodes":"15","size_leaf_vector":"1"}},{"base_weights":[-1.1835847E-1,-2.2801442E-1,1.379713E-1,-1.3986309E-1,-4.5364082E-1,-1.5319103E-1,2.137991E-1,-2.9529184E-3,-5.122784E-4,-3.7336636E-3,-5.6647295E-3,-2.6544644E-3,3.3170058E-4,9.706303E-4,3.2562444E-3],"categories":[],"categories_nodes":[],"categories_segments":[],"categories_sizes":[],"default_left":[0,0,0,0,0,0,0,0,0,0,0,0,0,0,0],"id":48,"left_children":[1,3,5,7,9,11,13,-1,-1,-1,-1,-1,-1,-1,-1],"loss_changes":[1.8630357E2,9.225862E1,4.3884266E1,4.598728E1,1.1595947E1,8.606334E0,2.0544441E1,0E0,0E0,0E0,0E0,0E0,0E0,0E0,0E0],"parents":[2147483647,0,0,1,1,2,2,3,3,4,4,5,5,6,6],"right_children":[2,4,6,8,10,12,14,-1,-1,-1,-1,-1,-1,-1,-1],"split_conditions":[2E1,2E1,3.59E-1,7E0,5.96E-1,2.6E1,2.6E1,-2.9529184E-3,-5.122784E-4,-3.7336636E-3,-5.6647295E-3,-2.6544644E-3,3.3170058E-4,9.706303E-4,3.2562444E-3],"split_indices":[28,80,55,27,3,28,51,0,0,0,0,0,0,0,0],"split_type":[0,0,0,0,0,0,0,0,0,0,0,0,0,0,0],"sum_hessian":[6.6259946E3,4.640804E3,1.9851907E3,3.338202E3,1.3026023E3,4.0997092E2,1.5752197E3,1.2114678E3,2.126734E3,7.636279E2,5.389743E2,2.5559048E2,1.5438042E2,7.716016E2,8.036181E2],"tree_param":{"num_deleted":"0","num_feature":"106","num_nodes":"15","size_leaf_vector":"1"}},{"base_weights":[1.1835848E-1,2.2801445E-1,-1.3797134E-1,1.3986313E-1,4.5364082E-1,1.5319102E-1,-2.1379915E-1,2.9529189E-3,5.1227876E-4,3.7336636E-3,5.6647295E-3,2.6544642E-3,-3.3170058E-4,-9.706307E-4,-3.2562446E-3],"categories":[],"categories_nodes":[],"categories_segments":[],"categories_sizes":[],"default_left":[0,0,0,0,0,0,0,0,0,0,0,0,0,0,0],"id":49,"left_children":[1,3,5,7,9,11,13,-1,-1,-1,-1,-1,-1,-1,-1],"loss_changes":[1.8630365E2,9.2258606E1,4.3884274E1,4.598729E1,1.1595947E1,8.606333E0,2.0544441E1,0E0,0E0,0E0,0E0,0E0,0E0,0E0,0E0],"parents":[2147483647,0,0,1,1,2,2,3,3,4,4,5,5,6,6],"right_children":[2,4,6,8,10,12,14,-1,-1,-1,-1,-1,-1,-1,-1],"split_conditions":[2E1,2E1,3.59E-1,7E0,5.96E-1,2.6E1,2.6E1,2.9529189E-3,5.1227876E-4,3.7336636E-3,5.6647295E-3,2.6544642E-3,-3.3170058E-4,-9.706307E-4,-3.2562446E-3],"split_indices":[28,80,55,27,3,28,51,0,0,0,0,0,0,0,0],"split_type":[0,0,0,0,0,0,0,0,0,0,0,0,0,0,0],"sum_hessian":[6.6259946E3,4.640804E3,1.9851907E3,3.338202E3,1.3026023E3,4.0997092E2,1.5752197E3,1.2114678E3,2.126734E3,7.636279E2,5.389743E2,2.5559048E2,1.5438042E2,7.716016E2,8.036181E2],"tree_param":{"num_deleted":"0","num_feature":"106","num_nodes":"15","size_leaf_vector":"1"}},{"base_weights":[-1.1721802E-1,-2.8745434E-1,4.512789E-2,-1.5342505E-1,-4.2614067E-1,-1.5751162E-1,1.5514824E-1,-2.2152911E-3,1.112132E-4,-3.3755368E-3,-5.6330496E-3,5.425359E-4,-2.7045303E-3,5.1953876E-4,2.9009553E-3],"categories":[],"categories_nodes":[],"categories_segments":[],"categories_sizes":[],"default_left":[0,0,0,0,0,0,0,0,0,0,0,0,0,0,0],"id":50,"left_children":[1,3,5,7,9,11,13,-1,-1,-1,-1,-1,-1,-1,-1],"loss_changes":[1.8310033E2,6.0046265E1,7.564255E1,1.8449337E1,1.911496E1,2.8572025E1,3.060458E1,0E0,0E0,0E0,0E0,0E0,0E0,0E0,0E0],"parents":[2147483647,0,0,1,1,2,2,3,3,4,4,5,5,6,6],"right_children":[2,4,6,8,10,12,14,-1,-1,-1,-1,-1,-1,-1,-1],"split_conditions":[1.5E1,1.3E1,-1.4E0,6E0,2.3E1,-4.7E0,2.4E1,-2.2152911E-3,1.112132E-4,-3.3755368E-3,-5.6330496E-3,5.425359E-4,-2.7045303E-3,5.1953876E-4,2.9009553E-3],"split_indices":[51,80,77,77,80,25,51,0,0,0,0,0,0,0,0],"split_type":[0,0,0,0,0,0,0,0,0,0,0,0,0,0,0],"sum_hessian":[6.623678E3,3.2328904E3,3.3907876E3,1.6451199E3,1.5877706E3,1.1930157E3,2.1977717E3,1.1632969E3,4.8182294E2,9.6681696E2,6.209537E2,4.1514264E2,7.778731E2,1.2461921E3,9.515797E2],"tree_param":{"num_deleted":"0","num_feature":"106","num_nodes":"15","size_leaf_vector":"1"}},{"base_weights":[1.17218025E-1,2.8745437E-1,-4.5127895E-2,1.5342508E-1,4.261407E-1,1.575116E-1,-1.5514824E-1,2.2152914E-3,-1.1121287E-4,3.3755368E-3,5.63305E-3,-5.425365E-4,2.7045303E-3,-5.1953894E-4,-2.9009548E-3],"categories":[],"categories_nodes":[],"categories_segments":[],"categories_sizes":[],"default_left":[0,0,0,0,0,0,0,0,0,0,0,0,0,0,0],"id":51,"left_children":[1,3,5,7,9,11,13,-1,-1,-1,-1,-1,-1,-1,-1],"loss_changes":[1.8310037E2,6.0046265E1,7.564253E1,1.844933E1,1.911496E1,2.8572031E1,3.0604576E1,0E0,0E0,0E0,0E0,0E0,0E0,0E0,0E0],"parents":[2147483647,0,0,1,1,2,2,3,3,4,4,5,5,6,6],"right_children":[2,4,6,8,10,12,14,-1,-1,-1,-1,-1,-1,-1,-1],"split_conditions":[1.5E1,1.3E1,-1.4E0,6E0,2.3E1,-4.7E0,2.4E1,2.2152914E-3,-1.1121287E-4,3.3755368E-3,5.63305E-3,-5.425365E-4,2.7045303E-3,-5.1953894E-4,-2.9009548E-3],"split_indices":[51,80,77,77,80,25,51,0,0,0,0,0,0,0,0],"split_type":[0,0,0,0,0,0,0,0,0,0,0,0,0,0,0],"sum_hessian":[6.623678E3,3.2328904E3,3.3907876E3,1.6451198E3,1.5877706E3,1.1930157E3,2.1977717E3,1.1632969E3,4.8182294E2,9.6681696E2,6.209537E2,4.1514264E2,7.778731E2,1.2461921E3,9.515797E2],"tree_param":{"num_deleted":"0","num_feature":"106","num_nodes":"15","size_leaf_vector":"1"}},{"base_weights":[-1.1609257E-1,9.980237E-2,-2.4185407E-1,-1.1031042E-1,1.9715223E-1,-4.4579807E-1,-1.4594205E-1,5.5557286E-4,-2.427888E-3,1.2070738E-3,3.3792807E-3,-3.5271582E-3,-5.4399595E-3,-2.9297802E-3,-4.488118E-4],"categories":[],"categories_nodes":[],"categories_segments":[],"categories_sizes":[],"default_left":[0,0,0,0,0,0,0,0,0,0,0,0,0,0,0],"id":52,"left_children":[1,3,5,7,9,11,13,-1,-1,-1,-1,-1,-1,-1,-1],"loss_changes":[1.7982336E2,4.9895233E1,8.1793594E1,1.6991714E1,1.7894638E1,1.2038879E1,4.2303608E1,0E0,0E0,0E0,0E0,0E0,0E0,0E0,0E0],"parents":[2147483647,0,0,1,1,2,2,3,3,4,4,5,5,6,6],"right_children":[2,4,6,8,10,12,14,-1,-1,-1,-1,-1,-1,-1,-1],"split_conditions":[4.58E-1,-2E0,-1.4E0,-4.9E0,2.7E1,2.3E1,8E0,5.5557286E-4,-2.427888E-3,1.2070738E-3,3.3792807E-3,-3.5271582E-3,-5.4399595E-3,-2.9297802E-3,-4.488118E-4],"split_indices":[3,77,77,25,51,1,51,0,0,0,0,0,0,0,0],"split_type":[0,0,0,0,0,0,0,0,0,0,0,0,0,0,0],"sum_hessian":[6.6211294E3,2.4372705E3,4.183859E3,7.7165466E2,1.6656157E3,1.3370835E3,2.8467754E3,3.429054E2,4.2874927E2,1.0806519E3,5.849639E2,6.88779E2,6.4830444E2,1.1588446E3,1.6879309E3],"tree_param":{"num_deleted":"0","num_feature":"106","num_nodes":"15","size_leaf_vector":"1"}},{"base_weights":[1.1609257E-1,-9.980235E-2,2.4185407E-1,1.1031043E-1,-1.9715221E-1,4.4579804E-1,1.4594205E-1,-5.55573E-4,2.427888E-3,-1.2070736E-3,-3.3792807E-3,3.5271582E-3,5.4399595E-3,2.9297802E-3,4.4881183E-4],"categories":[],"categories_nodes":[],"categories_segments":[],"categories_sizes":[],"default_left":[0,0,0,0,0,0,0,0,0,0,0,0,0,0,0],"id":53,"left_children":[1,3,5,7,9,11,13,-1,-1,-1,-1,-1,-1,-1,-1],"loss_changes":[1.7982333E2,4.9895233E1,8.179364E1,1.6991716E1,1.7894646E1,1.2038818E1,4.2303604E1,0E0,0E0,0E0,0E0,0E0,0E0,0E0,0E0],"parents":[2147483647,0,0,1,1,2,2,3,3,4,4,5,5,6,6],"right_children":[2,4,6,8,10,12,14,-1,-1,-1,-1,-1,-1,-1,-1],"split_conditions":[4.58E-1,-2E0,-1.4E0,-4.9E0,2.7E1,2.3E1,8E0,-5.55573E-4,2.427888E-3,-1.2070736E-3,-3.3792807E-3,3.5271582E-3,5.4399595E-3,2.9297802E-3,4.4881183E-4],"split_indices":[3,77,77,25,51,1,51,0,0,0,0,0,0,0,0],"split_type":[0,0,0,0,0,0,0,0,0,0,0,0,0,0,0],"sum_hessian":[6.6211294E3,2.4372705E3,4.183859E3,7.7165466E2,1.6656157E3,1.3370834E3,2.8467754E3,3.429054E2,4.2874927E2,1.0806519E3,5.849639E2,6.88779E2,6.4830444E2,1.1588446E3,1.6879308E3],"tree_param":{"num_deleted":"0","num_feature":"106","num_nodes":"15","size_leaf_vector":"1"}},{"base_weights":[-1.1497839E-1,-2.8233042E-1,4.45219E-2,-1.4092453E-1,-4.103373E-1,-1.7018458E-1,1.4444874E-1,-2.102747E-3,1.156137E-4,-3.2666335E-3,-5.548184E-3,6.5936934E-4,-2.690275E-3,4.4361976E-4,2.7395329E-3],"categories":[],"categories_nodes":[],"categories_segments":[],"categories_sizes":[],"default_left":[0,0,0,0,0,0,0,0,0,0,0,0,0,0,0],"id":54,"left_children":[1,3,5,7,9,11,13,-1,-1,-1,-1,-1,-1,-1,-1],"loss_changes":[1.7670627E2,5.8415466E1,7.276002E1,1.6249691E1,2.0310272E1,2.5157566E1,2.9981007E1,0E0,0E0,0E0,0E0,0E0,0E0,0E0,0E0],"parents":[2147483647,0,0,1,1,2,2,3,3,4,4,5,5,6,6],"right_children":[2,4,6,8,10,12,14,-1,-1,-1,-1,-1,-1,-1,-1],"split_conditions":[1.5E1,1.2E1,-1.9E0,6E0,2.3E1,3.23E-1,2.4E1,-2.102747E-3,1.156137E-4,-3.2666335E-3,-5.548184E-3,6.5936934E-4,-2.690275E-3,4.4361976E-4,2.7395329E-3],"split_indices":[51,80,77,77,80,3,51,0,0,0,0,0,0,0,0],"split_type":[0,0,0,0,0,0,0,0,0,0,0,0,0,0,0],"sum_hessian":[6.6185522E3,3.2294043E3,3.3891482E3,1.5353945E3,1.6940096E3,1.0761626E3,2.3129856E3,1.0551404E3,4.8025412E2,1.0748108E3,6.1919885E2,3.1765744E2,7.585052E2,1.3054329E3,1.00755286E3],"tree_param":{"num_deleted":"0","num_feature":"106","num_nodes":"15","size_leaf_vector":"1"}},{"base_weights":[1.14978395E-1,2.8233045E-1,-4.4521913E-2,1.4092459E-1,4.103373E-1,1.7018457E-1,-1.4444876E-1,2.1027478E-3,-1.156131E-4,3.266633E-3,5.548184E-3,-6.5936946E-4,2.6902747E-3,-4.4362014E-4,-2.7395326E-3],"categories":[],"categories_nodes":[],"categories_segments":[],"categories_sizes":[],"default_left":[0,0,0,0,0,0,0,0,0,0,0,0,0,0,0],"id":55,"left_children":[1,3,5,7,9,11,13,-1,-1,-1,-1,-1,-1,-1,-1],"loss_changes":[1.767063E2,5.8415466E1,7.276001E1,1.6249693E1,2.0310272E1,2.5157562E1,2.9980995E1,0E0,0E0,0E0,0E0,0E0,0E0,0E0,0E0],"parents":[2147483647,0,0,1,1,2,2,3,3,4,4,5,5,6,6],"right_children":[2,4,6,8,10,12,14,-1,-1,-1,-1,-1,-1,-1,-1],"split_conditions":[1.5E1,1.2E1,-1.9E0,6E0,2.3E1,3.23E-1,2.4E1,2.1027478E-3,-1.156131E-4,3.266633E-3,5.548184E-3,-6.5936946E-4,2.6902747E-3,-4.4362014E-4,-2.7395326E-3],"split_indices":[51,80,77,77,80,3,51,0,0,0,0,0,0,0,0],"split_type":[0,0,0,0,0,0,0,0,0,0,0,0,0,0,0],"sum_hessian":[6.6185527E3,3.2294043E3,3.3891482E3,1.5353945E3,1.6940096E3,1.0761626E3,2.3129856E3,1.0551404E3,4.8025412E2,1.0748108E3,6.1919885E2,3.1765744E2,7.585052E2,1.3054329E3,1.00755286E3],"tree_param":{"num_deleted":"0","num_feature":"106","num_nodes":"15","size_leaf_vector":"1"}},{"base_weights":[-1.13876045E-1,-2.1987534E-1,1.3373452E-1,-9.190982E-2,-3.6686203E-1,-1.9945798E-2,2.702164E-1,1.5461358E-4,-2.1684167E-3,-5.0086025E-3,-2.9492893E-3,1.4894467E-3,-1.2322218E-3,3.989871E-3,1.7682795E-3],"categories":[],"categories_nodes":[],"categories_segments":[],"categories_sizes":[],"default_left":[0,0,0,0,0,0,0,0,0,0,0,0,0,0,0],"id":56,"left_children":[1,3,5,7,9,11,13,-1,-1,-1,-1,-1,-1,-1,-1],"loss_changes":[1.737005E2,8.712419E1,4.16217E1,3.325027E1,2.0636444E1,1.6312956E1,1.2567688E1,0E0,0E0,0E0,0E0,0E0,0E0,0E0,0E0],"parents":[2147483647,0,0,1,1,2,2,3,3,4,4,5,5,6,6],"right_children":[2,4,6,8,10,12,14,-1,-1,-1,-1,-1,-1,-1,-1],"split_conditions":[2E1,1.4E1,-2E-1,2.8E0,8E0,-6.4E0,-5.9E0,1.5461358E-4,-2.1684167E-3,-5.0086025E-3,-2.9492893E-3,1.4894467E-3,-1.2322218E-3,3.989871E-3,1.7682795E-3],"split_indices":[28,80,77,25,51,25,25,0,0,0,0,0,0,0,0],"split_type":[0,0,0,0,0,0,0,0,0,0,0,0,0,0,0],"sum_hessian":[6.615914E3,4.6327837E3,1.9831305E3,2.4775085E3,2.1552751E3,9.3319507E2,1.0499354E3,1.3328677E3,1.1446407E3,7.507683E2,1.4045067E3,3.5394223E2,5.792528E2,4.3998294E2,6.099525E2],"tree_param":{"num_deleted":"0","num_feature":"106","num_nodes":"15","size_leaf_vector":"1"}},{"base_weights":[1.1387605E-1,2.1987535E-1,-1.3373452E-1,9.190986E-2,3.6686203E-1,1.9945787E-2,-2.702164E-1,-1.5461314E-4,2.1684172E-3,5.008602E-3,2.9492893E-3,-1.4894468E-3,1.2322217E-3,-3.989872E-3,-1.768279E-3],"categories":[],"categories_nodes":[],"categories_segments":[],"categories_sizes":[],"default_left":[0,0,0,0,0,0,0,0,0,0,0,0,0,0,0],"id":57,"left_children":[1,3,5,7,9,11,13,-1,-1,-1,-1,-1,-1,-1,-1],"loss_changes":[1.7370056E2,8.7124146E1,4.162169E1,3.3250267E1,2.0636414E1,1.6312956E1,1.2567703E1,0E0,0E0,0E0,0E0,0E0,0E0,0E0,0E0],"parents":[2147483647,0,0,1,1,2,2,3,3,4,4,5,5,6,6],"right_children":[2,4,6,8,10,12,14,-1,-1,-1,-1,-1,-1,-1,-1],"split_conditions":[2E1,1.4E1,-2E-1,2.8E0,8E0,-6.4E0,-5.9E0,-1.5461314E-4,2.1684172E-3,5.008602E-3,2.9492893E-3,-1.4894468E-3,1.2322217E-3,-3.989872E-3,-1.768279E-3],"split_indices":[28,80,77,25,51,25,25,0,0,0,0,0,0,0,0],"split_type":[0,0,0,0,0,0,0,0,0,0,0,0,0,0,0],"sum_hessian":[6.615914E3,4.6327837E3,1.9831305E3,2.4775085E3,2.1552751E3,9.3319507E2,1.0499354E3,1.3328677E3,1.1446407E3,7.507683E2,1.4045067E3,3.5394223E2,5.792528E2,4.3998294E2,6.099525E2],"tree_param":{"num_deleted":"0","num_feature":"106","num_nodes":"15","size_leaf_vector":"1"}},{"base_weights":[-1.12783626E-1,-2.7727845E-1,4.3886725E-2,-1.3821213E-1,-4.0336496E-1,-7.926821E-2,2.1300302E-1,-2.069455E-3,1.287236E-4,-3.203625E-3,-5.469078E-3,-1.8290457E-3,1.4478343E-3,1.3036628E-3,3.2475062E-3],"categories":[],"categories_nodes":[],"categories_segments":[],"categories_sizes":[],"default_left":[0,0,0,0,0,0,0,0,0,0,0,0,0,0,0],"id":58,"left_children":[1,3,5,7,9,11,13,-1,-1,-1,-1,-1,-1,-1,-1],"loss_changes":[1.7047131E2,5.652237E1,7.059223E1,1.5952208E1,1.9981628E1,4.5571068E1,1.3145561E1,0E0,0E0,0E0,0E0,0E0,0E0,0E0,0E0],"parents":[2147483647,0,0,1,1,2,2,3,3,4,4,5,5,6,6],"right_children":[2,4,6,8,10,12,14,-1,-1,-1,-1,-1,-1,-1,-1],"split_conditions":[1.5E1,1.2E1,5.45E-1,6E0,2.3E1,2.6E1,2.4E1,-2.069455E-3,1.287236E-4,-3.203625E-3,-5.469078E-3,-1.8290457E-3,1.4478343E-3,1.3036628E-3,3.2475062E-3],"split_indices":[51,80,55,77,80,51,51,0,0,0,0,0,0,0,0],"split_type":[0,0,0,0,0,0,0,0,0,0,0,0,0,0,0],"sum_hessian":[6.61326E3,3.2256958E3,3.3875642E3,1.5348922E3,1.6908035E3,1.9604467E3,1.4271174E3,1.0547029E3,4.801894E2,1.0733688E3,6.174347E2,1.3405509E3,6.1989575E2,8.216663E2,6.054511E2],"tree_param":{"num_deleted":"0","num_feature":"106","num_nodes":"15","size_leaf_vector":"1"}},{"base_weights":[1.1278363E-1,2.7727845E-1,-4.3886717E-2,1.3821214E-1,4.03365E-1,7.92682E-2,-2.13003E-1,2.0694553E-3,-1.2872348E-4,3.2036246E-3,5.4690787E-3,1.8290457E-3,-1.4478347E-3,-1.3036621E-3,-3.247507E-3],"categories":[],"categories_nodes":[],"categories_segments":[],"categories_sizes":[],"default_left":[0,0,0,0,0,0,0,0,0,0,0,0,0,0,0],"id":59,"left_children":[1,3,5,7,9,11,13,-1,-1,-1,-1,-1,-1,-1,-1],"loss_changes":[1.704713E2,5.6522415E1,7.059222E1,1.5952217E1,1.9981628E1,4.5571075E1,1.31455765E1,0E0,0E0,0E0,0E0,0E0,0E0,0E0,0E0],"parents":[2147483647,0,0,1,1,2,2,3,3,4,4,5,5,6,6],"right_children":[2,4,6,8,10,12,14,-1,-1,-1,-1,-1,-1,-1,-1],"split_conditions":[1.5E1,1.2E1,5.45E-1,6E0,2.3E1,2.6E1,2.4E1,2.0694553E-3,-1.2872348E-4,3.2036246E-3,5.4690787E-3,1.8290457E-3,-1.4478347E-3,-1.3036621E-3,-3.247507E-3],"split_indices":[51,80,55,77,80,51,51,0,0,0,0,0,0,0,0],"split_type":[0,0,0,0,0,0,0,0,0,0,0,0,0,0,0],"sum_hessian":[6.61326E3,3.2256958E3,3.3875642E3,1.5348922E3,1.6908035E3,1.9604467E3,1.4271174E3,1.0547028E3,4.8018942E2,1.0733688E3,6.174347E2,1.3405509E3,6.198957E2,8.216664E2,6.054511E2],"tree_param":{"num_deleted":"0","num_feature":"106","num_nodes":"15","size_leaf_vector":"1"}},{"base_weights":[-1.1170257E-1,-2.1588317E-1,1.3155589E-1,-1.3165444E-1,-4.3250415E-1,-1.4816122E-1,2.0445037E-1,-2.8182347E-3,-4.6141667E-4,-3.548035E-3,-5.4210094E-3,-2.5574842E-3,3.0241892E-4,3.4053277E-3,1.1663875E-3],"categories":[],"categories_nodes":[],"categories_segments":[],"categories_sizes":[],"default_left":[0,0,0,0,0,0,0,0,0,0,0,0,0,0,0],"id":60,"left_children":[1,3,5,7,9,11,13,-1,-1,-1,-1,-1,-1,-1,-1],"loss_changes":[1.6758444E2,8.441081E1,4.046584E1,4.2810265E1,1.0841248E1,7.887706E0,1.8763924E1,0E0,0E0,0E0,0E0,0E0,0E0,0E0,0E0],"parents":[2147483647,0,0,1,1,2,2,3,3,4,4,5,5,6,6],"right_children":[2,4,6,8,10,12,14,-1,-1,-1,-1,-1,-1,-1,-1],"split_conditions":[2E1,2E1,3.59E-1,7E0,5.96E-1,2.6E1,-6.2E0,-2.8182347E-3,-4.6141667E-4,-3.548035E-3,-5.4210094E-3,-2.5574842E-3,3.0241892E-4,3.4053277E-3,1.1663875E-3],"split_indices":[28,80,55,27,3,28,25,0,0,0,0,0,0,0,0],"split_type":[0,0,0,0,0,0,0,0,0,0,0,0,0,0,0],"sum_hessian":[6.6105815E3,4.6284585E3,1.982123E3,3.333789E3,1.2946693E3,4.0954575E2,1.5725773E3,1.2087705E3,2.1250186E3,7.600532E2,5.3461615E2,2.5520753E2,1.543382E2,6.1563873E2,9.569386E2],"tree_param":{"num_deleted":"0","num_feature":"106","num_nodes":"15","size_leaf_vector":"1"}},{"base_weights":[1.1170258E-1,2.1588317E-1,-1.3155587E-1,1.3165446E-1,4.3250412E-1,1.481612E-1,-2.0445035E-1,2.8182352E-3,4.6141667E-4,3.5480347E-3,5.4210094E-3,2.5574842E-3,-3.0241907E-4,-3.4053277E-3,-1.1663873E-3],"categories":[],"categories_nodes":[],"categories_segments":[],"categories_sizes":[],"default_left":[0,0,0,0,0,0,0,0,0,0,0,0,0,0,0],"id":61,"left_children":[1,3,5,7,9,11,13,-1,-1,-1,-1,-1,-1,-1,-1],"loss_changes":[1.6758444E2,8.441084E1,4.0465836E1,4.2810265E1,1.0841232E1,7.8877068E0,1.8763924E1,0E0,0E0,0E0,0E0,0E0,0E0,0E0,0E0],"parents":[2147483647,0,0,1,1,2,2,3,3,4,4,5,5,6,6],"right_children":[2,4,6,8,10,12,14,-1,-1,-1,-1,-1,-1,-1,-1],"split_conditions":[2E1,2E1,3.59E-1,7E0,5.96E-1,2.6E1,-6.2E0,2.8182352E-3,4.6141667E-4,3.5480347E-3,5.4210094E-3,2.5574842E-3,-3.0241907E-4,-3.4053277E-3,-1.1663873E-3],"split_indices":[28,80,55,27,3,28,25,0,0,0,0,0,0,0,0],"split_type":[0,0,0,0,0,0,0,0,0,0,0,0,0,0,0],"sum_hessian":[6.6105815E3,4.6284585E3,1.982123E3,3.333789E3,1.2946693E3,4.0954575E2,1.5725773E3,1.2087705E3,2.1250186E3,7.600532E2,5.3461615E2,2.5520755E2,1.543382E2,6.1563873E2,9.569386E2],"tree_param":{"num_deleted":"0","num_feature":"106","num_nodes":"15","size_leaf_vector":"1"}},{"base_weights":[-1.1063206E-1,-2.7238345E-1,4.3313723E-2,-1.352413E-1,-3.9691982E-1,-1.4990291E-1,1.4815973E-1,-2.0334448E-3,1.4407528E-4,-3.1517844E-3,-5.3857095E-3,5.123213E-4,-2.5740461E-3,5.061958E-4,2.7601125E-3],"categories":[],"categories_nodes":[],"categories_segments":[],"categories_sizes":[],"default_left":[0,0,0,0,0,0,0,0,0,0,0,0,0,0,0],"id":62,"left_children":[1,3,5,7,9,11,13,-1,-1,-1,-1,-1,-1,-1,-1],"loss_changes":[1.6458028E2,5.499077E1,6.8636604E1,1.565041E1,1.9381683E1,2.578515E1,2.737304E1,0E0,0E0,0E0,0E0,0E0,0E0,0E0,0E0],"parents":[2147483647,0,0,1,1,2,2,3,3,4,4,5,5,6,6],"right_children":[2,4,6,8,10,12,14,-1,-1,-1,-1,-1,-1,-1,-1],"split_conditions":[1.5E1,1.2E1,-1.4E0,6E0,2.3E1,-4.7E0,2.4E1,-2.0334448E-3,1.4407528E-4,-3.1517844E-3,-5.3857095E-3,5.123213E-4,-2.5740461E-3,5.061958E-4,2.7601125E-3],"split_indices":[51,80,77,77,80,25,51,0,0,0,0,0,0,0,0],"split_type":[0,0,0,0,0,0,0,0,0,0,0,0,0,0,0],"sum_hessian":[6.6079253E3,3.2218972E3,3.386028E3,1.5343374E3,1.6875598E3,1.1909124E3,2.1951157E3,1.0542181E3,4.8011935E2,1.0721112E3,6.154486E2,4.1499075E2,7.7592163E2,1.2459528E3,9.49163E2],"tree_param":{"num_deleted":"0","num_feature":"106","num_nodes":"15","size_leaf_vector":"1"}},{"base_weights":[1.10632055E-1,2.7238345E-1,-4.3313738E-2,1.352413E-1,3.9691982E-1,1.499029E-1,-1.4815974E-1,2.0334448E-3,-1.440756E-4,3.1517844E-3,5.3857095E-3,-5.123214E-4,2.5740461E-3,-5.06196E-4,-2.7601125E-3],"categories":[],"categories_nodes":[],"categories_segments":[],"categories_sizes":[],"default_left":[0,0,0,0,0,0,0,0,0,0,0,0,0,0,0],"id":63,"left_children":[1,3,5,7,9,11,13,-1,-1,-1,-1,-1,-1,-1,-1],"loss_changes":[1.6458029E2,5.499077E1,6.86366E1,1.5650417E1,1.9381683E1,2.578515E1,2.7373035E1,0E0,0E0,0E0,0E0,0E0,0E0,0E0,0E0],"parents":[2147483647,0,0,1,1,2,2,3,3,4,4,5,5,6,6],"right_children":[2,4,6,8,10,12,14,-1,-1,-1,-1,-1,-1,-1,-1],"split_conditions":[1.5E1,1.2E1,-1.4E0,6E0,2.3E1,-4.7E0,2.4E1,2.0334448E-3,-1.440756E-4,3.1517844E-3,5.3857095E-3,-5.123214E-4,2.5740461E-3,-5.06196E-4,-2.7601125E-3],"split_indices":[51,80,77,77,80,25,51,0,0,0,0,0,0,0,0],"split_type":[0,0,0,0,0,0,0,0,0,0,0,0,0,0,0],"sum_hessian":[6.6079253E3,3.2218972E3,3.386028E3,1.5343374E3,1.6875598E3,1.1909124E3,2.1951157E3,1.0542181E3,4.8011935E2,1.0721112E3,6.154486E2,4.1499075E2,7.7592163E2,1.2459528E3,9.491631E2],"tree_param":{"num_deleted":"0","num_feature":"106","num_nodes":"15","size_leaf_vector":"1"}},{"base_weights":[-1.0957586E-1,9.525393E-2,-2.290715E-1,-1.0478918E-1,1.8797703E-1,-4.2519605E-1,-1.3728961E-1,5.269274E-4,-2.308029E-3,1.153795E-3,3.2201575E-3,-3.3351984E-3,-5.2212654E-3,-2.794662E-3,-3.9745413E-4],"categories":[],"categories_nodes":[],"categories_segments":[],"categories_sizes":[],"default_left":[0,0,0,0,0,0,0,0,0,0,0,0,0,0,0],"id":64,"left_children":[1,3,5,7,9,11,13,-1,-1,-1,-1,-1,-1,-1,-1],"loss_changes":[1.6171265E2,4.517916E1,7.5047104E1,1.5327061E1,1.6154285E1,1.1641312E1,3.942722E1,0E0,0E0,0E0,0E0,0E0,0E0,0E0,0E0],"parents":[2147483647,0,0,1,1,2,2,3,3,4,4,5,5,6,6],"right_children":[2,4,6,8,10,12,14,-1,-1,-1,-1,-1,-1,-1,-1],"split_conditions":[4.58E-1,-2E0,-1.4E0,-4.9E0,2.7E1,2.3E1,8E0,5.269274E-4,-2.308029E-3,1.153795E-3,3.2201575E-3,-3.3351984E-3,-5.2212654E-3,-2.794662E-3,-3.9745413E-4],"split_indices":[3,77,77,25,51,1,51,0,0,0,0,0,0,0,0],"split_type":[0,0,0,0,0,0,0,0,0,0,0,0,0,0,0],"sum_hessian":[6.605024E3,2.4336538E3,4.17137E3,7.707305E2,1.6629233E3,1.328636E3,2.8427341E3,3.4284808E2,4.2788248E2,1.0798955E3,5.8302783E2,6.851073E2,6.435287E2,1.1559711E3,1.6867631E3],"tree_param":{"num_deleted":"0","num_feature":"106","num_nodes":"15","size_leaf_vector":"1"}},{"base_weights":[1.0957586E-1,-9.525391E-2,2.290715E-1,1.0478919E-1,-1.87977E-1,4.2519605E-1,1.372896E-1,-5.2692735E-4,2.308029E-3,-1.1537948E-3,-3.220157E-3,3.3351984E-3,5.2212654E-3,2.7946618E-3,3.9745413E-4],"categories":[],"categories_nodes":[],"categories_segments":[],"categories_sizes":[],"default_left":[0,0,0,0,0,0,0,0,0,0,0,0,0,0,0],"id":65,"left_children":[1,3,5,7,9,11,13,-1,-1,-1,-1,-1,-1,-1,-1],"loss_changes":[1.6171262E2,4.5179153E1,7.504712E1,1.5327062E1,1.6154285E1,1.1641312E1,3.9427216E1,0E0,0E0,0E0,0E0,0E0,0E0,0E0,0E0],"parents":[2147483647,0,0,1,1,2,2,3,3,4,4,5,5,6,6],"right_children":[2,4,6,8,10,12,14,-1,-1,-1,-1,-1,-1,-1,-1],"split_conditions":[4.58E-1,-2E0,-1.4E0,-4.9E0,2.7E1,2.3E1,8E0,-5.2692735E-4,2.308029E-3,-1.1537948E-3,-3.220157E-3,3.3351984E-3,5.2212654E-3,2.7946618E-3,3.9745413E-4],"split_indices":[3,77,77,25,51,1,51,0,0,0,0,0,0,0,0],"split_type":[0,0,0,0,0,0,0,0,0,0,0,0,0,0,0],"sum_hessian":[6.605024E3,2.4336538E3,4.17137E3,7.707305E2,1.6629233E3,1.328636E3,2.8427341E3,3.4284808E2,4.2788248E2,1.0798955E3,5.8302783E2,6.851073E2,6.435287E2,1.1559711E3,1.6867631E3],"tree_param":{"num_deleted":"0","num_feature":"106","num_nodes":"15","size_leaf_vector":"1"}},{"base_weights":[-1.0852981E-1,-2.1005487E-1,1.2838942E-1,-8.686014E-2,-3.5206303E-1,-1.995093E-2,2.6024714E-1,1.6586982E-4,-2.073778E-3,-4.828499E-3,-2.8206166E-3,1.4183804E-3,-1.1888195E-3,1.7740739E-3,4.003993E-3],"categories":[],"categories_nodes":[],"categories_segments":[],"categories_sizes":[],"default_left":[0,0,0,0,0,0,0,0,0,0,0,0,0,0,0],"id":66,"left_children":[1,3,5,7,9,11,13,-1,-1,-1,-1,-1,-1,-1,-1],"loss_changes":[1.588534E2,8.084236E1,3.876094E1,3.0880432E1,1.9520752E1,1.4955997E1,1.2108574E1,0E0,0E0,0E0,0E0,0E0,0E0,0E0,0E0],"parents":[2147483647,0,0,1,1,2,2,3,3,4,4,5,5,6,6],"right_children":[2,4,6,8,10,12,14,-1,-1,-1,-1,-1,-1,-1,-1],"split_conditions":[2E1,1.4E1,-2E-1,2.8E0,8E0,-6.4E0,3.5E1,1.6586982E-4,-2.073778E-3,-4.828499E-3,-2.8206166E-3,1.4183804E-3,-1.1888195E-3,1.7740739E-3,4.003993E-3],"split_indices":[28,80,77,25,51,25,2,0,0,0,0,0,0,0,0],"split_type":[0,0,0,0,0,0,0,0,0,0,0,0,0,0,0],"sum_hessian":[6.602119E3,4.621723E3,1.9803959E3,2.4756567E3,2.1460667E3,9.3234894E2,1.048047E3,1.3326394E3,1.1430172E3,7.461332E2,1.3999336E3,3.536182E2,5.787308E2,6.601298E2,3.8791714E2],"tree_param":{"num_deleted":"0","num_feature":"106","num_nodes":"15","size_leaf_vector":"1"}},{"base_weights":[1.08529806E-1,2.1005487E-1,-1.2838943E-1,8.686013E-2,3.5206303E-1,1.9950928E-2,-2.6024714E-1,-1.6586983E-4,2.073778E-3,4.828499E-3,2.8206166E-3,-1.4183803E-3,1.1888195E-3,-1.7740739E-3,-4.003993E-3],"categories":[],"categories_nodes":[],"categories_segments":[],"categories_sizes":[],"default_left":[0,0,0,0,0,0,0,0,0,0,0,0,0,0,0],"id":67,"left_children":[1,3,5,7,9,11,13,-1,-1,-1,-1,-1,-1,-1,-1],"loss_changes":[1.588534E2,8.084238E1,3.8760937E1,3.0880426E1,1.9520752E1,1.4955997E1,1.2108582E1,0E0,0E0,0E0,0E0,0E0,0E0,0E0,0E0],"parents":[2147483647,0,0,1,1,2,2,3,3,4,4,5,5,6,6],"right_children":[2,4,6,8,10,12,14,-1,-1,-1,-1,-1,-1,-1,-1],"split_conditions":[2E1,1.4E1,-2E-1,2.8E0,8E0,-6.4E0,3.5E1,-1.6586983E-4,2.073778E-3,4.828499E-3,2.8206166E-3,-1.4183803E-3,1.1888195E-3,-1.7740739E-3,-4.003993E-3],"split_indices":[28,80,77,25,51,25,2,0,0,0,0,0,0,0,0],"split_type":[0,0,0,0,0,0,0,0,0,0,0,0,0,0,0],"sum_hessian":[6.602119E3,4.621723E3,1.9803959E3,2.4756567E3,2.1460667E3,9.3234894E2,1.048047E3,1.3326394E3,1.1430172E3,7.461332E2,1.3999336E3,3.536182E2,5.787308E2,6.601298E2,3.8791714E2],"tree_param":{"num_deleted":"0","num_feature":"106","num_nodes":"15","size_leaf_vector":"1"}},{"base_weights":[-1.0749222E-1,-2.652908E-1,4.2533323E-2,-1.3104425E-1,-3.8749245E-1,-7.666126E-2,2.0617363E-1,-1.9854326E-3,1.721094E-4,-3.0683735E-3,-5.276203E-3,-1.7597723E-3,1.37987E-3,3.6671557E-3,1.5300906E-3],"categories":[],"categories_nodes":[],"categories_segments":[],"categories_sizes":[],"default_left":[0,0,0,0,0,0,0,0,0,0,0,0,0,0,0],"id":68,"left_children":[1,3,5,7,9,11,13,-1,-1,-1,-1,-1,-1,-1,-1],"loss_changes":[1.5626451E2,5.272351E1,6.602715E1,1.5358587E1,1.8865082E1,4.178204E1,1.2119442E1,0E0,0E0,0E0,0E0,0E0,0E0,0E0,0E0],"parents":[2147483647,0,0,1,1,2,2,3,3,4,4,5,5,6,6],"right_children":[2,4,6,8,10,12,14,-1,-1,-1,-1,-1,-1,-1,-1],"split_conditions":[1.5E1,1.2E1,5.45E-1,6E0,2.3E1,2.6E1,-6.1E0,-1.9854326E-3,1.721094E-4,-3.0683735E-3,-5.276203E-3,-1.7597723E-3,1.37987E-3,3.6671557E-3,1.5300906E-3],"split_indices":[51,80,55,77,80,51,25,0,0,0,0,0,0,0,0],"split_type":[0,0,0,0,0,0,0,0,0,0,0,0,0,0,0],"sum_hessian":[6.5992554E3,3.2159329E3,3.3833228E3,1.5334309E3,1.682502E3,1.9578027E3,1.4255199E3,1.0534618E3,4.7996915E2,1.0698851E3,6.126169E2,1.3386163E3,6.191865E2,3.5316467E2,1.0723552E3],"tree_param":{"num_deleted":"0","num_feature":"106","num_nodes":"15","size_leaf_vector":"1"}},{"base_weights":[1.07492216E-1,2.6529077E-1,-4.2533346E-2,1.3104425E-1,3.8749245E-1,7.666125E-2,-2.0617367E-1,1.9854328E-3,-1.7210965E-4,3.0683735E-3,5.276203E-3,1.7597721E-3,-1.3798699E-3,-3.6671557E-3,-1.5300912E-3],"categories":[],"categories_nodes":[],"categories_segments":[],"categories_sizes":[],"default_left":[0,0,0,0,0,0,0,0,0,0,0,0,0,0,0],"id":69,"left_children":[1,3,5,7,9,11,13,-1,-1,-1,-1,-1,-1,-1,-1],"loss_changes":[1.5626453E2,5.272348E1,6.602717E1,1.5358593E1,1.8865082E1,4.1782036E1,1.2119434E1,0E0,0E0,0E0,0E0,0E0,0E0,0E0,0E0],"parents":[2147483647,0,0,1,1,2,2,3,3,4,4,5,5,6,6],"right_children":[2,4,6,8,10,12,14,-1,-1,-1,-1,-1,-1,-1,-1],"split_conditions":[1.5E1,1.2E1,5.45E-1,6E0,2.3E1,2.6E1,-6.1E0,1.9854328E-3,-1.7210965E-4,3.0683735E-3,5.276203E-3,1.7597721E-3,-1.3798699E-3,-3.6671557E-3,-1.5300912E-3],"split_indices":[51,80,55,77,80,51,25,0,0,0,0,0,0,0,0],"split_type":[0,0,0,0,0,0,0,0,0,0,0,0,0,0,0],"sum_hessian":[6.5992554E3,3.2159329E3,3.3833228E3,1.5334309E3,1.682502E3,1.9578029E3,1.4255199E3,1.0534618E3,4.7996918E2,1.0698851E3,6.126169E2,1.3386163E3,6.191865E2,3.5316467E2,1.0723552E3],"tree_param":{"num_deleted":"0","num_feature":"106","num_nodes":"15","size_leaf_vector":"1"}},{"base_weights":[-1.06465824E-1,-2.0628665E-1,1.2636073E-1,-1.2513846E-1,-4.1592085E-1,-1.4437328E-1,1.9695503E-1,-2.7085121E-3,-4.2282545E-4,-3.401776E-3,-5.2312003E-3,-2.4837144E-3,2.790077E-4,3.283869E-3,1.1230124E-3],"categories":[],"categories_nodes":[],"categories_segments":[],"categories_sizes":[],"default_left":[0,0,0,0,0,0,0,0,0,0,0,0,0,0,0],"id":70,"left_children":[1,3,5,7,9,11,13,-1,-1,-1,-1,-1,-1,-1,-1],"loss_changes":[1.5335432E2,7.8506516E1,3.7877403E1,4.0200428E1,1.0282593E1,7.355381E0,1.7444515E1,0E0,0E0,0E0,0E0,0E0,0E0,0E0,0E0],"parents":[2147483647,0,0,1,1,2,2,3,3,4,4,5,5,6,6],"right_children":[2,4,6,8,10,12,14,-1,-1,-1,-1,-1,-1,-1,-1],"split_conditions":[2E1,2E1,3.59E-1,7E0,5.96E-1,2.6E1,-6.2E0,-2.7085121E-3,-4.2282545E-4,-3.401776E-3,-5.2312003E-3,-2.4837144E-3,2.790077E-4,3.283869E-3,1.1230124E-3],"split_indices":[28,80,55,27,3,28,25,0,0,0,0,0,0,0,0],"split_type":[0,0,0,0,0,0,0,0,0,0,0,0,0,0,0],"sum_hessian":[6.596335E3,4.616987E3,1.9793484E3,3.3296826E3,1.2873041E3,4.0915717E2,1.5701913E3,1.2061841E3,2.1234985E3,7.567701E2,5.3053394E2,2.548612E2,1.5429596E2,6.140107E2,9.561806E2],"tree_param":{"num_deleted":"0","num_feature":"106","num_nodes":"15","size_leaf_vector":"1"}},{"base_weights":[1.06465824E-1,2.0628665E-1,-1.2636073E-1,1.2513846E-1,4.1592085E-1,1.4437328E-1,-1.9695501E-1,2.7085121E-3,4.228254E-4,3.4017765E-3,5.2312003E-3,2.4837141E-3,-2.7900768E-4,-3.2838683E-3,-1.1230124E-3],"categories":[],"categories_nodes":[],"categories_segments":[],"categories_sizes":[],"default_left":[0,0,0,0,0,0,0,0,0,0,0,0,0,0,0],"id":71,"left_children":[1,3,5,7,9,11,13,-1,-1,-1,-1,-1,-1,-1,-1],"loss_changes":[1.5335431E2,7.8506546E1,3.7877403E1,4.0200436E1,1.0282593E1,7.35538E0,1.7444504E1,0E0,0E0,0E0,0E0,0E0,0E0,0E0,0E0],"parents":[2147483647,0,0,1,1,2,2,3,3,4,4,5,5,6,6],"right_children":[2,4,6,8,10,12,14,-1,-1,-1,-1,-1,-1,-1,-1],"split_conditions":[2E1,2E1,3.59E-1,7E0,5.96E-1,2.6E1,-6.2E0,2.7085121E-3,4.228254E-4,3.4017765E-3,5.2312003E-3,2.4837141E-3,-2.7900768E-4,-3.2838683E-3,-1.1230124E-3],"split_indices":[28,80,55,27,3,28,25,0,0,0,0,0,0,0,0],"split_type":[0,0,0,0,0,0,0,0,0,0,0,0,0,0,0],"sum_hessian":[6.5963354E3,4.616987E3,1.9793485E3,3.3296826E3,1.2873041E3,4.0915717E2,1.5701913E3,1.2061841E3,2.1234985E3,7.567701E2,5.3053394E2,2.548612E2,1.5429596E2,6.1401074E2,9.561806E2],"tree_param":{"num_deleted":"0","num_feature":"106","num_nodes":"15","size_leaf_vector":"1"}},{"base_weights":[-1.05449535E-1,-2.606354E-1,4.1974064E-2,-1.2822129E-1,-3.813761E-1,-7.555267E-2,2.0332254E-1,-1.9510562E-3,1.8628828E-4,-3.0190602E-3,-5.1975744E-3,-1.7306933E-3,1.3519399E-3,3.6072305E-3,1.5126665E-3],"categories":[],"categories_nodes":[],"categories_segments":[],"categories_sizes":[],"default_left":[0,0,0,0,0,0,0,0,0,0,0,0,0,0,0],"id":72,"left_children":[1,3,5,7,9,11,13,-1,-1,-1,-1,-1,-1,-1,-1],"loss_changes":[1.5087885E2,5.1316284E1,6.4159874E1,1.5068798E1,1.8317856E1,4.025934E1,1.1628132E1,0E0,0E0,0E0,0E0,0E0,0E0,0E0,0E0],"parents":[2147483647,0,0,1,1,2,2,3,3,4,4,5,5,6,6],"right_children":[2,4,6,8,10,12,14,-1,-1,-1,-1,-1,-1,-1,-1],"split_conditions":[1.5E1,1.2E1,5.45E-1,6E0,2.3E1,2.6E1,-6.1E0,-1.9510562E-3,1.8628828E-4,-3.0190602E-3,-5.1975744E-3,-1.7306933E-3,1.3519399E-3,3.6072305E-3,1.5126665E-3],"split_indices":[51,80,55,77,80,51,25,0,0,0,0,0,0,0,0],"split_type":[0,0,0,0,0,0,0,0,0,0,0,0,0,0,0],"sum_hessian":[6.5934365E3,3.2117795E3,3.381657E3,1.5328228E3,1.6789568E3,1.9568286E3,1.4248282E3,1.0529279E3,4.7989493E2,1.0685107E3,6.104461E2,1.3379237E3,6.18905E2,3.5263687E2,1.0721914E3],"tree_param":{"num_deleted":"0","num_feature":"106","num_nodes":"15","size_leaf_vector":"1"}},{"base_weights":[1.05449535E-1,2.606354E-1,-4.197406E-2,1.2822127E-1,3.8137612E-1,7.5552665E-2,-2.0332253E-1,1.9510561E-3,-1.8628854E-4,3.0190602E-3,5.1975744E-3,1.730693E-3,-1.3519397E-3,-3.6072298E-3,-1.5126665E-3],"categories":[],"categories_nodes":[],"categories_segments":[],"categories_sizes":[],"default_left":[0,0,0,0,0,0,0,0,0,0,0,0,0,0,0],"id":73,"left_children":[1,3,5,7,9,11,13,-1,-1,-1,-1,-1,-1,-1,-1],"loss_changes":[1.5087885E2,5.1316284E1,6.415987E1,1.50688E1,1.8317871E1,4.025933E1,1.1628128E1,0E0,0E0,0E0,0E0,0E0,0E0,0E0,0E0],"parents":[2147483647,0,0,1,1,2,2,3,3,4,4,5,5,6,6],"right_children":[2,4,6,8,10,12,14,-1,-1,-1,-1,-1,-1,-1,-1],"split_conditions":[1.5E1,1.2E1,5.45E-1,6E0,2.3E1,2.6E1,-6.1E0,1.9510561E-3,-1.8628854E-4,3.0190602E-3,5.1975744E-3,1.730693E-3,-1.3519397E-3,-3.6072298E-3,-1.5126665E-3],"split_indices":[51,80,55,77,80,51,25,0,0,0,0,0,0,0,0],"split_type":[0,0,0,0,0,0,0,0,0,0,0,0,0,0,0],"sum_hessian":[6.5934365E3,3.2117795E3,3.381657E3,1.5328228E3,1.6789568E3,1.9568287E3,1.4248282E3,1.0529279E3,4.7989493E2,1.0685107E3,6.104461E2,1.3379237E3,6.18905E2,3.5263687E2,1.0721914E3],"tree_param":{"num_deleted":"0","num_feature":"106","num_nodes":"15","size_leaf_vector":"1"}},{"base_weights":[-1.0444421E-1,9.811436E-2,-2.1532285E-1,-2.323448E-2,2.3544218E-1,-4.1123885E-1,-1.24278076E-1,1.1642316E-3,-1.4914224E-3,3.5719746E-3,1.7096268E-3,-3.1995776E-3,-5.0791483E-3,-2.777693E-3,-3.4869945E-4],"categories":[],"categories_nodes":[],"categories_segments":[],"categories_sizes":[],"default_left":[0,0,0,0,0,0,0,0,0,0,0,0,0,0,0],"id":74,"left_children":[1,3,5,7,9,11,13,-1,-1,-1,-1,-1,-1,-1,-1],"loss_changes":[1.4806062E2,3.887403E1,7.59353E1,2.18066E1,8.529621E0,1.1760986E1,3.9923416E1,0E0,0E0,0E0,0E0,0E0,0E0,0E0,0E0],"parents":[2147483647,0,0,1,1,2,2,3,3,4,4,5,5,6,6],"right_children":[2,4,6,8,10,12,14,-1,-1,-1,-1,-1,-1,-1,-1],"split_conditions":[4.5E-1,5.19E-1,-1.4E0,-4.9E0,-6.2E0,2.3E1,7E0,1.1642316E-3,-1.4914224E-3,3.5719746E-3,1.7096268E-3,-3.1995776E-3,-5.0791483E-3,-2.777693E-3,-3.4869945E-4],"split_indices":[3,55,77,25,25,1,29,0,0,0,0,0,0,0,0],"split_type":[0,0,0,0,0,0,0,0,0,0,0,0,0,0,0],"sum_hessian":[6.5904214E3,2.3314072E3,4.259014E3,1.2381526E3,1.0932546E3,1.3501526E3,2.9088616E3,5.8705884E2,6.5109375E2,3.769424E2,7.163122E2,6.9666943E2,6.534831E2,1.069939E3,1.8389226E3],"tree_param":{"num_deleted":"0","num_feature":"106","num_nodes":"15","size_leaf_vector":"1"}},{"base_weights":[1.044442E-1,-9.8114364E-2,2.1532284E-1,2.3234474E-2,-2.3544219E-1,4.1123885E-1,1.2427806E-1,-1.1642317E-3,1.4914224E-3,-3.5719743E-3,-1.709627E-3,3.1995776E-3,5.0791483E-3,2.7776929E-3,3.4869922E-4],"categories":[],"categories_nodes":[],"categories_segments":[],"categories_sizes":[],"default_left":[0,0,0,0,0,0,0,0,0,0,0,0,0,0,0],"id":75,"left_children":[1,3,5,7,9,11,13,-1,-1,-1,-1,-1,-1,-1,-1],"loss_changes":[1.4806064E2,3.8874035E1,7.59353E1,2.1806602E1,8.5296135E0,1.1760986E1,3.9923416E1,0E0,0E0,0E0,0E0,0E0,0E0,0E0,0E0],"parents":[2147483647,0,0,1,1,2,2,3,3,4,4,5,5,6,6],"right_children":[2,4,6,8,10,12,14,-1,-1,-1,-1,-1,-1,-1,-1],"split_conditions":[4.5E-1,5.19E-1,-1.4E0,-4.9E0,-6.2E0,2.3E1,7E0,-1.1642317E-3,1.4914224E-3,-3.5719743E-3,-1.709627E-3,3.1995776E-3,5.0791483E-3,2.7776929E-3,3.4869922E-4],"split_indices":[3,55,77,25,25,1,29,0,0,0,0,0,0,0,0],"split_type":[0,0,0,0,0,0,0,0,0,0,0,0,0,0,0],"sum_hessian":[6.5904214E3,2.3314072E3,4.259014E3,1.2381526E3,1.0932546E3,1.3501526E3,2.9088616E3,5.8705884E2,6.5109375E2,3.769424E2,7.163122E2,6.9666943E2,6.534831E2,1.069939E3,1.8389226E3],"tree_param":{"num_deleted":"0","num_feature":"106","num_nodes":"15","size_leaf_vector":"1"}},{"base_weights":[-1.0344879E-1,-2.5606975E-1,4.1421995E-2,-1.254578E-1,-3.7537566E-1,-1.7502858E-1,1.265535E-1,-1.9169024E-3,1.990291E-4,-2.9691323E-3,-5.1230467E-3,6.604156E-4,-2.7515818E-3,5.838678E-4,2.746665E-3],"categories":[],"categories_nodes":[],"categories_segments":[],"categories_sizes":[],"default_left":[0,0,0,0,0,0,0,0,0,0,0,0,0,0,0],"id":76,"left_children":[1,3,5,7,9,11,13,-1,-1,-1,-1,-1,-1,-1,-1],"loss_changes":[1.4568224E2,4.9950546E1,6.2320835E1,1.4764709E1,1.7858063E1,2.3065022E1,2.4488838E1,0E0,0E0,0E0,0E0,0E0,0E0,0E0,0E0],"parents":[2147483647,0,0,1,1,2,2,3,3,4,4,5,5,6,6],"right_children":[2,4,6,8,10,12,14,-1,-1,-1,-1,-1,-1,-1,-1],"split_conditions":[1.5E1,1.2E1,-2.4E0,6E0,2.3E1,3.23E-1,2.6E1,-1.9169024E-3,1.990291E-4,-2.9691323E-3,-5.1230467E-3,6.604156E-4,-2.7515818E-3,5.838678E-4,2.746665E-3],"split_indices":[51,80,77,77,80,3,51,0,0,0,0,0,0,0,0],"split_type":[0,0,0,0,0,0,0,0,0,0,0,0,0,0,0],"sum_hessian":[6.5873994E3,3.2075193E3,3.37988E3,1.5321862E3,1.6753331E3,9.537848E2,2.4260952E3,1.0523655E3,4.798207E2,1.0670598E3,6.082732E2,2.800008E2,6.73784E2,1.6623967E3,7.636984E2],"tree_param":{"num_deleted":"0","num_feature":"106","num_nodes":"15","size_leaf_vector":"1"}},{"base_weights":[1.0344879E-1,2.5606975E-1,-4.1422002E-2,1.2545778E-1,3.7537566E-1,1.7502858E-1,-1.2655352E-1,1.9169021E-3,-1.9902922E-4,2.9691325E-3,5.1230458E-3,-6.6041574E-4,2.7515818E-3,-5.838678E-4,-2.7466652E-3],"categories":[],"categories_nodes":[],"categories_segments":[],"categories_sizes":[],"default_left":[0,0,0,0,0,0,0,0,0,0,0,0,0,0,0],"id":77,"left_children":[1,3,5,7,9,11,13,-1,-1,-1,-1,-1,-1,-1,-1],"loss_changes":[1.4568225E2,4.9950516E1,6.2320835E1,1.4764709E1,1.7858047E1,2.3065023E1,2.4488842E1,0E0,0E0,0E0,0E0,0E0,0E0,0E0,0E0],"parents":[2147483647,0,0,1,1,2,2,3,3,4,4,5,5,6,6],"right_children":[2,4,6,8,10,12,14,-1,-1,-1,-1,-1,-1,-1,-1],"split_conditions":[1.5E1,1.2E1,