{"learner":{"attributes":{},"feature_names":[],"feature_types":[],"gradient_booster":{"model":{"gbtree_model_param":{"num_parallel_tree":"1","num_trees":"1500"},"iteration_indptr":[0,2,4,6,8,10,12,14,16,18,20,22,24,26,28,30,32,34,36,38,40,42,44,46,48,50,52,54,56,58,60,62,64,66,68,70,72,74,76,78,80,82,84,86,88,90,92,94,96,98,100,102,104,106,108,110,112,114,116,118,120,122,124,126,128,130,132,134,136,138,140,142,144,146,148,150,152,154,156,158,160,162,164,166,168,170,172,174,176,178,180,182,184,186,188,190,192,194,196,198,200,202,204,206,208,210,212,214,216,218,220,222,224,226,228,230,232,234,236,238,240,242,244,246,248,250,252,254,256,258,260,262,264,266,268,270,272,274,276,278,280,282,284,286,288,290,292,294,296,298,300,302,304,306,308,310,312,314,316,318,320,322,324,326,328,330,332,334,336,338,340,342,344,346,348,350,352,354,356,358,360,362,364,366,368,370,372,374,376,378,380,382,384,386,388,390,392,394,396,398,400,402,404,406,408,410,412,414,416,418,420,422,424,426,428,430,432,434,436,438,440,442,444,446,448,450,452,454,456,458,460,462,464,466,468,470,472,474,476,478,480,482,484,486,488,490,492,494,496,498,500,502,504,506,508,510,512,514,516,518,520,522,524,526,528,530,532,534,536,538,540,542,544,546,548,550,552,554,556,558,560,562,564,566,568,570,572,574,576,578,580,582,584,586,588,590,592,594,596,598,600,602,604,606,608,610,612,614,616,618,620,622,624,626,628,630,632,634,636,638,640,642,644,646,648,650,652,654,656,658,660,662,664,666,668,670,672,674,676,678,680,682,684,686,688,690,692,694,696,698,700,702,704,706,708,710,712,714,716,718,720,722,724,726,728,730,732,734,736,738,740,742,744,746,748,750,752,754,756,758,760,762,764,766,768,770,772,774,776,778,780,782,784,786,788,790,792,794,796,798,800,802,804,806,808,810,812,814,816,818,820,822,824,826,828,830,832,834,836,838,840,842,844,846,848,850,852,854,856,858,860,862,864,866,868,870,872,874,876,878,880,882,884,886,888,890,892,894,896,898,900,902,904,906,908,910,912,914,916,918,920,922,924,926,928,930,932,934,936,938,940,942,944,946,948,950,952,954,956,958,960,962,964,966,968,970,972,974,976,978,980,982,984,986,988,990,992,994,996,998,1000,1002,1004,1006,1008,1010,1012,1014,1016,1018,1020,1022,1024,1026,1028,1030,1032,1034,1036,1038,1040,1042,1044,1046,1048,1050,1052,1054,1056,1058,1060,1062,1064,1066,1068,1070,1072,1074,1076,1078,1080,1082,1084,1086,1088,1090,1092,1094,1096,1098,1100,1102,1104,1106,1108,1110,1112,1114,1116,1118,1120,1122,1124,1126,1128,1130,1132,1134,1136,1138,1140,1142,1144,1146,1148,1150,1152,1154,1156,1158,1160,1162,1164,1166,1168,1170,1172,1174,1176,1178,1180,1182,1184,1186,1188,1190,1192,1194,1196,1198,1200,1202,1204,1206,1208,1210,1212,1214,1216,1218,1220,1222,1224,1226,1228,1230,1232,1234,1236,1238,1240,1242,1244,1246,1248,1250,1252,1254,1256,1258,1260,1262,1264,1266,1268,1270,1272,1274,1276,1278,1280,1282,1284,1286,1288,1290,1292,1294,1296,1298,1300,1302,1304,1306,1308,1310,1312,1314,1316,1318,1320,1322,1324,1326,1328,1330,1332,1334,1336,1338,1340,1342,1344,1346,1348,1350,1352,1354,1356,1358,1360,1362,1364,1366,1368,1370,1372,1374,1376,1378,1380,1382,1384,1386,1388,1390,1392,1394,1396,1398,1400,1402,1404,1406,1408,1410,1412,1414,1416,1418,1420,1422,1424,1426,1428,1430,1432,1434,1436,1438,1440,1442,1444,1446,1448,1450,1452,1454,1456,1458,1460,1462,1464,1466,1468,1470,1472,1474,1476,1478,1480,1482,1484,1486,1488,1490,1492,1494,1496,1498,1500],"tree_info":[0,1,0,1,0,1,0,1,0,1,0,1,0,1,0,1,0,1,0,1,0,1,0,1,0,1,0,1,0,1,0,1,0,1,0,1,0,1,0,1,0,1,0,1,0,1,0,1,0,1,0,1,0,1,0,1,0,1,0,1,0,1,0,1,0,1,0,1,0,1,0,1,0,1,0,1,0,1,0,1,0,1,0,1,0,1,0,1,0,1,0,1,0,1,0,1,0,1,0,1,0,1,0,1,0,1,0,1,0,1,0,1,0,1,0,1,0,1,0,1,0,1,0,1,0,1,0,1,0,1,0,1,0,1,0,1,0,1,0,1,0,1,0,1,0,1,0,1,0,1,0,1,0,1,0,1,0,1,0,1,0,1,0,1,0,1,0,1,0,1,0,1,0,1,0,1,0,1,0,1,0,1,0,1,0,1,0,1,0,1,0,1,0,1,0,1,0,1,0,1,0,1,0,1,0,1,0,1,0,1,0,1,0,1,0,1,0,1,0,1,0,1,0,1,0,1,0,1,0,1,0,1,0,1,0,1,0,1,0,1,0,1,0,1,0,1,0,1,0,1,0,1,0,1,0,1,0,1,0,1,0,1,0,1,0,1,0,1,0,1,0,1,0,1,0,1,0,1,0,1,0,1,0,1,0,1,0,1,0,1,0,1,0,1,0,1,0,1,0,1,0,1,0,1,0,1,0,1,0,1,0,1,0,1,0,1,0,1,0,1,0,1,0,1,0,1,0,1,0,1,0,1,0,1,0,1,0,1,0,1,0,1,0,1,0,1,0,1,0,1,0,1,0,1,0,1,0,1,0,1,0,1,0,1,0,1,0,1,0,1,0,1,0,1,0,1,0,1,0,1,0,1,0,1,0,1,0,1,0,1,0,1,0,1,0,1,0,1,0,1,0,1,0,1,0,1,0,1,0,1,0,1,0,1,0,1,0,1,0,1,0,1,0,1,0,1,0,1,0,1,0,1,0,1,0,1,0,1,0,1,0,1,0,1,0,1,0,1,0,1,0,1,0,1,0,1,0,1,0,1,0,1,0,1,0,1,0,1,0,1,0,1,0,1,0,1,0,1,0,1,0,1,0,1,0,1,0,1,0,1,0,1,0,1,0,1,0,1,0,1,0,1,0,1,0,1,0,1,0,1,0,1,0,1,0,1,0,1,0,1,0,1,0,1,0,1,0,1,0,1,0,1,0,1,0,1,0,1,0,1,0,1,0,1,0,1,0,1,0,1,0,1,0,1,0,1,0,1,0,1,0,1,0,1,0,1,0,1,0,1,0,1,0,1,0,1,0,1,0,1,0,1,0,1,0,1,0,1,0,1,0,1,0,1,0,1,0,1,0,1,0,1,0,1,0,1,0,1,0,1,0,1,0,1,0,1,0,1,0,1,0,1,0,1,0,1,0,1,0,1,0,1,0,1,0,1,0,1,0,1,0,1,0,1,0,1,0,1,0,1,0,1,0,1,0,1,0,1,0,1,0,1,0,1,0,1,0,1,0,1,0,1,0,1,0,1,0,1,0,1,0,1,0,1,0,1,0,1,0,1,0,1,0,1,0,1,0,1,0,1,0,1,0,1,0,1,0,1,0,1,0,1,0,1,0,1,0,1,0,1,0,1,0,1,0,1,0,1,0,1,0,1,0,1,0,1,0,1,0,1,0,1,0,1,0,1,0,1,0,1,0,1,0,1,0,1,0,1,0,1,0,1,0,1,0,1,0,1,0,1,0,1,0,1,0,1,0,1,0,1,0,1,0,1,0,1,0,1,0,1,0,1,0,1,0,1,0,1,0,1,0,1,0,1,0,1,0,1,0,1,0,1,0,1,0,1,0,1,0,1,0,1,0,1,0,1,0,1,0,1,0,1,0,1,0,1,0,1,0,1,0,1,0,1,0,1,0,1,0,1,0,1,0,1,0,1,0,1,0,1,0,1,0,1,0,1,0,1,0,1,0,1,0,1,0,1,0,1,0,1,0,1,0,1,0,1,0,1,0,1,0,1,0,1,0,1,0,1,0,1,0,1,0,1,0,1,0,1,0,1,0,1,0,1,0,1,0,1,0,1,0,1,0,1,0,1,0,1,0,1,0,1,0,1,0,1,0,1,0,1,0,1,0,1,0,1,0,1,0,1,0,1,0,1,0,1,0,1,0,1,0,1,0,1,0,1,0,1,0,1,0,1,0,1,0,1,0,1,0,1,0,1,0,1,0,1,0,1,0,1,0,1,0,1,0,1,0,1,0,1,0,1,0,1,0,1,0,1,0,1,0,1,0,1,0,1,0,1,0,1,0,1,0,1,0,1,0,1,0,1,0,1,0,1,0,1,0,1,0,1,0,1,0,1,0,1,0,1,0,1,0,1,0,1,0,1,0,1,0,1,0,1,0,1,0,1,0,1,0,1,0,1,0,1,0,1,0,1,0,1,0,1,0,1,0,1,0,1,0,1,0,1,0,1,0,1,0,1,0,1,0,1,0,1,0,1,0,1,0,1,0,1,0,1,0,1,0,1,0,1,0,1,0,1,0,1,0,1,0,1,0,1,0,1,0,1,0,1,0,1,0,1,0,1,0,1,0,1,0,1,0,1,0,1,0,1,0,1,0,1,0,1,0,1,0,1,0,1,0,1,0,1,0,1,0,1,0,1,0,1,0,1,0,1,0,1,0,1,0,1,0,1,0,1,0,1,0,1,0,1,0,1,0,1,0,1,0,1,0,1,0,1,0,1,0,1,0,1,0,1,0,1,0,1,0,1,0,1,0,1,0,1,0,1,0,1,0,1,0,1,0,1,0,1,0,1,0,1,0,1,0,1,0,1,0,1,0,1,0,1,0,1,0,1,0,1,0,1,0,1,0,1,0,1,0,1,0,1,0,1,0,1,0,1,0,1,0,1,0,1,0,1,0,1,0,1,0,1,0,1,0,1,0,1,0,1,0,1,0,1,0,1,0,1,0,1,0,1,0,1,0,1,0,1,0,1,0,1,0,1,0,1,0,1,0,1,0,1,0,1,0,1,0,1,0,1,0,1,0,1,0,1,0,1,0,1,0,1,0,1,0,1,0,1,0,1,0,1,0,1,0,1,0,1,0,1,0,1,0,1,0,1,0,1,0,1,0,1,0,1,0,1,0,1,0,1,0,1,0,1,0,1,0,1,0,1,0,1,0,1,0,1,0,1,0,1,0,1,0,1,0,1,0,1,0,1,0,1,0,1,0,1,0,1,0,1,0,1,0,1,0,1,0,1,0,1,0,1,0,1,0,1,0,1,0,1,0,1,0,1,0,1,0,1,0,1,0,1,0,1,0,1,0,1,0,1,0,1,0,1,0,1,0,1,0,1,0,1,0,1,0,1,0,1,0,1,0,1,0,1],"trees":[{"base_weights":[-1.481982E-1,1.1821862E-1,-3.0517775E-1,-1.4303958E-1,2.3933649E-1,-1.4201851E-1,-4.8773703E-1,7.0100144E-4,-3.141542E-3,8.469751E-4,3.492144E-3,-2.9090908E-3,-8.970525E-5,-6.223958E-3,-4.0190006E-3],"categories":[],"categories_nodes":[],"categories_segments":[],"categories_sizes":[],"default_left":[0,0,0,0,0,0,0,0,0,0,0,0,0,0,0],"id":0,"left_children":[1,3,5,7,9,11,13,-1,-1,-1,-1,-1,-1,-1,-1],"loss_changes":[2.7857056E2,7.8192535E1,1.247648E2,2.857907E1,2.8651924E1,4.3865734E1,2.2607239E1,0E0,0E0,0E0,0E0,0E0,0E0,0E0,0E0],"parents":[2147483647,0,0,1,1,2,2,3,3,4,4,5,5,6,6],"right_children":[2,4,6,8,10,12,14,-1,-1,-1,-1,-1,-1,-1,-1],"split_conditions":[4.59E-1,-2E0,1.4E1,-4.8E0,2.4E1,9E0,8E0,7.0100144E-4,-3.141542E-3,8.469751E-4,3.492144E-3,-2.9090908E-3,-8.970525E-5,-6.223958E-3,-4.0190006E-3],"split_indices":[3,77,80,25,51,51,51,0,0,0,0,0,0,0,0],"split_type":[0,0,0,0,0,0,0,0,0,0,0,0,0,0,0],"sum_hessian":[6.659E3,2.469E3,4.19E3,7.82E2,1.687E3,2.2135E3,1.9765E3,3.485E2,4.335E2,7.015E2,9.855E2,1.044E3,1.1695E3,7.67E2,1.2095E3],"tree_param":{"num_deleted":"0","num_feature":"106","num_nodes":"15","size_leaf_vector":"1"}},{"base_weights":[1.481982E-1,-1.1821862E-1,3.0517775E-1,1.4303958E-1,-2.3933649E-1,1.4201851E-1,4.8773703E-1,-7.0100144E-4,3.141542E-3,-8.469751E-4,-3.492144E-3,2.9090908E-3,8.970525E-5,6.223958E-3,4.0190006E-3],"categories":[],"categories_nodes":[],"categories_segments":[],"categories_sizes":[],"default_left":[0,0,0,0,0,0,0,0,0,0,0,0,0,0,0],"id":1,"left_children":[1,3,5,7,9,11,13,-1,-1,-1,-1,-1,-1,-1,-1],"loss_changes":[2.7857056E2,7.8192535E1,1.247648E2,2.857907E1,2.8651924E1,4.3865734E1,2.2607239E1,0E0,0E0,0E0,0E0,0E0,0E0,0E0,0E0],"parents":[2147483647,0,0,1,1,2,2,3,3,4,4,5,5,6,6],"right_children":[2,4,6,8,10,12,14,-1,-1,-1,-1,-1,-1,-1,-1],"split_conditions":[4.59E-1,-2E0,1.4E1,-4.8E0,2.4E1,9E0,8E0,-7.0100144E-4,3.141542E-3,-8.469751E-4,-3.492144E-3,2.9090908E-3,8.970525E-5,6.223958E-3,4.0190006E-3],"split_indices":[3,77,80,25,51,51,51,0,0,0,0,0,0,0,0],"split_type":[0,0,0,0,0,0,0,0,0,0,0,0,0,0,0],"sum_hessian":[6.659E3,2.469E3,4.19E3,7.82E2,1.687E3,2.2135E3,1.9765E3,3.485E2,4.335E2,7.015E2,9.855E2,1.044E3,1.1695E3,7.67E2,1.2095E3],"tree_param":{"num_deleted":"0","num_feature":"106","num_nodes":"15","size_leaf_vector":"1"}},{"base_weights":[-1.4671959E-1,1.17038004E-1,-3.0213335E-1,-1.4161316E-1,2.3694748E-1,-1.4060023E-1,-4.828769E-1,6.9401116E-4,-3.1102295E-3,8.385179E-4,3.4573004E-3,-2.8800513E-3,-8.880927E-5,-6.323641E-3,-4.0699984E-3],"categories":[],"categories_nodes":[],"categories_segments":[],"categories_sizes":[],"default_left":[0,0,0,0,0,0,0,0,0,0,0,0,0,0,0],"id":2,"left_children":[1,3,5,7,9,11,13,-1,-1,-1,-1,-1,-1,-1,-1],"loss_changes":[2.7303607E2,7.663939E1,1.2229114E2,2.801203E1,2.8082993E1,4.2994167E1,2.2172089E1,0E0,0E0,0E0,0E0,0E0,0E0,0E0,0E0],"parents":[2147483647,0,0,1,1,2,2,3,3,4,4,5,5,6,6],"right_children":[2,4,6,8,10,12,14,-1,-1,-1,-1,-1,-1,-1,-1],"split_conditions":[4.59E-1,-2E0,1.4E1,-4.8E0,2.4E1,9E0,7E0,6.9401116E-4,-3.1102295E-3,8.385179E-4,3.4573004E-3,-2.8800513E-3,-8.880927E-5,-6.323641E-3,-4.0699984E-3],"split_indices":[3,77,80,25,51,51,51,0,0,0,0,0,0,0,0],"split_type":[0,0,0,0,0,0,0,0,0,0,0,0,0,0,0],"sum_hessian":[6.658925E3,2.468983E3,4.189942E3,7.8199554E2,1.6869874E3,2.2134912E3,1.9764508E3,3.4849985E2,4.334957E2,7.014995E2,9.85488E2,1.0439912E3,1.1694999E3,6.6297437E2,1.3134766E3],"tree_param":{"num_deleted":"0","num_feature":"106","num_nodes":"15","size_leaf_vector":"1"}},{"base_weights":[1.4671956E-1,-1.1703802E-1,3.0213332E-1,1.4161313E-1,-2.3694748E-1,1.4060022E-1,4.8287687E-1,-6.9401204E-4,3.1102295E-3,-8.385179E-4,-3.4573004E-3,2.8800522E-3,8.8808374E-5,6.323641E-3,4.0699984E-3],"categories":[],"categories_nodes":[],"categories_segments":[],"categories_sizes":[],"default_left":[0,0,0,0,0,0,0,0,0,0,0,0,0,0,0],"id":3,"left_children":[1,3,5,7,9,11,13,-1,-1,-1,-1,-1,-1,-1,-1],"loss_changes":[2.7303607E2,7.663937E1,1.2229111E2,2.8012043E1,2.8082993E1,4.2994217E1,2.217218E1,0E0,0E0,0E0,0E0,0E0,0E0,0E0,0E0],"parents":[2147483647,0,0,1,1,2,2,3,3,4,4,5,5,6,6],"right_children":[2,4,6,8,10,12,14,-1,-1,-1,-1,-1,-1,-1,-1],"split_conditions":[4.59E-1,-2E0,1.4E1,-4.8E0,2.4E1,9E0,7E0,-6.9401204E-4,3.1102295E-3,-8.385179E-4,-3.4573004E-3,2.8800522E-3,8.8808374E-5,6.323641E-3,4.0699984E-3],"split_indices":[3,77,80,25,51,51,51,0,0,0,0,0,0,0,0],"split_type":[0,0,0,0,0,0,0,0,0,0,0,0,0,0,0],"sum_hessian":[6.658925E3,2.468983E3,4.189942E3,7.8199554E2,1.6869874E3,2.2134912E3,1.9764508E3,3.4849982E2,4.334957E2,7.014995E2,9.85488E2,1.0439912E3,1.1695E3,6.629743E2,1.3134764E3],"tree_param":{"num_deleted":"0","num_feature":"106","num_nodes":"15","size_leaf_vector":"1"}},{"base_weights":[-1.45259E-1,1.1587078E-1,-2.9912752E-1,-1.4020245E-1,2.3458573E-1,-1.3919723E-1,-4.7808868E-1,6.8709283E-4,-3.079289E-3,8.301464E-4,3.4228864E-3,-2.8513512E-3,-8.792103E-5,-3.8636252E-3,-6.015848E-3],"categories":[],"categories_nodes":[],"categories_segments":[],"categories_sizes":[],"default_left":[0,0,0,0,0,0,0,0,0,0,0,0,0,0,0],"id":4,"left_children":[1,3,5,7,9,11,13,-1,-1,-1,-1,-1,-1,-1,-1],"loss_changes":[2.6761926E2,7.511816E1,1.19878784E2,2.7456877E1,2.7526787E1,4.2141083E1,2.2166199E1,0E0,0E0,0E0,0E0,0E0,0E0,0E0,0E0],"parents":[2147483647,0,0,1,1,2,2,3,3,4,4,5,5,6,6],"right_children":[2,4,6,8,10,12,14,-1,-1,-1,-1,-1,-1,-1,-1],"split_conditions":[4.59E-1,-2E0,1.4E1,-4.8E0,2.4E1,9E0,2.3E1,6.8709283E-4,-3.079289E-3,8.301464E-4,3.4228864E-3,-2.8513512E-3,-8.792103E-5,-3.8636252E-3,-6.015848E-3],"split_indices":[3,77,80,25,51,51,80,0,0,0,0,0,0,0,0],"split_type":[0,0,0,0,0,0,0,0,0,0,0,0,0,0,0],"sum_hessian":[6.658703E3,2.4689329E3,4.1897705E3,7.8198236E2,1.6869504E3,2.2134648E3,1.9763055E3,3.4849933E2,4.3348306E2,7.01498E2,9.854524E2,1.0439651E3,1.1694999E3,1.1363875E3,8.3991797E2],"tree_param":{"num_deleted":"0","num_feature":"106","num_nodes":"15","size_leaf_vector":"1"}},{"base_weights":[1.4525902E-1,-1.1587075E-1,2.9912758E-1,1.4020246E-1,-2.3458569E-1,1.3919729E-1,4.780887E-1,-6.8709254E-4,3.079289E-3,-8.3014555E-4,-3.4228864E-3,2.8513512E-3,8.792222E-5,3.8636255E-3,6.0158484E-3],"categories":[],"categories_nodes":[],"categories_segments":[],"categories_sizes":[],"default_left":[0,0,0,0,0,0,0,0,0,0,0,0,0,0,0],"id":5,"left_children":[1,3,5,7,9,11,13,-1,-1,-1,-1,-1,-1,-1,-1],"loss_changes":[2.676193E2,7.511815E1,1.1987875E2,2.7456871E1,2.7526802E1,4.2141045E1,2.2166138E1,0E0,0E0,0E0,0E0,0E0,0E0,0E0,0E0],"parents":[2147483647,0,0,1,1,2,2,3,3,4,4,5,5,6,6],"right_children":[2,4,6,8,10,12,14,-1,-1,-1,-1,-1,-1,-1,-1],"split_conditions":[4.59E-1,-2E0,1.4E1,-4.8E0,2.4E1,9E0,2.3E1,-6.8709254E-4,3.079289E-3,-8.3014555E-4,-3.4228864E-3,2.8513512E-3,8.792222E-5,3.8636255E-3,6.0158484E-3],"split_indices":[3,77,80,25,51,51,80,0,0,0,0,0,0,0,0],"split_type":[0,0,0,0,0,0,0,0,0,0,0,0,0,0,0],"sum_hessian":[6.658703E3,2.4689329E3,4.1897705E3,7.8198236E2,1.6869504E3,2.2134648E3,1.9763054E3,3.484993E2,4.3348306E2,7.0149805E2,9.854524E2,1.0439651E3,1.1694999E3,1.1363875E3,8.3991797E2],"tree_param":{"num_deleted":"0","num_feature":"106","num_nodes":"15","size_leaf_vector":"1"}},{"base_weights":[-1.4381583E-1,-2.742727E-1,1.5843304E-1,-1.1574865E-1,-4.5319155E-1,-9.954947E-2,2.7613878E-1,-2.6599031E-3,2.1535257E-4,-6.0609696E-3,-3.699316E-3,7.460704E-4,-2.7787453E-3,4.483382E-3,1.7957109E-3],"categories":[],"categories_nodes":[],"categories_segments":[],"categories_sizes":[],"default_left":[0,0,0,0,0,0,0,0,0,0,0,0,0,0,0],"id":6,"left_children":[1,3,5,7,9,11,13,-1,-1,-1,-1,-1,-1,-1,-1],"loss_changes":[2.6262448E2,1.3189136E2,6.1013603E1,5.090835E1,2.7593658E1,1.9585388E1,2.2857338E1,0E0,0E0,0E0,0E0,0E0,0E0,0E0,0E0],"parents":[2147483647,0,0,1,1,2,2,3,3,4,4,5,5,6,6],"right_children":[2,4,6,8,10,12,14,-1,-1,-1,-1,-1,-1,-1,-1],"split_conditions":[2E1,1.4E1,-2E0,1E1,8E0,-4.8E0,-6.5E0,-2.6599031E-3,2.1535257E-4,-6.0609696E-3,-3.699316E-3,7.460704E-4,-2.7787453E-3,4.483382E-3,1.7957109E-3],"split_indices":[28,80,77,51,51,25,25,0,0,0,0,0,0,0,0],"split_type":[0,0,0,0,0,0,0,0,0,0,0,0,0,0,0],"sum_hessian":[6.6583477E3,4.6509805E3,2.007367E3,2.4669143E3,2.1840662E3,6.2897034E2,1.3783966E3,1.177422E3,1.2894923E3,7.6777704E2,1.4162891E3,3.1849863E2,3.1047174E2,4.939472E2,8.8444934E2],"tree_param":{"num_deleted":"0","num_feature":"106","num_nodes":"15","size_leaf_vector":"1"}},{"base_weights":[1.4381583E-1,2.7427268E-1,-1.5843304E-1,1.15748644E-1,4.5319155E-1,9.9549435E-2,-2.7613875E-1,2.6599031E-3,-2.1535254E-4,6.0609705E-3,3.699316E-3,-7.4607023E-4,2.778744E-3,-4.483382E-3,-1.7957108E-3],"categories":[],"categories_nodes":[],"categories_segments":[],"categories_sizes":[],"default_left":[0,0,0,0,0,0,0,0,0,0,0,0,0,0,0],"id":7,"left_children":[1,3,5,7,9,11,13,-1,-1,-1,-1,-1,-1,-1,-1],"loss_changes":[2.6262445E2,1.3189136E2,6.1013588E1,5.090833E1,2.7593689E1,1.958537E1,2.2857338E1,0E0,0E0,0E0,0E0,0E0,0E0,0E0,0E0],"parents":[2147483647,0,0,1,1,2,2,3,3,4,4,5,5,6,6],"right_children":[2,4,6,8,10,12,14,-1,-1,-1,-1,-1,-1,-1,-1],"split_conditions":[2E1,1.4E1,-2E0,1E1,8E0,-4.8E0,-6.5E0,2.6599031E-3,-2.1535254E-4,6.0609705E-3,3.699316E-3,-7.4607023E-4,2.778744E-3,-4.483382E-3,-1.7957108E-3],"split_indices":[28,80,77,51,51,25,25,0,0,0,0,0,0,0,0],"split_type":[0,0,0,0,0,0,0,0,0,0,0,0,0,0,0],"sum_hessian":[6.658347E3,4.6509805E3,2.0073668E3,2.4669143E3,2.1840662E3,6.2897034E2,1.3783965E3,1.177422E3,1.2894923E3,7.67777E2,1.4162891E3,3.184986E2,3.1047174E2,4.9394717E2,8.8444934E2],"tree_param":{"num_deleted":"0","num_feature":"106","num_nodes":"15","size_leaf_vector":"1"}},{"base_weights":[-1.4238927E-1,1.1376221E-1,-2.9333606E-1,-1.3734615E-1,2.3017736E-1,-1.3651817E-1,-4.6885514E-1,6.758928E-4,-3.0189832E-3,8.1401353E-4,3.3590714E-3,-2.7965568E-3,-8.627254E-5,-3.7799513E-3,-5.9120036E-3],"categories":[],"categories_nodes":[],"categories_segments":[],"categories_sizes":[],"default_left":[0,0,0,0,0,0,0,0,0,0,0,0,0,0,0],"id":8,"left_children":[1,3,5,7,9,11,13,-1,-1,-1,-1,-1,-1,-1,-1],"loss_changes":[2.5750006E2,7.222916E1,1.1526724E2,2.6422857E1,2.6522026E1,4.0533737E1,2.1750702E1,0E0,0E0,0E0,0E0,0E0,0E0,0E0,0E0],"parents":[2147483647,0,0,1,1,2,2,3,3,4,4,5,5,6,6],"right_children":[2,4,6,8,10,12,14,-1,-1,-1,-1,-1,-1,-1,-1],"split_conditions":[4.59E-1,-2E0,1.4E1,-4.8E0,2.4E1,9E0,2.3E1,6.758928E-4,-3.0189832E-3,8.1401353E-4,3.3590714E-3,-2.7965568E-3,-8.627254E-5,-3.7799513E-3,-5.9120036E-3],"split_indices":[3,77,80,25,51,51,80,0,0,0,0,0,0,0,0],"split_type":[0,0,0,0,0,0,0,0,0,0,0,0,0,0,0],"sum_hessian":[6.6578667E3,2.4687427E3,4.189124E3,7.819313E2,1.6868114E3,2.2133655E3,1.9757585E3,3.4849738E2,4.3343393E2,7.0149036E2,9.853211E2,1.0438667E3,1.1694988E3,1.1361117E3,8.3964685E2],"tree_param":{"num_deleted":"0","num_feature":"106","num_nodes":"15","size_leaf_vector":"1"}},{"base_weights":[1.4238927E-1,-1.1376219E-1,2.9333606E-1,1.3734618E-1,-2.3017736E-1,1.3651814E-1,4.6885514E-1,-6.758936E-4,3.018984E-3,-8.1401307E-4,-3.3590714E-3,2.7965573E-3,8.627174E-5,3.7799513E-3,5.912004E-3],"categories":[],"categories_nodes":[],"categories_segments":[],"categories_sizes":[],"default_left":[0,0,0,0,0,0,0,0,0,0,0,0,0,0,0],"id":9,"left_children":[1,3,5,7,9,11,13,-1,-1,-1,-1,-1,-1,-1,-1],"loss_changes":[2.5750006E2,7.222916E1,1.1526724E2,2.6422882E1,2.6522034E1,4.0533775E1,2.1750732E1,0E0,0E0,0E0,0E0,0E0,0E0,0E0,0E0],"parents":[2147483647,0,0,1,1,2,2,3,3,4,4,5,5,6,6],"right_children":[2,4,6,8,10,12,14,-1,-1,-1,-1,-1,-1,-1,-1],"split_conditions":[4.59E-1,-2E0,1.4E1,-4.8E0,2.4E1,9E0,2.3E1,-6.758936E-4,3.018984E-3,-8.1401307E-4,-3.3590714E-3,2.7965573E-3,8.627174E-5,3.7799513E-3,5.912004E-3],"split_indices":[3,77,80,25,51,51,80,0,0,0,0,0,0,0,0],"split_type":[0,0,0,0,0,0,0,0,0,0,0,0,0,0,0],"sum_hessian":[6.6578667E3,2.4687427E3,4.189124E3,7.819313E2,1.6868114E3,2.2133655E3,1.9757585E3,3.4849734E2,4.3343393E2,7.014903E2,9.853211E2,1.0438667E3,1.1694989E3,1.1361117E3,8.3964685E2],"tree_param":{"num_deleted":"0","num_feature":"106","num_nodes":"15","size_leaf_vector":"1"}},{"base_weights":[-1.4098021E-1,-2.6897246E-1,1.5553606E-1,-1.1350461E-1,-4.444913E-1,-9.7369365E-2,2.7093115E-1,-2.6087607E-3,2.1142329E-4,-5.956764E-3,-3.6218893E-3,7.319002E-4,-2.7203595E-3,4.406284E-3,1.7578192E-3],"categories":[],"categories_nodes":[],"categories_segments":[],"categories_sizes":[],"default_left":[0,0,0,0,0,0,0,0,0,0,0,0,0,0,0],"id":10,"left_children":[1,3,5,7,9,11,13,-1,-1,-1,-1,-1,-1,-1,-1],"loss_changes":[2.527342E2,1.2686679E2,5.8632057E1,4.8973915E1,2.6963593E1,1.878593E1,2.21922E1,0E0,0E0,0E0,0E0,0E0,0E0,0E0,0E0],"parents":[2147483647,0,0,1,1,2,2,3,3,4,4,5,5,6,6],"right_children":[2,4,6,8,10,12,14,-1,-1,-1,-1,-1,-1,-1,-1],"split_conditions":[2E1,1.4E1,-2E0,1E1,8E0,-4.8E0,-6.5E0,-2.6087607E-3,2.1142329E-4,-5.956764E-3,-3.6218893E-3,7.319002E-4,-2.7203595E-3,4.406284E-3,1.7578192E-3],"split_indices":[28,80,77,51,51,25,25,0,0,0,0,0,0,0,0],"split_type":[0,0,0,0,0,0,0,0,0,0,0,0,0,0,0],"sum_hessian":[6.6572485E3,4.650107E3,2.0071412E3,2.4667773E3,2.1833298E3,6.289219E2,1.3782194E3,1.1772911E3,1.2894862E3,7.674065E2,1.4159233E3,3.184961E2,3.104258E2,4.938371E2,8.843822E2],"tree_param":{"num_deleted":"0","num_feature":"106","num_nodes":"15","size_leaf_vector":"1"}},{"base_weights":[1.4098021E-1,2.6897246E-1,-1.5553607E-1,1.135046E-1,4.444913E-1,9.736929E-2,-2.7093112E-1,2.6087607E-3,-2.1142336E-4,5.956764E-3,3.6218893E-3,-7.319014E-4,2.7203595E-3,-4.4062836E-3,-1.7578189E-3],"categories":[],"categories_nodes":[],"categories_segments":[],"categories_sizes":[],"default_left":[0,0,0,0,0,0,0,0,0,0,0,0,0,0,0],"id":11,"left_children":[1,3,5,7,9,11,13,-1,-1,-1,-1,-1,-1,-1,-1],"loss_changes":[2.5273419E2,1.2686676E2,5.8632027E1,4.897391E1,2.6963623E1,1.8785942E1,2.21922E1,0E0,0E0,0E0,0E0,0E0,0E0,0E0,0E0],"parents":[2147483647,0,0,1,1,2,2,3,3,4,4,5,5,6,6],"right_children":[2,4,6,8,10,12,14,-1,-1,-1,-1,-1,-1,-1,-1],"split_conditions":[2E1,1.4E1,-2E0,1E1,8E0,-4.8E0,-6.5E0,2.6087607E-3,-2.1142336E-4,5.956764E-3,3.6218893E-3,-7.319014E-4,2.7203595E-3,-4.4062836E-3,-1.7578189E-3],"split_indices":[28,80,77,51,51,25,25,0,0,0,0,0,0,0,0],"split_type":[0,0,0,0,0,0,0,0,0,0,0,0,0,0,0],"sum_hessian":[6.657248E3,4.650107E3,2.0071411E3,2.4667773E3,2.1833298E3,6.289219E2,1.3782192E3,1.1772911E3,1.2894862E3,7.674065E2,1.4159233E3,3.184961E2,3.1042578E2,4.9383707E2,8.8438214E2],"tree_param":{"num_deleted":"0","num_feature":"106","num_nodes":"15","size_leaf_vector":"1"}},{"base_weights":[-1.3958721E-1,1.1169676E-1,-2.8768393E-1,-1.3455522E-1,2.2586368E-1,-3.9898965E-1,-4.7665518E-2,6.6488667E-4,-2.9601096E-3,1.1835434E-3,3.673471E-3,-3.231299E-3,-5.8112936E-3,9.6150336E-4,-1.9198478E-3],"categories":[],"categories_nodes":[],"categories_segments":[],"categories_sizes":[],"default_left":[0,0,0,0,0,0,0,0,0,0,0,0,0,0,0],"id":12,"left_children":[1,3,5,7,9,11,13,-1,-1,-1,-1,-1,-1,-1,-1],"loss_changes":[2.4778699E2,6.945558E1,1.1189401E2,2.543069E1,2.5626E1,3.9353485E1,2.7588072E1,0E0,0E0,0E0,0E0,0E0,0E0,0E0,0E0],"parents":[2147483647,0,0,1,1,2,2,3,3,4,4,5,5,6,6],"right_children":[2,4,6,8,10,12,14,-1,-1,-1,-1,-1,-1,-1,-1],"split_conditions":[4.59E-1,-2E0,3E0,-4.8E0,2.6E1,2.3E1,3.1E0,6.6488667E-4,-2.9601096E-3,1.1835434E-3,3.673471E-3,-3.231299E-3,-5.8112936E-3,9.6150336E-4,-1.9198478E-3],"split_indices":[3,77,77,25,51,80,25,0,0,0,0,0,0,0,0],"split_type":[0,0,0,0,0,0,0,0,0,0,0,0,0,0,0],"sum_hessian":[6.6565117E3,2.4684316E3,4.18808E3,7.818482E2,1.6865835E3,2.8607695E3,1.3273104E3,3.4849374E2,4.3335446E2,9.5939923E2,7.271843E2,2.0215742E3,8.391953E2,6.649819E2,6.6232855E2],"tree_param":{"num_deleted":"0","num_feature":"106","num_nodes":"15","size_leaf_vector":"1"}},{"base_weights":[1.3958722E-1,-1.1169677E-1,2.8768396E-1,1.3455522E-1,-2.258637E-1,3.9898968E-1,4.7665518E-2,-6.648864E-4,2.9601094E-3,-1.1835434E-3,-3.6734717E-3,3.2312993E-3,5.8112936E-3,-9.6150365E-4,1.919848E-3],"categories":[],"categories_nodes":[],"categories_segments":[],"categories_sizes":[],"default_left":[0,0,0,0,0,0,0,0,0,0,0,0,0,0,0],"id":13,"left_children":[1,3,5,7,9,11,13,-1,-1,-1,-1,-1,-1,-1,-1],"loss_changes":[2.4778702E2,6.945558E1,1.1189407E2,2.5430685E1,2.5626015E1,3.9353485E1,2.7588083E1,0E0,0E0,0E0,0E0,0E0,0E0,0E0,0E0],"parents":[2147483647,0,0,1,1,2,2,3,3,4,4,5,5,6,6],"right_children":[2,4,6,8,10,12,14,-1,-1,-1,-1,-1,-1,-1,-1],"split_conditions":[4.59E-1,-2E0,3E0,-4.8E0,2.6E1,2.3E1,3.1E0,-6.648864E-4,2.9601094E-3,-1.1835434E-3,-3.6734717E-3,3.2312993E-3,5.8112936E-3,-9.6150365E-4,1.919848E-3],"split_indices":[3,77,77,25,51,80,25,0,0,0,0,0,0,0,0],"split_type":[0,0,0,0,0,0,0,0,0,0,0,0,0,0,0],"sum_hessian":[6.6565117E3,2.4684316E3,4.18808E3,7.8184814E2,1.6865835E3,2.8607695E3,1.3273104E3,3.484937E2,4.3335443E2,9.5939923E2,7.271843E2,2.0215742E3,8.391953E2,6.649819E2,6.6232855E2],"tree_param":{"num_deleted":"0","num_feature":"106","num_nodes":"15","size_leaf_vector":"1"}},{"base_weights":[-1.3820964E-1,-3.3302012E-1,4.9576174E-2,-1.7742918E-1,-4.919578E-1,-2.1053232E-1,1.6588841E-1,-2.5242253E-3,2.6370639E-5,-3.9840415E-3,-6.335631E-3,5.4544676E-4,-3.5047506E-3,4.6999188E-4,3.2062707E-3],"categories":[],"categories_nodes":[],"categories_segments":[],"categories_sizes":[],"default_left":[0,0,0,0,0,0,0,0,0,0,0,0,0,0,0],"id":14,"left_children":[1,3,5,7,9,11,13,-1,-1,-1,-1,-1,-1,-1,-1],"loss_changes":[2.4353592E2,8.071225E1,1.026052E2,2.2317406E1,2.1152374E1,3.889663E1,4.3093895E1,0E0,0E0,0E0,0E0,0E0,0E0,0E0,0E0],"parents":[2147483647,0,0,1,1,2,2,3,3,4,4,5,5,6,6],"right_children":[2,4,6,8,10,12,14,-1,-1,-1,-1,-1,-1,-1,-1],"split_conditions":[1.5E1,1.3E1,-2E0,6E0,2.3E1,-4.8E0,2.4E1,-2.5242253E-3,2.6370639E-5,-3.9840415E-3,-6.335631E-3,5.4544676E-4,-3.5047506E-3,4.6999188E-4,3.2062707E-3],"split_indices":[51,80,77,77,80,25,51,0,0,0,0,0,0,0,0],"split_type":[0,0,0,0,0,0,0,0,0,0,0,0,0,0,0],"sum_hessian":[6.6556924E3,3.266366E3,3.3893267E3,1.6516304E3,1.6147355E3,1.0470358E3,2.3422908E3,1.1657296E3,4.8590076E2,9.7463916E2,6.400963E2,3.6198346E2,6.8505225E2,1.3253207E3,1.01697015E3],"tree_param":{"num_deleted":"0","num_feature":"106","num_nodes":"15","size_leaf_vector":"1"}},{"base_weights":[1.3820967E-1,3.3302012E-1,-4.957616E-2,1.7742921E-1,4.919578E-1,2.1053235E-1,-1.6588841E-1,2.5242257E-3,-2.637041E-5,3.984042E-3,6.33563E-3,-5.4544606E-4,3.5047506E-3,-4.699916E-4,-3.2062712E-3],"categories":[],"categories_nodes":[],"categories_segments":[],"categories_sizes":[],"default_left":[0,0,0,0,0,0,0,0,0,0,0,0,0,0,0],"id":15,"left_children":[1,3,5,7,9,11,13,-1,-1,-1,-1,-1,-1,-1,-1],"loss_changes":[2.4353592E2,8.071225E1,1.02605194E2,2.2317417E1,2.1152344E1,3.8896626E1,4.3093918E1,0E0,0E0,0E0,0E0,0E0,0E0,0E0,0E0],"parents":[2147483647,0,0,1,1,2,2,3,3,4,4,5,5,6,6],"right_children":[2,4,6,8,10,12,14,-1,-1,-1,-1,-1,-1,-1,-1],"split_conditions":[1.5E1,1.3E1,-2E0,6E0,2.3E1,-4.8E0,2.4E1,2.5242257E-3,-2.637041E-5,3.984042E-3,6.33563E-3,-5.4544606E-4,3.5047506E-3,-4.699916E-4,-3.2062712E-3],"split_indices":[51,80,77,77,80,25,51,0,0,0,0,0,0,0,0],"split_type":[0,0,0,0,0,0,0,0,0,0,0,0,0,0,0],"sum_hessian":[6.6556924E3,3.266366E3,3.3893267E3,1.6516304E3,1.6147355E3,1.0470358E3,2.342291E3,1.1657296E3,4.859008E2,9.7463916E2,6.400964E2,3.619835E2,6.8505225E2,1.3253208E3,1.01697015E3],"tree_param":{"num_deleted":"0","num_feature":"106","num_nodes":"15","size_leaf_vector":"1"}},{"base_weights":[-1.368486E-1,-2.6141772E-1,1.5169244E-1,-1.0997621E-1,-4.32501E-1,-9.374594E-2,2.6369098E-1,-2.5414382E-3,2.1715563E-4,-5.8113015E-3,-3.516339E-3,7.1255275E-4,-2.6278298E-3,4.29686E-3,1.7065328E-3],"categories":[],"categories_nodes":[],"categories_segments":[],"categories_sizes":[],"default_left":[0,0,0,0,0,0,0,0,0,0,0,0,0,0,0],"id":16,"left_children":[1,3,5,7,9,11,13,-1,-1,-1,-1,-1,-1,-1,-1],"loss_changes":[2.3926996E2,1.2040793E2,5.5211422E1,4.6852448E1,2.6029633E1,1.7584637E1,2.1220787E1,0E0,0E0,0E0,0E0,0E0,0E0,0E0,0E0],"parents":[2147483647,0,0,1,1,2,2,3,3,4,4,5,5,6,6],"right_children":[2,4,6,8,10,12,14,-1,-1,-1,-1,-1,-1,-1,-1],"split_conditions":[2E1,1.4E1,-2E0,1E1,8E0,-4.8E0,-6.5E0,-2.5414382E-3,2.1715563E-4,-5.8113015E-3,-3.516339E-3,7.1255275E-4,-2.6278298E-3,4.29686E-3,1.7065328E-3],"split_indices":[28,80,77,51,51,25,25,0,0,0,0,0,0,0,0],"split_type":[0,0,0,0,0,0,0,0,0,0,0,0,0,0,0],"sum_hessian":[6.6547686E3,4.648157E3,2.0066115E3,2.4664863E3,2.181671E3,6.287985E2,1.3778129E3,1.1770253E3,1.2894609E3,7.665707E2,1.4151001E3,3.1849054E2,3.1030798E2,4.9357416E2,8.842387E2],"tree_param":{"num_deleted":"0","num_feature":"106","num_nodes":"15","size_leaf_vector":"1"}},{"base_weights":[1.368486E-1,2.6141772E-1,-1.5169245E-1,1.0997617E-1,4.3250102E-1,9.374596E-2,-2.63691E-1,2.5414377E-3,-2.171559E-4,5.811302E-3,3.516339E-3,-7.125515E-4,2.6278289E-3,-4.29686E-3,-1.7065334E-3],"categories":[],"categories_nodes":[],"categories_segments":[],"categories_sizes":[],"default_left":[0,0,0,0,0,0,0,0,0,0,0,0,0,0,0],"id":17,"left_children":[1,3,5,7,9,11,13,-1,-1,-1,-1,-1,-1,-1,-1],"loss_changes":[2.3926996E2,1.2040802E2,5.521145E1,4.6852432E1,2.6029663E1,1.7584612E1,2.1220764E1,0E0,0E0,0E0,0E0,0E0,0E0,0E0,0E0],"parents":[2147483647,0,0,1,1,2,2,3,3,4,4,5,5,6,6],"right_children":[2,4,6,8,10,12,14,-1,-1,-1,-1,-1,-1,-1,-1],"split_conditions":[2E1,1.4E1,-2E0,1E1,8E0,-4.8E0,-6.5E0,2.5414377E-3,-2.171559E-4,5.811302E-3,3.516339E-3,-7.125515E-4,2.6278289E-3,-4.29686E-3,-1.7065334E-3],"split_indices":[28,80,77,51,51,25,25,0,0,0,0,0,0,0,0],"split_type":[0,0,0,0,0,0,0,0,0,0,0,0,0,0,0],"sum_hessian":[6.6547686E3,4.648157E3,2.0066115E3,2.4664863E3,2.181671E3,6.287985E2,1.3778129E3,1.1770254E3,1.2894609E3,7.665707E2,1.4151001E3,3.1849054E2,3.10308E2,4.9357416E2,8.842387E2],"tree_param":{"num_deleted":"0","num_feature":"106","num_nodes":"15","size_leaf_vector":"1"}},{"base_weights":[-1.3550341E-1,-3.26808E-1,4.8860848E-2,-1.7405409E-1,-4.8294148E-1,-2.0660011E-1,1.6308433E-1,-2.4829074E-3,4.1772215E-5,-3.9031683E-3,-6.2319953E-3,5.3689815E-4,-3.4406462E-3,4.6581237E-4,3.1475867E-3],"categories":[],"categories_nodes":[],"categories_segments":[],"categories_sizes":[],"default_left":[0,0,0,0,0,0,0,0,0,0,0,0,0,0,0],"id":18,"left_children":[1,3,5,7,9,11,13,-1,-1,-1,-1,-1,-1,-1,-1],"loss_changes":[2.3472513E2,7.781012E1,9.894354E1,2.1864868E1,2.0732208E1,3.7508415E1,4.1385887E1,0E0,0E0,0E0,0E0,0E0,0E0,0E0,0E0],"parents":[2147483647,0,0,1,1,2,2,3,3,4,4,5,5,6,6],"right_children":[2,4,6,8,10,12,14,-1,-1,-1,-1,-1,-1,-1,-1],"split_conditions":[1.5E1,1.3E1,-2E0,6E0,2.3E1,-4.8E0,2.4E1,-2.4829074E-3,4.1772215E-5,-3.9031683E-3,-6.2319953E-3,5.3689815E-4,-3.4406462E-3,4.6581237E-4,3.1475867E-3],"split_indices":[51,80,77,77,80,25,51,0,0,0,0,0,0,0,0],"split_type":[0,0,0,0,0,0,0,0,0,0,0,0,0,0,0],"sum_hessian":[6.653692E3,3.2650046E3,3.3886873E3,1.6514326E3,1.613572E3,1.0467719E3,2.3419153E3,1.1655615E3,4.858711E2,9.740829E2,6.394891E2,3.619765E2,6.8479535E2,1.3252672E3,1.0166482E3],"tree_param":{"num_deleted":"0","num_feature":"106","num_nodes":"15","size_leaf_vector":"1"}},{"base_weights":[1.3550343E-1,3.2680804E-1,-4.886084E-2,1.740541E-1,4.829415E-1,2.0660011E-1,-1.6308431E-1,2.4829076E-3,-4.1772295E-5,3.9031692E-3,6.2319953E-3,-5.3689844E-4,3.4406465E-3,-4.658121E-4,-3.1475867E-3],"categories":[],"categories_nodes":[],"categories_segments":[],"categories_sizes":[],"default_left":[0,0,0,0,0,0,0,0,0,0,0,0,0,0,0],"id":19,"left_children":[1,3,5,7,9,11,13,-1,-1,-1,-1,-1,-1,-1,-1],"loss_changes":[2.3472516E2,7.781018E1,9.8943535E1,2.1864872E1,2.0732178E1,3.750842E1,4.1385918E1,0E0,0E0,0E0,0E0,0E0,0E0,0E0,0E0],"parents":[2147483647,0,0,1,1,2,2,3,3,4,4,5,5,6,6],"right_children":[2,4,6,8,10,12,14,-1,-1,-1,-1,-1,-1,-1,-1],"split_conditions":[1.5E1,1.3E1,-2E0,6E0,2.3E1,-4.8E0,2.4E1,2.4829076E-3,-4.1772295E-5,3.9031692E-3,6.2319953E-3,-5.3689844E-4,3.4406465E-3,-4.658121E-4,-3.1475867E-3],"split_indices":[51,80,77,77,80,25,51,0,0,0,0,0,0,0,0],"split_type":[0,0,0,0,0,0,0,0,0,0,0,0,0,0,0],"sum_hessian":[6.653692E3,3.2650046E3,3.3886873E3,1.6514326E3,1.613572E3,1.0467719E3,2.3419155E3,1.1655615E3,4.858711E2,9.7408295E2,6.394891E2,3.6197653E2,6.8479535E2,1.3252672E3,1.0166482E3],"tree_param":{"num_deleted":"0","num_feature":"106","num_nodes":"15","size_leaf_vector":"1"}},{"base_weights":[-1.3417363E-1,-2.5651678E-1,1.4917214E-1,-1.07796155E-1,-4.2462423E-1,-9.135524E-2,2.5893897E-1,-2.497762E-3,2.1873282E-4,-5.7106065E-3,-3.449946E-3,7.0010655E-4,-2.5672347E-3,4.224845E-3,1.6730713E-3],"categories":[],"categories_nodes":[],"categories_segments":[],"categories_sizes":[],"default_left":[0,0,0,0,0,0,0,0,0,0,0,0,0,0,0],"id":20,"left_children":[1,3,5,7,9,11,13,-1,-1,-1,-1,-1,-1,-1,-1],"loss_changes":[2.3068604E2,1.1614432E2,5.301584E1,4.54284E1,2.5237E1,1.682103E1,2.0586685E1,0E0,0E0,0E0,0E0,0E0,0E0,0E0,0E0],"parents":[2147483647,0,0,1,1,2,2,3,3,4,4,5,5,6,6],"right_children":[2,4,6,8,10,12,14,-1,-1,-1,-1,-1,-1,-1,-1],"split_conditions":[2E1,1.4E1,-2E0,1E1,8E0,-4.8E0,-6.5E0,-2.497762E-3,2.1873282E-4,-5.7106065E-3,-3.449946E-3,7.0010655E-4,-2.5672347E-3,4.224845E-3,1.6730713E-3],"split_indices":[28,80,77,51,51,25,25,0,0,0,0,0,0,0,0],"split_type":[0,0,0,0,0,0,0,0,0,0,0,0,0,0,0],"sum_hessian":[6.652542E3,4.6464087E3,2.0061334E3,2.466233E3,2.1801758E3,6.286867E2,1.3774468E3,1.1767919E3,1.2894409E3,7.657724E2,1.4144033E3,3.1848572E2,3.1020096E2,4.9333176E2,8.84115E2],"tree_param":{"num_deleted":"0","num_feature":"106","num_nodes":"15","size_leaf_vector":"1"}},{"base_weights":[1.3417363E-1,2.5651675E-1,-1.4917214E-1,1.07796125E-1,4.2462423E-1,9.1355175E-2,-2.589389E-1,2.4977617E-3,-2.1873311E-4,5.7106065E-3,3.4499462E-3,-7.0010684E-4,2.5672338E-3,-4.2248447E-3,-1.6730711E-3],"categories":[],"categories_nodes":[],"categories_segments":[],"categories_sizes":[],"default_left":[0,0,0,0,0,0,0,0,0,0,0,0,0,0,0],"id":21,"left_children":[1,3,5,7,9,11,13,-1,-1,-1,-1,-1,-1,-1,-1],"loss_changes":[2.3068605E2,1.1614429E2,5.301581E1,4.5428383E1,2.5237E1,1.6821024E1,2.0586685E1,0E0,0E0,0E0,0E0,0E0,0E0,0E0,0E0],"parents":[2147483647,0,0,1,1,2,2,3,3,4,4,5,5,6,6],"right_children":[2,4,6,8,10,12,14,-1,-1,-1,-1,-1,-1,-1,-1],"split_conditions":[2E1,1.4E1,-2E0,1E1,8E0,-4.8E0,-6.5E0,2.4977617E-3,-2.1873311E-4,5.7106065E-3,3.4499462E-3,-7.0010684E-4,2.5672338E-3,-4.2248447E-3,-1.6730711E-3],"split_indices":[28,80,77,51,51,25,25,0,0,0,0,0,0,0,0],"split_type":[0,0,0,0,0,0,0,0,0,0,0,0,0,0,0],"sum_hessian":[6.652542E3,4.6464087E3,2.0061334E3,2.466233E3,2.1801758E3,6.286867E2,1.3774468E3,1.176792E3,1.2894409E3,7.657724E2,1.4144033E3,3.1848575E2,3.1020093E2,4.9333173E2,8.8411505E2],"tree_param":{"num_deleted":"0","num_feature":"106","num_nodes":"15","size_leaf_vector":"1"}},{"base_weights":[-1.328591E-1,-3.2074124E-1,4.8155457E-2,-1.7074654E-1,-4.7416788E-1,-2.0275621E-1,1.6033244E-1,-2.442382E-3,5.6734065E-5,-3.8243323E-3,-6.1314944E-3,5.2848563E-4,-3.3780439E-3,4.6164278E-4,3.090168E-3],"categories":[],"categories_nodes":[],"categories_segments":[],"categories_sizes":[],"default_left":[0,0,0,0,0,0,0,0,0,0,0,0,0,0,0],"id":22,"left_children":[1,3,5,7,9,11,13,-1,-1,-1,-1,-1,-1,-1,-1],"loss_changes":[2.2625449E2,7.504178E1,9.5418655E1,2.1422699E1,2.0332153E1,3.617487E1,3.9749077E1,0E0,0E0,0E0,0E0,0E0,0E0,0E0,0E0],"parents":[2147483647,0,0,1,1,2,2,3,3,4,4,5,5,6,6],"right_children":[2,4,6,8,10,12,14,-1,-1,-1,-1,-1,-1,-1,-1],"split_conditions":[1.5E1,1.3E1,-2E0,6E0,2.3E1,-4.8E0,2.4E1,-2.442382E-3,5.6734065E-5,-3.8243323E-3,-6.1314944E-3,5.2848563E-4,-3.3780439E-3,4.6164278E-4,3.090168E-3],"split_indices":[51,80,77,77,80,25,51,0,0,0,0,0,0,0,0],"split_type":[0,0,0,0,0,0,0,0,0,0,0,0,0,0,0],"sum_hessian":[6.65125E3,3.2633345E3,3.3879155E3,1.651191E3,1.6121434E3,1.046454E3,2.3414617E3,1.1653529E3,4.858382E2,9.7340204E2,6.387414E2,3.619681E2,6.844859E2,1.3252053E3,1.0162562E3],"tree_param":{"num_deleted":"0","num_feature":"106","num_nodes":"15","size_leaf_vector":"1"}},{"base_weights":[1.3285911E-1,3.2074127E-1,-4.8155457E-2,1.7074658E-1,4.7416788E-1,2.0275621E-1,-1.6033244E-1,2.4423823E-3,-5.6733126E-5,3.8243323E-3,6.1314944E-3,-5.2848534E-4,3.3780436E-3,-4.6164272E-4,-3.0901681E-3],"categories":[],"categories_nodes":[],"categories_segments":[],"categories_sizes":[],"default_left":[0,0,0,0,0,0,0,0,0,0,0,0,0,0,0],"id":23,"left_children":[1,3,5,7,9,11,13,-1,-1,-1,-1,-1,-1,-1,-1],"loss_changes":[2.2625455E2,7.504175E1,9.541867E1,2.1422684E1,2.0332153E1,3.6174862E1,3.974907E1,0E0,0E0,0E0,0E0,0E0,0E0,0E0,0E0],"parents":[2147483647,0,0,1,1,2,2,3,3,4,4,5,5,6,6],"right_children":[2,4,6,8,10,12,14,-1,-1,-1,-1,-1,-1,-1,-1],"split_conditions":[1.5E1,1.3E1,-2E0,6E0,2.3E1,-4.8E0,2.4E1,2.4423823E-3,-5.6733126E-5,3.8243323E-3,6.1314944E-3,-5.2848534E-4,3.3780436E-3,-4.6164272E-4,-3.0901681E-3],"split_indices":[51,80,77,77,80,25,51,0,0,0,0,0,0,0,0],"split_type":[0,0,0,0,0,0,0,0,0,0,0,0,0,0,0],"sum_hessian":[6.65125E3,3.2633345E3,3.3879155E3,1.651191E3,1.6121434E3,1.046454E3,2.3414617E3,1.1653529E3,4.858382E2,9.734021E2,6.387414E2,3.6196808E2,6.844859E2,1.3252054E3,1.0162562E3],"tree_param":{"num_deleted":"0","num_feature":"106","num_nodes":"15","size_leaf_vector":"1"}},{"base_weights":[-1.3155955E-1,-2.5172693E-1,1.4670128E-1,-1.05662175E-1,-4.1694692E-1,-8.901872E-2,2.5428504E-1,-2.4549642E-3,2.2019695E-4,-5.612857E-3,-3.3851066E-3,6.87871E-4,-2.5080317E-3,4.154496E-3,1.6402642E-3],"categories":[],"categories_nodes":[],"categories_segments":[],"categories_sizes":[],"default_left":[0,0,0,0,0,0,0,0,0,0,0,0,0,0,0],"id":24,"left_children":[1,3,5,7,9,11,13,-1,-1,-1,-1,-1,-1,-1,-1],"loss_changes":[2.2242845E2,1.1206073E2,5.090837E1,4.405071E1,2.4483795E1,1.6090076E1,1.9977074E1,0E0,0E0,0E0,0E0,0E0,0E0,0E0,0E0],"parents":[2147483647,0,0,1,1,2,2,3,3,4,4,5,5,6,6],"right_children":[2,4,6,8,10,12,14,-1,-1,-1,-1,-1,-1,-1,-1],"split_conditions":[2E1,1.4E1,-2E0,1E1,8E0,-4.8E0,-6.5E0,-2.4549642E-3,2.2019695E-4,-5.612857E-3,-3.3851066E-3,6.87871E-4,-2.5080317E-3,4.154496E-3,1.6402642E-3],"split_indices":[28,80,77,51,51,25,25,0,0,0,0,0,0,0,0],"split_type":[0,0,0,0,0,0,0,0,0,0,0,0,0,0,0],"sum_hessian":[6.6498877E3,4.644324E3,2.0055634E3,2.4659292E3,2.178395E3,6.2855304E2,1.3770104E3,1.1765145E3,1.2894146E3,7.6481757E2,1.4135775E3,3.1847998E2,3.1007306E2,4.930407E2,8.839696E2],"tree_param":{"num_deleted":"0","num_feature":"106","num_nodes":"15","size_leaf_vector":"1"}},{"base_weights":[1.3155954E-1,2.517269E-1,-1.4670129E-1,1.0566216E-1,4.1694692E-1,8.901866E-2,-2.5428504E-1,2.454964E-3,-2.2019705E-4,5.6128576E-3,3.3851066E-3,-6.8787223E-4,2.5080317E-3,-4.154495E-3,-1.6402648E-3],"categories":[],"categories_nodes":[],"categories_segments":[],"categories_sizes":[],"default_left":[0,0,0,0,0,0,0,0,0,0,0,0,0,0,0],"id":25,"left_children":[1,3,5,7,9,11,13,-1,-1,-1,-1,-1,-1,-1,-1],"loss_changes":[2.2242848E2,1.1206076E2,5.0908356E1,4.4050697E1,2.4483795E1,1.6090088E1,1.9977043E1,0E0,0E0,0E0,0E0,0E0,0E0,0E0,0E0],"parents":[2147483647,0,0,1,1,2,2,3,3,4,4,5,5,6,6],"right_children":[2,4,6,8,10,12,14,-1,-1,-1,-1,-1,-1,-1,-1],"split_conditions":[2E1,1.4E1,-2E0,1E1,8E0,-4.8E0,-6.5E0,2.454964E-3,-2.2019705E-4,5.6128576E-3,3.3851066E-3,-6.8787223E-4,2.5080317E-3,-4.154495E-3,-1.6402648E-3],"split_indices":[28,80,77,51,51,25,25,0,0,0,0,0,0,0,0],"split_type":[0,0,0,0,0,0,0,0,0,0,0,0,0,0,0],"sum_hessian":[6.6498877E3,4.644324E3,2.0055635E3,2.4659292E3,2.178395E3,6.285531E2,1.3770104E3,1.1765146E3,1.2894146E3,7.648175E2,1.4135775E3,3.1848E2,3.1007306E2,4.930407E2,8.839696E2],"tree_param":{"num_deleted":"0","num_feature":"106","num_nodes":"15","size_leaf_vector":"1"}},{"base_weights":[-1.3027462E-1,1.05679885E-1,-2.6943025E-1,-4.4214405E-2,2.6932418E-1,-3.756613E-1,-4.073444E-2,1.4303136E-3,-1.9959721E-3,4.1543804E-3,1.9755906E-3,-3.0392015E-3,-5.4826704E-3,6.0012407E-4,-2.3118935E-3],"categories":[],"categories_nodes":[],"categories_segments":[],"categories_sizes":[],"default_left":[0,0,0,0,0,0,0,0,0,0,0,0,0,0,0],"id":26,"left_children":[1,3,5,7,9,11,13,-1,-1,-1,-1,-1,-1,-1,-1],"loss_changes":[2.1835727E2,6.0537125E1,1.0160733E2,3.752281E1,1.2288826E1,3.5200043E1,2.549232E1,0E0,0E0,0E0,0E0,0E0,0E0,0E0,0E0],"parents":[2147483647,0,0,1,1,2,2,3,3,4,4,5,5,6,6],"right_children":[2,4,6,8,10,12,14,-1,-1,-1,-1,-1,-1,-1,-1],"split_conditions":[4.59E-1,5.14E-1,3E0,-4.8E0,-6.2E0,2.3E1,6.55E-1,1.4303136E-3,-1.9959721E-3,4.1543804E-3,1.9755906E-3,-3.0392015E-3,-5.4826704E-3,6.0012407E-4,-2.3118935E-3],"split_indices":[3,55,77,25,25,80,3,0,0,0,0,0,0,0,0],"split_type":[0,0,0,0,0,0,0,0,0,0,0,0,0,0,0],"sum_hessian":[6.648393E3,2.4664617E3,4.1819316E3,1.2876941E3,1.1787675E3,2.8550806E3,1.3268508E3,5.840081E2,7.03686E2,3.8668573E2,7.920817E2,2.0187686E3,8.36312E2,8.6824927E2,4.5860162E2],"tree_param":{"num_deleted":"0","num_feature":"106","num_nodes":"15","size_leaf_vector":"1"}},{"base_weights":[1.3027464E-1,-1.0567985E-1,2.6943025E-1,4.4214446E-2,-2.6932415E-1,3.756613E-1,4.0734448E-2,-1.4303128E-3,1.9959721E-3,-4.1543795E-3,-1.9755906E-3,3.0392015E-3,5.4826713E-3,-6.0012395E-4,2.3118935E-3],"categories":[],"categories_nodes":[],"categories_segments":[],"categories_sizes":[],"default_left":[0,0,0,0,0,0,0,0,0,0,0,0,0,0,0],"id":27,"left_children":[1,3,5,7,9,11,13,-1,-1,-1,-1,-1,-1,-1,-1],"loss_changes":[2.1835725E2,6.053713E1,1.0160739E2,3.75228E1,1.2288811E1,3.5200012E1,2.5492317E1,0E0,0E0,0E0,0E0,0E0,0E0,0E0,0E0],"parents":[2147483647,0,0,1,1,2,2,3,3,4,4,5,5,6,6],"right_children":[2,4,6,8,10,12,14,-1,-1,-1,-1,-1,-1,-1,-1],"split_conditions":[4.59E-1,5.14E-1,3E0,-4.8E0,-6.2E0,2.3E1,6.55E-1,-1.4303128E-3,1.9959721E-3,-4.1543795E-3,-1.9755906E-3,3.0392015E-3,5.4826713E-3,-6.0012395E-4,2.3118935E-3],"split_indices":[3,55,77,25,25,80,3,0,0,0,0,0,0,0,0],"split_type":[0,0,0,0,0,0,0,0,0,0,0,0,0,0,0],"sum_hessian":[6.648393E3,2.4664617E3,4.1819316E3,1.2876942E3,1.1787675E3,2.8550806E3,1.326851E3,5.840082E2,7.03686E2,3.8668576E2,7.9208167E2,2.0187687E3,8.3631195E2,8.6824927E2,4.5860162E2],"tree_param":{"num_deleted":"0","num_feature":"106","num_nodes":"15","size_leaf_vector":"1"}},{"base_weights":[-1.290014E-1,-3.122289E-1,4.744298E-2,-1.6604134E-1,-4.6195328E-1,-1.9748564E-1,1.5692158E-1,-2.384818E-3,7.815211E-5,-3.7192726E-3,-5.9848893E-3,5.0742563E-4,-3.2873594E-3,4.6176E-4,3.0122693E-3],"categories":[],"categories_nodes":[],"categories_segments":[],"categories_sizes":[],"default_left":[0,0,0,0,0,0,0,0,0,0,0,0,0,0,0],"id":28,"left_children":[1,3,5,7,9,11,13,-1,-1,-1,-1,-1,-1,-1,-1],"loss_changes":[2.1493861E2,7.130844E1,9.086537E1,2.0804485E1,1.9575195E1,3.4123672E1,3.740841E1,0E0,0E0,0E0,0E0,0E0,0E0,0E0,0E0],"parents":[2147483647,0,0,1,1,2,2,3,3,4,4,5,5,6,6],"right_children":[2,4,6,8,10,12,14,-1,-1,-1,-1,-1,-1,-1,-1],"split_conditions":[1.5E1,1.3E1,-2E0,6E0,2.3E1,-4.8E0,2.4E1,-2.384818E-3,7.815211E-5,-3.7192726E-3,-5.9848893E-3,5.0742563E-4,-3.2873594E-3,4.6176E-4,3.0122693E-3],"split_indices":[51,80,77,77,80,25,51,0,0,0,0,0,0,0,0],"split_type":[0,0,0,0,0,0,0,0,0,0,0,0,0,0,0],"sum_hessian":[6.6469243E3,3.260407E3,3.3865173E3,1.6507555E3,1.6096515E3,1.045868E3,2.3406494E3,1.1649757E3,4.8577975E2,9.722883E2,6.3736316E2,3.6194678E2,6.8392126E2,1.3250637E3,1.0155857E3],"tree_param":{"num_deleted":"0","num_feature":"106","num_nodes":"15","size_leaf_vector":"1"}},{"base_weights":[1.2900141E-1,3.122289E-1,-4.7442973E-2,1.6604134E-1,4.619533E-1,1.9748564E-1,-1.5692157E-1,2.384818E-3,-7.8152036E-5,3.7192728E-3,5.9848893E-3,-5.074256E-4,3.2873596E-3,-4.6175983E-4,-3.0122693E-3],"categories":[],"categories_nodes":[],"categories_segments":[],"categories_sizes":[],"default_left":[0,0,0,0,0,0,0,0,0,0,0,0,0,0,0],"id":29,"left_children":[1,3,5,7,9,11,13,-1,-1,-1,-1,-1,-1,-1,-1],"loss_changes":[2.1493861E2,7.13085E1,9.086537E1,2.0804482E1,1.9575104E1,3.412367E1,3.7408424E1,0E0,0E0,0E0,0E0,0E0,0E0,0E0,0E0],"parents":[2147483647,0,0,1,1,2,2,3,3,4,4,5,5,6,6],"right_children":[2,4,6,8,10,12,14,-1,-1,-1,-1,-1,-1,-1,-1],"split_conditions":[1.5E1,1.3E1,-2E0,6E0,2.3E1,-4.8E0,2.4E1,2.384818E-3,-7.8152036E-5,3.7192728E-3,5.9848893E-3,-5.074256E-4,3.2873596E-3,-4.6175983E-4,-3.0122693E-3],"split_indices":[51,80,77,77,80,25,51,0,0,0,0,0,0,0,0],"split_type":[0,0,0,0,0,0,0,0,0,0,0,0,0,0,0],"sum_hessian":[6.6469243E3,3.260407E3,3.3865173E3,1.6507555E3,1.6096515E3,1.045868E3,2.3406494E3,1.1649757E3,4.8577975E2,9.722883E2,6.373632E2,3.6194678E2,6.8392126E2,1.3250637E3,1.01558563E3],"tree_param":{"num_deleted":"0","num_feature":"106","num_nodes":"15","size_leaf_vector":"1"}},{"base_weights":[-1.2774517E-1,-3.092214E-1,4.6975486E-2,-1.6439766E-1,-4.576284E-1,-1.9555527E-1,1.5537144E-1,-2.361304E-3,7.7371806E-5,-3.6837056E-3,-5.9306696E-3,5.023693E-4,-3.2555822E-3,4.5714542E-4,2.9829529E-3],"categories":[],"categories_nodes":[],"categories_segments":[],"categories_sizes":[],"default_left":[0,0,0,0,0,0,0,0,0,0,0,0,0,0,0],"id":30,"left_children":[1,3,5,7,9,11,13,-1,-1,-1,-1,-1,-1,-1,-1],"loss_changes":[2.1075229E2,6.9996704E1,8.907327E1,2.0395329E1,1.9240387E1,3.3460575E1,3.6681934E1,0E0,0E0,0E0,0E0,0E0,0E0,0E0,0E0],"parents":[2147483647,0,0,1,1,2,2,3,3,4,4,5,5,6,6],"right_children":[2,4,6,8,10,12,14,-1,-1,-1,-1,-1,-1,-1,-1],"split_conditions":[1.5E1,1.3E1,-2E0,6E0,2.3E1,-4.8E0,2.4E1,-2.361304E-3,7.7371806E-5,-3.6837056E-3,-5.9306696E-3,5.023693E-4,-3.2555822E-3,4.5714542E-4,2.9829529E-3],"split_indices":[51,80,77,77,80,25,51,0,0,0,0,0,0,0,0],"split_type":[0,0,0,0,0,0,0,0,0,0,0,0,0,0,0],"sum_hessian":[6.6452764E3,3.259244E3,3.3860322E3,1.6506028E3,1.6086412E3,1.0456459E3,2.3403865E3,1.1648218E3,4.85781E2,9.71871E2,6.3677026E2,3.6194406E2,6.837018E2,1.3250641E3,1.0153224E3],"tree_param":{"num_deleted":"0","num_feature":"106","num_nodes":"15","size_leaf_vector":"1"}},{"base_weights":[1.2774515E-1,3.0922136E-1,-4.6975486E-2,1.643976E-1,4.576284E-1,1.9555527E-1,-1.5537146E-1,2.3613032E-3,-7.737227E-5,3.6837053E-3,5.9306705E-3,-5.023692E-4,3.2555824E-3,-4.5714554E-4,-2.9829529E-3],"categories":[],"categories_nodes":[],"categories_segments":[],"categories_sizes":[],"default_left":[0,0,0,0,0,0,0,0,0,0,0,0,0,0,0],"id":31,"left_children":[1,3,5,7,9,11,13,-1,-1,-1,-1,-1,-1,-1,-1],"loss_changes":[2.1075226E2,6.9996704E1,8.907327E1,2.039532E1,1.9240448E1,3.346057E1,3.6681942E1,0E0,0E0,0E0,0E0,0E0,0E0,0E0,0E0],"parents":[2147483647,0,0,1,1,2,2,3,3,4,4,5,5,6,6],"right_children":[2,4,6,8,10,12,14,-1,-1,-1,-1,-1,-1,-1,-1],"split_conditions":[1.5E1,1.3E1,-2E0,6E0,2.3E1,-4.8E0,2.4E1,2.3613032E-3,-7.737227E-5,3.6837053E-3,5.9306705E-3,-5.023692E-4,3.2555824E-3,-4.5714554E-4,-2.9829529E-3],"split_indices":[51,80,77,77,80,25,51,0,0,0,0,0,0,0,0],"split_type":[0,0,0,0,0,0,0,0,0,0,0,0,0,0,0],"sum_hessian":[6.6452764E3,3.259244E3,3.3860322E3,1.6506028E3,1.6086412E3,1.0456459E3,2.3403865E3,1.1648218E3,4.85781E2,9.7187103E2,6.367702E2,3.6194406E2,6.837018E2,1.3250641E3,1.0153224E3],"tree_param":{"num_deleted":"0","num_feature":"106","num_nodes":"15","size_leaf_vector":"1"}},{"base_weights":[-1.2650311E-1,-2.425801E-1,1.4217177E-1,-1.0144458E-1,-4.0248987E-1,-1.5813184E-1,2.2182563E-1,-2.3769375E-3,2.2904997E-4,-5.439469E-3,-3.25726E-3,-2.4824748E-3,4.558784E-4,3.7944599E-3,1.2303026E-3],"categories":[],"categories_nodes":[],"categories_segments":[],"categories_sizes":[],"default_left":[0,0,0,0,0,0,0,0,0,0,0,0,0,0,0],"id":32,"left_children":[1,3,5,7,9,11,13,-1,-1,-1,-1,-1,-1,-1,-1],"loss_changes":[2.0725717E2,1.0468558E2,4.8001053E1,4.178866E1,2.3441956E1,7.739435E0,2.4639542E1,0E0,0E0,0E0,0E0,0E0,0E0,0E0,0E0],"parents":[2147483647,0,0,1,1,2,2,3,3,4,4,5,5,6,6],"right_children":[2,4,6,8,10,12,14,-1,-1,-1,-1,-1,-1,-1,-1],"split_conditions":[2E1,1.4E1,3.6E-1,1E1,8E0,2.7E1,-6.2E0,-2.3769375E-3,2.2904997E-4,-5.439469E-3,-3.25726E-3,-2.4824748E-3,4.558784E-4,3.7944599E-3,1.2303026E-3],"split_indices":[28,80,55,51,51,28,25,0,0,0,0,0,0,0,0],"split_type":[0,0,0,0,0,0,0,0,0,0,0,0,0,0,0],"sum_hessian":[6.643527E3,4.6392886E3,2.0042384E3,2.4651738E3,2.174115E3,4.1995978E2,1.5842787E3,1.1758689E3,1.2893049E3,7.626504E2,1.4114645E3,2.910118E2,1.2894797E2,6.09318E2,9.7496063E2],"tree_param":{"num_deleted":"0","num_feature":"106","num_nodes":"15","size_leaf_vector":"1"}},{"base_weights":[1.2650311E-1,2.4258009E-1,-1.4217177E-1,1.0144459E-1,4.0248984E-1,1.5813182E-1,-2.2182563E-1,2.3769375E-3,-2.2904975E-4,5.439469E-3,3.2572597E-3,2.4824743E-3,-4.558782E-4,-3.7944606E-3,-1.2303025E-3],"categories":[],"categories_nodes":[],"categories_segments":[],"categories_sizes":[],"default_left":[0,0,0,0,0,0,0,0,0,0,0,0,0,0,0],"id":33,"left_children":[1,3,5,7,9,11,13,-1,-1,-1,-1,-1,-1,-1,-1],"loss_changes":[2.0725717E2,1.0468555E2,4.8001057E1,4.1788654E1,2.3441986E1,7.7394285E0,2.463955E1,0E0,0E0,0E0,0E0,0E0,0E0,0E0,0E0],"parents":[2147483647,0,0,1,1,2,2,3,3,4,4,5,5,6,6],"right_children":[2,4,6,8,10,12,14,-1,-1,-1,-1,-1,-1,-1,-1],"split_conditions":[2E1,1.4E1,3.6E-1,1E1,8E0,2.7E1,-6.2E0,2.3769375E-3,-2.2904975E-4,5.439469E-3,3.2572597E-3,2.4824743E-3,-4.558782E-4,-3.7944606E-3,-1.2303025E-3],"split_indices":[28,80,55,51,51,28,25,0,0,0,0,0,0,0,0],"split_type":[0,0,0,0,0,0,0,0,0,0,0,0,0,0,0],"sum_hessian":[6.643527E3,4.6392886E3,2.0042384E3,2.4651738E3,2.174115E3,4.1995978E2,1.5842787E3,1.1758689E3,1.2893049E3,7.626504E2,1.4114645E3,2.910118E2,1.2894797E2,6.09318E2,9.7496063E2],"tree_param":{"num_deleted":"0","num_feature":"106","num_nodes":"15","size_leaf_vector":"1"}},{"base_weights":[-1.2527324E-1,-2.402326E-1,1.4077471E-1,-1.0043963E-1,-3.986986E-1,-6.469532E-3,3.0135754E-1,-2.4154636E-3,1.7907897E-4,-5.5511002E-3,-3.3033025E-3,1.4935099E-3,-1.7293324E-3,4.641933E-3,2.2942156E-3],"categories":[],"categories_nodes":[],"categories_segments":[],"categories_sizes":[],"default_left":[0,0,0,0,0,0,0,0,0,0,0,0,0,0,0],"id":34,"left_children":[1,3,5,7,9,11,13,-1,-1,-1,-1,-1,-1,-1,-1],"loss_changes":[2.0320023E2,1.02721375E2,4.7407883E1,4.1185028E1,2.306311E1,2.7180092E1,1.1127441E1,0E0,0E0,0E0,0E0,0E0,0E0,0E0,0E0],"parents":[2147483647,0,0,1,1,2,2,3,3,4,4,5,5,6,6],"right_children":[2,4,6,8,10,12,14,-1,-1,-1,-1,-1,-1,-1,-1],"split_conditions":[2E1,1.4E1,5.14E-1,9E0,7E0,-4.8E0,-7.1E0,-2.4154636E-3,1.7907897E-4,-5.5511002E-3,-3.3033025E-3,1.4935099E-3,-1.7293324E-3,4.641933E-3,2.2942156E-3],"split_indices":[28,80,55,29,51,25,25,0,0,0,0,0,0,0,0],"split_type":[0,0,0,0,0,0,0,0,0,0,0,0,0,0,0],"sum_hessian":[6.641745E3,4.6378335E3,2.0039116E3,2.4649646E3,2.1728691E3,1.0458726E3,9.58039E2,1.1238947E3,1.34107E3,6.587279E2,1.5141411E3,5.40259E2,5.0561365E2,2.9188022E2,6.661588E2],"tree_param":{"num_deleted":"0","num_feature":"106","num_nodes":"15","size_leaf_vector":"1"}},{"base_weights":[1.2527326E-1,2.4023262E-1,-1.407747E-1,1.0043964E-1,3.986986E-1,6.469518E-3,-3.013575E-1,2.4154638E-3,-1.7907898E-4,5.5511007E-3,3.3033025E-3,-1.4935096E-3,1.7293319E-3,-4.641932E-3,-2.2942154E-3],"categories":[],"categories_nodes":[],"categories_segments":[],"categories_sizes":[],"default_left":[0,0,0,0,0,0,0,0,0,0,0,0,0,0,0],"id":35,"left_children":[1,3,5,7,9,11,13,-1,-1,-1,-1,-1,-1,-1,-1],"loss_changes":[2.032002E2,1.02721436E2,4.7407864E1,4.118504E1,2.306311E1,2.718008E1,1.1127441E1,0E0,0E0,0E0,0E0,0E0,0E0,0E0,0E0],"parents":[2147483647,0,0,1,1,2,2,3,3,4,4,5,5,6,6],"right_children":[2,4,6,8,10,12,14,-1,-1,-1,-1,-1,-1,-1,-1],"split_conditions":[2E1,1.4E1,5.14E-1,9E0,7E0,-4.8E0,-7.1E0,2.4154638E-3,-1.7907898E-4,5.5511007E-3,3.3033025E-3,-1.4935096E-3,1.7293319E-3,-4.641932E-3,-2.2942154E-3],"split_indices":[28,80,55,29,51,25,25,0,0,0,0,0,0,0,0],"split_type":[0,0,0,0,0,0,0,0,0,0,0,0,0,0,0],"sum_hessian":[6.641745E3,4.6378335E3,2.0039116E3,2.4649646E3,2.1728691E3,1.0458726E3,9.5803894E2,1.1238947E3,1.34107E3,6.587279E2,1.5141412E3,5.40259E2,5.0561365E2,2.918802E2,6.6615875E2],"tree_param":{"num_deleted":"0","num_feature":"106","num_nodes":"15","size_leaf_vector":"1"}},{"base_weights":[-1.2405628E-1,-3.0093226E-1,4.612186E-2,-1.5986638E-1,-4.457301E-1,-1.9108953E-1,1.5211885E-1,-2.3087917E-3,1.04946266E-4,-3.572596E-3,-5.8011655E-3,4.8362E-4,-3.1784165E-3,4.5675723E-4,2.9094832E-3],"categories":[],"categories_nodes":[],"categories_segments":[],"categories_sizes":[],"default_left":[0,0,0,0,0,0,0,0,0,0,0,0,0,0,0],"id":36,"left_children":[1,3,5,7,9,11,13,-1,-1,-1,-1,-1,-1,-1,-1],"loss_changes":[1.9990741E2,6.6446045E1,8.5150345E1,1.9976677E1,1.8891998E1,3.1762283E1,3.4571827E1,0E0,0E0,0E0,0E0,0E0,0E0,0E0,0E0],"parents":[2147483647,0,0,1,1,2,2,3,3,4,4,5,5,6,6],"right_children":[2,4,6,8,10,12,14,-1,-1,-1,-1,-1,-1,-1,-1],"split_conditions":[1.5E1,1.3E1,-2E0,6E0,2.3E1,-4.8E0,2.4E1,-2.3087917E-3,1.04946266E-4,-3.572596E-3,-5.8011655E-3,4.8362E-4,-3.1784165E-3,4.5675723E-4,2.9094832E-3],"split_indices":[51,80,77,77,80,25,51,0,0,0,0,0,0,0,0],"split_type":[0,0,0,0,0,0,0,0,0,0,0,0,0,0,0],"sum_hessian":[6.6398867E3,3.2554946E3,3.3843923E3,1.6500632E3,1.6054313E3,1.0449929E3,2.3393994E3,1.1643596E3,4.857036E2,9.70308E2,6.351233E2,3.6191187E2,6.8308105E2,1.3249017E3,1.01449774E3],"tree_param":{"num_deleted":"0","num_feature":"106","num_nodes":"15","size_leaf_vector":"1"}},{"base_weights":[1.2405627E-1,3.009323E-1,-4.6121877E-2,1.598664E-1,4.4573012E-1,1.910895E-1,-1.5211886E-1,2.3087917E-3,-1.0494615E-4,3.5725955E-3,5.801167E-3,-4.8362013E-4,3.1784158E-3,-4.567571E-4,-2.9094836E-3],"categories":[],"categories_nodes":[],"categories_segments":[],"categories_sizes":[],"default_left":[0,0,0,0,0,0,0,0,0,0,0,0,0,0,0],"id":37,"left_children":[1,3,5,7,9,11,13,-1,-1,-1,-1,-1,-1,-1,-1],"loss_changes":[1.9990744E2,6.6446045E1,8.515032E1,1.9976673E1,1.8892029E1,3.1762287E1,3.457184E1,0E0,0E0,0E0,0E0,0E0,0E0,0E0,0E0],"parents":[2147483647,0,0,1,1,2,2,3,3,4,4,5,5,6,6],"right_children":[2,4,6,8,10,12,14,-1,-1,-1,-1,-1,-1,-1,-1],"split_conditions":[1.5E1,1.3E1,-2E0,6E0,2.3E1,-4.8E0,2.4E1,2.3087917E-3,-1.0494615E-4,3.5725955E-3,5.801167E-3,-4.8362013E-4,3.1784158E-3,-4.567571E-4,-2.9094836E-3],"split_indices":[51,80,77,77,80,25,51,0,0,0,0,0,0,0,0],"split_type":[0,0,0,0,0,0,0,0,0,0,0,0,0,0,0],"sum_hessian":[6.6398867E3,3.2554946E3,3.3843923E3,1.6500632E3,1.6054313E3,1.0449929E3,2.3393994E3,1.1643596E3,4.857036E2,9.70308E2,6.351233E2,3.6191187E2,6.83081E2,1.3249017E3,1.01449774E3],"tree_param":{"num_deleted":"0","num_feature":"106","num_nodes":"15","size_leaf_vector":"1"}},{"base_weights":[-1.22854754E-1,1.0085008E-1,-2.5491098E-1,-1.896251E-1,1.781343E-1,-3.5706124E-1,-3.549513E-2,-1.5797275E-4,-3.2916062E-3,7.2827603E-4,3.17559E-3,-4.796358E-3,-2.6507892E-3,6.2542787E-4,-2.209421E-3],"categories":[],"categories_nodes":[],"categories_segments":[],"categories_sizes":[],"default_left":[0,0,0,0,0,0,0,0,0,0,0,0,0,0,0],"id":38,"left_children":[1,3,5,7,9,11,13,-1,-1,-1,-1,-1,-1,-1,-1],"loss_changes":[1.9614929E2,5.537161E1,9.356009E1,1.2571289E1,2.8571098E1,3.1989288E1,2.4145548E1,0E0,0E0,0E0,0E0,0E0,0E0,0E0,0E0],"parents":[2147483647,0,0,1,1,2,2,3,3,4,4,5,5,6,6],"right_children":[2,4,6,8,10,12,14,-1,-1,-1,-1,-1,-1,-1,-1],"split_conditions":[4.59E-1,3.57E-1,3E0,-4.8E0,2.6E1,-1.9E0,6.55E-1,-1.5797275E-4,-3.2916062E-3,7.2827603E-4,3.17559E-3,-4.796358E-3,-2.6507892E-3,6.2542787E-4,-2.209421E-3],"split_indices":[3,55,77,25,51,77,3,0,0,0,0,0,0,0,0],"split_type":[0,0,0,0,0,0,0,0,0,0,0,0,0,0,0],"sum_hessian":[6.6378906E3,2.4640303E3,4.1738604E3,5.175077E2,1.9465226E3,2.8475435E3,1.3263169E3,2.3093333E2,2.8657434E2,1.1098109E3,8.367116E2,1.218959E3,1.6285846E3,8.680687E2,4.582482E2],"tree_param":{"num_deleted":"0","num_feature":"106","num_nodes":"15","size_leaf_vector":"1"}},{"base_weights":[1.22854754E-1,-1.0085007E-1,2.5491098E-1,1.8962514E-1,-1.781343E-1,3.5706124E-1,3.5495147E-2,1.5797275E-4,3.2916071E-3,-7.28276E-4,-3.17559E-3,4.7963574E-3,2.650789E-3,-6.2542787E-4,2.2094215E-3],"categories":[],"categories_nodes":[],"categories_segments":[],"categories_sizes":[],"default_left":[0,0,0,0,0,0,0,0,0,0,0,0,0,0,0],"id":39,"left_children":[1,3,5,7,9,11,13,-1,-1,-1,-1,-1,-1,-1,-1],"loss_changes":[1.9614929E2,5.537162E1,9.356006E1,1.2571295E1,2.8571095E1,3.1989288E1,2.4145557E1,0E0,0E0,0E0,0E0,0E0,0E0,0E0,0E0],"parents":[2147483647,0,0,1,1,2,2,3,3,4,4,5,5,6,6],"right_children":[2,4,6,8,10,12,14,-1,-1,-1,-1,-1,-1,-1,-1],"split_conditions":[4.59E-1,3.57E-1,3E0,-4.8E0,2.6E1,-1.9E0,6.55E-1,1.5797275E-4,3.2916071E-3,-7.28276E-4,-3.17559E-3,4.7963574E-3,2.650789E-3,-6.2542787E-4,2.2094215E-3],"split_indices":[3,55,77,25,51,77,3,0,0,0,0,0,0,0,0],"split_type":[0,0,0,0,0,0,0,0,0,0,0,0,0,0,0],"sum_hessian":[6.6378906E3,2.4640303E3,4.1738604E3,5.175077E2,1.9465226E3,2.8475435E3,1.3263169E3,2.3093333E2,2.8657434E2,1.1098109E3,8.367116E2,1.218959E3,1.6285846E3,8.6806866E2,4.582482E2],"tree_param":{"num_deleted":"0","num_feature":"106","num_nodes":"15","size_leaf_vector":"1"}},{"base_weights":[-1.2166384E-1,-2.9563195E-1,4.563896E-2,-1.5693156E-1,-4.38174E-1,-1.8759082E-1,1.4983112E-1,-2.2697106E-3,1.1049391E-4,-3.508834E-3,-5.70912E-3,4.7096884E-4,-3.119121E-3,4.5602096E-4,2.858477E-3],"categories":[],"categories_nodes":[],"categories_segments":[],"categories_sizes":[],"default_left":[0,0,0,0,0,0,0,0,0,0,0,0,0,0,0],"id":40,"left_children":[1,3,5,7,9,11,13,-1,-1,-1,-1,-1,-1,-1,-1],"loss_changes":[1.9318369E2,6.426068E1,8.226522E1,1.9423191E1,1.83862E1,3.0516865E1,3.315679E1,0E0,0E0,0E0,0E0,0E0,0E0,0E0,0E0],"parents":[2147483647,0,0,1,1,2,2,3,3,4,4,5,5,6,6],"right_children":[2,4,6,8,10,12,14,-1,-1,-1,-1,-1,-1,-1,-1],"split_conditions":[1.5E1,1.3E1,-2E0,6E0,2.3E1,-4.8E0,2.4E1,-2.2697106E-3,1.1049391E-4,-3.508834E-3,-5.70912E-3,4.7096884E-4,-3.119121E-3,4.5602096E-4,2.858477E-3],"split_indices":[51,80,77,77,80,25,51,0,0,0,0,0,0,0,0],"split_type":[0,0,0,0,0,0,0,0,0,0,0,0,0,0,0],"sum_hessian":[6.6359307E3,3.2527866E3,3.3831438E3,1.6496743E3,1.6031124E3,1.0444302E3,2.3387136E3,1.163996E3,4.856783E2,9.6931744E2,6.33795E2,3.61891E2,6.825392E2,1.3248337E3,1.01388E3],"tree_param":{"num_deleted":"0","num_feature":"106","num_nodes":"15","size_leaf_vector":"1"}},{"base_weights":[1.21663846E-1,2.9563195E-1,-4.563896E-2,1.5693158E-1,4.38174E-1,1.8759082E-1,-1.4983112E-1,2.2697109E-3,-1.1049372E-4,3.508834E-3,5.7091205E-3,-4.7096907E-4,3.119121E-3,-4.5602102E-4,-2.8584772E-3],"categories":[],"categories_nodes":[],"categories_segments":[],"categories_sizes":[],"default_left":[0,0,0,0,0,0,0,0,0,0,0,0,0,0,0],"id":41,"left_children":[1,3,5,7,9,11,13,-1,-1,-1,-1,-1,-1,-1,-1],"loss_changes":[1.9318369E2,6.426068E1,8.226522E1,1.9423195E1,1.838617E1,3.0516872E1,3.315679E1,0E0,0E0,0E0,0E0,0E0,0E0,0E0,0E0],"parents":[2147483647,0,0,1,1,2,2,3,3,4,4,5,5,6,6],"right_children":[2,4,6,8,10,12,14,-1,-1,-1,-1,-1,-1,-1,-1],"split_conditions":[1.5E1,1.3E1,-2E0,6E0,2.3E1,-4.8E0,2.4E1,2.2697109E-3,-1.1049372E-4,3.508834E-3,5.7091205E-3,-4.7096907E-4,3.119121E-3,-4.5602102E-4,-2.8584772E-3],"split_indices":[51,80,77,77,80,25,51,0,0,0,0,0,0,0,0],"split_type":[0,0,0,0,0,0,0,0,0,0,0,0,0,0,0],"sum_hessian":[6.6359307E3,3.2527866E3,3.3831438E3,1.6496743E3,1.6031124E3,1.0444302E3,2.3387136E3,1.163996E3,4.856783E2,9.693174E2,6.33795E2,3.61891E2,6.825392E2,1.3248336E3,1.01388E3],"tree_param":{"num_deleted":"0","num_feature":"106","num_nodes":"15","size_leaf_vector":"1"}},{"base_weights":[-1.20488495E-1,-2.928179E-1,4.519113E-2,-1.5538308E-1,-4.341585E-1,-8.687954E-2,2.2669466E-1,-2.2474362E-3,1.0939077E-4,-3.4757315E-3,-5.659133E-3,1.4091673E-3,-2.0526953E-3,1.4122932E-3,3.4183967E-3],"categories":[],"categories_nodes":[],"categories_segments":[],"categories_sizes":[],"default_left":[0,0,0,0,0,0,0,0,0,0,0,0,0,0,0],"id":42,"left_children":[1,3,5,7,9,11,13,-1,-1,-1,-1,-1,-1,-1,-1],"loss_changes":[1.8944579E2,6.3108E1,8.1126976E1,1.9042587E1,1.8087982E1,5.2865555E1,1.3978378E1,0E0,0E0,0E0,0E0,0E0,0E0,0E0,0E0],"parents":[2147483647,0,0,1,1,2,2,3,3,4,4,5,5,6,6],"right_children":[2,4,6,8,10,12,14,-1,-1,-1,-1,-1,-1,-1,-1],"split_conditions":[1.5E1,1.3E1,5.45E-1,6E0,2.3E1,-4.8E0,2.4E1,-2.2474362E-3,1.0939077E-4,-3.4757315E-3,-5.659133E-3,1.4091673E-3,-2.0526953E-3,1.4122932E-3,3.4183967E-3],"split_indices":[51,80,55,77,80,25,51,0,0,0,0,0,0,0,0],"split_type":[0,0,0,0,0,0,0,0,0,0,0,0,0,0,0],"sum_hessian":[6.633774E3,3.2512563E3,3.3825173E3,1.6494685E3,1.601788E3,1.958176E3,1.4243413E3,1.1637881E3,4.8568036E2,9.6877576E2,6.3301215E2,6.695988E2,1.2885771E3,8.18812E2,6.0552936E2],"tree_param":{"num_deleted":"0","num_feature":"106","num_nodes":"15","size_leaf_vector":"1"}},{"base_weights":[1.2048848E-1,2.9281786E-1,-4.5191135E-2,1.5538308E-1,4.3415844E-1,8.687953E-2,-2.2669467E-1,2.2474362E-3,-1.0939057E-4,3.4757315E-3,5.6591323E-3,-1.4091677E-3,2.0526953E-3,-1.4122932E-3,-3.4183967E-3],"categories":[],"categories_nodes":[],"categories_segments":[],"categories_sizes":[],"default_left":[0,0,0,0,0,0,0,0,0,0,0,0,0,0,0],"id":43,"left_children":[1,3,5,7,9,11,13,-1,-1,-1,-1,-1,-1,-1,-1],"loss_changes":[1.8944577E2,6.310797E1,8.1126976E1,1.9042583E1,1.8087982E1,5.2865555E1,1.3978378E1,0E0,0E0,0E0,0E0,0E0,0E0,0E0,0E0],"parents":[2147483647,0,0,1,1,2,2,3,3,4,4,5,5,6,6],"right_children":[2,4,6,8,10,12,14,-1,-1,-1,-1,-1,-1,-1,-1],"split_conditions":[1.5E1,1.3E1,5.45E-1,6E0,2.3E1,-4.8E0,2.4E1,2.2474362E-3,-1.0939057E-4,3.4757315E-3,5.6591323E-3,-1.4091677E-3,2.0526953E-3,-1.4122932E-3,-3.4183967E-3],"split_indices":[51,80,55,77,80,25,51,0,0,0,0,0,0,0,0],"split_type":[0,0,0,0,0,0,0,0,0,0,0,0,0,0,0],"sum_hessian":[6.633774E3,3.2512563E3,3.3825173E3,1.6494685E3,1.601788E3,1.958176E3,1.4243414E3,1.1637881E3,4.8568036E2,9.6877576E2,6.330122E2,6.695988E2,1.2885773E3,8.18812E2,6.0552936E2],"tree_param":{"num_deleted":"0","num_feature":"106","num_nodes":"15","size_leaf_vector":"1"}},{"base_weights":[-1.1932391E-1,-2.295199E-1,1.3551112E-1,-9.557709E-2,-3.8176286E-1,-6.626872E-3,2.906016E-1,-2.3253877E-3,1.9222168E-4,-5.349215E-3,-3.1495998E-3,1.4179721E-3,-1.6522073E-3,4.486635E-3,2.2088336E-3],"categories":[],"categories_nodes":[],"categories_segments":[],"categories_sizes":[],"default_left":[0,0,0,0,0,0,0,0,0,0,0,0,0,0,0],"id":44,"left_children":[1,3,5,7,9,11,13,-1,-1,-1,-1,-1,-1,-1,-1],"loss_changes":[1.8628699E2,9.439261E1,4.4154167E1,3.8758034E1,2.2002777E1,2.464689E1,1.0455971E1,0E0,0E0,0E0,0E0,0E0,0E0,0E0,0E0],"parents":[2147483647,0,0,1,1,2,2,3,3,4,4,5,5,6,6],"right_children":[2,4,6,8,10,12,14,-1,-1,-1,-1,-1,-1,-1,-1],"split_conditions":[2E1,1.4E1,5.14E-1,9E0,7E0,-4.8E0,-7.1E0,-2.3253877E-3,1.9222168E-4,-5.349215E-3,-3.1495998E-3,1.4179721E-3,-1.6522073E-3,4.486635E-3,2.2088336E-3],"split_indices":[28,80,55,29,51,25,25,0,0,0,0,0,0,0,0],"split_type":[0,0,0,0,0,0,0,0,0,0,0,0,0,0,0],"sum_hessian":[6.631619E3,4.6297275E3,2.0018916E3,2.463754E3,2.1659739E3,1.0450642E3,9.5682745E2,1.1229677E3,1.3407861E3,6.5568365E2,1.5102902E3,5.398953E2,5.0516882E2,2.9119922E2,6.6562823E2],"tree_param":{"num_deleted":"0","num_feature":"106","num_nodes":"15","size_leaf_vector":"1"}},{"base_weights":[1.19323894E-1,2.2951989E-1,-1.3551114E-1,9.5577054E-2,3.8176286E-1,6.6268425E-3,-2.9060164E-1,2.3253872E-3,-1.92222E-4,5.3492156E-3,3.1495998E-3,-1.4179727E-3,1.6522073E-3,-4.486635E-3,-2.208834E-3],"categories":[],"categories_nodes":[],"categories_segments":[],"categories_sizes":[],"default_left":[0,0,0,0,0,0,0,0,0,0,0,0,0,0,0],"id":45,"left_children":[1,3,5,7,9,11,13,-1,-1,-1,-1,-1,-1,-1,-1],"loss_changes":[1.8628699E2,9.439264E1,4.415417E1,3.8758038E1,2.2002808E1,2.4646898E1,1.04559555E1,0E0,0E0,0E0,0E0,0E0,0E0,0E0,0E0],"parents":[2147483647,0,0,1,1,2,2,3,3,4,4,5,5,6,6],"right_children":[2,4,6,8,10,12,14,-1,-1,-1,-1,-1,-1,-1,-1],"split_conditions":[2E1,1.4E1,5.14E-1,9E0,7E0,-4.8E0,-7.1E0,2.3253872E-3,-1.92222E-4,5.3492156E-3,3.1495998E-3,-1.4179727E-3,1.6522073E-3,-4.486635E-3,-2.208834E-3],"split_indices":[28,80,55,29,51,25,25,0,0,0,0,0,0,0,0],"split_type":[0,0,0,0,0,0,0,0,0,0,0,0,0,0,0],"sum_hessian":[6.631619E3,4.6297275E3,2.0018916E3,2.463754E3,2.1659739E3,1.0450642E3,9.5682745E2,1.1229677E3,1.3407861E3,6.5568365E2,1.5102902E3,5.398953E2,5.0516882E2,2.9119922E2,6.6562823E2],"tree_param":{"num_deleted":"0","num_feature":"106","num_nodes":"15","size_leaf_vector":"1"}},{"base_weights":[-1.18171416E-1,-2.8754732E-1,4.4573616E-2,-1.5250115E-1,-4.2662778E-1,-1.8381551E-1,1.465792E-1,-2.2118175E-3,1.2145419E-4,-3.40725E-3,-5.574793E-3,4.42076E-4,-3.0471801E-3,4.5293928E-4,2.788643E-3],"categories":[],"categories_nodes":[],"categories_segments":[],"categories_sizes":[],"default_left":[0,0,0,0,0,0,0,0,0,0,0,0,0,0,0],"id":46,"left_children":[1,3,5,7,9,11,13,-1,-1,-1,-1,-1,-1,-1,-1],"loss_changes":[1.8278018E2,6.0961212E1,7.882312E1,1.8661331E1,1.779602E1,2.881366E1,3.1320858E1,0E0,0E0,0E0,0E0,0E0,0E0,0E0,0E0],"parents":[2147483647,0,0,1,1,2,2,3,3,4,4,5,5,6,6],"right_children":[2,4,6,8,10,12,14,-1,-1,-1,-1,-1,-1,-1,-1],"split_conditions":[1.5E1,1.3E1,-2E0,6E0,2.3E1,-4.8E0,2.4E1,-2.2118175E-3,1.2145419E-4,-3.40725E-3,-5.574793E-3,4.42076E-4,-3.0471801E-3,4.5293928E-4,2.788643E-3],"split_indices":[51,80,77,77,80,25,51,0,0,0,0,0,0,0,0],"split_type":[0,0,0,0,0,0,0,0,0,0,0,0,0,0,0],"sum_hessian":[6.629392E3,3.2481414E3,3.3812507E3,1.6490355E3,1.599106E3,1.0436748E3,2.337576E3,1.1633943E3,4.8564124E2,9.6753357E2,6.315724E2,3.618525E2,6.818223E2,1.3246715E3,1.01290436E3],"tree_param":{"num_deleted":"0","num_feature":"106","num_nodes":"15","size_leaf_vector":"1"}},{"base_weights":[1.181714E-1,2.8754732E-1,-4.457362E-2,1.5250117E-1,4.2662773E-1,1.838155E-1,-1.465792E-1,2.211818E-3,-1.2145455E-4,3.4072497E-3,5.5747926E-3,-4.4207572E-4,3.04718E-3,-4.529393E-4,-2.7886427E-3],"categories":[],"categories_nodes":[],"categories_segments":[],"categories_sizes":[],"default_left":[0,0,0,0,0,0,0,0,0,0,0,0,0,0,0],"id":47,"left_children":[1,3,5,7,9,11,13,-1,-1,-1,-1,-1,-1,-1,-1],"loss_changes":[1.8278017E2,6.0961212E1,7.882312E1,1.8661343E1,1.7796051E1,2.8813648E1,3.132085E1,0E0,0E0,0E0,0E0,0E0,0E0,0E0,0E0],"parents":[2147483647,0,0,1,1,2,2,3,3,4,4,5,5,6,6],"right_children":[2,4,6,8,10,12,14,-1,-1,-1,-1,-1,-1,-1,-1],"split_conditions":[1.5E1,1.3E1,-2E0,6E0,2.3E1,-4.8E0,2.4E1,2.211818E-3,-1.2145455E-4,3.4072497E-3,5.5747926E-3,-4.4207572E-4,3.04718E-3,-4.529393E-4,-2.7886427E-3],"split_indices":[51,80,77,77,80,25,51,0,0,0,0,0,0,0,0],"split_type":[0,0,0,0,0,0,0,0,0,0,0,0,0,0,0],"sum_hessian":[6.629392E3,3.2481414E3,3.3812507E3,1.6490354E3,1.599106E3,1.0436748E3,2.337576E3,1.1633942E3,4.856412E2,9.675336E2,6.315724E2,3.6185248E2,6.818223E2,1.3246715E3,1.01290436E3],"tree_param":{"num_deleted":"0","num_feature":"106","num_nodes":"15","size_leaf_vector":"1"}},{"base_weights":[-1.17033795E-1,-2.2531731E-1,1.3329771E-1,-9.369882E-2,-3.7510362E-1,-1.5069245E-1,2.0865834E-1,-2.2329171E-3,2.443589E-4,-5.26483E-3,-3.0915462E-3,-1.7286614E-3,6.544563E-3,3.5773069E-3,1.1540868E-3],"categories":[],"categories_nodes":[],"categories_segments":[],"categories_sizes":[],"default_left":[0,0,0,0,0,0,0,0,0,0,0,0,0,0,0],"id":48,"left_children":[1,3,5,7,9,11,13,-1,-1,-1,-1,-1,-1,-1,-1],"loss_changes":[1.796941E2,9.118579E1,4.287657E1,3.7731365E1,2.1439453E1,7.6188765E0,2.195745E1,0E0,0E0,0E0,0E0,0E0,0E0,0E0,0E0],"parents":[2147483647,0,0,1,1,2,2,3,3,4,4,5,5,6,6],"right_children":[2,4,6,8,10,12,14,-1,-1,-1,-1,-1,-1,-1,-1],"split_conditions":[2E1,1.4E1,3.6E-1,1E1,7E0,4.75E-1,-6.2E0,-2.2329171E-3,2.443589E-4,-5.26483E-3,-3.0915462E-3,-1.7286614E-3,6.544563E-3,3.5773069E-3,1.1540868E-3],"split_indices":[28,80,55,51,51,59,25,0,0,0,0,0,0,0,0],"split_type":[0,0,0,0,0,0,0,0,0,0,0,0,0,0,0],"sum_hessian":[6.6270146E3,4.626063E3,2.0009519E3,2.4632285E3,2.1628342E3,4.194165E2,1.5815354E3,1.1742238E3,1.2890048E3,6.5419977E2,1.5086344E3,4.0893967E2,1.047684E1,6.0751044E2,9.7402496E2],"tree_param":{"num_deleted":"0","num_feature":"106","num_nodes":"15","size_leaf_vector":"1"}},{"base_weights":[1.1703377E-1,2.2531728E-1,-1.3329771E-1,9.3698815E-2,3.7510356E-1,1.5069248E-1,-2.0865835E-1,2.2329167E-3,-2.4435867E-4,5.2648294E-3,3.091546E-3,1.7286615E-3,-6.544563E-3,-3.5773069E-3,-1.1540871E-3],"categories":[],"categories_nodes":[],"categories_segments":[],"categories_sizes":[],"default_left":[0,0,0,0,0,0,0,0,0,0,0,0,0,0,0],"id":49,"left_children":[1,3,5,7,9,11,13,-1,-1,-1,-1,-1,-1,-1,-1],"loss_changes":[1.7969409E2,9.1185745E1,4.2876587E1,3.773134E1,2.1439514E1,7.6188765E0,2.195745E1,0E0,0E0,0E0,0E0,0E0,0E0,0E0,0E0],"parents":[2147483647,0,0,1,1,2,2,3,3,4,4,5,5,6,6],"right_children":[2,4,6,8,10,12,14,-1,-1,-1,-1,-1,-1,-1,-1],"split_conditions":[2E1,1.4E1,3.6E-1,1E1,7E0,4.75E-1,-6.2E0,2.2329167E-3,-2.4435867E-4,5.2648294E-3,3.091546E-3,1.7286615E-3,-6.544563E-3,-3.5773069E-3,-1.1540871E-3],"split_indices":[28,80,55,51,51,59,25,0,0,0,0,0,0,0,0],"split_type":[0,0,0,0,0,0,0,0,0,0,0,0,0,0,0],"sum_hessian":[6.6270146E3,4.626063E3,2.0009519E3,2.4632285E3,2.1628342E3,4.1941653E2,1.5815354E3,1.1742238E3,1.2890048E3,6.5419977E2,1.5086344E3,4.089397E2,1.0476841E1,6.0751044E2,9.7402496E2],"tree_param":{"num_deleted":"0","num_feature":"106","num_nodes":"15","size_leaf_vector":"1"}},{"base_weights":[-1.1590488E-1,9.6261606E-2,-2.4130593E-1,-4.1281443E-2,2.4651377E-1,-3.3959284E-1,-3.0792015E-2,1.2656425E-3,-1.8065638E-3,3.7853818E-3,1.819162E-3,-2.7405033E-3,-4.9833143E-3,6.455111E-4,-2.1127558E-3],"categories":[],"categories_nodes":[],"categories_segments":[],"categories_sizes":[],"default_left":[0,0,0,0,0,0,0,0,0,0,0,0,0,0,0],"id":50,"left_children":[1,3,5,7,9,11,13,-1,-1,-1,-1,-1,-1,-1,-1],"loss_changes":[1.7630542E2,5.0891273E1,8.615889E1,3.0112602E1,9.967476E0,2.9400574E1,2.284231E1,0E0,0E0,0E0,0E0,0E0,0E0,0E0,0E0],"parents":[2147483647,0,0,1,1,2,2,3,3,4,4,5,5,6,6],"right_children":[2,4,6,8,10,12,14,-1,-1,-1,-1,-1,-1,-1,-1],"split_conditions":[4.59E-1,5.14E-1,3E0,-4.8E0,-6.2E0,2.3E1,6.55E-1,1.2656425E-3,-1.8065638E-3,3.7853818E-3,1.819162E-3,-2.7405033E-3,-4.9833143E-3,6.455111E-4,-2.1127558E-3],"split_indices":[3,55,77,25,25,80,3,0,0,0,0,0,0,0,0],"split_type":[0,0,0,0,0,0,0,0,0,0,0,0,0,0,0],"sum_hessian":[6.6246797E3,2.461051E3,4.1636284E3,1.2852445E3,1.1758065E3,2.8379868E3,1.3256416E3,5.831109E2,7.021336E2,3.8469904E2,7.9110754E2,2.0105612E3,8.274258E2,8.678364E2,4.5780515E2],"tree_param":{"num_deleted":"0","num_feature":"106","num_nodes":"15","size_leaf_vector":"1"}},{"base_weights":[1.1590488E-1,-9.626161E-2,2.4130595E-1,4.128147E-2,-2.4651381E-1,3.3959284E-1,3.0792022E-2,-1.265642E-3,1.8065642E-3,-3.7853818E-3,-1.8191626E-3,2.7405033E-3,4.9833143E-3,-6.4551097E-4,2.1127558E-3],"categories":[],"categories_nodes":[],"categories_segments":[],"categories_sizes":[],"default_left":[0,0,0,0,0,0,0,0,0,0,0,0,0,0,0],"id":51,"left_children":[1,3,5,7,9,11,13,-1,-1,-1,-1,-1,-1,-1,-1],"loss_changes":[1.763054E2,5.0891293E1,8.6158875E1,3.0112602E1,9.967468E0,2.9400604E1,2.2842308E1,0E0,0E0,0E0,0E0,0E0,0E0,0E0,0E0],"parents":[2147483647,0,0,1,1,2,2,3,3,4,4,5,5,6,6],"right_children":[2,4,6,8,10,12,14,-1,-1,-1,-1,-1,-1,-1,-1],"split_conditions":[4.59E-1,5.14E-1,3E0,-4.8E0,-6.2E0,2.3E1,6.55E-1,-1.265642E-3,1.8065642E-3,-3.7853818E-3,-1.8191626E-3,2.7405033E-3,4.9833143E-3,-6.4551097E-4,2.1127558E-3],"split_indices":[3,55,77,25,25,80,3,0,0,0,0,0,0,0,0],"split_type":[0,0,0,0,0,0,0,0,0,0,0,0,0,0,0],"sum_hessian":[6.6246797E3,2.461051E3,4.1636284E3,1.2852445E3,1.1758065E3,2.8379868E3,1.3256416E3,5.831109E2,7.021336E2,3.8469904E2,7.911075E2,2.0105612E3,8.274257E2,8.678364E2,4.5780515E2],"tree_param":{"num_deleted":"0","num_feature":"106","num_nodes":"15","size_leaf_vector":"1"}},{"base_weights":[-1.1478807E-1,-2.8009832E-1,4.3913167E-2,-1.483305E-1,-4.1609746E-1,-1.7940597E-1,1.4362392E-1,-2.1605939E-3,1.3965447E-4,-3.571058E-3,-6.02083E-3,4.274464E-4,-2.9732839E-3,4.533347E-4,2.7211246E-3],"categories":[],"categories_nodes":[],"categories_segments":[],"categories_sizes":[],"default_left":[0,0,0,0,0,0,0,0,0,0,0,0,0,0,0],"id":52,"left_children":[1,3,5,7,9,11,13,-1,-1,-1,-1,-1,-1,-1,-1],"loss_changes":[1.7377432E2,5.807605E1,7.529079E1,1.81324E1,1.7294952E1,2.7356163E1,2.9505692E1,0E0,0E0,0E0,0E0,0E0,0E0,0E0,0E0],"parents":[2147483647,0,0,1,1,2,2,3,3,4,4,5,5,6,6],"right_children":[2,4,6,8,10,12,14,-1,-1,-1,-1,-1,-1,-1,-1],"split_conditions":[1.5E1,1.3E1,-2E0,6E0,2.6E1,-4.8E0,2.4E1,-2.1605939E-3,1.3965447E-4,-3.571058E-3,-6.02083E-3,4.274464E-4,-2.9732839E-3,4.533347E-4,2.7211246E-3],"split_indices":[51,80,77,77,80,25,51,0,0,0,0,0,0,0,0],"split_type":[0,0,0,0,0,0,0,0,0,0,0,0,0,0,0],"sum_hessian":[6.6223047E3,3.2432385E3,3.3790662E3,1.6483063E3,1.5949323E3,1.0427814E3,2.336285E3,1.1627424E3,4.8556387E2,1.2130819E3,3.818503E2,3.6181192E2,6.809695E2,1.3244597E3,1.0118252E3],"tree_param":{"num_deleted":"0","num_feature":"106","num_nodes":"15","size_leaf_vector":"1"}},{"base_weights":[1.1478808E-1,2.8009832E-1,-4.391316E-2,1.4833048E-1,4.160975E-1,1.7940597E-1,-1.4362392E-1,2.1605939E-3,-1.3965458E-4,3.5710582E-3,6.020831E-3,-4.274464E-4,2.973284E-3,-4.5333456E-4,-2.7211246E-3],"categories":[],"categories_nodes":[],"categories_segments":[],"categories_sizes":[],"default_left":[0,0,0,0,0,0,0,0,0,0,0,0,0,0,0],"id":53,"left_children":[1,3,5,7,9,11,13,-1,-1,-1,-1,-1,-1,-1,-1],"loss_changes":[1.7377434E2,5.807608E1,7.529078E1,1.8132404E1,1.7294891E1,2.735617E1,2.95057E1,0E0,0E0,0E0,0E0,0E0,0E0,0E0,0E0],"parents":[2147483647,0,0,1,1,2,2,3,3,4,4,5,5,6,6],"right_children":[2,4,6,8,10,12,14,-1,-1,-1,-1,-1,-1,-1,-1],"split_conditions":[1.5E1,1.3E1,-2E0,6E0,2.6E1,-4.8E0,2.4E1,2.1605939E-3,-1.3965458E-4,3.5710582E-3,6.020831E-3,-4.274464E-4,2.973284E-3,-4.5333456E-4,-2.7211246E-3],"split_indices":[51,80,77,77,80,25,51,0,0,0,0,0,0,0,0],"split_type":[0,0,0,0,0,0,0,0,0,0,0,0,0,0,0],"sum_hessian":[6.6223047E3,3.2432385E3,3.3790662E3,1.6483063E3,1.5949323E3,1.0427814E3,2.336285E3,1.1627424E3,4.8556387E2,1.2130819E3,3.818503E2,3.6181192E2,6.809694E2,1.3244597E3,1.0118252E3],"tree_param":{"num_deleted":"0","num_feature":"106","num_nodes":"15","size_leaf_vector":"1"}},{"base_weights":[-1.13686204E-1,-2.774573E-1,4.34837E-2,-1.4687085E-1,-4.1234896E-1,-8.304464E-2,2.173484E-1,-2.1394745E-3,1.3825981E-4,-3.2823894E-3,-5.4079834E-3,1.329121E-3,-1.9533576E-3,1.3708419E-3,3.257309E-3],"categories":[],"categories_nodes":[],"categories_segments":[],"categories_sizes":[],"default_left":[0,0,0,0,0,0,0,0,0,0,0,0,0,0,0],"id":54,"left_children":[1,3,5,7,9,11,13,-1,-1,-1,-1,-1,-1,-1,-1],"loss_changes":[1.7042953E2,5.7054794E1,7.43593E1,1.7778126E1,1.7047882E1,4.7474735E1,1.23403015E1,0E0,0E0,0E0,0E0,0E0,0E0,0E0,0E0],"parents":[2147483647,0,0,1,1,2,2,3,3,4,4,5,5,6,6],"right_children":[2,4,6,8,10,12,14,-1,-1,-1,-1,-1,-1,-1,-1],"split_conditions":[1.5E1,1.3E1,5.45E-1,6E0,2.3E1,-4.8E0,2.4E1,-2.1394745E-3,1.3825981E-4,-3.2823894E-3,-5.4079834E-3,1.329121E-3,-1.9533576E-3,1.3708419E-3,3.257309E-3],"split_indices":[51,80,55,77,80,25,51,0,0,0,0,0,0,0,0],"split_type":[0,0,0,0,0,0,0,0,0,0,0,0,0,0,0],"sum_hessian":[6.619754E3,3.2414238E3,3.37833E3,1.648056E3,1.5933678E3,1.9556484E3,1.4226818E3,1.1624891E3,4.8556686E2,9.65019E2,6.283488E2,6.689498E2,1.2866987E3,8.186694E2,6.040123E2],"tree_param":{"num_deleted":"0","num_feature":"106","num_nodes":"15","size_leaf_vector":"1"}},{"base_weights":[1.1368621E-1,2.774573E-1,-4.348369E-2,1.4687087E-1,4.1234896E-1,8.3044656E-2,-2.173484E-1,2.1394745E-3,-1.3825975E-4,3.2823894E-3,5.4079844E-3,-1.329121E-3,1.9533578E-3,-1.3708419E-3,-3.257309E-3],"categories":[],"categories_nodes":[],"categories_segments":[],"categories_sizes":[],"default_left":[0,0,0,0,0,0,0,0,0,0,0,0,0,0,0],"id":55,"left_children":[1,3,5,7,9,11,13,-1,-1,-1,-1,-1,-1,-1,-1],"loss_changes":[1.7042953E2,5.7054794E1,7.435931E1,1.7778126E1,1.7047852E1,4.7474747E1,1.2340294E1,0E0,0E0,0E0,0E0,0E0,0E0,0E0,0E0],"parents":[2147483647,0,0,1,1,2,2,3,3,4,4,5,5,6,6],"right_children":[2,4,6,8,10,12,14,-1,-1,-1,-1,-1,-1,-1,-1],"split_conditions":[1.5E1,1.3E1,5.45E-1,6E0,2.3E1,-4.8E0,2.4E1,2.1394745E-3,-1.3825975E-4,3.2823894E-3,5.4079844E-3,-1.329121E-3,1.9533578E-3,-1.3708419E-3,-3.257309E-3],"split_indices":[51,80,55,77,80,25,51,0,0,0,0,0,0,0,0],"split_type":[0,0,0,0,0,0,0,0,0,0,0,0,0,0,0],"sum_hessian":[6.619754E3,3.2414238E3,3.37833E3,1.648056E3,1.5933678E3,1.9556484E3,1.4226816E3,1.1624891E3,4.8556686E2,9.65019E2,6.283488E2,6.689498E2,1.2866986E3,8.186694E2,6.040123E2],"tree_param":{"num_deleted":"0","num_feature":"106","num_nodes":"15","size_leaf_vector":"1"}},{"base_weights":[-1.12594396E-1,-2.1729046E-1,1.2925616E-1,-9.0120785E-2,-3.6239028E-1,-1.4733648E-1,2.0267917E-1,-2.2212318E-3,2.04205E-4,-5.1160334E-3,-2.9752322E-3,-1.6926711E-3,6.486737E-3,3.4738537E-3,1.1227679E-3],"categories":[],"categories_nodes":[],"categories_segments":[],"categories_sizes":[],"default_left":[0,0,0,0,0,0,0,0,0,0,0,0,0,0,0],"id":56,"left_children":[1,3,5,7,9,11,13,-1,-1,-1,-1,-1,-1,-1,-1],"loss_changes":[1.6760611E2,8.52009E1,4.0647755E1,3.5943794E1,2.0726746E1,7.444084E0,2.064241E1,0E0,0E0,0E0,0E0,0E0,0E0,0E0,0E0],"parents":[2147483647,0,0,1,1,2,2,3,3,4,4,5,5,6,6],"right_children":[2,4,6,8,10,12,14,-1,-1,-1,-1,-1,-1,-1,-1],"split_conditions":[2E1,1.4E1,3.6E-1,9E0,7E0,4.75E-1,-6.2E0,-2.2212318E-3,2.04205E-4,-5.1160334E-3,-2.9752322E-3,-1.6926711E-3,6.486737E-3,3.4738537E-3,1.1227679E-3],"split_indices":[28,80,55,29,51,59,25,0,0,0,0,0,0,0,0],"split_type":[0,0,0,0,0,0,0,0,0,0,0,0,0,0,0],"sum_hessian":[6.6171963E3,4.6181294E3,1.9990669E3,2.4619907E3,2.1561387E3,4.191344E2,1.5799325E3,1.1216125E3,1.3403782E3,6.5123114E2,1.5049076E3,4.086628E2,1.0471583E1,6.0641205E2,9.7352045E2],"tree_param":{"num_deleted":"0","num_feature":"106","num_nodes":"15","size_leaf_vector":"1"}},{"base_weights":[1.1259439E-1,2.1729046E-1,-1.2925616E-1,9.012078E-2,3.6239028E-1,1.4733648E-1,-2.0267917E-1,2.2212313E-3,-2.0420481E-4,5.116033E-3,2.9752322E-3,1.6926711E-3,-6.486737E-3,-3.4738537E-3,-1.1227679E-3],"categories":[],"categories_nodes":[],"categories_segments":[],"categories_sizes":[],"default_left":[0,0,0,0,0,0,0,0,0,0,0,0,0,0,0],"id":57,"left_children":[1,3,5,7,9,11,13,-1,-1,-1,-1,-1,-1,-1,-1],"loss_changes":[1.6760611E2,8.520091E1,4.0647747E1,3.594377E1,2.0726776E1,7.444086E0,2.0642418E1,0E0,0E0,0E0,0E0,0E0,0E0,0E0,0E0],"parents":[2147483647,0,0,1,1,2,2,3,3,4,4,5,5,6,6],"right_children":[2,4,6,8,10,12,14,-1,-1,-1,-1,-1,-1,-1,-1],"split_conditions":[2E1,1.4E1,3.6E-1,9E0,7E0,4.75E-1,-6.2E0,2.2212313E-3,-2.0420481E-4,5.116033E-3,2.9752322E-3,1.6926711E-3,-6.486737E-3,-3.4738537E-3,-1.1227679E-3],"split_indices":[28,80,55,29,51,59,25,0,0,0,0,0,0,0,0],"split_type":[0,0,0,0,0,0,0,0,0,0,0,0,0,0,0],"sum_hessian":[6.6171963E3,4.6181294E3,1.9990669E3,2.4619907E3,2.1561387E3,4.191344E2,1.5799325E3,1.1216125E3,1.3403782E3,6.5123114E2,1.5049076E3,4.086628E2,1.0471583E1,6.0641205E2,9.735205E2],"tree_param":{"num_deleted":"0","num_feature":"106","num_nodes":"15","size_leaf_vector":"1"}},{"base_weights":[-1.1151199E-1,-2.725137E-1,4.2892072E-2,-1.4413865E-1,-4.0534186E-1,-1.7570132E-1,1.4047079E-1,-2.1056475E-3,1.494711E-4,-3.470618E-3,-5.894389E-3,4.1088893E-4,-2.9089912E-3,4.4984347E-4,2.6541802E-3],"categories":[],"categories_nodes":[],"categories_segments":[],"categories_sizes":[],"default_left":[0,0,0,0,0,0,0,0,0,0,0,0,0,0,0],"id":58,"left_children":[1,3,5,7,9,11,13,-1,-1,-1,-1,-1,-1,-1,-1],"loss_changes":[1.6447217E2,5.5168457E1,7.2075096E1,1.742405E1,1.6867981E1,2.6058178E1,2.7857594E1,0E0,0E0,0E0,0E0,0E0,0E0,0E0,0E0],"parents":[2147483647,0,0,1,1,2,2,3,3,4,4,5,5,6,6],"right_children":[2,4,6,8,10,12,14,-1,-1,-1,-1,-1,-1,-1,-1],"split_conditions":[1.5E1,1.3E1,-2E0,6E0,2.6E1,-4.8E0,2.4E1,-2.1056475E-3,1.494711E-4,-3.470618E-3,-5.894389E-3,4.1088893E-4,-2.9089912E-3,4.4984347E-4,2.6541802E-3],"split_indices":[51,80,77,77,80,25,51,0,0,0,0,0,0,0,0],"split_type":[0,0,0,0,0,0,0,0,0,0,0,0,0,0,0],"sum_hessian":[6.614649E3,3.2377678E3,3.3768813E3,1.647544E3,1.5902238E3,1.041944E3,2.3349375E3,1.16202E3,4.8552393E2,1.210043E3,3.8018088E2,3.6177133E2,6.801726E2,1.324271E3,1.0106664E3],"tree_param":{"num_deleted":"0","num_feature":"106","num_nodes":"15","size_leaf_vector":"1"}},{"base_weights":[1.1151198E-1,2.725137E-1,-4.2892076E-2,1.441387E-1,4.0534183E-1,1.7570134E-1,-1.4047079E-1,2.105648E-3,-1.4947064E-4,3.4706178E-3,5.8943885E-3,-4.108886E-4,2.908991E-3,-4.4984373E-4,-2.6541802E-3],"categories":[],"categories_nodes":[],"categories_segments":[],"categories_sizes":[],"default_left":[0,0,0,0,0,0,0,0,0,0,0,0,0,0,0],"id":59,"left_children":[1,3,5,7,9,11,13,-1,-1,-1,-1,-1,-1,-1,-1],"loss_changes":[1.6447218E2,5.5168457E1,7.2075096E1,1.742405E1,1.686795E1,2.6058167E1,2.7857578E1,0E0,0E0,0E0,0E0,0E0,0E0,0E0,0E0],"parents":[2147483647,0,0,1,1,2,2,3,3,4,4,5,5,6,6],"right_children":[2,4,6,8,10,12,14,-1,-1,-1,-1,-1,-1,-1,-1],"split_conditions":[1.5E1,1.3E1,-2E0,6E0,2.6E1,-4.8E0,2.4E1,2.105648E-3,-1.4947064E-4,3.4706178E-3,5.8943885E-3,-4.108886E-4,2.908991E-3,-4.4984373E-4,-2.6541802E-3],"split_indices":[51,80,77,77,80,25,51,0,0,0,0,0,0,0,0],"split_type":[0,0,0,0,0,0,0,0,0,0,0,0,0,0,0],"sum_hessian":[6.614649E3,3.2377676E3,3.3768813E3,1.6475438E3,1.5902238E3,1.0419438E3,2.3349375E3,1.1620199E3,4.8552393E2,1.2100428E3,3.801809E2,3.6177133E2,6.801726E2,1.324271E3,1.0106664E3],"tree_param":{"num_deleted":"0","num_feature":"106","num_nodes":"15","size_leaf_vector":"1"}},{"base_weights":[-1.1044466E-1,-2.1334174E-1,1.2715498E-1,-3.050411E-1,-1.799816E-2,-7.359422E-3,2.740964E-1,-2.3869227E-3,-4.6907095E-3,9.579201E-4,-1.570383E-3,1.3132106E-3,-1.5556703E-3,4.2444905E-3,2.0799816E-3],"categories":[],"categories_nodes":[],"categories_segments":[],"categories_sizes":[],"default_left":[0,0,0,0,0,0,0,0,0,0,0,0,0,0,0],"id":60,"left_children":[1,3,5,7,9,11,13,-1,-1,-1,-1,-1,-1,-1,-1],"loss_changes":[1.6170181E2,8.266048E1,3.9514336E1,3.406714E1,2.3357067E1,2.1491041E1,9.406624E0,0E0,0E0,0E0,0E0,0E0,0E0,0E0,0E0],"parents":[2147483647,0,0,1,1,2,2,3,3,4,4,5,5,6,6],"right_children":[2,4,6,8,10,12,14,-1,-1,-1,-1,-1,-1,-1,-1],"split_conditions":[2E1,3E0,5.14E-1,2.3E1,3.1E0,-4.8E0,-7.1E0,-2.3869227E-3,-4.6907095E-3,9.579201E-4,-1.570383E-3,1.3132106E-3,-1.5556703E-3,4.2444905E-3,2.0799816E-3],"split_indices":[28,77,55,80,25,25,25,0,0,0,0,0,0,0,0],"split_type":[0,0,0,0,0,0,0,0,0,0,0,0,0,0,0],"sum_hessian":[6.6119194E3,4.6138887E3,1.9980308E3,3.1395435E3,1.474345E3,1.0436205E3,9.5441034E2,2.2371062E3,9.0243726E2,8.109644E2,6.633806E2,5.3919763E2,5.044228E2,2.8979538E2,6.646149E2],"tree_param":{"num_deleted":"0","num_feature":"106","num_nodes":"15","size_leaf_vector":"1"}},{"base_weights":[1.1044465E-1,2.1334173E-1,-1.2715498E-1,3.0504107E-1,1.7998166E-2,7.3594353E-3,-2.740964E-1,2.3869225E-3,4.690709E-3,-9.579202E-4,1.5703833E-3,-1.3132102E-3,1.5556703E-3,-4.244491E-3,-2.0799816E-3],"categories":[],"categories_nodes":[],"categories_segments":[],"categories_sizes":[],"default_left":[0,0,0,0,0,0,0,0,0,0,0,0,0,0,0],"id":61,"left_children":[1,3,5,7,9,11,13,-1,-1,-1,-1,-1,-1,-1,-1],"loss_changes":[1.6170181E2,8.266043E1,3.9514336E1,3.406717E1,2.3357075E1,2.1491035E1,9.406624E0,0E0,0E0,0E0,0E0,0E0,0E0,0E0,0E0],"parents":[2147483647,0,0,1,1,2,2,3,3,4,4,5,5,6,6],"right_children":[2,4,6,8,10,12,14,-1,-1,-1,-1,-1,-1,-1,-1],"split_conditions":[2E1,3E0,5.14E-1,2.3E1,3.1E0,-4.8E0,-7.1E0,2.3869225E-3,4.690709E-3,-9.579202E-4,1.5703833E-3,-1.3132102E-3,1.5556703E-3,-4.244491E-3,-2.0799816E-3],"split_indices":[28,77,55,80,25,25,25,0,0,0,0,0,0,0,0],"split_type":[0,0,0,0,0,0,0,0,0,0,0,0,0,0,0],"sum_hessian":[6.6119194E3,4.6138887E3,1.9980308E3,3.1395435E3,1.474345E3,1.0436205E3,9.5441034E2,2.2371062E3,9.0243726E2,8.109644E2,6.633806E2,5.3919763E2,5.044228E2,2.8979538E2,6.646149E2],"tree_param":{"num_deleted":"0","num_feature":"106","num_nodes":"15","size_leaf_vector":"1"}},{"base_weights":[-1.0938458E-1,-2.6786312E-1,4.250604E-2,-1.4147702E-1,-3.9884457E-1,-8.035256E-2,2.1131769E-1,-2.0702074E-3,1.5434885E-4,-3.4132686E-3,-5.8084894E-3,1.2803666E-3,-1.8874828E-3,1.3432826E-3,3.154595E-3],"categories":[],"categories_nodes":[],"categories_segments":[],"categories_sizes":[],"default_left":[0,0,0,0,0,0,0,0,0,0,0,0,0,0,0],"id":62,"left_children":[1,3,5,7,9,11,13,-1,-1,-1,-1,-1,-1,-1,-1],"loss_changes":[1.591301E2,5.349852E1,7.0038376E1,1.6952126E1,1.6427017E1,4.4179325E1,1.1362129E1,0E0,0E0,0E0,0E0,0E0,0E0,0E0,0E0],"parents":[2147483647,0,0,1,1,2,2,3,3,4,4,5,5,6,6],"right_children":[2,4,6,8,10,12,14,-1,-1,-1,-1,-1,-1,-1,-1],"split_conditions":[1.5E1,1.3E1,5.45E-1,6E0,2.6E1,-4.8E0,2.4E1,-2.0702074E-3,1.5434885E-4,-3.4132686E-3,-5.8084894E-3,1.2803666E-3,-1.8874828E-3,1.3432826E-3,3.154595E-3],"split_indices":[51,80,55,77,80,25,51,0,0,0,0,0,0,0,0],"split_type":[0,0,0,0,0,0,0,0,0,0,0,0,0,0,0],"sum_hessian":[6.60928E3,3.2341216E3,3.375158E3,1.6469924E3,1.5871293E3,1.9537626E3,1.4213953E3,1.1615017E3,4.8549072E2,1.2081884E3,3.7894095E2,6.684657E2,1.2852969E3,8.18551E2,6.028443E2],"tree_param":{"num_deleted":"0","num_feature":"106","num_nodes":"15","size_leaf_vector":"1"}},{"base_weights":[1.0938457E-1,2.678631E-1,-4.2506035E-2,1.4147699E-1,3.9884454E-1,8.035256E-2,-2.1131769E-1,2.0702071E-3,-1.5434921E-4,3.4132684E-3,5.8084885E-3,-1.2803664E-3,1.8874827E-3,-1.3432828E-3,-3.154595E-3],"categories":[],"categories_nodes":[],"categories_segments":[],"categories_sizes":[],"default_left":[0,0,0,0,0,0,0,0,0,0,0,0,0,0,0],"id":63,"left_children":[1,3,5,7,9,11,13,-1,-1,-1,-1,-1,-1,-1,-1],"loss_changes":[1.5913004E2,5.3498566E1,7.0038376E1,1.6952126E1,1.6427017E1,4.4179317E1,1.1362122E1,0E0,0E0,0E0,0E0,0E0,0E0,0E0,0E0],"parents":[2147483647,0,0,1,1,2,2,3,3,4,4,5,5,6,6],"right_children":[2,4,6,8,10,12,14,-1,-1,-1,-1,-1,-1,-1,-1],"split_conditions":[1.5E1,1.3E1,5.45E-1,6E0,2.6E1,-4.8E0,2.4E1,2.0702071E-3,-1.5434921E-4,3.4132684E-3,5.8084885E-3,-1.2803664E-3,1.8874827E-3,-1.3432828E-3,-3.154595E-3],"split_indices":[51,80,55,77,80,25,51,0,0,0,0,0,0,0,0],"split_type":[0,0,0,0,0,0,0,0,0,0,0,0,0,0,0],"sum_hessian":[6.60928E3,3.2341218E3,3.375158E3,1.6469924E3,1.5871293E3,1.9537627E3,1.4213953E3,1.1615017E3,4.8549072E2,1.2081884E3,3.7894095E2,6.684657E2,1.285297E3,8.18551E2,6.028443E2],"tree_param":{"num_deleted":"0","num_feature":"106","num_nodes":"15","size_leaf_vector":"1"}},{"base_weights":[-1.0833774E-1,-2.653553E-1,4.2091478E-2,-1.4008763E-1,-3.9529788E-1,-1.7179072E-1,1.3753346E-1,-2.050031E-3,1.5280719E-4,-3.3820458E-3,-5.7614786E-3,3.85742E-4,-2.8371485E-3,4.479359E-4,2.59014E-3],"categories":[],"categories_nodes":[],"categories_segments":[],"categories_sizes":[],"default_left":[0,0,0,0,0,0,0,0,0,0,0,0,0,0,0],"id":64,"left_children":[1,3,5,7,9,11,13,-1,-1,-1,-1,-1,-1,-1,-1],"loss_changes":[1.5608078E2,5.2571686E1,6.892715E1,1.6621613E1,1.618509E1,2.4543077E1,2.628894E1,0E0,0E0,0E0,0E0,0E0,0E0,0E0,0E0],"parents":[2147483647,0,0,1,1,2,2,3,3,4,4,5,5,6,6],"right_children":[2,4,6,8,10,12,14,-1,-1,-1,-1,-1,-1,-1,-1],"split_conditions":[1.5E1,1.3E1,-2E0,6E0,2.6E1,-4.8E0,2.4E1,-2.050031E-3,1.5280719E-4,-3.3820458E-3,-5.7614786E-3,3.85742E-4,-2.8371485E-3,4.479359E-4,2.59014E-3],"split_indices":[51,80,77,77,80,25,51,0,0,0,0,0,0,0,0],"split_type":[0,0,0,0,0,0,0,0,0,0,0,0,0,0,0],"sum_hessian":[6.606513E3,3.232097E3,3.3744165E3,1.6467094E3,1.5853875E3,1.0409293E3,2.333487E3,1.1612151E3,4.8549426E2,1.2071631E3,3.7822433E2,3.6172025E2,6.792091E2,1.3240549E3,1.0094321E3],"tree_param":{"num_deleted":"0","num_feature":"106","num_nodes":"15","size_leaf_vector":"1"}},{"base_weights":[1.0833774E-1,2.653553E-1,-4.209148E-2,1.4008765E-1,3.9529788E-1,1.7179072E-1,-1.3753346E-1,2.050031E-3,-1.528073E-4,3.3820458E-3,5.761479E-3,-3.857423E-4,2.8371487E-3,-4.4793604E-4,-2.59014E-3],"categories":[],"categories_nodes":[],"categories_segments":[],"categories_sizes":[],"default_left":[0,0,0,0,0,0,0,0,0,0,0,0,0,0,0],"id":65,"left_children":[1,3,5,7,9,11,13,-1,-1,-1,-1,-1,-1,-1,-1],"loss_changes":[1.5608078E2,5.2571716E1,6.892715E1,1.662162E1,1.6185104E1,2.4543085E1,2.6288933E1,0E0,0E0,0E0,0E0,0E0,0E0,0E0,0E0],"parents":[2147483647,0,0,1,1,2,2,3,3,4,4,5,5,6,6],"right_children":[2,4,6,8,10,12,14,-1,-1,-1,-1,-1,-1,-1,-1],"split_conditions":[1.5E1,1.3E1,-2E0,6E0,2.6E1,-4.8E0,2.4E1,2.050031E-3,-1.528073E-4,3.3820458E-3,5.761479E-3,-3.857423E-4,2.8371487E-3,-4.4793604E-4,-2.59014E-3],"split_indices":[51,80,77,77,80,25,51,0,0,0,0,0,0,0,0],"split_type":[0,0,0,0,0,0,0,0,0,0,0,0,0,0,0],"sum_hessian":[6.606513E3,3.232097E3,3.3744165E3,1.6467095E3,1.5853875E3,1.0409293E3,2.333487E3,1.1612151E3,4.8549426E2,1.2071631E3,3.782243E2,3.6172028E2,6.792091E2,1.3240549E3,1.0094321E3],"tree_param":{"num_deleted":"0","num_feature":"106","num_nodes":"15","size_leaf_vector":"1"}},{"base_weights":[-1.0730353E-1,-2.0766109E-1,1.2429163E-1,-2.9733747E-1,-1.6948149E-2,-1.4818445E-1,1.9406791E-1,-2.3241842E-3,-4.582361E-3,9.470617E-4,-1.5342595E-3,-1.6908664E-3,6.2362985E-3,3.3275886E-3,1.0770678E-3],"categories":[],"categories_nodes":[],"categories_segments":[],"categories_sizes":[],"default_left":[0,0,0,0,0,0,0,0,0,0,0,0,0,0,0],"id":66,"left_children":[1,3,5,7,9,11,13,-1,-1,-1,-1,-1,-1,-1,-1],"loss_changes":[1.5353253E2,7.880737E1,3.8003433E1,3.2632935E1,2.2489702E1,6.6839705E0,1.9015453E1,0E0,0E0,0E0,0E0,0E0,0E0,0E0,0E0],"parents":[2147483647,0,0,1,1,2,2,3,3,4,4,5,5,6,6],"right_children":[2,4,6,8,10,12,14,-1,-1,-1,-1,-1,-1,-1,-1],"split_conditions":[2E1,3E0,3.57E-1,2.3E1,3.1E0,4.75E-1,-6.2E0,-2.3241842E-3,-4.582361E-3,9.470617E-4,-1.5342595E-3,-1.6908664E-3,6.2362985E-3,3.3275886E-3,1.0770678E-3],"split_indices":[28,77,55,80,25,59,25,0,0,0,0,0,0,0,0],"split_type":[0,0,0,0,0,0,0,0,0,0,0,0,0,0,0],"sum_hessian":[6.6036206E3,4.607254E3,1.9963665E3,3.1333445E3,1.4739095E3,4.0677774E2,1.5895887E3,2.2342988E3,8.990457E2,8.108492E2,6.630604E2,3.9681223E2,9.9655075E0,6.088914E2,9.806973E2],"tree_param":{"num_deleted":"0","num_feature":"106","num_nodes":"15","size_leaf_vector":"1"}},{"base_weights":[1.0730353E-1,2.0766109E-1,-1.2429162E-1,2.9733744E-1,1.6948186E-2,1.481844E-1,-1.940679E-1,2.3241842E-3,4.5823604E-3,-9.4706146E-4,1.5342602E-3,1.690866E-3,-6.236298E-3,-3.3275886E-3,-1.0770675E-3],"categories":[],"categories_nodes":[],"categories_segments":[],"categories_sizes":[],"default_left":[0,0,0,0,0,0,0,0,0,0,0,0,0,0,0],"id":67,"left_children":[1,3,5,7,9,11,13,-1,-1,-1,-1,-1,-1,-1,-1],"loss_changes":[1.5353253E2,7.880734E1,3.800341E1,3.2632935E1,2.2489706E1,6.6839676E0,1.9015461E1,0E0,0E0,0E0,0E0,0E0,0E0,0E0,0E0],"parents":[2147483647,0,0,1,1,2,2,3,3,4,4,5,5,6,6],"right_children":[2,4,6,8,10,12,14,-1,-1,-1,-1,-1,-1,-1,-1],"split_conditions":[2E1,3E0,3.57E-1,2.3E1,3.1E0,4.75E-1,-6.2E0,2.3241842E-3,4.5823604E-3,-9.4706146E-4,1.5342602E-3,1.690866E-3,-6.236298E-3,-3.3275886E-3,-1.0770675E-3],"split_indices":[28,77,55,80,25,59,25,0,0,0,0,0,0,0,0],"split_type":[0,0,0,0,0,0,0,0,0,0,0,0,0,0,0],"sum_hessian":[6.6036206E3,4.607254E3,1.9963665E3,3.1333445E3,1.4739095E3,4.067777E2,1.5895887E3,2.2342988E3,8.9904565E2,8.108492E2,6.630604E2,3.9681223E2,9.9655075E0,6.088914E2,9.806973E2],"tree_param":{"num_deleted":"0","num_feature":"106","num_nodes":"15","size_leaf_vector":"1"}},{"base_weights":[-1.06274694E-1,-2.608529E-1,4.1718442E-2,-1.3749407E-1,-3.89034E-1,-7.856104E-2,2.0697603E-1,-2.0155134E-3,1.5756428E-4,-3.326745E-3,-5.679007E-3,1.2231817E-3,-1.8533864E-3,1.3232153E-3,3.0809853E-3],"categories":[],"categories_nodes":[],"categories_segments":[],"categories_sizes":[],"default_left":[0,0,0,0,0,0,0,0,0,0,0,0,0,0,0],"id":68,"left_children":[1,3,5,7,9,11,13,-1,-1,-1,-1,-1,-1,-1,-1],"loss_changes":[1.5103912E2,5.1008163E1,6.7074585E1,1.6172657E1,1.5770248E1,4.1918915E1,1.0689655E1,0E0,0E0,0E0,0E0,0E0,0E0,0E0,0E0],"parents":[2147483647,0,0,1,1,2,2,3,3,4,4,5,5,6,6],"right_children":[2,4,6,8,10,12,14,-1,-1,-1,-1,-1,-1,-1,-1],"split_conditions":[1.5E1,1.3E1,5.45E-1,6E0,2.6E1,-4.7E0,2.4E1,-2.0155134E-3,1.5756428E-4,-3.326745E-3,-5.679007E-3,1.2231817E-3,-1.8533864E-3,1.3232153E-3,3.0809853E-3],"split_indices":[51,80,55,77,80,25,51,0,0,0,0,0,0,0,0],"split_type":[0,0,0,0,0,0,0,0,0,0,0,0,0,0,0],"sum_hessian":[6.6008906E3,3.2282427E3,3.3726482E3,1.646122E3,1.5821207E3,1.9522593E3,1.4203889E3,1.1606613E3,4.8546072E2,1.205224E3,3.7689676E2,6.775148E2,1.2747445E3,8.184615E2,6.0192737E2],"tree_param":{"num_deleted":"0","num_feature":"106","num_nodes":"15","size_leaf_vector":"1"}},{"base_weights":[1.06274694E-1,2.6085287E-1,-4.171843E-2,1.3749406E-1,3.8903397E-1,7.8561045E-2,-2.0697601E-1,2.0155134E-3,-1.5756409E-4,3.3267448E-3,5.679006E-3,-1.2231814E-3,1.8533864E-3,-1.3232151E-3,-3.0809848E-3],"categories":[],"categories_nodes":[],"categories_segments":[],"categories_sizes":[],"default_left":[0,0,0,0,0,0,0,0,0,0,0,0,0,0,0],"id":69,"left_children":[1,3,5,7,9,11,13,-1,-1,-1,-1,-1,-1,-1,-1],"loss_changes":[1.510391E2,5.100815E1,6.7074585E1,1.617265E1,1.5770264E1,4.1918907E1,1.06896515E1,0E0,0E0,0E0,0E0,0E0,0E0,0E0,0E0],"parents":[2147483647,0,0,1,1,2,2,3,3,4,4,5,5,6,6],"right_children":[2,4,6,8,10,12,14,-1,-1,-1,-1,-1,-1,-1,-1],"split_conditions":[1.5E1,1.3E1,5.45E-1,6E0,2.6E1,-4.7E0,2.4E1,2.0155134E-3,-1.5756409E-4,3.3267448E-3,5.679006E-3,-1.2231814E-3,1.8533864E-3,-1.3232151E-3,-3.0809848E-3],"split_indices":[51,80,55,77,80,25,51,0,0,0,0,0,0,0,0],"split_type":[0,0,0,0,0,0,0,0,0,0,0,0,0,0,0],"sum_hessian":[6.6008906E3,3.2282427E3,3.3726482E3,1.646122E3,1.5821207E3,1.9522593E3,1.4203889E3,1.1606613E3,4.854607E2,1.205224E3,3.7689676E2,6.775148E2,1.2747445E3,8.1846155E2,6.0192737E2],"tree_param":{"num_deleted":"0","num_feature":"106","num_nodes":"15","size_leaf_vector":"1"}},{"base_weights":[-1.05260134E-1,8.9550234E-2,-2.2068852E-1,-1.7119865E-1,1.5893732E-1,-3.1253046E-1,-2.5131036E-2,-1.2013188E-3,-5.3205383E-3,6.771159E-4,2.8026365E-3,-4.235866E-3,-2.2997765E-3,6.635855E-4,-1.985264E-3],"categories":[],"categories_nodes":[],"categories_segments":[],"categories_sizes":[],"default_left":[0,0,0,0,0,0,0,0,0,0,0,0,0,0,0],"id":70,"left_children":[1,3,5,7,9,11,13,-1,-1,-1,-1,-1,-1,-1,-1],"loss_changes":[1.4840854E2,4.446167E1,7.4420425E1,9.457041E0,2.14562E1,2.5753296E1,2.1038528E1,0E0,0E0,0E0,0E0,0E0,0E0,0E0,0E0],"parents":[2147483647,0,0,1,1,2,2,3,3,4,4,5,5,6,6],"right_children":[2,4,6,8,10,12,14,-1,-1,-1,-1,-1,-1,-1,-1],"split_conditions":[4.59E-1,3.57E-1,3E0,-1E0,2.6E1,-1.9E0,6.55E-1,-1.2013188E-3,-5.3205383E-3,6.771159E-4,2.8026365E-3,-4.235866E-3,-2.2997765E-3,6.635855E-4,-1.985264E-3],"split_indices":[3,55,77,25,51,77,3,0,0,0,0,0,0,0,0],"split_type":[0,0,0,0,0,0,0,0,0,0,0,0,0,0,0],"sum_hessian":[6.5979727E3,2.4549456E3,4.1430273E3,5.156654E2,1.93928E3,2.8186663E3,1.3243608E3,4.5290506E2,6.276038E1,1.1078452E3,8.314349E2,1.2000878E3,1.6185785E3,8.6733905E2,4.570218E2],"tree_param":{"num_deleted":"0","num_feature":"106","num_nodes":"15","size_leaf_vector":"1"}},{"base_weights":[1.0526013E-1,-8.9550234E-2,2.206885E-1,1.7119868E-1,-1.5893734E-1,3.1253043E-1,2.5131023E-2,1.201319E-3,5.3205388E-3,-6.7711604E-4,-2.8026365E-3,4.235866E-3,2.299776E-3,-6.635858E-4,1.985264E-3],"categories":[],"categories_nodes":[],"categories_segments":[],"categories_sizes":[],"default_left":[0,0,0,0,0,0,0,0,0,0,0,0,0,0,0],"id":71,"left_children":[1,3,5,7,9,11,13,-1,-1,-1,-1,-1,-1,-1,-1],"loss_changes":[1.4840852E2,4.446168E1,7.4420425E1,9.457044E0,2.14562E1,2.5753296E1,2.1038534E1,0E0,0E0,0E0,0E0,0E0,0E0,0E0,0E0],"parents":[2147483647,0,0,1,1,2,2,3,3,4,4,5,5,6,6],"right_children":[2,4,6,8,10,12,14,-1,-1,-1,-1,-1,-1,-1,-1],"split_conditions":[4.59E-1,3.57E-1,3E0,-1E0,2.6E1,-1.9E0,6.55E-1,1.201319E-3,5.3205388E-3,-6.7711604E-4,-2.8026365E-3,4.235866E-3,2.299776E-3,-6.635858E-4,1.985264E-3],"split_indices":[3,55,77,25,51,77,3,0,0,0,0,0,0,0,0],"split_type":[0,0,0,0,0,0,0,0,0,0,0,0,0,0,0],"sum_hessian":[6.5979727E3,2.4549456E3,4.1430273E3,5.156654E2,1.93928E3,2.8186663E3,1.3243608E3,4.5290503E2,6.276038E1,1.1078452E3,8.314349E2,1.2000878E3,1.6185785E3,8.6733905E2,4.5702182E2],"tree_param":{"num_deleted":"0","num_feature":"106","num_nodes":"15","size_leaf_vector":"1"}},{"base_weights":[-1.0425462E-1,-2.563524E-1,4.125413E-2,-1.3500004E-1,-3.8267815E-1,-7.721679E-2,2.0402756E-1,-1.9820216E-3,1.6138646E-4,-3.0251115E-3,-5.059769E-3,1.221721E-3,-1.8097752E-3,1.3087251E-3,3.0321488E-3],"categories":[],"categories_nodes":[],"categories_segments":[],"categories_sizes":[],"default_left":[0,0,0,0,0,0,0,0,0,0,0,0,0,0,0],"id":72,"left_children":[1,3,5,7,9,11,13,-1,-1,-1,-1,-1,-1,-1,-1],"loss_changes":[1.4599323E2,4.9390198E1,6.504009E1,1.573122E1,1.5461121E1,4.0412285E1,1.0268761E1,0E0,0E0,0E0,0E0,0E0,0E0,0E0,0E0],"parents":[2147483647,0,0,1,1,2,2,3,3,4,4,5,5,6,6],"right_children":[2,4,6,8,10,12,14,-1,-1,-1,-1,-1,-1,-1,-1],"split_conditions":[1.5E1,1.3E1,5.45E-1,6E0,2.3E1,-4.8E0,2.4E1,-1.9820216E-3,1.6138646E-4,-3.0251115E-3,-5.059769E-3,1.221721E-3,-1.8097752E-3,1.3087251E-3,3.0321488E-3],"split_indices":[51,80,55,77,80,25,51,0,0,0,0,0,0,0,0],"split_type":[0,0,0,0,0,0,0,0,0,0,0,0,0,0,0],"sum_hessian":[6.595132E3,3.2241853E3,3.3709465E3,1.6455189E3,1.5786664E3,1.9512786E3,1.419668E3,1.1600894E3,4.8542957E2,9.5875305E2,6.199133E2,6.678144E2,1.2834642E3,8.1838916E2,6.0127875E2],"tree_param":{"num_deleted":"0","num_feature":"106","num_nodes":"15","size_leaf_vector":"1"}},{"base_weights":[1.042546E-1,2.5635237E-1,-4.1254155E-2,1.3499999E-1,3.8267818E-1,7.721679E-2,-2.0402762E-1,1.9820211E-3,-1.6138697E-4,3.0251117E-3,5.05977E-3,-1.221721E-3,1.8097752E-3,-1.3087256E-3,-3.0321495E-3],"categories":[],"categories_nodes":[],"categories_segments":[],"categories_sizes":[],"default_left":[0,0,0,0,0,0,0,0,0,0,0,0,0,0,0],"id":73,"left_children":[1,3,5,7,9,11,13,-1,-1,-1,-1,-1,-1,-1,-1],"loss_changes":[1.4599326E2,4.9390213E1,6.504012E1,1.5731226E1,1.5461151E1,4.0412285E1,1.02687645E1,0E0,0E0,0E0,0E0,0E0,0E0,0E0,0E0],"parents":[2147483647,0,0,1,1,2,2,3,3,4,4,5,5,6,6],"right_children":[2,4,6,8,10,12,14,-1,-1,-1,-1,-1,-1,-1,-1],"split_conditions":[1.5E1,1.3E1,5.45E-1,6E0,2.3E1,-4.8E0,2.4E1,1.9820211E-3,-1.6138697E-4,3.0251117E-3,5.05977E-3,-1.221721E-3,1.8097752E-3,-1.3087256E-3,-3.0321495E-3],"split_indices":[51,80,55,77,80,25,51,0,0,0,0,0,0,0,0],"split_type":[0,0,0,0,0,0,0,0,0,0,0,0,0,0,0],"sum_hessian":[6.595132E3,3.2241853E3,3.3709465E3,1.645519E3,1.5786664E3,1.9512786E3,1.419668E3,1.1600894E3,4.854296E2,9.5875305E2,6.199133E2,6.678144E2,1.2834642E3,8.1838916E2,6.0127875E2],"tree_param":{"num_deleted":"0","num_feature":"106","num_nodes":"15","size_leaf_vector":"1"}},{"base_weights":[-1.03260994E-1,-2.0032254E-1,1.20512865E-1,-1.21255346E-1,-4.0468523E-1,-1.445243E-1,1.8841723E-1,-2.744099E-3,-3.4277965E-4,-3.3845138E-3,-5.6131044E-3,-1.6521476E-3,6.1911624E-3,3.2311967E-3,1.0467317E-3],"categories":[],"categories_nodes":[],"categories_segments":[],"categories_sizes":[],"default_left":[0,0,0,0,0,0,0,0,0,0,0,0,0,0,0],"id":74,"left_children":[1,3,5,7,9,11,13,-1,-1,-1,-1,-1,-1,-1,-1],"loss_changes":[1.4322528E2,7.4261475E1,3.5935562E1,4.418137E1,1.3114563E1,6.540762E0,1.7887817E1,0E0,0E0,0E0,0E0,0E0,0E0,0E0,0E0],"parents":[2147483647,0,0,1,1,2,2,3,3,4,4,5,5,6,6],"right_children":[2,4,6,8,10,12,14,-1,-1,-1,-1,-1,-1,-1,-1],"split_conditions":[2E1,2E1,3.57E-1,7E0,3.7E1,4.75E-1,-6.2E0,-2.744099E-3,-3.4277965E-4,-3.3845138E-3,-5.6131044E-3,-1.6521476E-3,6.1911624E-3,3.2311967E-3,1.0467317E-3],"split_indices":[28,80,55,27,54,59,25,0,0,0,0,0,0,0,0],"split_type":[0,0,0,0,0,0,0,0,0,0,0,0,0,0,0],"sum_hessian":[6.592104E3,4.5978843E3,1.9942198E3,3.3163816E3,1.2815027E3,4.064966E2,1.5877233E3,1.2004349E3,2.1159468E3,9.0286084E2,3.7864185E2,3.9653632E2,9.9603E0,6.075767E2,9.8014655E2],"tree_param":{"num_deleted":"0","num_feature":"106","num_nodes":"15","size_leaf_vector":"1"}},{"base_weights":[1.03261E-1,2.0032255E-1,-1.2051287E-1,1.2125536E-1,4.0468523E-1,1.4452432E-1,-1.8841724E-1,2.7440984E-3,3.4277997E-4,3.3845138E-3,5.6131044E-3,1.6521477E-3,-6.1911624E-3,-3.231197E-3,-1.0467318E-3],"categories":[],"categories_nodes":[],"categories_segments":[],"categories_sizes":[],"default_left":[0,0,0,0,0,0,0,0,0,0,0,0,0,0,0],"id":75,"left_children":[1,3,5,7,9,11,13,-1,-1,-1,-1,-1,-1,-1,-1],"loss_changes":[1.432253E2,7.4261444E1,3.5935566E1,4.418135E1,1.31145935E1,6.540762E0,1.7887821E1,0E0,0E0,0E0,0E0,0E0,0E0,0E0,0E0],"parents":[2147483647,0,0,1,1,2,2,3,3,4,4,5,5,6,6],"right_children":[2,4,6,8,10,12,14,-1,-1,-1,-1,-1,-1,-1,-1],"split_conditions":[2E1,2E1,3.57E-1,7E0,3.7E1,4.75E-1,-6.2E0,2.7440984E-3,3.4277997E-4,3.3845138E-3,5.6131044E-3,1.6521477E-3,-6.1911624E-3,-3.231197E-3,-1.0467318E-3],"split_indices":[28,80,55,27,54,59,25,0,0,0,0,0,0,0,0],"split_type":[0,0,0,0,0,0,0,0,0,0,0,0,0,0,0],"sum_hessian":[6.592104E3,4.5978843E3,1.9942198E3,3.3163816E3,1.2815027E3,4.064966E2,1.5877233E3,1.2004349E3,2.1159468E3,9.0286084E2,3.7864185E2,3.9653632E2,9.960301E0,6.075767E2,9.8014655E2],"tree_param":{"num_deleted":"0","num_feature":"106","num_nodes":"15","size_leaf_vector":"1"}},{"base_weights":[-1.0227297E-1,-2.5191188E-1,4.077533E-2,-1.3216223E-1,-3.7679055E-1,-1.6441467E-1,1.3227867E-1,-1.9478926E-3,1.7536641E-4,-3.2154322E-3,-5.527625E-3,3.592779E-4,-2.7127585E-3,6.497532E-4,2.8134005E-3],"categories":[],"categories_nodes":[],"categories_segments":[],"categories_sizes":[],"default_left":[0,0,0,0,0,0,0,0,0,0,0,0,0,0,0],"id":76,"left_children":[1,3,5,7,9,11,13,-1,-1,-1,-1,-1,-1,-1,-1],"loss_changes":[1.4107947E2,4.8118927E1,6.329931E1,1.5433607E1,1.5146408E1,2.2271786E1,2.3370636E1,0E0,0E0,0E0,0E0,0E0,0E0,0E0,0E0],"parents":[2147483647,0,0,1,1,2,2,3,3,4,4,5,5,6,6],"right_children":[2,4,6,8,10,12,14,-1,-1,-1,-1,-1,-1,-1,-1],"split_conditions":[1.5E1,1.3E1,-2E0,6E0,2.6E1,-4.8E0,2.6E1,-1.9478926E-3,1.7536641E-4,-3.2154322E-3,-5.527625E-3,3.592779E-4,-2.7127585E-3,6.497532E-4,2.8134005E-3],"split_indices":[51,80,77,77,80,25,51,0,0,0,0,0,0,0,0],"split_type":[0,0,0,0,0,0,0,0,0,0,0,0,0,0,0],"sum_hessian":[6.589297E3,3.2200889E3,3.3692078E3,1.6448527E3,1.5752363E3,1.0388533E3,2.3303545E3,1.1594794E3,4.8537326E2,1.2010024E3,3.742339E2,3.6159732E2,6.772559E2,1.6064536E3,7.239008E2],"tree_param":{"num_deleted":"0","num_feature":"106","num_nodes":"15","size_leaf_vector":"1"}},{"base_weights":[1.0227297E-1,2.5191188E-1,-4.0775333E-2,1.3216226E-1,3.7679055E-1,1.6441466E-1,-1.3227867E-1,1.9478927E-3,-1.7536625E-4,3.2154322E-3,5.5276253E-3,-3.592781E-4,2.7127585E-3,-6.497534E-4,-2.8134002E-3],"categories":[],"categories_nodes":[],"categories_segments":[],"categories_sizes":[],"default_left":[0,0,0,0,0,0,0,0,0,0,0,0,0,0,0],"id":77,"left_children":[1,3,5,7,9,11,13,-1,-1,-1,-1,-1,-1,-1,-1],"loss_changes":[1.4107947E2,4.8118942E1,6.329931E1,1.5433605E1,1.5146393E1,2.2271788E1,2.3370628E1,0E0,0E0,0E0,0E0,0E0,0E0,0E0,0E0],"parents":[2147483647,0,0,1,1,2,2,3,3,4,4,5,5,6,6],"right_children":[2,4,6,8,10,12,14,-1,-1,-1,-1,-1,-1,-1,-1],"split_conditions":[1.5E1,1.3E1,-2E0,