{"learner":{"attributes":{},"feature_names":[],"feature_types":[],"gradient_booster":{"model":{"gbtree_model_param":{"num_parallel_tree":"1","num_trees":"1500"},"iteration_indptr":[0,2,4,6,8,10,12,14,16,18,20,22,24,26,28,30,32,34,36,38,40,42,44,46,48,50,52,54,56,58,60,62,64,66,68,70,72,74,76,78,80,82,84,86,88,90,92,94,96,98,100,102,104,106,108,110,112,114,116,118,120,122,124,126,128,130,132,134,136,138,140,142,144,146,148,150,152,154,156,158,160,162,164,166,168,170,172,174,176,178,180,182,184,186,188,190,192,194,196,198,200,202,204,206,208,210,212,214,216,218,220,222,224,226,228,230,232,234,236,238,240,242,244,246,248,250,252,254,256,258,260,262,264,266,268,270,272,274,276,278,280,282,284,286,288,290,292,294,296,298,300,302,304,306,308,310,312,314,316,318,320,322,324,326,328,330,332,334,336,338,340,342,344,346,348,350,352,354,356,358,360,362,364,366,368,370,372,374,376,378,380,382,384,386,388,390,392,394,396,398,400,402,404,406,408,410,412,414,416,418,420,422,424,426,428,430,432,434,436,438,440,442,444,446,448,450,452,454,456,458,460,462,464,466,468,470,472,474,476,478,480,482,484,486,488,490,492,494,496,498,500,502,504,506,508,510,512,514,516,518,520,522,524,526,528,530,532,534,536,538,540,542,544,546,548,550,552,554,556,558,560,562,564,566,568,570,572,574,576,578,580,582,584,586,588,590,592,594,596,598,600,602,604,606,608,610,612,614,616,618,620,622,624,626,628,630,632,634,636,638,640,642,644,646,648,650,652,654,656,658,660,662,664,666,668,670,672,674,676,678,680,682,684,686,688,690,692,694,696,698,700,702,704,706,708,710,712,714,716,718,720,722,724,726,728,730,732,734,736,738,740,742,744,746,748,750,752,754,756,758,760,762,764,766,768,770,772,774,776,778,780,782,784,786,788,790,792,794,796,798,800,802,804,806,808,810,812,814,816,818,820,822,824,826,828,830,832,834,836,838,840,842,844,846,848,850,852,854,856,858,860,862,864,866,868,870,872,874,876,878,880,882,884,886,888,890,892,894,896,898,900,902,904,906,908,910,912,914,916,918,920,922,924,926,928,930,932,934,936,938,940,942,944,946,948,950,952,954,956,958,960,962,964,966,968,970,972,974,976,978,980,982,984,986,988,990,992,994,996,998,1000,1002,1004,1006,1008,1010,1012,1014,1016,1018,1020,1022,1024,1026,1028,1030,1032,1034,1036,1038,1040,1042,1044,1046,1048,1050,1052,1054,1056,1058,1060,1062,1064,1066,1068,1070,1072,1074,1076,1078,1080,1082,1084,1086,1088,1090,1092,1094,1096,1098,1100,1102,1104,1106,1108,1110,1112,1114,1116,1118,1120,1122,1124,1126,1128,1130,1132,1134,1136,1138,1140,1142,1144,1146,1148,1150,1152,1154,1156,1158,1160,1162,1164,1166,1168,1170,1172,1174,1176,1178,1180,1182,1184,1186,1188,1190,1192,1194,1196,1198,1200,1202,1204,1206,1208,1210,1212,1214,1216,1218,1220,1222,1224,1226,1228,1230,1232,1234,1236,1238,1240,1242,1244,1246,1248,1250,1252,1254,1256,1258,1260,1262,1264,1266,1268,1270,1272,1274,1276,1278,1280,1282,1284,1286,1288,1290,1292,1294,1296,1298,1300,1302,1304,1306,1308,1310,1312,1314,1316,1318,1320,1322,1324,1326,1328,1330,1332,1334,1336,1338,1340,1342,1344,1346,1348,1350,1352,1354,1356,1358,1360,1362,1364,1366,1368,1370,1372,1374,1376,1378,1380,1382,1384,1386,1388,1390,1392,1394,1396,1398,1400,1402,1404,1406,1408,1410,1412,1414,1416,1418,1420,1422,1424,1426,1428,1430,1432,1434,1436,1438,1440,1442,1444,1446,1448,1450,1452,1454,1456,1458,1460,1462,1464,1466,1468,1470,1472,1474,1476,1478,1480,1482,1484,1486,1488,1490,1492,1494,1496,1498,1500],"tree_info":[0,1,0,1,0,1,0,1,0,1,0,1,0,1,0,1,0,1,0,1,0,1,0,1,0,1,0,1,0,1,0,1,0,1,0,1,0,1,0,1,0,1,0,1,0,1,0,1,0,1,0,1,0,1,0,1,0,1,0,1,0,1,0,1,0,1,0,1,0,1,0,1,0,1,0,1,0,1,0,1,0,1,0,1,0,1,0,1,0,1,0,1,0,1,0,1,0,1,0,1,0,1,0,1,0,1,0,1,0,1,0,1,0,1,0,1,0,1,0,1,0,1,0,1,0,1,0,1,0,1,0,1,0,1,0,1,0,1,0,1,0,1,0,1,0,1,0,1,0,1,0,1,0,1,0,1,0,1,0,1,0,1,0,1,0,1,0,1,0,1,0,1,0,1,0,1,0,1,0,1,0,1,0,1,0,1,0,1,0,1,0,1,0,1,0,1,0,1,0,1,0,1,0,1,0,1,0,1,0,1,0,1,0,1,0,1,0,1,0,1,0,1,0,1,0,1,0,1,0,1,0,1,0,1,0,1,0,1,0,1,0,1,0,1,0,1,0,1,0,1,0,1,0,1,0,1,0,1,0,1,0,1,0,1,0,1,0,1,0,1,0,1,0,1,0,1,0,1,0,1,0,1,0,1,0,1,0,1,0,1,0,1,0,1,0,1,0,1,0,1,0,1,0,1,0,1,0,1,0,1,0,1,0,1,0,1,0,1,0,1,0,1,0,1,0,1,0,1,0,1,0,1,0,1,0,1,0,1,0,1,0,1,0,1,0,1,0,1,0,1,0,1,0,1,0,1,0,1,0,1,0,1,0,1,0,1,0,1,0,1,0,1,0,1,0,1,0,1,0,1,0,1,0,1,0,1,0,1,0,1,0,1,0,1,0,1,0,1,0,1,0,1,0,1,0,1,0,1,0,1,0,1,0,1,0,1,0,1,0,1,0,1,0,1,0,1,0,1,0,1,0,1,0,1,0,1,0,1,0,1,0,1,0,1,0,1,0,1,0,1,0,1,0,1,0,1,0,1,0,1,0,1,0,1,0,1,0,1,0,1,0,1,0,1,0,1,0,1,0,1,0,1,0,1,0,1,0,1,0,1,0,1,0,1,0,1,0,1,0,1,0,1,0,1,0,1,0,1,0,1,0,1,0,1,0,1,0,1,0,1,0,1,0,1,0,1,0,1,0,1,0,1,0,1,0,1,0,1,0,1,0,1,0,1,0,1,0,1,0,1,0,1,0,1,0,1,0,1,0,1,0,1,0,1,0,1,0,1,0,1,0,1,0,1,0,1,0,1,0,1,0,1,0,1,0,1,0,1,0,1,0,1,0,1,0,1,0,1,0,1,0,1,0,1,0,1,0,1,0,1,0,1,0,1,0,1,0,1,0,1,0,1,0,1,0,1,0,1,0,1,0,1,0,1,0,1,0,1,0,1,0,1,0,1,0,1,0,1,0,1,0,1,0,1,0,1,0,1,0,1,0,1,0,1,0,1,0,1,0,1,0,1,0,1,0,1,0,1,0,1,0,1,0,1,0,1,0,1,0,1,0,1,0,1,0,1,0,1,0,1,0,1,0,1,0,1,0,1,0,1,0,1,0,1,0,1,0,1,0,1,0,1,0,1,0,1,0,1,0,1,0,1,0,1,0,1,0,1,0,1,0,1,0,1,0,1,0,1,0,1,0,1,0,1,0,1,0,1,0,1,0,1,0,1,0,1,0,1,0,1,0,1,0,1,0,1,0,1,0,1,0,1,0,1,0,1,0,1,0,1,0,1,0,1,0,1,0,1,0,1,0,1,0,1,0,1,0,1,0,1,0,1,0,1,0,1,0,1,0,1,0,1,0,1,0,1,0,1,0,1,0,1,0,1,0,1,0,1,0,1,0,1,0,1,0,1,0,1,0,1,0,1,0,1,0,1,0,1,0,1,0,1,0,1,0,1,0,1,0,1,0,1,0,1,0,1,0,1,0,1,0,1,0,1,0,1,0,1,0,1,0,1,0,1,0,1,0,1,0,1,0,1,0,1,0,1,0,1,0,1,0,1,0,1,0,1,0,1,0,1,0,1,0,1,0,1,0,1,0,1,0,1,0,1,0,1,0,1,0,1,0,1,0,1,0,1,0,1,0,1,0,1,0,1,0,1,0,1,0,1,0,1,0,1,0,1,0,1,0,1,0,1,0,1,0,1,0,1,0,1,0,1,0,1,0,1,0,1,0,1,0,1,0,1,0,1,0,1,0,1,0,1,0,1,0,1,0,1,0,1,0,1,0,1,0,1,0,1,0,1,0,1,0,1,0,1,0,1,0,1,0,1,0,1,0,1,0,1,0,1,0,1,0,1,0,1,0,1,0,1,0,1,0,1,0,1,0,1,0,1,0,1,0,1,0,1,0,1,0,1,0,1,0,1,0,1,0,1,0,1,0,1,0,1,0,1,0,1,0,1,0,1,0,1,0,1,0,1,0,1,0,1,0,1,0,1,0,1,0,1,0,1,0,1,0,1,0,1,0,1,0,1,0,1,0,1,0,1,0,1,0,1,0,1,0,1,0,1,0,1,0,1,0,1,0,1,0,1,0,1,0,1,0,1,0,1,0,1,0,1,0,1,0,1,0,1,0,1,0,1,0,1,0,1,0,1,0,1,0,1,0,1,0,1,0,1,0,1,0,1,0,1,0,1,0,1,0,1,0,1,0,1,0,1,0,1,0,1,0,1,0,1,0,1,0,1,0,1,0,1,0,1,0,1,0,1,0,1,0,1,0,1,0,1,0,1,0,1,0,1,0,1,0,1,0,1,0,1,0,1,0,1,0,1,0,1,0,1,0,1,0,1,0,1,0,1,0,1,0,1,0,1,0,1,0,1,0,1,0,1,0,1,0,1,0,1,0,1,0,1,0,1,0,1,0,1,0,1,0,1,0,1,0,1,0,1,0,1,0,1,0,1,0,1,0,1,0,1,0,1,0,1,0,1,0,1,0,1,0,1,0,1,0,1,0,1,0,1,0,1,0,1,0,1,0,1,0,1,0,1,0,1,0,1,0,1,0,1,0,1,0,1,0,1,0,1,0,1,0,1,0,1,0,1,0,1,0,1,0,1,0,1,0,1,0,1,0,1,0,1,0,1,0,1,0,1,0,1,0,1,0,1,0,1,0,1,0,1,0,1,0,1,0,1,0,1,0,1,0,1,0,1,0,1,0,1,0,1,0,1,0,1,0,1,0,1,0,1,0,1,0,1,0,1,0,1,0,1,0,1,0,1,0,1,0,1,0,1,0,1,0,1,0,1,0,1,0,1,0,1,0,1,0,1,0,1,0,1,0,1,0,1,0,1,0,1,0,1,0,1,0,1,0,1,0,1,0,1,0,1],"trees":[{"base_weights":[-1.5169251E-1,2.408411E-1,-3.770696E-1,-7.1142286E-2,4.7842687E-1,-9.2402466E-2,-5.86684E-1,-2.3510465E-3,1.9841269E-3,7.173252E-3,3.978604E-3,-2.9221554E-3,9.936817E-4,-7.2707324E-3,-4.499787E-3],"categories":[],"categories_nodes":[],"categories_segments":[],"categories_sizes":[],"default_left":[0,0,0,0,0,0,0,0,0,0,0,0,0,0,0],"id":0,"left_children":[1,3,5,7,9,11,13,-1,-1,-1,-1,-1,-1,-1,-1],"loss_changes":[5.59386E2,1.7099832E2,2.3961163E2,4.4155136E1,2.4918823E1,6.534255E1,4.4063843E1,0E0,0E0,0E0,0E0,0E0,0E0,0E0,0E0],"parents":[2147483647,0,0,1,1,2,2,3,3,4,4,5,5,6,6],"right_children":[2,4,6,8,10,12,14,-1,-1,-1,-1,-1,-1,-1,-1],"split_conditions":[4.59E-1,4.93E-1,1.2E1,2.6E1,2.63E-1,9E0,4.09E-1,-2.3510465E-3,1.9841269E-3,7.173252E-3,3.978604E-3,-2.9221554E-3,9.936817E-4,-7.2707324E-3,-4.499787E-3],"split_indices":[3,55,80,28,3,29,55,0,0,0,0,0,0,0,0],"split_type":[0,0,0,0,0,0,0,0,0,0,0,0,0,0,0],"sum_hessian":[6.321E3,2.3055E3,4.0155E3,9.97E2,1.3085E3,1.7035E3,2.312E3,6.2E2,3.77E2,3.28E2,9.805E2,8.34E2,8.695E2,1.1385E3,1.1735E3],"tree_param":{"num_deleted":"0","num_feature":"106","num_nodes":"15","size_leaf_vector":"1"}},{"base_weights":[1.5169251E-1,-2.408411E-1,3.770696E-1,7.1142286E-2,-4.7842687E-1,9.2402466E-2,5.86684E-1,2.3510465E-3,-1.9841269E-3,-7.173252E-3,-3.978604E-3,2.9221554E-3,-9.936817E-4,7.2707324E-3,4.499787E-3],"categories":[],"categories_nodes":[],"categories_segments":[],"categories_sizes":[],"default_left":[0,0,0,0,0,0,0,0,0,0,0,0,0,0,0],"id":1,"left_children":[1,3,5,7,9,11,13,-1,-1,-1,-1,-1,-1,-1,-1],"loss_changes":[5.59386E2,1.7099832E2,2.3961163E2,4.4155136E1,2.4918823E1,6.534255E1,4.4063843E1,0E0,0E0,0E0,0E0,0E0,0E0,0E0,0E0],"parents":[2147483647,0,0,1,1,2,2,3,3,4,4,5,5,6,6],"right_children":[2,4,6,8,10,12,14,-1,-1,-1,-1,-1,-1,-1,-1],"split_conditions":[4.59E-1,4.93E-1,1.2E1,2.6E1,2.63E-1,9E0,4.09E-1,2.3510465E-3,-1.9841269E-3,-7.173252E-3,-3.978604E-3,2.9221554E-3,-9.936817E-4,7.2707324E-3,4.499787E-3],"split_indices":[3,55,80,28,3,29,55,0,0,0,0,0,0,0,0],"split_type":[0,0,0,0,0,0,0,0,0,0,0,0,0,0,0],"sum_hessian":[6.321E3,2.3055E3,4.0155E3,9.97E2,1.3085E3,1.7035E3,2.312E3,6.2E2,3.77E2,3.28E2,9.805E2,8.34E2,8.695E2,1.1385E3,1.1735E3],"tree_param":{"num_deleted":"0","num_feature":"106","num_nodes":"15","size_leaf_vector":"1"}},{"base_weights":[-1.5017913E-1,2.3844123E-1,-3.733109E-1,-7.0431575E-2,4.7366285E-1,-9.147995E-2,-5.8084345E-1,-2.327587E-3,1.964346E-3,7.1021025E-3,3.938921E-3,-2.8929936E-3,9.837581E-4,-7.1984706E-3,-4.4549187E-3],"categories":[],"categories_nodes":[],"categories_segments":[],"categories_sizes":[],"default_left":[0,0,0,0,0,0,0,0,0,0,0,0,0,0,0],"id":2,"left_children":[1,3,5,7,9,11,13,-1,-1,-1,-1,-1,-1,-1,-1],"loss_changes":[5.482808E2,1.6760611E2,2.3486292E2,4.327849E1,2.4429321E1,6.404432E1,4.3195312E1,0E0,0E0,0E0,0E0,0E0,0E0,0E0,0E0],"parents":[2147483647,0,0,1,1,2,2,3,3,4,4,5,5,6,6],"right_children":[2,4,6,8,10,12,14,-1,-1,-1,-1,-1,-1,-1,-1],"split_conditions":[4.59E-1,4.93E-1,1.2E1,2.6E1,2.63E-1,9E0,4.09E-1,-2.327587E-3,1.964346E-3,7.1021025E-3,3.938921E-3,-2.8929936E-3,9.837581E-4,-7.1984706E-3,-4.4549187E-3],"split_indices":[3,55,80,28,3,29,55,0,0,0,0,0,0,0,0],"split_type":[0,0,0,0,0,0,0,0,0,0,0,0,0,0,0],"sum_hessian":[6.3208706E3,2.3054626E3,4.015408E3,9.9699506E2,1.3084675E3,1.7034921E3,2.311916E3,6.199966E2,3.769985E2,3.2798312E2,9.8048444E2,8.339929E2,8.6949915E2,1.1384398E3,1.1734762E3],"tree_param":{"num_deleted":"0","num_feature":"106","num_nodes":"15","size_leaf_vector":"1"}},{"base_weights":[1.5017913E-1,-2.3844124E-1,3.733109E-1,7.0431575E-2,-4.7366288E-1,9.148001E-2,5.808434E-1,2.327587E-3,-1.964346E-3,-7.1021034E-3,-3.938921E-3,2.8929936E-3,-9.837569E-4,7.1984706E-3,4.4549177E-3],"categories":[],"categories_nodes":[],"categories_segments":[],"categories_sizes":[],"default_left":[0,0,0,0,0,0,0,0,0,0,0,0,0,0,0],"id":3,"left_children":[1,3,5,7,9,11,13,-1,-1,-1,-1,-1,-1,-1,-1],"loss_changes":[5.482808E2,1.6760612E2,2.3486285E2,4.327849E1,2.4429352E1,6.404429E1,4.3195374E1,0E0,0E0,0E0,0E0,0E0,0E0,0E0,0E0],"parents":[2147483647,0,0,1,1,2,2,3,3,4,4,5,5,6,6],"right_children":[2,4,6,8,10,12,14,-1,-1,-1,-1,-1,-1,-1,-1],"split_conditions":[4.59E-1,4.93E-1,1.2E1,2.6E1,2.63E-1,9E0,4.09E-1,2.327587E-3,-1.964346E-3,-7.1021034E-3,-3.938921E-3,2.8929936E-3,-9.837569E-4,7.1984706E-3,4.4549177E-3],"split_indices":[3,55,80,28,3,29,55,0,0,0,0,0,0,0,0],"split_type":[0,0,0,0,0,0,0,0,0,0,0,0,0,0,0],"sum_hessian":[6.3208706E3,2.3054626E3,4.015408E3,9.9699506E2,1.3084675E3,1.7034921E3,2.311916E3,6.199966E2,3.769985E2,3.279831E2,9.8048444E2,8.339929E2,8.6949915E2,1.1384398E3,1.1734762E3],"tree_param":{"num_deleted":"0","num_feature":"106","num_nodes":"15","size_leaf_vector":"1"}},{"base_weights":[-1.4868689E-1,2.3607285E-1,-3.696064E-1,-7.2462425E-2,4.6693343E-1,-9.056761E-2,-5.751021E-1,-2.9033236E-3,1.2457693E-3,7.0456634E-3,3.8714185E-3,-2.8641715E-3,9.739339E-4,-7.1276682E-3,-4.4106725E-3],"categories":[],"categories_nodes":[],"categories_segments":[],"categories_sizes":[],"default_left":[0,0,0,0,0,0,0,0,0,0,0,0,0,0,0],"id":4,"left_children":[1,3,5,7,9,11,13,-1,-1,-1,-1,-1,-1,-1,-1],"loss_changes":[5.374197E2,1.6431215E2,2.3023828E2,4.244915E1,2.4743958E1,6.277292E1,4.2358704E1,0E0,0E0,0E0,0E0,0E0,0E0,0E0,0E0],"parents":[2147483647,0,0,1,1,2,2,3,3,4,4,5,5,6,6],"right_children":[2,4,6,8,10,12,14,-1,-1,-1,-1,-1,-1,-1,-1],"split_conditions":[4.59E-1,4.91E-1,1.2E1,2.4E1,2.63E-1,9E0,4.09E-1,-2.9033236E-3,1.2457693E-3,7.0456634E-3,3.8714185E-3,-2.8641715E-3,9.739339E-4,-7.1276682E-3,-4.4106725E-3],"split_indices":[3,55,80,28,3,29,55,0,0,0,0,0,0,0,0],"split_type":[0,0,0,0,0,0,0,0,0,0,0,0,0,0,0],"sum_hessian":[6.3204883E3,2.3053523E3,4.015136E3,9.869807E2,1.3183715E3,1.7034684E3,2.3116675E3,4.6848975E2,5.1849097E2,3.2943317E2,9.8893835E2,8.3397174E2,8.694966E2,1.1382617E3,1.1734059E3],"tree_param":{"num_deleted":"0","num_feature":"106","num_nodes":"15","size_leaf_vector":"1"}},{"base_weights":[1.4868684E-1,-2.3607287E-1,3.6960635E-1,7.2462425E-2,-4.6693343E-1,9.0567544E-2,5.7510203E-1,2.9033236E-3,-1.2457693E-3,-7.0456634E-3,-3.8714185E-3,2.8641706E-3,-9.7393413E-4,7.1276682E-3,4.410671E-3],"categories":[],"categories_nodes":[],"categories_segments":[],"categories_sizes":[],"default_left":[0,0,0,0,0,0,0,0,0,0,0,0,0,0,0],"id":5,"left_children":[1,3,5,7,9,11,13,-1,-1,-1,-1,-1,-1,-1,-1],"loss_changes":[5.3741956E2,1.6431213E2,2.3023834E2,4.244915E1,2.4743988E1,6.27729E1,4.2358643E1,0E0,0E0,0E0,0E0,0E0,0E0,0E0,0E0],"parents":[2147483647,0,0,1,1,2,2,3,3,4,4,5,5,6,6],"right_children":[2,4,6,8,10,12,14,-1,-1,-1,-1,-1,-1,-1,-1],"split_conditions":[4.59E-1,4.91E-1,1.2E1,2.4E1,2.63E-1,9E0,4.09E-1,2.9033236E-3,-1.2457693E-3,-7.0456634E-3,-3.8714185E-3,2.8641706E-3,-9.7393413E-4,7.1276682E-3,4.410671E-3],"split_indices":[3,55,80,28,3,29,55,0,0,0,0,0,0,0,0],"split_type":[0,0,0,0,0,0,0,0,0,0,0,0,0,0,0],"sum_hessian":[6.3204883E3,2.3053523E3,4.015136E3,9.869807E2,1.3183716E3,1.7034685E3,2.3116675E3,4.6848975E2,5.1849097E2,3.2943317E2,9.889384E2,8.339718E2,8.6949664E2,1.1382617E3,1.1734059E3],"tree_param":{"num_deleted":"0","num_feature":"106","num_nodes":"15","size_leaf_vector":"1"}},{"base_weights":[-1.4721532E-1,2.3373424E-1,-3.659547E-1,-6.905789E-2,4.6436176E-1,-8.966508E-2,-5.6945705E-1,-2.2857895E-3,1.9319026E-3,6.963877E-3,3.8613766E-3,-2.8356814E-3,9.6421025E-4,-7.0582745E-3,-4.3670344E-3],"categories":[],"categories_nodes":[],"categories_segments":[],"categories_sizes":[],"default_left":[0,0,0,0,0,0,0,0,0,0,0,0,0,0,0],"id":6,"left_children":[1,3,5,7,9,11,13,-1,-1,-1,-1,-1,-1,-1,-1],"loss_changes":[5.267948E2,1.610774E2,2.257334E2,4.179296E1,2.3493378E1,6.1527706E1,4.1552124E1,0E0,0E0,0E0,0E0,0E0,0E0,0E0,0E0],"parents":[2147483647,0,0,1,1,2,2,3,3,4,4,5,5,6,6],"right_children":[2,4,6,8,10,12,14,-1,-1,-1,-1,-1,-1,-1,-1],"split_conditions":[4.59E-1,4.93E-1,1.2E1,2.6E1,2.63E-1,9E0,4.09E-1,-2.2857895E-3,1.9319026E-3,6.963877E-3,3.8613766E-3,-2.8356814E-3,9.6421025E-4,-7.0582745E-3,-4.3670344E-3],"split_indices":[3,55,80,28,3,29,55,0,0,0,0,0,0,0,0],"split_type":[0,0,0,0,0,0,0,0,0,0,0,0,0,0,0],"sum_hessian":[6.3198647E3,2.3051755E3,4.0146892E3,9.969609E2,1.3082147E3,1.7034296E3,2.3112595E3,6.199713E2,3.7698956E2,3.2785095E2,9.803638E2,8.339372E2,8.6949243E2,1.1379692E3,1.1732904E3],"tree_param":{"num_deleted":"0","num_feature":"106","num_nodes":"15","size_leaf_vector":"1"}},{"base_weights":[1.472153E-1,-2.3373424E-1,3.6595467E-1,6.9057874E-2,-4.643618E-1,8.966514E-2,5.6945693E-1,2.2857892E-3,-1.9319026E-3,-6.9638775E-3,-3.8613763E-3,2.8356826E-3,-9.6421025E-4,7.0582745E-3,4.3670335E-3],"categories":[],"categories_nodes":[],"categories_segments":[],"categories_sizes":[],"default_left":[0,0,0,0,0,0,0,0,0,0,0,0,0,0,0],"id":7,"left_children":[1,3,5,7,9,11,13,-1,-1,-1,-1,-1,-1,-1,-1],"loss_changes":[5.2679474E2,1.6107742E2,2.2573322E2,4.179295E1,2.3493347E1,6.1527744E1,4.1552185E1,0E0,0E0,0E0,0E0,0E0,0E0,0E0,0E0],"parents":[2147483647,0,0,1,1,2,2,3,3,4,4,5,5,6,6],"right_children":[2,4,6,8,10,12,14,-1,-1,-1,-1,-1,-1,-1,-1],"split_conditions":[4.59E-1,4.93E-1,1.2E1,2.6E1,2.63E-1,9E0,4.09E-1,2.2857892E-3,-1.9319026E-3,-6.9638775E-3,-3.8613763E-3,2.8356826E-3,-9.6421025E-4,7.0582745E-3,4.3670335E-3],"split_indices":[3,55,80,28,3,29,55,0,0,0,0,0,0,0,0],"split_type":[0,0,0,0,0,0,0,0,0,0,0,0,0,0,0],"sum_hessian":[6.3198647E3,2.3051755E3,4.0146892E3,9.9696094E2,1.3082146E3,1.7034296E3,2.3112595E3,6.199714E2,3.7698956E2,3.2785092E2,9.803637E2,8.339372E2,8.6949243E2,1.1379691E3,1.1732904E3],"tree_param":{"num_deleted":"0","num_feature":"106","num_nodes":"15","size_leaf_vector":"1"}},{"base_weights":[-1.4576374E-1,2.3142654E-1,-3.6235452E-1,-7.104769E-2,4.578047E-1,-8.877233E-2,-5.639054E-1,-2.8517598E-3,1.2259829E-3,6.910349E-3,3.7952391E-3,-2.8075196E-3,9.5458585E-4,-6.990243E-3,-4.323991E-3],"categories":[],"categories_nodes":[],"categories_segments":[],"categories_sizes":[],"default_left":[0,0,0,0,0,0,0,0,0,0,0,0,0,0,0],"id":8,"left_children":[1,3,5,7,9,11,13,-1,-1,-1,-1,-1,-1,-1,-1],"loss_changes":[5.1640216E2,1.5792763E2,2.21344E2,4.099959E1,2.3819275E1,6.030818E1,4.077423E1,0E0,0E0,0E0,0E0,0E0,0E0,0E0,0E0],"parents":[2147483647,0,0,1,1,2,2,3,3,4,4,5,5,6,6],"right_children":[2,4,6,8,10,12,14,-1,-1,-1,-1,-1,-1,-1,-1],"split_conditions":[4.59E-1,4.91E-1,1.2E1,2.4E1,2.63E-1,9E0,4.09E-1,-2.8517598E-3,1.2259829E-3,6.910349E-3,3.7952391E-3,-2.8075196E-3,9.5458585E-4,-6.990243E-3,-4.323991E-3],"split_indices":[3,55,80,28,3,29,55,0,0,0,0,0,0,0,0],"split_type":[0,0,0,0,0,0,0,0,0,0,0,0,0,0,0],"sum_hessian":[6.3190005E3,2.3049277E3,4.0140728E3,9.8693066E2,1.317997E3,1.7033761E3,2.3106968E3,4.6845438E2,5.184763E2,3.292375E2,9.8875946E2,8.3388947E2,8.694867E2,1.1375657E3,1.173131E3],"tree_param":{"num_deleted":"0","num_feature":"106","num_nodes":"15","size_leaf_vector":"1"}},{"base_weights":[1.4576371E-1,-2.3142654E-1,3.623545E-1,7.104772E-2,-4.5780474E-1,8.877233E-2,5.6390536E-1,2.8517598E-3,-1.2259823E-3,-6.910349E-3,-3.7952396E-3,2.8075196E-3,-9.5458585E-4,6.990243E-3,4.32399E-3],"categories":[],"categories_nodes":[],"categories_segments":[],"categories_sizes":[],"default_left":[0,0,0,0,0,0,0,0,0,0,0,0,0,0,0],"id":9,"left_children":[1,3,5,7,9,11,13,-1,-1,-1,-1,-1,-1,-1,-1],"loss_changes":[5.1640216E2,1.5792761E2,2.2134393E2,4.099958E1,2.3819275E1,6.030818E1,4.077423E1,0E0,0E0,0E0,0E0,0E0,0E0,0E0,0E0],"parents":[2147483647,0,0,1,1,2,2,3,3,4,4,5,5,6,6],"right_children":[2,4,6,8,10,12,14,-1,-1,-1,-1,-1,-1,-1,-1],"split_conditions":[4.59E-1,4.91E-1,1.2E1,2.4E1,2.63E-1,9E0,4.09E-1,2.8517598E-3,-1.2259823E-3,-6.910349E-3,-3.7952396E-3,2.8075196E-3,-9.5458585E-4,6.990243E-3,4.32399E-3],"split_indices":[3,55,80,28,3,29,55,0,0,0,0,0,0,0,0],"split_type":[0,0,0,0,0,0,0,0,0,0,0,0,0,0,0],"sum_hessian":[6.3190005E3,2.3049277E3,4.0140728E3,9.869307E2,1.3179971E3,1.7033761E3,2.3106968E3,4.6845438E2,5.184763E2,3.292375E2,9.887595E2,8.3388947E2,8.694867E2,1.1375657E3,1.1731311E3],"tree_param":{"num_deleted":"0","num_feature":"106","num_nodes":"15","size_leaf_vector":"1"}},{"base_weights":[-1.443319E-1,1.8868466E-1,-3.8498634E-1,-1.066997E-1,4.1560802E-1,-1.1371181E-1,-5.858236E-1,-2.9808332E-3,1.2153419E-3,5.3310543E-3,2.4015254E-3,-3.9477437E-3,3.051998E-5,-7.1507036E-3,-4.6004686E-3],"categories":[],"categories_nodes":[],"categories_segments":[],"categories_sizes":[],"default_left":[0,0,0,0,0,0,0,0,0,0,0,0,0,0,0],"id":10,"left_children":[1,3,5,7,9,11,13,-1,-1,-1,-1,-1,-1,-1,-1],"loss_changes":[5.0648212E2,1.7776984E2,1.997987E2,5.038868E1,3.0789062E1,5.1256638E1,3.3933533E1,0E0,0E0,0E0,0E0,0E0,0E0,0E0,0E0],"parents":[2147483647,0,0,1,1,2,2,3,3,4,4,5,5,6,6],"right_children":[2,4,6,8,10,12,14,-1,-1,-1,-1,-1,-1,-1,-1],"split_conditions":[4.89E-1,4.93E-1,1.2E1,2.4E1,3.96E-1,5E0,4.07E-1,-2.9808332E-3,1.2153419E-3,5.3310543E-3,2.4015254E-3,-3.9477437E-3,3.051998E-5,-7.1507036E-3,-4.6004686E-3],"split_indices":[3,55,80,28,3,28,55,0,0,0,0,0,0,0,0],"split_type":[0,0,0,0,0,0,0,0,0,0,0,0,0,0,0],"sum_hessian":[6.3179097E3,2.6504478E3,3.667462E3,1.1517516E3,1.4986962E3,1.5608116E3,2.1066501E3,6.26282E2,5.254696E2,8.9637897E2,6.0231726E2,4.5740634E2,1.1034054E3,1.0366821E3,1.069968E3],"tree_param":{"num_deleted":"0","num_feature":"106","num_nodes":"15","size_leaf_vector":"1"}},{"base_weights":[1.4433187E-1,-1.8868467E-1,3.849863E-1,1.0669974E-1,-4.1560808E-1,1.1371179E-1,5.858236E-1,2.9808339E-3,-1.2153414E-3,-5.331055E-3,-2.401526E-3,3.9477437E-3,-3.052019E-5,7.150702E-3,4.6004686E-3],"categories":[],"categories_nodes":[],"categories_segments":[],"categories_sizes":[],"default_left":[0,0,0,0,0,0,0,0,0,0,0,0,0,0,0],"id":11,"left_children":[1,3,5,7,9,11,13,-1,-1,-1,-1,-1,-1,-1,-1],"loss_changes":[5.0648215E2,1.7776993E2,1.9979858E2,5.0388687E1,3.0789062E1,5.125664E1,3.3933594E1,0E0,0E0,0E0,0E0,0E0,0E0,0E0,0E0],"parents":[2147483647,0,0,1,1,2,2,3,3,4,4,5,5,6,6],"right_children":[2,4,6,8,10,12,14,-1,-1,-1,-1,-1,-1,-1,-1],"split_conditions":[4.89E-1,4.93E-1,1.2E1,2.4E1,3.96E-1,5E0,4.07E-1,2.9808339E-3,-1.2153414E-3,-5.331055E-3,-2.401526E-3,3.9477437E-3,-3.052019E-5,7.150702E-3,4.6004686E-3],"split_indices":[3,55,80,28,3,28,55,0,0,0,0,0,0,0,0],"split_type":[0,0,0,0,0,0,0,0,0,0,0,0,0,0,0],"sum_hessian":[6.3179097E3,2.6504478E3,3.667462E3,1.1517516E3,1.4986962E3,1.5608118E3,2.1066504E3,6.262819E2,5.2546967E2,8.963789E2,6.0231726E2,4.5740634E2,1.1034054E3,1.0366823E3,1.069968E3],"tree_param":{"num_deleted":"0","num_feature":"106","num_nodes":"15","size_leaf_vector":"1"}},{"base_weights":[-1.4291899E-1,2.458956E-1,-3.4509295E-1,-1.2563336E-1,4.2253843E-1,-1.1622209E-1,-5.787076E-1,-3.0410774E-3,9.4553916E-4,7.198491E-3,3.5911975E-3,-3.1951894E-3,7.0185994E-4,-4.3888614E-3,-6.9245235E-3],"categories":[],"categories_nodes":[],"categories_segments":[],"categories_sizes":[],"default_left":[0,0,0,0,0,0,0,0,0,0,0,0,0,0,0],"id":12,"left_children":[1,3,5,7,9,11,13,-1,-1,-1,-1,-1,-1,-1,-1],"loss_changes":[4.9670374E2,1.4192863E2,2.2218835E2,2.7434822E1,2.73721E1,7.964173E1,3.240808E1,0E0,0E0,0E0,0E0,0E0,0E0,0E0,0E0],"parents":[2147483647,0,0,1,1,2,2,3,3,4,4,5,5,6,6],"right_children":[2,4,6,8,10,12,14,-1,-1,-1,-1,-1,-1,-1,-1],"split_conditions":[4.47E-1,4.33E-1,1.5E1,2.5E1,2.31E-1,9E0,5.77E-1,-3.0410774E-3,9.4553916E-4,7.198491E-3,3.5911975E-3,-3.1951894E-3,7.0185994E-4,-4.3888614E-3,-6.9245235E-3],"split_indices":[3,55,81,28,3,29,3,0,0,0,0,0,0,0,0],"split_type":[0,0,0,0,0,0,0,0,0,0,0,0,0,0,0],"sum_hessian":[6.3166475E3,2.1608167E3,4.1558306E3,6.963945E2,1.4644222E3,2.0999849E3,2.0558457E3,3.8441937E2,3.1197507E2,2.5563559E2,1.2087866E3,1.004147E3,1.0958379E3,9.243912E2,1.1314545E3],"tree_param":{"num_deleted":"0","num_feature":"106","num_nodes":"15","size_leaf_vector":"1"}},{"base_weights":[1.4291899E-1,-2.4589564E-1,3.4509298E-1,1.2563334E-1,-4.225385E-1,1.16222136E-1,5.787075E-1,3.0410774E-3,-9.4553945E-4,-7.198492E-3,-3.5911982E-3,3.1951894E-3,-7.0185907E-4,4.3888614E-3,6.924523E-3],"categories":[],"categories_nodes":[],"categories_segments":[],"categories_sizes":[],"default_left":[0,0,0,0,0,0,0,0,0,0,0,0,0,0,0],"id":13,"left_children":[1,3,5,7,9,11,13,-1,-1,-1,-1,-1,-1,-1,-1],"loss_changes":[4.9670386E2,1.4192865E2,2.221883E2,2.7434824E1,2.737207E1,7.964169E1,3.240808E1,0E0,0E0,0E0,0E0,0E0,0E0,0E0,0E0],"parents":[2147483647,0,0,1,1,2,2,3,3,4,4,5,5,6,6],"right_children":[2,4,6,8,10,12,14,-1,-1,-1,-1,-1,-1,-1,-1],"split_conditions":[4.47E-1,4.33E-1,1.5E1,2.5E1,2.31E-1,9E0,5.77E-1,3.0410774E-3,-9.4553945E-4,-7.198492E-3,-3.5911982E-3,3.1951894E-3,-7.0185907E-4,4.3888614E-3,6.924523E-3],"split_indices":[3,55,81,28,3,29,3,0,0,0,0,0,0,0,0],"split_type":[0,0,0,0,0,0,0,0,0,0,0,0,0,0,0],"sum_hessian":[6.3166475E3,2.1608167E3,4.1558306E3,6.963945E2,1.4644222E3,2.0999849E3,2.0558457E3,3.8441937E2,3.119751E2,2.556356E2,1.2087866E3,1.004147E3,1.0958379E3,9.243912E2,1.1314545E3],"tree_param":{"num_deleted":"0","num_feature":"106","num_nodes":"15","size_leaf_vector":"1"}},{"base_weights":[-1.4152263E-1,1.8518932E-1,-3.7766707E-1,-1.0492707E-1,4.0812802E-1,-1.1117753E-1,-5.7510024E-1,-2.926021E-3,1.1884258E-3,6.204061E-3,3.1406914E-3,-3.8771476E-3,3.6808262E-5,-7.027224E-3,-4.509819E-3],"categories":[],"categories_nodes":[],"categories_segments":[],"categories_sizes":[],"default_left":[0,0,0,0,0,0,0,0,0,0,0,0,0,0,0],"id":14,"left_children":[1,3,5,7,9,11,13,-1,-1,-1,-1,-1,-1,-1,-1],"loss_changes":[4.8737485E2,1.7148035E2,1.9285052E2,4.8438313E1,2.9736115E1,4.960353E1,3.3042053E1,0E0,0E0,0E0,0E0,0E0,0E0,0E0,0E0],"parents":[2147483647,0,0,1,1,2,2,3,3,4,4,5,5,6,6],"right_children":[2,4,6,8,10,12,14,-1,-1,-1,-1,-1,-1,-1,-1],"split_conditions":[4.89E-1,4.93E-1,1.2E1,2.4E1,-5.9E0,5E0,4.07E-1,-2.926021E-3,1.1884258E-3,6.204061E-3,3.1406914E-3,-3.8771476E-3,3.6808262E-5,-7.027224E-3,-4.509819E-3],"split_indices":[3,55,80,28,25,28,55,0,0,0,0,0,0,0,0],"split_type":[0,0,0,0,0,0,0,0,0,0,0,0,0,0,0],"sum_hessian":[6.315232E3,2.649624E3,3.665608E3,1.1515756E3,1.4980485E3,1.5606506E3,2.1049573E3,6.261324E2,5.2544324E2,4.582482E2,1.0398003E3,4.5728903E2,1.1033617E3,1.0355312E3,1.069426E3],"tree_param":{"num_deleted":"0","num_feature":"106","num_nodes":"15","size_leaf_vector":"1"}},{"base_weights":[1.4152265E-1,-1.8518935E-1,3.776671E-1,1.0492709E-1,-4.0812805E-1,1.1117753E-1,5.751003E-1,2.926021E-3,-1.1884255E-3,-6.204062E-3,-3.1406921E-3,3.8771473E-3,-3.6808095E-5,7.0272246E-3,4.50982E-3],"categories":[],"categories_nodes":[],"categories_segments":[],"categories_sizes":[],"default_left":[0,0,0,0,0,0,0,0,0,0,0,0,0,0,0],"id":15,"left_children":[1,3,5,7,9,11,13,-1,-1,-1,-1,-1,-1,-1,-1],"loss_changes":[4.8737497E2,1.714804E2,1.9285052E2,4.84383E1,2.9736115E1,4.9603516E1,3.304193E1,0E0,0E0,0E0,0E0,0E0,0E0,0E0,0E0],"parents":[2147483647,0,0,1,1,2,2,3,3,4,4,5,5,6,6],"right_children":[2,4,6,8,10,12,14,-1,-1,-1,-1,-1,-1,-1,-1],"split_conditions":[4.89E-1,4.93E-1,1.2E1,2.4E1,-5.9E0,5E0,4.07E-1,2.926021E-3,-1.1884255E-3,-6.204062E-3,-3.1406921E-3,3.8771473E-3,-3.6808095E-5,7.0272246E-3,4.50982E-3],"split_indices":[3,55,80,28,25,28,55,0,0,0,0,0,0,0,0],"split_type":[0,0,0,0,0,0,0,0,0,0,0,0,0,0,0],"sum_hessian":[6.315232E3,2.649624E3,3.665608E3,1.1515756E3,1.4980483E3,1.5606506E3,2.1049573E3,6.261324E2,5.2544324E2,4.5824817E2,1.0398002E3,4.57289E2,1.1033617E3,1.0355312E3,1.069426E3],"tree_param":{"num_deleted":"0","num_feature":"106","num_nodes":"15","size_leaf_vector":"1"}},{"base_weights":[-1.4014603E-1,2.41368E-1,-3.3855623E-1,-1.2366805E-1,4.149902E-1,-1.1397403E-1,-5.679764E-1,-2.9885399E-3,9.243036E-4,7.082689E-3,3.5247677E-3,-3.138865E-3,6.929184E-4,-4.2990083E-3,-6.8034576E-3],"categories":[],"categories_nodes":[],"categories_segments":[],"categories_sizes":[],"default_left":[0,0,0,0,0,0,0,0,0,0,0,0,0,0,0],"id":16,"left_children":[1,3,5,7,9,11,13,-1,-1,-1,-1,-1,-1,-1,-1],"loss_changes":[4.780709E2,1.3701157E2,2.1399417E2,2.642595E1,2.6603683E1,7.698439E1,3.159021E1,0E0,0E0,0E0,0E0,0E0,0E0,0E0,0E0],"parents":[2147483647,0,0,1,1,2,2,3,3,4,4,5,5,6,6],"right_children":[2,4,6,8,10,12,14,-1,-1,-1,-1,-1,-1,-1,-1],"split_conditions":[4.47E-1,4.33E-1,1.5E1,2.5E1,2.31E-1,9E0,5.77E-1,-2.9885399E-3,9.243036E-4,7.082689E-3,3.5247677E-3,-3.138865E-3,6.929184E-4,-4.2990083E-3,-6.8034576E-3],"split_indices":[3,55,81,28,3,29,3,0,0,0,0,0,0,0,0],"split_type":[0,0,0,0,0,0,0,0,0,0,0,0,0,0,0],"sum_hessian":[6.313566E3,2.1599941E3,4.153572E3,6.963095E2,1.4636847E3,2.099673E3,2.0538987E3,3.8434613E2,3.1196338E2,2.5535738E2,1.2083273E3,1.00388696E3,1.095786E3,9.237062E2,1.1301925E3],"tree_param":{"num_deleted":"0","num_feature":"106","num_nodes":"15","size_leaf_vector":"1"}},{"base_weights":[1.4014603E-1,-2.4136801E-1,3.3855626E-1,1.2366807E-1,-4.1499022E-1,1.1397403E-1,5.679764E-1,2.9885399E-3,-9.243034E-4,-7.082689E-3,-3.524768E-3,3.1388653E-3,-6.929185E-4,4.2990088E-3,6.8034576E-3],"categories":[],"categories_nodes":[],"categories_segments":[],"categories_sizes":[],"default_left":[0,0,0,0,0,0,0,0,0,0,0,0,0,0,0],"id":17,"left_children":[1,3,5,7,9,11,13,-1,-1,-1,-1,-1,-1,-1,-1],"loss_changes":[4.780709E2,1.370116E2,2.1399417E2,2.6425945E1,2.6603638E1,7.6984406E1,3.159021E1,0E0,0E0,0E0,0E0,0E0,0E0,0E0,0E0],"parents":[2147483647,0,0,1,1,2,2,3,3,4,4,5,5,6,6],"right_children":[2,4,6,8,10,12,14,-1,-1,-1,-1,-1,-1,-1,-1],"split_conditions":[4.47E-1,4.33E-1,1.5E1,2.5E1,2.31E-1,9E0,5.77E-1,2.9885399E-3,-9.243034E-4,-7.082689E-3,-3.524768E-3,3.1388653E-3,-6.929185E-4,4.2990088E-3,6.8034576E-3],"split_indices":[3,55,81,28,3,29,3,0,0,0,0,0,0,0,0],"split_type":[0,0,0,0,0,0,0,0,0,0,0,0,0,0,0],"sum_hessian":[6.313566E3,2.1599941E3,4.153572E3,6.963095E2,1.4636847E3,2.0996729E3,2.0538987E3,3.8434613E2,3.1196338E2,2.5535738E2,1.2083273E3,1.0038869E3,1.095786E3,9.237062E2,1.1301925E3],"tree_param":{"num_deleted":"0","num_feature":"106","num_nodes":"15","size_leaf_vector":"1"}},{"base_weights":[-1.3878557E-1,1.8177465E-1,-3.7054345E-1,-1.0319053E-1,4.0083233E-1,-1.08698614E-1,-5.647125E-1,-2.87243E-3,1.162096E-3,5.149684E-3,2.305626E-3,-3.8081731E-3,4.2894444E-5,-6.9081634E-3,-4.421657E-3],"categories":[],"categories_nodes":[],"categories_segments":[],"categories_sizes":[],"default_left":[0,0,0,0,0,0,0,0,0,0,0,0,0,0,0],"id":18,"left_children":[1,3,5,7,9,11,13,-1,-1,-1,-1,-1,-1,-1,-1],"loss_changes":[4.6905676E2,1.6543713E2,1.8623413E2,4.6566353E1,2.8997528E1,4.8009872E1,3.220514E1,0E0,0E0,0E0,0E0,0E0,0E0,0E0,0E0],"parents":[2147483647,0,0,1,1,2,2,3,3,4,4,5,5,6,6],"right_children":[2,4,6,8,10,12,14,-1,-1,-1,-1,-1,-1,-1,-1],"split_conditions":[4.89E-1,4.93E-1,1.2E1,2.4E1,3.96E-1,5E0,4.07E-1,-2.87243E-3,1.162096E-3,5.149684E-3,2.305626E-3,-3.8081731E-3,4.2894444E-5,-6.9081634E-3,-4.421657E-3],"split_indices":[3,55,80,28,3,28,55,0,0,0,0,0,0,0,0],"split_type":[0,0,0,0,0,0,0,0,0,0,0,0,0,0,0],"sum_hessian":[6.311755E3,2.6485625E3,3.6631924E3,1.1513442E3,1.4972183E3,1.5604381E3,2.1027542E3,6.2594025E2,5.25404E2,8.951514E2,6.0206683E2,4.5712787E2,1.1033103E3,1.0340516E3,1.0687026E3],"tree_param":{"num_deleted":"0","num_feature":"106","num_nodes":"15","size_leaf_vector":"1"}},{"base_weights":[1.387856E-1,-1.817746E-1,3.705435E-1,1.0319058E-1,-4.0083227E-1,1.08698666E-1,5.647126E-1,2.8724303E-3,-1.1620951E-3,-5.1496834E-3,-2.3056252E-3,3.8081743E-3,-4.2894048E-5,6.9081634E-3,4.4216574E-3],"categories":[],"categories_nodes":[],"categories_segments":[],"categories_sizes":[],"default_left":[0,0,0,0,0,0,0,0,0,0,0,0,0,0,0],"id":19,"left_children":[1,3,5,7,9,11,13,-1,-1,-1,-1,-1,-1,-1,-1],"loss_changes":[4.6905682E2,1.6543713E2,1.8623413E2,4.6566334E1,2.8997513E1,4.8009884E1,3.220514E1,0E0,0E0,0E0,0E0,0E0,0E0,0E0,0E0],"parents":[2147483647,0,0,1,1,2,2,3,3,4,4,5,5,6,6],"right_children":[2,4,6,8,10,12,14,-1,-1,-1,-1,-1,-1,-1,-1],"split_conditions":[4.89E-1,4.93E-1,1.2E1,2.4E1,3.96E-1,5E0,4.07E-1,2.8724303E-3,-1.1620951E-3,-5.1496834E-3,-2.3056252E-3,3.8081743E-3,-4.2894048E-5,6.9081634E-3,4.4216574E-3],"split_indices":[3,55,80,28,3,28,55,0,0,0,0,0,0,0,0],"split_type":[0,0,0,0,0,0,0,0,0,0,0,0,0,0,0],"sum_hessian":[6.311755E3,2.6485625E3,3.6631924E3,1.1513442E3,1.4972183E3,1.5604381E3,2.1027542E3,6.2594025E2,5.2540393E2,8.951514E2,6.0206683E2,4.5712787E2,1.1033103E3,1.0340516E3,1.0687025E3],"tree_param":{"num_deleted":"0","num_feature":"106","num_nodes":"15","size_leaf_vector":"1"}},{"base_weights":[-1.3744442E-1,2.1870883E-1,-3.420676E-1,-1.4163202E-1,3.895897E-1,-8.305845E-2,-5.333266E-1,-3.0946096E-3,8.863084E-4,6.975577E-3,3.2899498E-3,-2.6543078E-3,9.1849937E-4,-6.9896285E-3,-4.333797E-3],"categories":[],"categories_nodes":[],"categories_segments":[],"categories_sizes":[],"default_left":[0,0,0,0,0,0,0,0,0,0,0,0,0,0,0],"id":20,"left_children":[1,3,5,7,9,11,13,-1,-1,-1,-1,-1,-1,-1,-1],"loss_changes":[4.599812E2,1.418841E2,1.9852133E2,2.8688725E1,2.8932007E1,5.4373104E1,3.7865173E1,0E0,0E0,0E0,0E0,0E0,0E0,0E0,0E0],"parents":[2147483647,0,0,1,1,2,2,3,3,4,4,5,5,6,6],"right_children":[2,4,6,8,10,12,14,-1,-1,-1,-1,-1,-1,-1,-1],"split_conditions":[4.59E-1,4.33E-1,1.2E1,2.5E1,2.31E-1,9E0,3.68E-1,-3.0946096E-3,8.863084E-4,6.975577E-3,3.2899498E-3,-2.6543078E-3,9.1849937E-4,-6.9896285E-3,-4.333797E-3],"split_indices":[3,55,80,28,3,29,55,0,0,0,0,0,0,0,0],"split_type":[0,0,0,0,0,0,0,0,0,0,0,0,0,0,0],"sum_hessian":[6.309702E3,2.3023389E3,4.0073633E3,7.406604E2,1.5616783E3,1.7028046E3,2.3045588E3,4.2821124E2,3.1244916E2,2.5502438E2,1.3066539E3,8.3336224E2,8.6944226E2,8.6501935E2,1.4395396E3],"tree_param":{"num_deleted":"0","num_feature":"106","num_nodes":"15","size_leaf_vector":"1"}},{"base_weights":[1.374444E-1,-2.1870884E-1,3.4206763E-1,1.41632E-1,-3.895897E-1,8.305848E-2,5.333266E-1,3.0946087E-3,-8.863076E-4,-6.975577E-3,-3.2899498E-3,2.654308E-3,-9.184989E-4,6.989628E-3,4.333797E-3],"categories":[],"categories_nodes":[],"categories_segments":[],"categories_sizes":[],"default_left":[0,0,0,0,0,0,0,0,0,0,0,0,0,0,0],"id":21,"left_children":[1,3,5,7,9,11,13,-1,-1,-1,-1,-1,-1,-1,-1],"loss_changes":[4.5998126E2,1.4188408E2,1.9852127E2,2.8688704E1,2.8932007E1,5.4373096E1,3.7865234E1,0E0,0E0,0E0,0E0,0E0,0E0,0E0,0E0],"parents":[2147483647,0,0,1,1,2,2,3,3,4,4,5,5,6,6],"right_children":[2,4,6,8,10,12,14,-1,-1,-1,-1,-1,-1,-1,-1],"split_conditions":[4.59E-1,4.33E-1,1.2E1,2.5E1,2.31E-1,9E0,3.68E-1,3.0946087E-3,-8.863076E-4,-6.975577E-3,-3.2899498E-3,2.654308E-3,-9.184989E-4,6.989628E-3,4.333797E-3],"split_indices":[3,55,80,28,3,29,55,0,0,0,0,0,0,0,0],"split_type":[0,0,0,0,0,0,0,0,0,0,0,0,0,0,0],"sum_hessian":[6.309702E3,2.3023389E3,4.0073633E3,7.406604E2,1.5616783E3,1.7028044E3,2.3045588E3,4.2821124E2,3.124492E2,2.5502438E2,1.3066539E3,8.333622E2,8.694422E2,8.650194E2,1.4395396E3],"tree_param":{"num_deleted":"0","num_feature":"106","num_nodes":"15","size_leaf_vector":"1"}},{"base_weights":[-1.3611914E-1,1.3391432E-1,-4.0152586E-1,-1.5029067E-1,3.5526416E-1,-1.5119198E-1,-5.8634585E-1,-3.1458747E-3,1.1368684E-3,5.0611733E-3,1.9858615E-3,-3.745312E-3,-3.6846392E-4,-7.0758844E-3,-4.7095343E-3],"categories":[],"categories_nodes":[],"categories_segments":[],"categories_sizes":[],"default_left":[0,0,0,0,0,0,0,0,0,0,0,0,0,0,0],"id":22,"left_children":[1,3,5,7,9,11,13,-1,-1,-1,-1,-1,-1,-1,-1],"loss_changes":[4.5217456E2,1.9681528E2,1.471203E2,5.945948E1,4.1464645E1,3.4531517E1,2.5269897E1,0E0,0E0,0E0,0E0,0E0,0E0,0E0,0E0],"parents":[2147483647,0,0,1,1,2,2,3,3,4,4,5,5,6,6],"right_children":[2,4,6,8,10,12,14,-1,-1,-1,-1,-1,-1,-1,-1],"split_conditions":[5.14E-1,4.93E-1,1.2E1,2.4E1,3.96E-1,5E0,4.07E-1,-3.1458747E-3,1.1368684E-3,5.0611733E-3,1.9858615E-3,-3.745312E-3,-3.6846392E-4,-7.0758844E-3,-4.7095343E-3],"split_indices":[3,55,80,28,3,28,55,0,0,0,0,0,0,0,0],"split_type":[0,0,0,0,0,0,0,0,0,0,0,0,0,0,0],"sum_hessian":[6.3074834E3,3.1267356E3,3.1807478E3,1.3691364E3,1.7575992E3,1.35171E3,1.8290378E3,8.43783E2,5.2535333E2,8.943085E2,8.6329083E2,4.5694055E2,8.947695E2,8.8940717E2,9.396306E2],"tree_param":{"num_deleted":"0","num_feature":"106","num_nodes":"15","size_leaf_vector":"1"}},{"base_weights":[1.3611913E-1,-1.3391432E-1,4.015258E-1,1.5029065E-1,-3.5526416E-1,1.5119195E-1,5.863458E-1,3.1458745E-3,-1.1368683E-3,-5.061173E-3,-1.9858617E-3,3.745312E-3,3.6846343E-4,7.0758834E-3,4.709534E-3],"categories":[],"categories_nodes":[],"categories_segments":[],"categories_sizes":[],"default_left":[0,0,0,0,0,0,0,0,0,0,0,0,0,0,0],"id":23,"left_children":[1,3,5,7,9,11,13,-1,-1,-1,-1,-1,-1,-1,-1],"loss_changes":[4.5217447E2,1.9681525E2,1.471203E2,5.945948E1,4.1464615E1,3.453152E1,2.5269897E1,0E0,0E0,0E0,0E0,0E0,0E0,0E0,0E0],"parents":[2147483647,0,0,1,1,2,2,3,3,4,4,5,5,6,6],"right_children":[2,4,6,8,10,12,14,-1,-1,-1,-1,-1,-1,-1,-1],"split_conditions":[5.14E-1,4.93E-1,1.2E1,2.4E1,3.96E-1,5E0,4.07E-1,3.1458745E-3,-1.1368683E-3,-5.061173E-3,-1.9858617E-3,3.745312E-3,3.6846343E-4,7.0758834E-3,4.709534E-3],"split_indices":[3,55,80,28,3,28,55,0,0,0,0,0,0,0,0],"split_type":[0,0,0,0,0,0,0,0,0,0,0,0,0,0,0],"sum_hessian":[6.3074834E3,3.1267356E3,3.1807478E3,1.3691364E3,1.7575992E3,1.35171E3,1.8290378E3,8.43783E2,5.2535333E2,8.943085E2,8.632908E2,4.5694055E2,8.947694E2,8.894072E2,9.396306E2],"tree_param":{"num_deleted":"0","num_feature":"106","num_nodes":"15","size_leaf_vector":"1"}},{"base_weights":[-1.3481149E-1,1.3261153E-1,-3.9771515E-1,-1.4881575E-1,3.518303E-1,-1.4969759E-1,-5.8095324E-1,-3.1152915E-3,1.1255555E-3,5.0134636E-3,1.9661728E-3,-2.4571482E-3,1.1445651E-3,-7.0130634E-3,-4.664793E-3],"categories":[],"categories_nodes":[],"categories_segments":[],"categories_sizes":[],"default_left":[0,0,0,0,0,0,0,0,0,0,0,0,0,0,0],"id":24,"left_children":[1,3,5,7,9,11,13,-1,-1,-1,-1,-1,-1,-1,-1],"loss_changes":[4.4341162E2,1.9296524E2,1.4443954E2,5.8294773E1,4.0699707E1,3.4334084E1,2.4865784E1,0E0,0E0,0E0,0E0,0E0,0E0,0E0,0E0],"parents":[2147483647,0,0,1,1,2,2,3,3,4,4,5,5,6,6],"right_children":[2,4,6,8,10,12,14,-1,-1,-1,-1,-1,-1,-1,-1],"split_conditions":[5.14E-1,4.93E-1,1.2E1,2.4E1,3.96E-1,6.2E0,4.07E-1,-3.1152915E-3,1.1255555E-3,5.0134636E-3,1.9661728E-3,-2.4571482E-3,1.1445651E-3,-7.0130634E-3,-4.664793E-3],"split_indices":[3,55,80,28,3,77,55,0,0,0,0,0,0,0,0],"split_type":[0,0,0,0,0,0,0,0,0,0,0,0,0,0,0],"sum_hessian":[6.3050864E3,3.1259236E3,3.1791628E3,1.3688943E3,1.7570293E3,1.3515802E3,1.8275826E3,8.4355676E2,5.253375E2,8.9380286E2,8.6322644E2,9.9131683E2,3.602634E2,8.884143E2,9.3916833E2],"tree_param":{"num_deleted":"0","num_feature":"106","num_nodes":"15","size_leaf_vector":"1"}},{"base_weights":[1.3481149E-1,-1.3261154E-1,3.9771518E-1,1.4881577E-1,-3.5183033E-1,1.4969765E-1,5.8095324E-1,3.1152915E-3,-1.1255553E-3,-5.0134636E-3,-1.9661733E-3,2.4571486E-3,-1.1445645E-3,7.013064E-3,4.6647927E-3],"categories":[],"categories_nodes":[],"categories_segments":[],"categories_sizes":[],"default_left":[0,0,0,0,0,0,0,0,0,0,0,0,0,0,0],"id":25,"left_children":[1,3,5,7,9,11,13,-1,-1,-1,-1,-1,-1,-1,-1],"loss_changes":[4.434116E2,1.9296527E2,1.4443951E2,5.8294765E1,4.0699707E1,3.4334076E1,2.4865784E1,0E0,0E0,0E0,0E0,0E0,0E0,0E0,0E0],"parents":[2147483647,0,0,1,1,2,2,3,3,4,4,5,5,6,6],"right_children":[2,4,6,8,10,12,14,-1,-1,-1,-1,-1,-1,-1,-1],"split_conditions":[5.14E-1,4.93E-1,1.2E1,2.4E1,3.96E-1,6.2E0,4.07E-1,3.1152915E-3,-1.1255553E-3,-5.0134636E-3,-1.9661733E-3,2.4571486E-3,-1.1445645E-3,7.013064E-3,4.6647927E-3],"split_indices":[3,55,80,28,3,77,55,0,0,0,0,0,0,0,0],"split_type":[0,0,0,0,0,0,0,0,0,0,0,0,0,0,0],"sum_hessian":[6.3050864E3,3.1259236E3,3.1791628E3,1.3688943E3,1.7570292E3,1.3515802E3,1.8275826E3,8.435567E2,5.253375E2,8.938028E2,8.6322644E2,9.9131683E2,3.6026337E2,8.8841425E2,9.3916833E2],"tree_param":{"num_deleted":"0","num_feature":"106","num_nodes":"15","size_leaf_vector":"1"}},{"base_weights":[-1.3351862E-1,2.3066957E-1,-3.230256E-1,-1.1876271E-1,3.9708993E-1,-1.0829003E-1,-5.430093E-1,-2.8585303E-3,8.7223557E-4,6.832221E-3,3.362343E-3,-3.0089845E-3,6.815698E-4,-4.0836926E-3,-6.5274034E-3],"categories":[],"categories_nodes":[],"categories_segments":[],"categories_sizes":[],"default_left":[0,0,0,0,0,0,0,0,0,0,0,0,0,0,0],"id":26,"left_children":[1,3,5,7,9,11,13,-1,-1,-1,-1,-1,-1,-1,-1],"loss_changes":[4.3512277E2,1.2554256E2,1.958164E2,2.4013737E1,2.5228699E1,7.137392E1,2.9990845E1,0E0,0E0,0E0,0E0,0E0,0E0,0E0,0E0],"parents":[2147483647,0,0,1,1,2,2,3,3,4,4,5,5,6,6],"right_children":[2,4,6,8,10,12,14,-1,-1,-1,-1,-1,-1,-1,-1],"split_conditions":[4.47E-1,4.33E-1,1.5E1,2.5E1,2.31E-1,9E0,5.77E-1,-2.8585303E-3,8.7223557E-4,6.832221E-3,3.362343E-3,-3.0089845E-3,6.815698E-4,-4.0836926E-3,-6.5274034E-3],"split_indices":[3,55,81,28,3,29,3,0,0,0,0,0,0,0,0],"split_type":[0,0,0,0,0,0,0,0,0,0,0,0,0,0,0],"sum_hessian":[6.302567E3,2.1570342E3,4.1455327E3,6.959779E2,1.4610562E3,2.0985447E3,2.0469882E3,3.8405527E2,3.1192267E2,2.544502E2,1.206606E3,1.00298615E3,1.0955586E3,9.212888E2,1.1256993E3],"tree_param":{"num_deleted":"0","num_feature":"106","num_nodes":"15","size_leaf_vector":"1"}},{"base_weights":[1.335186E-1,-2.3066962E-1,3.230256E-1,1.18762694E-1,-3.9709E-1,1.08289994E-1,5.4300934E-1,2.8585305E-3,-8.722363E-4,-6.832221E-3,-3.3623439E-3,3.0089843E-3,-6.8157015E-4,4.083693E-3,6.527404E-3],"categories":[],"categories_nodes":[],"categories_segments":[],"categories_sizes":[],"default_left":[0,0,0,0,0,0,0,0,0,0,0,0,0,0,0],"id":27,"left_children":[1,3,5,7,9,11,13,-1,-1,-1,-1,-1,-1,-1,-1],"loss_changes":[4.3512292E2,1.25542595E2,1.958165E2,2.401375E1,2.5228683E1,7.1373924E1,2.9990784E1,0E0,0E0,0E0,0E0,0E0,0E0,0E0,0E0],"parents":[2147483647,0,0,1,1,2,2,3,3,4,4,5,5,6,6],"right_children":[2,4,6,8,10,12,14,-1,-1,-1,-1,-1,-1,-1,-1],"split_conditions":[4.47E-1,4.33E-1,1.5E1,2.5E1,2.31E-1,9E0,5.77E-1,2.8585305E-3,-8.722363E-4,-6.832221E-3,-3.3623439E-3,3.0089843E-3,-6.8157015E-4,4.083693E-3,6.527404E-3],"split_indices":[3,55,81,28,3,29,3,0,0,0,0,0,0,0,0],"split_type":[0,0,0,0,0,0,0,0,0,0,0,0,0,0,0],"sum_hessian":[6.302567E3,2.157034E3,4.1455327E3,6.9597797E2,1.461056E3,2.0985447E3,2.0469882E3,3.840553E2,3.1192264E2,2.5445021E2,1.2066058E3,1.00298615E3,1.0955586E3,9.212888E2,1.1256993E3],"tree_param":{"num_deleted":"0","num_feature":"106","num_nodes":"15","size_leaf_vector":"1"}},{"base_weights":[-1.3224101E-1,1.3028704E-1,-3.9045307E-1,-1.4617856E-1,3.4570163E-1,-1.4660892E-1,-5.708794E-1,-3.057751E-3,1.1005909E-3,4.9272627E-3,1.9322477E-3,-2.4165974E-3,1.1484411E-3,-6.900228E-3,-4.5769117E-3],"categories":[],"categories_nodes":[],"categories_segments":[],"categories_sizes":[],"default_left":[0,0,0,0,0,0,0,0,0,0,0,0,0,0,0],"id":28,"left_children":[1,3,5,7,9,11,13,-1,-1,-1,-1,-1,-1,-1,-1],"loss_changes":[4.271748E2,1.8616391E2,1.3968268E2,5.6030888E1,3.9287964E1,3.3634747E1,2.4302002E1,0E0,0E0,0E0,0E0,0E0,0E0,0E0,0E0],"parents":[2147483647,0,0,1,1,2,2,3,3,4,4,5,5,6,6],"right_children":[2,4,6,8,10,12,14,-1,-1,-1,-1,-1,-1,-1,-1],"split_conditions":[5.14E-1,4.93E-1,1.2E1,2.4E1,3.96E-1,6.2E0,4.07E-1,-3.057751E-3,1.1005909E-3,4.9272627E-3,1.9322477E-3,-2.4165974E-3,1.1484411E-3,-6.900228E-3,-4.5769117E-3],"split_indices":[3,55,80,28,3,77,55,0,0,0,0,0,0,0,0],"split_type":[0,0,0,0,0,0,0,0,0,0,0,0,0,0,0],"sum_hessian":[6.2998867E3,3.1240818E3,3.175805E3,1.3683048E3,1.7557769E3,1.3513215E3,1.8244834E3,8.4303235E2,5.2527246E2,8.927337E2,8.630432E2,9.910885E2,3.60233E2,8.863759E2,9.3810754E2],"tree_param":{"num_deleted":"0","num_feature":"106","num_nodes":"15","size_leaf_vector":"1"}},{"base_weights":[1.3224101E-1,-1.3028702E-1,3.9045307E-1,1.461786E-1,-3.4570166E-1,1.466089E-1,5.708794E-1,3.057751E-3,-1.1005901E-3,-4.927263E-3,-1.9322477E-3,2.4165974E-3,-1.148441E-3,6.900228E-3,4.5769117E-3],"categories":[],"categories_nodes":[],"categories_segments":[],"categories_sizes":[],"default_left":[0,0,0,0,0,0,0,0,0,0,0,0,0,0,0],"id":29,"left_children":[1,3,5,7,9,11,13,-1,-1,-1,-1,-1,-1,-1,-1],"loss_changes":[4.2717474E2,1.8616396E2,1.3968271E2,5.603088E1,3.9287964E1,3.3634743E1,2.430194E1,0E0,0E0,0E0,0E0,0E0,0E0,0E0,0E0],"parents":[2147483647,0,0,1,1,2,2,3,3,4,4,5,5,6,6],"right_children":[2,4,6,8,10,12,14,-1,-1,-1,-1,-1,-1,-1,-1],"split_conditions":[5.14E-1,4.93E-1,1.2E1,2.4E1,3.96E-1,6.2E0,4.07E-1,3.057751E-3,-1.1005901E-3,-4.927263E-3,-1.9322477E-3,2.4165974E-3,-1.148441E-3,6.900228E-3,4.5769117E-3],"split_indices":[3,55,80,28,3,77,55,0,0,0,0,0,0,0,0],"split_type":[0,0,0,0,0,0,0,0,0,0,0,0,0,0,0],"sum_hessian":[6.2998867E3,3.1240818E3,3.175805E3,1.3683049E3,1.7557769E3,1.3513215E3,1.8244835E3,8.4303235E2,5.252725E2,8.927337E2,8.630432E2,9.910885E2,3.60233E2,8.863759E2,9.3810754E2],"tree_param":{"num_deleted":"0","num_feature":"106","num_nodes":"15","size_leaf_vector":"1"}},{"base_weights":[-1.309798E-1,1.7226598E-1,-3.5045558E-1,-9.727017E-2,3.797704E-1,-1.0226553E-1,-5.3523976E-1,-2.3006112E-3,1.7525661E-3,5.8271335E-3,2.9012414E-3,-3.6502779E-3,6.724275E-5,-6.5671E-3,-4.176E-3],"categories":[],"categories_nodes":[],"categories_segments":[],"categories_sizes":[],"default_left":[0,0,0,0,0,0,0,0,0,0,0,0,0,0,0],"id":30,"left_children":[1,3,5,7,9,11,13,-1,-1,-1,-1,-1,-1,-1,-1],"loss_changes":[4.1922678E2,1.4797359E2,1.6752359E2,4.1706287E1,2.7024002E1,4.4698013E1,2.9652954E1,0E0,0E0,0E0,0E0,0E0,0E0,0E0,0E0],"parents":[2147483647,0,0,1,1,2,2,3,3,4,4,5,5,6,6],"right_children":[2,4,6,8,10,12,14,-1,-1,-1,-1,-1,-1,-1,-1],"split_conditions":[4.89E-1,4.93E-1,1.2E1,2.6E1,-5.9E0,5E0,4.07E-1,-2.3006112E-3,1.7525661E-3,5.8271335E-3,2.9012414E-3,-3.6502779E-3,6.724275E-5,-6.5671E-3,-4.176E-3],"split_indices":[3,55,80,28,25,28,55,0,0,0,0,0,0,0,0],"split_type":[0,0,0,0,0,0,0,0,0,0,0,0,0,0,0],"sum_hessian":[6.2970356E3,2.6440347E3,3.653001E3,1.1503406E3,1.4936941E3,1.559686E3,2.093315E3,7.7356866E2,3.76772E2,4.55967E2,1.037727E3,4.565781E2,1.1031079E3,1.0276355E3,1.0656793E3],"tree_param":{"num_deleted":"0","num_feature":"106","num_nodes":"15","size_leaf_vector":"1"}},{"base_weights":[1.309798E-1,-1.7226599E-1,3.5045558E-1,9.7270176E-2,-3.7977043E-1,1.02265514E-1,5.352398E-1,2.3006115E-3,-1.7525667E-3,-5.8271335E-3,-2.901242E-3,3.6502779E-3,-6.724294E-5,6.5671E-3,4.176001E-3],"categories":[],"categories_nodes":[],"categories_segments":[],"categories_sizes":[],"default_left":[0,0,0,0,0,0,0,0,0,0,0,0,0,0,0],"id":31,"left_children":[1,3,5,7,9,11,13,-1,-1,-1,-1,-1,-1,-1,-1],"loss_changes":[4.1922684E2,1.479736E2,1.6752362E2,4.1706306E1,2.7024017E1,4.4698013E1,2.9652954E1,0E0,0E0,0E0,0E0,0E0,0E0,0E0,0E0],"parents":[2147483647,0,0,1,1,2,2,3,3,4,4,5,5,6,6],"right_children":[2,4,6,8,10,12,14,-1,-1,-1,-1,-1,-1,-1,-1],"split_conditions":[4.89E-1,4.93E-1,1.2E1,2.6E1,-5.9E0,5E0,4.07E-1,2.3006115E-3,-1.7525667E-3,-5.8271335E-3,-2.901242E-3,3.6502779E-3,-6.724294E-5,6.5671E-3,4.176001E-3],"split_indices":[3,55,80,28,25,28,55,0,0,0,0,0,0,0,0],"split_type":[0,0,0,0,0,0,0,0,0,0,0,0,0,0,0],"sum_hessian":[6.2970356E3,2.6440347E3,3.653001E3,1.1503406E3,1.4936942E3,1.559686E3,2.093315E3,7.7356866E2,3.76772E2,4.55967E2,1.0377272E3,4.565781E2,1.1031079E3,1.0276356E3,1.0656793E3],"tree_param":{"num_deleted":"0","num_feature":"106","num_nodes":"15","size_leaf_vector":"1"}},{"base_weights":[-1.2973447E-1,1.2808321E-1,-3.8344654E-1,-1.4305882E-1,3.3942276E-1,-1.4398265E-1,-5.609442E-1,-2.9975474E-3,1.0836539E-3,4.8411433E-3,1.895314E-3,-2.380964E-3,1.1484585E-3,-6.7844614E-3,-4.4948864E-3],"categories":[],"categories_nodes":[],"categories_segments":[],"categories_sizes":[],"default_left":[0,0,0,0,0,0,0,0,0,0,0,0,0,0,0],"id":32,"left_children":[1,3,5,7,9,11,13,-1,-1,-1,-1,-1,-1,-1,-1],"loss_changes":[4.1181345E2,1.7900485E2,1.3478555E2,5.395342E1,3.797789E1,3.2962914E1,2.3555603E1,0E0,0E0,0E0,0E0,0E0,0E0,0E0,0E0],"parents":[2147483647,0,0,1,1,2,2,3,3,4,4,5,5,6,6],"right_children":[2,4,6,8,10,12,14,-1,-1,-1,-1,-1,-1,-1,-1],"split_conditions":[5.14E-1,4.93E-1,1.2E1,2.4E1,3.96E-1,6.2E0,4.07E-1,-2.9975474E-3,1.0836539E-3,4.8411433E-3,1.895314E-3,-2.380964E-3,1.1484585E-3,-6.7844614E-3,-4.4948864E-3],"split_indices":[3,55,80,28,3,77,55,0,0,0,0,0,0,0,0],"split_type":[0,0,0,0,0,0,0,0,0,0,0,0,0,0,0],"sum_hessian":[6.2939873E3,3.121981E3,3.1720063E3,1.3676508E3,1.7543301E3,1.3510724E3,1.8209341E3,8.424289E2,5.252219E2,8.915137E2,8.628164E2,9.9086115E2,3.602112E2,8.839464E2,9.369876E2],"tree_param":{"num_deleted":"0","num_feature":"106","num_nodes":"15","size_leaf_vector":"1"}},{"base_weights":[1.2973449E-1,-1.2808321E-1,3.8344654E-1,1.4305879E-1,-3.3942273E-1,1.4398259E-1,5.6094426E-1,2.9975474E-3,-1.0836545E-3,-4.841143E-3,-1.895314E-3,2.3809634E-3,-1.148459E-3,6.784463E-3,4.4948873E-3],"categories":[],"categories_nodes":[],"categories_segments":[],"categories_sizes":[],"default_left":[0,0,0,0,0,0,0,0,0,0,0,0,0,0,0],"id":33,"left_children":[1,3,5,7,9,11,13,-1,-1,-1,-1,-1,-1,-1,-1],"loss_changes":[4.1181342E2,1.7900479E2,1.3478568E2,5.395343E1,3.7977844E1,3.2962906E1,2.3555542E1,0E0,0E0,0E0,0E0,0E0,0E0,0E0,0E0],"parents":[2147483647,0,0,1,1,2,2,3,3,4,4,5,5,6,6],"right_children":[2,4,6,8,10,12,14,-1,-1,-1,-1,-1,-1,-1,-1],"split_conditions":[5.14E-1,4.93E-1,1.2E1,2.4E1,3.96E-1,6.2E0,4.07E-1,2.9975474E-3,-1.0836545E-3,-4.841143E-3,-1.895314E-3,2.3809634E-3,-1.148459E-3,6.784463E-3,4.4948873E-3],"split_indices":[3,55,80,28,3,77,55,0,0,0,0,0,0,0,0],"split_type":[0,0,0,0,0,0,0,0,0,0,0,0,0,0,0],"sum_hessian":[6.2939873E3,3.1219807E3,3.1720066E3,1.3676508E3,1.7543301E3,1.3510724E3,1.8209341E3,8.424289E2,5.2522186E2,8.915137E2,8.6281635E2,9.9086115E2,3.602112E2,8.839465E2,9.369876E2],"tree_param":{"num_deleted":"0","num_feature":"106","num_nodes":"15","size_leaf_vector":"1"}},{"base_weights":[-1.2850383E-1,2.2271147E-1,-3.1136802E-1,-1.1524503E-1,3.8389453E-1,-1.0414164E-1,-5.2431846E-1,-2.7617943E-3,8.3026354E-4,6.652748E-3,3.2417935E-3,-2.9180062E-3,6.765333E-4,-3.926661E-3,-6.3180826E-3],"categories":[],"categories_nodes":[],"categories_segments":[],"categories_sizes":[],"default_left":[0,0,0,0,0,0,0,0,0,0,0,0,0,0,0],"id":34,"left_children":[1,3,5,7,9,11,13,-1,-1,-1,-1,-1,-1,-1,-1],"loss_changes":[4.0415942E2,1.1742493E2,1.8254977E2,2.225104E1,2.4303299E1,6.76704E1,2.8628296E1,0E0,0E0,0E0,0E0,0E0,0E0,0E0,0E0],"parents":[2147483647,0,0,1,1,2,2,3,3,4,4,5,5,6,6],"right_children":[2,4,6,8,10,12,14,-1,-1,-1,-1,-1,-1,-1,-1],"split_conditions":[4.47E-1,4.33E-1,1.5E1,2.5E1,2.31E-1,9E0,5.77E-1,-2.7617943E-3,8.3026354E-4,6.652748E-3,3.2417935E-3,-2.9180062E-3,6.765333E-4,-3.926661E-3,-6.3180826E-3],"split_indices":[3,55,81,28,3,29,3,0,0,0,0,0,0,0,0],"split_type":[0,0,0,0,0,0,0,0,0,0,0,0,0,0,0],"sum_hessian":[6.290818E3,2.153847E3,4.136971E3,6.956162E2,1.4582307E3,2.0974192E3,2.0395518E3,3.837435E2,3.118727E2,2.5351538E2,1.2047153E3,1.0020924E3,1.0953268E3,9.188307E2,1.1207212E3],"tree_param":{"num_deleted":"0","num_feature":"106","num_nodes":"15","size_leaf_vector":"1"}},{"base_weights":[1.285038E-1,-2.227115E-1,3.11368E-1,1.1524503E-1,-3.8389456E-1,1.0414161E-1,5.2431846E-1,2.761795E-3,-8.302645E-4,-6.652748E-3,-3.2417937E-3,2.9180055E-3,-6.7653344E-4,3.926661E-3,6.318082E-3],"categories":[],"categories_nodes":[],"categories_segments":[],"categories_sizes":[],"default_left":[0,0,0,0,0,0,0,0,0,0,0,0,0,0,0],"id":35,"left_children":[1,3,5,7,9,11,13,-1,-1,-1,-1,-1,-1,-1,-1],"loss_changes":[4.0415942E2,1.1742492E2,1.825498E2,2.225106E1,2.4303314E1,6.767039E1,2.8628296E1,0E0,0E0,0E0,0E0,0E0,0E0,0E0,0E0],"parents":[2147483647,0,0,1,1,2,2,3,3,4,4,5,5,6,6],"right_children":[2,4,6,8,10,12,14,-1,-1,-1,-1,-1,-1,-1,-1],"split_conditions":[4.47E-1,4.33E-1,1.5E1,2.5E1,2.31E-1,9E0,5.77E-1,2.761795E-3,-8.302645E-4,-6.652748E-3,-3.2417937E-3,2.9180055E-3,-6.7653344E-4,3.926661E-3,6.318082E-3],"split_indices":[3,55,81,28,3,29,3,0,0,0,0,0,0,0,0],"split_type":[0,0,0,0,0,0,0,0,0,0,0,0,0,0,0],"sum_hessian":[6.290818E3,2.153847E3,4.136971E3,6.956162E2,1.4582307E3,2.0974192E3,2.0395518E3,3.8374347E2,3.118727E2,2.5351537E2,1.2047153E3,1.00209235E3,1.0953268E3,9.188307E2,1.1207212E3],"tree_param":{"num_deleted":"0","num_feature":"106","num_nodes":"15","size_leaf_vector":"1"}},{"base_weights":[-1.2728654E-1,1.2585017E-1,-3.7654066E-1,-1.405355E-1,3.335584E-1,-1.410125E-1,-5.514503E-1,-2.942543E-3,1.0596595E-3,4.759221E-3,1.8625915E-3,-3.5726225E-3,-3.04495E-4,-6.679197E-3,-4.411371E-3],"categories":[],"categories_nodes":[],"categories_segments":[],"categories_sizes":[],"default_left":[0,0,0,0,0,0,0,0,0,0,0,0,0,0,0],"id":36,"left_children":[1,3,5,7,9,11,13,-1,-1,-1,-1,-1,-1,-1,-1],"loss_changes":[3.9682513E2,1.7271786E2,1.3046542E2,5.1865105E1,3.66882E1,3.2308372E1,2.3064087E1,0E0,0E0,0E0,0E0,0E0,0E0,0E0,0E0],"parents":[2147483647,0,0,1,1,2,2,3,3,4,4,5,5,6,6],"right_children":[2,4,6,8,10,12,14,-1,-1,-1,-1,-1,-1,-1,-1],"split_conditions":[5.14E-1,4.93E-1,1.2E1,2.4E1,3.96E-1,5E0,4.07E-1,-2.942543E-3,1.0596595E-3,4.759221E-3,1.8625915E-3,-3.5726225E-3,-3.04495E-4,-6.679197E-3,-4.411371E-3],"split_indices":[3,55,80,28,3,28,55,0,0,0,0,0,0,0,0],"split_type":[0,0,0,0,0,0,0,0,0,0,0,0,0,0,0],"sum_hessian":[6.28754E3,3.11972E3,3.16782E3,1.3669415E3,1.7527783E3,1.3507483E3,1.8170717E3,8.417998E2,5.251418E2,8.901874E2,8.6259094E2,4.5621255E2,8.9453577E2,8.814141E2,9.3565753E2],"tree_param":{"num_deleted":"0","num_feature":"106","num_nodes":"15","size_leaf_vector":"1"}},{"base_weights":[1.2728652E-1,-1.258502E-1,3.765407E-1,1.4053547E-1,-3.3355844E-1,1.4101252E-1,5.514503E-1,2.9425423E-3,-1.0596594E-3,-4.7592213E-3,-1.8625917E-3,3.5726225E-3,3.0449525E-4,6.6791973E-3,4.411371E-3],"categories":[],"categories_nodes":[],"categories_segments":[],"categories_sizes":[],"default_left":[0,0,0,0,0,0,0,0,0,0,0,0,0,0,0],"id":37,"left_children":[1,3,5,7,9,11,13,-1,-1,-1,-1,-1,-1,-1,-1],"loss_changes":[3.9682523E2,1.7271788E2,1.3046548E2,5.186508E1,3.6688217E1,3.230837E1,2.3064087E1,0E0,0E0,0E0,0E0,0E0,0E0,0E0,0E0],"parents":[2147483647,0,0,1,1,2,2,3,3,4,4,5,5,6,6],"right_children":[2,4,6,8,10,12,14,-1,-1,-1,-1,-1,-1,-1,-1],"split_conditions":[5.14E-1,4.93E-1,1.2E1,2.4E1,3.96E-1,5E0,4.07E-1,2.9425423E-3,-1.0596594E-3,-4.7592213E-3,-1.8625917E-3,3.5726225E-3,3.0449525E-4,6.6791973E-3,4.411371E-3],"split_indices":[3,55,80,28,3,28,55,0,0,0,0,0,0,0,0],"split_type":[0,0,0,0,0,0,0,0,0,0,0,0,0,0,0],"sum_hessian":[6.28754E3,3.11972E3,3.16782E3,1.3669415E3,1.7527783E3,1.3507483E3,1.8170717E3,8.417998E2,5.251418E2,8.901874E2,8.62591E2,4.562126E2,8.9453577E2,8.814141E2,9.3565753E2],"tree_param":{"num_deleted":"0","num_feature":"106","num_nodes":"15","size_leaf_vector":"1"}},{"base_weights":[-1.2608668E-1,2.1872306E-1,-3.056774E-1,-1.1332905E-1,3.7721816E-1,-6.597247E-2,-4.8382765E-1,-2.712496E-3,8.11488E-4,3.3059646E-3,7.351833E-3,-2.4648062E-3,9.5594465E-4,-6.471566E-3,-3.8614064E-3],"categories":[],"categories_nodes":[],"categories_segments":[],"categories_sizes":[],"default_left":[0,0,0,0,0,0,0,0,0,0,0,0,0,0,0],"id":38,"left_children":[1,3,5,7,9,11,13,-1,-1,-1,-1,-1,-1,-1,-1],"loss_changes":[3.8926447E2,1.1335249E2,1.7646225E2,2.1409945E1,2.408281E1,5.144713E1,3.757605E1,0E0,0E0,0E0,0E0,0E0,0E0,0E0,0E0],"parents":[2147483647,0,0,1,1,2,2,3,3,4,4,5,5,6,6],"right_children":[2,4,6,8,10,12,14,-1,-1,-1,-1,-1,-1,-1,-1],"split_conditions":[4.47E-1,4.33E-1,1.2E1,2.5E1,7.67E-1,9E0,3.68E-1,-2.712496E-3,8.11488E-4,3.3059646E-3,7.351833E-3,-2.4648062E-3,9.5594465E-4,-6.471566E-3,-3.8614064E-3],"split_indices":[3,55,80,28,55,29,55,0,0,0,0,0,0,0,0],"split_type":[0,0,0,0,0,0,0,0,0,0,0,0,0,0,0],"sum_hessian":[6.2840205E3,2.1520056E3,4.132015E3,6.95402E2,1.4566036E3,1.7622458E3,2.3697693E3,3.8355313E2,3.1184885E2,1.2904569E3,1.6614667E2,8.320856E2,9.3016034E2,8.847971E2,1.484972E3],"tree_param":{"num_deleted":"0","num_feature":"106","num_nodes":"15","size_leaf_vector":"1"}},{"base_weights":[1.2608668E-1,-2.1872306E-1,3.056774E-1,1.13329075E-1,-3.7721816E-1,6.5972485E-2,4.8382765E-1,2.7124956E-3,-8.11487E-4,-3.3059646E-3,-7.3518334E-3,2.4648064E-3,-9.559446E-4,6.471565E-3,3.861407E-3],"categories":[],"categories_nodes":[],"categories_segments":[],"categories_sizes":[],"default_left":[0,0,0,0,0,0,0,0,0,0,0,0,0,0,0],"id":39,"left_children":[1,3,5,7,9,11,13,-1,-1,-1,-1,-1,-1,-1,-1],"loss_changes":[3.8926447E2,1.1335251E2,1.7646225E2,2.1409927E1,2.4082825E1,5.144714E1,3.757599E1,0E0,0E0,0E0,0E0,0E0,0E0,0E0,0E0],"parents":[2147483647,0,0,1,1,2,2,3,3,4,4,5,5,6,6],"right_children":[2,4,6,8,10,12,14,-1,-1,-1,-1,-1,-1,-1,-1],"split_conditions":[4.47E-1,4.33E-1,1.2E1,2.5E1,7.67E-1,9E0,3.68E-1,2.7124956E-3,-8.11487E-4,-3.3059646E-3,-7.3518334E-3,2.4648064E-3,-9.559446E-4,6.471565E-3,3.861407E-3],"split_indices":[3,55,80,28,55,29,55,0,0,0,0,0,0,0,0],"split_type":[0,0,0,0,0,0,0,0,0,0,0,0,0,0,0],"sum_hessian":[6.2840205E3,2.1520056E3,4.132015E3,6.95402E2,1.4566036E3,1.762246E3,2.369769E3,3.8355313E2,3.1184885E2,1.2904569E3,1.6614667E2,8.320856E2,9.3016034E2,8.847971E2,1.484972E3],"tree_param":{"num_deleted":"0","num_feature":"106","num_nodes":"15","size_leaf_vector":"1"}},{"base_weights":[-1.2489739E-1,1.2390889E-1,-3.700396E-1,-1.376244E-1,3.279014E-1,-1.3849816E-1,-5.4233277E-1,-2.883008E-3,1.0381165E-3,2.616151E-3,6.386142E-3,-2.3166817E-3,1.1765462E-3,-6.5745423E-3,-4.3349196E-3],"categories":[],"categories_nodes":[],"categories_segments":[],"categories_sizes":[],"default_left":[0,0,0,0,0,0,0,0,0,0,0,0,0,0,0],"id":40,"left_children":[1,3,5,7,9,11,13,-1,-1,-1,-1,-1,-1,-1,-1],"loss_changes":[3.831719E2,1.6640334E2,1.2615796E2,4.9762936E1,3.591925E1,3.2278606E1,2.2443298E1,0E0,0E0,0E0,0E0,0E0,0E0,0E0,0E0],"parents":[2147483647,0,0,1,1,2,2,3,3,4,4,5,5,6,6],"right_children":[2,4,6,8,10,12,14,-1,-1,-1,-1,-1,-1,-1,-1],"split_conditions":[5.14E-1,4.93E-1,1.2E1,2.4E1,7.33E-1,6.2E0,4.07E-1,-2.883008E-3,1.0381165E-3,2.616151E-3,6.386142E-3,-2.3166817E-3,1.1765462E-3,-6.5745423E-3,-4.3349196E-3],"split_indices":[3,55,80,28,55,77,55,0,0,0,0,0,0,0,0],"split_type":[0,0,0,0,0,0,0,0,0,0,0,0,0,0,0],"sum_hessian":[6.280484E3,3.1171934E3,3.1632905E3,1.3660907E3,1.7511027E3,1.350365E3,1.8129257E3,8.410257E2,5.2506494E2,1.4447312E3,3.0637146E2,9.9027094E2,3.6009402E2,8.785927E2,9.343329E2],"tree_param":{"num_deleted":"0","num_feature":"106","num_nodes":"15","size_leaf_vector":"1"}},{"base_weights":[1.2489739E-1,-1.23908885E-1,3.7003958E-1,1.3762443E-1,-3.279014E-1,1.3849814E-1,5.423327E-1,2.8830087E-3,-1.0381168E-3,-2.616151E-3,-6.3861427E-3,2.3166817E-3,-1.1765462E-3,6.5745423E-3,4.334919E-3],"categories":[],"categories_nodes":[],"categories_segments":[],"categories_sizes":[],"default_left":[0,0,0,0,0,0,0,0,0,0,0,0,0,0,0],"id":41,"left_children":[1,3,5,7,9,11,13,-1,-1,-1,-1,-1,-1,-1,-1],"loss_changes":[3.8317188E2,1.6640335E2,1.2615793E2,4.976296E1,3.591925E1,3.22786E1,2.244336E1,0E0,0E0,0E0,0E0,0E0,0E0,0E0,0E0],"parents":[2147483647,0,0,1,1,2,2,3,3,4,4,5,5,6,6],"right_children":[2,4,6,8,10,12,14,-1,-1,-1,-1,-1,-1,-1,-1],"split_conditions":[5.14E-1,4.93E-1,1.2E1,2.4E1,7.33E-1,6.2E0,4.07E-1,2.8830087E-3,-1.0381168E-3,-2.616151E-3,-6.3861427E-3,2.3166817E-3,-1.1765462E-3,6.5745423E-3,4.334919E-3],"split_indices":[3,55,80,28,55,77,55,0,0,0,0,0,0,0,0],"split_type":[0,0,0,0,0,0,0,0,0,0,0,0,0,0,0],"sum_hessian":[6.280484E3,3.1171934E3,3.1632905E3,1.3660907E3,1.7511027E3,1.3503649E3,1.8129257E3,8.410257E2,5.2506494E2,1.4447312E3,3.063715E2,9.9027094E2,3.6009402E2,8.785928E2,9.343329E2],"tree_param":{"num_deleted":"0","num_feature":"106","num_nodes":"15","size_leaf_vector":"1"}},{"base_weights":[-1.23721026E-1,1.2271762E-1,-3.6662945E-1,-1.3628602E-1,3.2477382E-1,-1.3712776E-1,-5.3760654E-1,-2.855363E-3,1.0278048E-3,4.649245E-3,1.8000962E-3,-2.2938873E-3,1.164762E-3,-6.5206084E-3,-4.2950497E-3],"categories":[],"categories_nodes":[],"categories_segments":[],"categories_sizes":[],"default_left":[0,0,0,0,0,0,0,0,0,0,0,0,0,0,0],"id":42,"left_children":[1,3,5,7,9,11,13,-1,-1,-1,-1,-1,-1,-1,-1],"loss_changes":[3.758518E2,1.6316956E2,1.2399524E2,4.879521E1,3.544847E1,3.1642473E1,2.21344E1,0E0,0E0,0E0,0E0,0E0,0E0,0E0,0E0],"parents":[2147483647,0,0,1,1,2,2,3,3,4,4,5,5,6,6],"right_children":[2,4,6,8,10,12,14,-1,-1,-1,-1,-1,-1,-1,-1],"split_conditions":[5.14E-1,4.93E-1,1.2E1,2.4E1,3.96E-1,6.2E0,4.07E-1,-2.855363E-3,1.0278048E-3,4.649245E-3,1.8000962E-3,-2.2938873E-3,1.164762E-3,-6.5206084E-3,-4.2950497E-3],"split_indices":[3,55,80,28,3,77,55,0,0,0,0,0,0,0,0],"split_type":[0,0,0,0,0,0,0,0,0,0,0,0,0,0,0],"sum_hessian":[6.2768833E3,3.1160461E3,3.160837E3,1.3657278E3,1.7503182E3,1.3502307E3,1.8106063E3,8.40688E2,5.2503973E2,8.882064E2,8.621119E2,9.901208E2,3.6010992E2,8.770174E2,9.335889E2],"tree_param":{"num_deleted":"0","num_feature":"106","num_nodes":"15","size_leaf_vector":"1"}},{"base_weights":[1.23721026E-1,-1.2271763E-1,3.6662948E-1,1.3628602E-1,-3.2477385E-1,1.3712776E-1,5.3760654E-1,2.855363E-3,-1.0278047E-3,-4.649245E-3,-1.8000967E-3,2.2938873E-3,-1.164762E-3,6.520609E-3,4.2950497E-3],"categories":[],"categories_nodes":[],"categories_segments":[],"categories_sizes":[],"default_left":[0,0,0,0,0,0,0,0,0,0,0,0,0,0,0],"id":43,"left_children":[1,3,5,7,9,11,13,-1,-1,-1,-1,-1,-1,-1,-1],"loss_changes":[3.7585178E2,1.6316954E2,1.2399527E2,4.879521E1,3.544847E1,3.1642475E1,2.213446E1,0E0,0E0,0E0,0E0,0E0,0E0,0E0,0E0],"parents":[2147483647,0,0,1,1,2,2,3,3,4,4,5,5,6,6],"right_children":[2,4,6,8,10,12,14,-1,-1,-1,-1,-1,-1,-1,-1],"split_conditions":[5.14E-1,4.93E-1,1.2E1,2.4E1,3.96E-1,6.2E0,4.07E-1,2.855363E-3,-1.0278047E-3,-4.649245E-3,-1.8000967E-3,2.2938873E-3,-1.164762E-3,6.520609E-3,4.2950497E-3],"split_indices":[3,55,80,28,3,77,55,0,0,0,0,0,0,0,0],"split_type":[0,0,0,0,0,0,0,0,0,0,0,0,0,0,0],"sum_hessian":[6.2768833E3,3.1160461E3,3.1608372E3,1.3657278E3,1.7503184E3,1.3502307E3,1.8106063E3,8.40688E2,5.2503973E2,8.882065E2,8.621118E2,9.901208E2,3.6010992E2,8.770174E2,9.335889E2],"tree_param":{"num_deleted":"0","num_feature":"106","num_nodes":"15","size_leaf_vector":"1"}},{"base_weights":[-1.225613E-1,2.13335E-1,-2.9762417E-1,3.3531383E-1,-1.9904205E-1,-1.4985359E-2,-4.417939E-1,1.8455621E-3,4.5777587E-3,-3.2231903E-3,2.700924E-4,-1.8146208E-3,1.6012033E-3,-5.9657297E-3,-3.2803675E-3],"categories":[],"categories_nodes":[],"categories_segments":[],"categories_sizes":[],"default_left":[0,0,0,0,0,0,0,0,0,0,0,0,0,0,0],"id":44,"left_children":[1,3,5,7,9,11,13,-1,-1,-1,-1,-1,-1,-1,-1],"loss_changes":[3.689945E2,1.0822265E2,1.6807288E2,3.0557266E1,1.3703924E1,4.0675835E1,4.78985E1,0E0,0E0,0E0,0E0,0E0,0E0,0E0,0E0],"parents":[2147483647,0,0,1,1,2,2,3,3,4,4,5,5,6,6],"right_children":[2,4,6,8,10,12,14,-1,-1,-1,-1,-1,-1,-1,-1],"split_conditions":[4.47E-1,2.3E1,1E1,5.5E-1,2.6E1,1E1,4.09E-1,1.8455621E-3,4.5777587E-3,-3.2231903E-3,2.700924E-4,-1.8146208E-3,1.6012033E-3,-5.9657297E-3,-3.2803675E-3],"split_indices":[3,81,81,55,27,29,55,0,0,0,0,0,0,0,0],"split_type":[0,0,0,0,0,0,0,0,0,0,0,0,0,0,0],"sum_hessian":[6.27302E3,2.149163E3,4.123857E3,1.6587123E3,4.9045084E2,1.3933518E3,2.7305051E3,7.44589E2,9.141233E2,3.170965E2,1.7335432E2,7.142566E2,6.790953E2,1.1548969E3,1.5756083E3],"tree_param":{"num_deleted":"0","num_feature":"106","num_nodes":"15","size_leaf_vector":"1"}},{"base_weights":[1.2256129E-1,-2.1333502E-1,2.9762417E-1,-3.3531383E-1,1.9904207E-1,1.4985356E-2,4.417939E-1,-1.8455622E-3,-4.5777587E-3,3.2231905E-3,-2.700924E-4,1.814621E-3,-1.6012037E-3,5.9657292E-3,3.2803677E-3],"categories":[],"categories_nodes":[],"categories_segments":[],"categories_sizes":[],"default_left":[0,0,0,0,0,0,0,0,0,0,0,0,0,0,0],"id":45,"left_children":[1,3,5,7,9,11,13,-1,-1,-1,-1,-1,-1,-1,-1],"loss_changes":[3.689945E2,1.08222664E2,1.680729E2,3.0557266E1,1.3703926E1,4.067585E1,4.7898438E1,0E0,0E0,0E0,0E0,0E0,0E0,0E0,0E0],"parents":[2147483647,0,0,1,1,2,2,3,3,4,4,5,5,6,6],"right_children":[2,4,6,8,10,12,14,-1,-1,-1,-1,-1,-1,-1,-1],"split_conditions":[4.47E-1,2.3E1,1E1,5.5E-1,2.6E1,1E1,4.09E-1,-1.8455622E-3,-4.5777587E-3,3.2231905E-3,-2.700924E-4,1.814621E-3,-1.6012037E-3,5.9657292E-3,3.2803677E-3],"split_indices":[3,81,81,55,27,29,55,0,0,0,0,0,0,0,0],"split_type":[0,0,0,0,0,0,0,0,0,0,0,0,0,0,0],"sum_hessian":[6.27302E3,2.149163E3,4.123857E3,1.6587123E3,4.9045084E2,1.3933518E3,2.7305051E3,7.44589E2,9.141233E2,3.170965E2,1.7335432E2,7.1425653E2,6.790953E2,1.1548969E3,1.5756083E3],"tree_param":{"num_deleted":"0","num_feature":"106","num_nodes":"15","size_leaf_vector":"1"}},{"base_weights":[-1.2141126E-1,1.2087095E-1,-3.6038372E-1,-1.3332893E-1,3.192624E-1,-1.3457945E-1,-5.2898973E-1,-2.799538E-3,1.0132538E-3,2.5590074E-3,6.3692573E-3,-3.4671505E-3,-2.6236934E-4,-6.4194193E-3,-4.2253556E-3],"categories":[],"categories_nodes":[],"categories_segments":[],"categories_sizes":[],"default_left":[0,0,0,0,0,0,0,0,0,0,0,0,0,0,0],"id":46,"left_children":[1,3,5,7,9,11,13,-1,-1,-1,-1,-1,-1,-1,-1],"loss_changes":[3.630808E2,1.5709961E2,1.20118805E2,4.702173E1,3.5049362E1,3.1038769E1,2.145691E1,0E0,0E0,0E0,0E0,0E0,0E0,0E0,0E0],"parents":[2147483647,0,0,1,1,2,2,3,3,4,4,5,5,6,6],"right_children":[2,4,6,8,10,12,14,-1,-1,-1,-1,-1,-1,-1,-1],"split_conditions":[5.14E-1,4.93E-1,1.2E1,2.4E1,7.38E-1,5E0,4.07E-1,-2.799538E-3,1.0132538E-3,2.5590074E-3,6.3692573E-3,-3.4671505E-3,-2.6236934E-4,-6.4194193E-3,-4.2253556E-3],"split_indices":[3,55,80,28,55,28,55,0,0,0,0,0,0,0,0],"split_type":[0,0,0,0,0,0,0,0,0,0,0,0,0,0,0],"sum_hessian":[6.2692065E3,3.1132908E3,3.1559155E3,1.3648413E3,1.7484496E3,1.3498877E3,1.8060278E3,8.398585E2,5.249827E2,1.4592007E3,2.892489E2,4.5560626E2,8.942814E2,8.7382935E2,9.321985E2],"tree_param":{"num_deleted":"0","num_feature":"106","num_nodes":"15","size_leaf_vector":"1"}},{"base_weights":[1.2141127E-1,-1.20870925E-1,3.6038372E-1,1.3332893E-1,-3.1926236E-1,1.3457943E-1,5.2898973E-1,2.7995382E-3,-1.0132539E-3,-2.5590071E-3,-6.3692573E-3,3.4671503E-3,2.623693E-4,6.4194193E-3,4.2253556E-3],"categories":[],"categories_nodes":[],"categories_segments":[],"categories_sizes":[],"default_left":[0,0,0,0,0,0,0,0,0,0,0,0,0,0,0],"id":47,"left_children":[1,3,5,7,9,11,13,-1,-1,-1,-1,-1,-1,-1,-1],"loss_changes":[3.6308078E2,1.570996E2,1.20118805E2,4.702172E1,3.5049362E1,3.1038761E1,2.145691E1,0E0,0E0,0E0,0E0,0E0,0E0,0E0,0E0],"parents":[2147483647,0,0,1,1,2,2,3,3,4,4,5,5,6,6],"right_children":[2,4,6,8,10,12,14,-1,-1,-1,-1,-1,-1,-1,-1],"split_conditions":[5.14E-1,4.93E-1,1.2E1,2.4E1,7.38E-1,5E0,4.07E-1,2.7995382E-3,-1.0132539E-3,-2.5590071E-3,-6.3692573E-3,3.4671503E-3,2.623693E-4,6.4194193E-3,4.2253556E-3],"split_indices":[3,55,80,28,55,28,55,0,0,0,0,0,0,0,0],"split_type":[0,0,0,0,0,0,0,0,0,0,0,0,0,0,0],"sum_hessian":[6.2692065E3,3.1132908E3,3.1559155E3,1.3648413E3,1.7484495E3,1.3498876E3,1.8060278E3,8.398586E2,5.249827E2,1.4592007E3,2.8924887E2,4.5560626E2,8.942814E2,8.7382935E2,9.3219855E2],"tree_param":{"num_deleted":"0","num_feature":"106","num_nodes":"15","size_leaf_vector":"1"}},{"base_weights":[-1.20276764E-1,1.5965033E-1,-3.2338792E-1,-8.836618E-2,3.5117254E-1,-4.4312692E-1,1.1316972E-2,-2.1166347E-3,1.6423363E-3,5.4823095E-3,2.645032E-3,-6.1140144E-3,-3.400219E-3,1.2923867E-3,-2.7255728E-3],"categories":[],"categories_nodes":[],"categories_segments":[],"categories_sizes":[],"default_left":[0,0,0,0,0,0,0,0,0,0,0,0,0,0,0],"id":48,"left_children":[1,3,5,7,9,11,13,-1,-1,-1,-1,-1,-1,-1,-1],"loss_changes":[3.5632288E2,1.2521953E2,1.4555179E2,3.582588E1,2.5256943E1,4.6199707E1,3.2099575E1,0E0,0E0,0E0,0E0,0E0,0E0,0E0,0E0],"parents":[2147483647,0,0,1,1,2,2,3,3,4,4,5,5,6,6],"right_children":[2,4,6,8,10,12,14,-1,-1,-1,-1,-1,-1,-1,-1],"split_conditions":[4.89E-1,4.93E-1,6.18E-1,2.6E1,-5.9E0,4.07E-1,6.71E-1,-2.1166347E-3,1.6423363E-3,5.4823095E-3,2.645032E-3,-6.1140144E-3,-3.400219E-3,1.2923867E-3,-2.7255728E-3],"split_indices":[3,55,55,28,25,55,3,0,0,0,0,0,0,0,0],"split_type":[0,0,0,0,0,0,0,0,0,0,0,0,0,0,0],"sum_hessian":[6.265169E3,2.63451E3,3.6306587E3,1.1481818E3,1.4863282E3,2.6737974E3,9.568615E2,7.716778E2,3.7650397E2,4.523968E2,1.0339314E3,1.0139804E3,1.6598169E3,6.764204E2,2.8044107E2],"tree_param":{"num_deleted":"0","num_feature":"106","num_nodes":"15","size_leaf_vector":"1"}},{"base_weights":[1.2027678E-1,-1.5965031E-1,3.2338792E-1,8.83662E-2,-3.5117254E-1,4.4312692E-1,-1.1316961E-2,2.1166345E-3,-1.6423358E-3,-5.4823086E-3,-2.645032E-3,6.114015E-3,3.4002194E-3,-1.2923864E-3,2.7255726E-3],"categories":[],"categories_nodes":[],"categories_segments":[],"categories_sizes":[],"default_left":[0,0,0,0,0,0,0,0,0,0,0,0,0,0,0],"id":49,"left_children":[1,3,5,7,9,11,13,-1,-1,-1,-1,-1,-1,-1,-1],"loss_changes":[3.563229E2,1.2521954E2,1.4555182E2,3.5825867E1,2.5256927E1,4.6199707E1,3.2099567E1,0E0,0E0,0E0,0E0,0E0,0E0,0E0,0E0],"parents":[2147483647,0,0,1,1,2,2,3,3,4,4,5,5,6,6],"right_children":[2,4,6,8,10,12,14,-1,-1,-1,-1,-1,-1,-1,-1],"split_conditions":[4.89E-1,4.93E-1,6.18E-1,2.6E1,-5.9E0,4.07E-1,6.71E-1,2.1166345E-3,-1.6423358E-3,-5.4823086E-3,-2.645032E-3,6.114015E-3,3.4002194E-3,-1.2923864E-3,2.7255726E-3],"split_indices":[3,55,55,28,25,55,3,0,0,0,0,0,0,0,0],"split_type":[0,0,0,0,0,0,0,0,0,0,0,0,0,0,0],"sum_hessian":[6.265169E3,2.63451E3,3.6306587E3,1.1481818E3,1.4863282E3,2.673797E3,9.568615E2,7.716778E2,3.7650397E2,4.5239682E2,1.0339314E3,1.0139804E3,1.6598168E3,6.764204E2,2.804411E2],"tree_param":{"num_deleted":"0","num_feature":"106","num_nodes":"15","size_leaf_vector":"1"}},{"base_weights":[-1.19154E-1,1.1887618E-1,-3.5412428E-1,-1.3051985E-1,3.1360355E-1,-1.3192883E-1,-5.204374E-1,-2.745255E-3,9.974892E-4,2.487463E-3,6.1824867E-3,-2.2269725E-3,1.1745932E-3,-6.9651953E-3,-4.5365244E-3],"categories":[],"categories_nodes":[],"categories_segments":[],"categories_sizes":[],"default_left":[0,0,0,0,0,0,0,0,0,0,0,0,0,0,0],"id":50,"left_children":[1,3,5,7,9,11,13,-1,-1,-1,-1,-1,-1,-1,-1],"loss_changes":[3.5027786E2,1.5114912E2,1.1639285E2,4.5289406E1,3.4375137E1,3.0595657E1,2.0875763E1,0E0,0E0,0E0,0E0,0E0,0E0,0E0,0E0],"parents":[2147483647,0,0,1,1,2,2,3,3,4,4,5,5,6,6],"right_children":[2,4,6,8,10,12,14,-1,-1,-1,-1,-1,-1,-1,-1],"split_conditions":[5.14E-1,4.93E-1,1.2E1,2.4E1,7.33E-1,6.2E0,3.29E-1,-2.745255E-3,9.974892E-4,2.487463E-3,6.1824867E-3,-2.2269725E-3,1.1745932E-3,-6.9651953E-3,-4.5365244E-3],"split_indices":[3,55,80,28,55,77,55,0,0,0,0,0,0,0,0],"split_type":[0,0,0,0,0,0,0,0,0,0,0,0,0,0,0],"sum_hessian":[6.2610356E3,3.1105115E3,3.1505244E3,1.3639586E3,1.746553E3,1.3494474E3,1.8010769E3,8.390444E2,5.2491425E2,1.4414852E3,3.050677E2,9.894352E2,3.600122E2,4.9267764E2,1.3083993E3],"tree_param":{"num_deleted":"0","num_feature":"106","num_nodes":"15","size_leaf_vector":"1"}},{"base_weights":[1.19153984E-1,-1.18876204E-1,3.5412425E-1,1.3051985E-1,-3.1360358E-1,1.3192883E-1,5.204374E-1,2.7452547E-3,-9.974893E-4,-2.4874634E-3,-6.1824867E-3,2.2269725E-3,-1.174593E-3,6.9651953E-3,4.536524E-3],"categories":[],"categories_nodes":[],"categories_segments":[],"categories_sizes":[],"default_left":[0,0,0,0,0,0,0,0,0,0,0,0,0,0,0],"id":51,"left_children":[1,3,5,7,9,11,13,-1,-1,-1,-1,-1,-1,-1,-1],"loss_changes":[3.502779E2,1.5114911E2,1.1639285E2,4.5289413E1,3.4375153E1,3.059565E1,2.0875793E1,0E0,0E0,0E0,0E0,0E0,0E0,0E0,0E0],"parents":[2147483647,0,0,1,1,2,2,3,3,4,4,5,5,6,6],"right_children":[2,4,6,8,10,12,14,-1,-1,-1,-1,-1,-1,-1,-1],"split_conditions":[5.14E-1,4.93E-1,1.2E1,2.4E1,7.33E-1,6.2E0,3.29E-1,2.7452547E-3,-9.974893E-4,-2.4874634E-3,-6.1824867E-3,2.2269725E-3,-1.174593E-3,6.9651953E-3,4.536524E-3],"split_indices":[3,55,80,28,55,77,55,0,0,0,0,0,0,0,0],"split_type":[0,0,0,0,0,0,0,0,0,0,0,0,0,0,0],"sum_hessian":[6.261036E3,3.1105115E3,3.1505244E3,1.3639586E3,1.746553E3,1.3494474E3,1.8010769E3,8.390444E2,5.2491425E2,1.4414852E3,3.050677E2,9.894352E2,3.600122E2,4.9267767E2,1.3083993E3],"tree_param":{"num_deleted":"0","num_feature":"106","num_nodes":"15","size_leaf_vector":"1"}},{"base_weights":[-1.1804301E-1,2.0670137E-1,-2.874734E-1,3.2567888E-1,-1.9494648E-1,-4.04011E-1,4.1034844E-2,4.5208866E-3,1.8876613E-3,-3.143369E-3,2.3815015E-4,-5.7818424E-3,-2.97914E-3,1.5042224E-3,-2.692315E-3],"categories":[],"categories_nodes":[],"categories_segments":[],"categories_sizes":[],"default_left":[0,0,0,0,0,0,0,0,0,0,0,0,0,0,0],"id":52,"left_children":[1,3,5,7,9,11,13,-1,-1,-1,-1,-1,-1,-1,-1],"loss_changes":[3.4437686E2,1.026204E2,1.5746692E2,2.8576065E1,1.2833391E1,5.592874E1,3.662191E1,0E0,0E0,0E0,0E0,0E0,0E0,0E0,0E0],"parents":[2147483647,0,0,1,1,2,2,3,3,4,4,5,5,6,6],"right_children":[2,4,6,8,10,12,14,-1,-1,-1,-1,-1,-1,-1,-1],"split_conditions":[4.47E-1,2.3E1,6.18E-1,1.1E1,2.6E1,4.09E-1,6.71E-1,4.5208866E-3,1.8876613E-3,-3.143369E-3,2.3815015E-4,-5.7818424E-3,-2.97914E-3,1.5042224E-3,-2.692315E-3],"split_indices":[3,81,55,80,27,55,3,0,0,0,0,0,0,0,0],"split_type":[0,0,0,0,0,0,0,0,0,0,0,0,0,0,0],"sum_hessian":[6.2568633E3,2.1451228E3,4.1117407E3,1.655048E3,4.9007486E2,3.0348901E3,1.0768505E3,8.5933386E2,7.9571405E2,3.167628E2,1.7331209E2,1.1471809E3,1.8877092E3,7.965383E2,2.8031213E2],"tree_param":{"num_deleted":"0","num_feature":"106","num_nodes":"15","size_leaf_vector":"1"}},{"base_weights":[1.1804301E-1,-2.0670137E-1,2.874734E-1,-3.2567886E-1,1.9494645E-1,4.0401098E-1,-4.1034833E-2,-4.5208866E-3,-1.8876612E-3,3.143368E-3,-2.3814978E-4,5.7818424E-3,2.97914E-3,-1.5042223E-3,2.692315E-3],"categories":[],"categories_nodes":[],"categories_segments":[],"categories_sizes":[],"default_left":[0,0,0,0,0,0,0,0,0,0,0,0,0,0,0],"id":53,"left_children":[1,3,5,7,9,11,13,-1,-1,-1,-1,-1,-1,-1,-1],"loss_changes":[3.4437683E2,1.02620384E2,1.5746695E2,2.857608E1,1.2833382E1,5.592874E1,3.662191E1,0E0,0E0,0E0,0E0,0E0,0E0,0E0,0E0],"parents":[2147483647,0,0,1,1,2,2,3,3,4,4,5,5,6,6],"right_children":[2,4,6,8,10,12,14,-1,-1,-1,-1,-1,-1,-1,-1],"split_conditions":[4.47E-1,2.3E1,6.18E-1,1.1E1,2.6E1,4.09E-1,6.71E-1,-4.5208866E-3,-1.8876612E-3,3.143368E-3,-2.3814978E-4,5.7818424E-3,2.97914E-3,-1.5042223E-3,2.692315E-3],"split_indices":[3,81,55,80,27,55,3,0,0,0,0,0,0,0,0],"split_type":[0,0,0,0,0,0,0,0,0,0,0,0,0,0,0],"sum_hessian":[6.2568633E3,2.1451228E3,4.1117407E3,1.655048E3,4.9007486E2,3.0348901E3,1.0768505E3,8.5933386E2,7.9571405E2,3.167628E2,1.7331207E2,1.1471809E3,1.8877091E3,7.965383E2,2.803121E2],"tree_param":{"num_deleted":"0","num_feature":"106","num_nodes":"15","size_leaf_vector":"1"}},{"base_weights":[-1.1694254E-1,1.1718064E-1,-3.4823853E-1,2.9585952E-1,-1.4561231E-1,-1.2955312E-1,-5.123358E-1,2.336859E-3,6.0967705E-3,-2.9369039E-3,8.5957453E-4,-2.190666E-3,1.1630654E-3,-6.8681305E-3,-4.463022E-3],"categories":[],"categories_nodes":[],"categories_segments":[],"categories_sizes":[],"default_left":[0,0,0,0,0,0,0,0,0,0,0,0,0,0,0],"id":54,"left_children":[1,3,5,7,9,11,13,-1,-1,-1,-1,-1,-1,-1,-1],"loss_changes":[3.3868893E2,1.46009E2,1.1283316E2,3.596823E1,4.3190933E1,2.973712E1,2.0397766E1,0E0,0E0,0E0,0E0,0E0,0E0,0E0,0E0],"parents":[2147483647,0,0,1,1,2,2,3,3,4,4,5,5,6,6],"right_children":[2,4,6,8,10,12,14,-1,-1,-1,-1,-1,-1,-1,-1],"split_conditions":[5.14E-1,1.7E1,1.2E1,7.33E-1,2.4E1,6.2E0,3.29E-1,2.336859E-3,6.0967705E-3,-2.9369039E-3,8.5957453E-4,-2.190666E-3,1.1630654E-3,-6.8681305E-3,-4.463022E-3],"split_indices":[3,80,80,55,28,77,55,0,0,0,0,0,0,0,0],"split_type":[0,0,0,0,0,0,0,0,0,0,0,0,0,0,0],"sum_hessian":[6.252688E3,3.1075981E3,3.1450898E3,1.8497711E3,1.257827E3,1.3490533E3,1.7960364E3,1.5453507E3,3.044205E2,7.6705975E2,4.9076718E2,9.890614E2,3.5999203E2,4.9053043E2,1.305506E3],"tree_param":{"num_deleted":"0","num_feature":"106","num_nodes":"15","size_leaf_vector":"1"}},{"base_weights":[1.1694253E-1,-1.1718064E-1,3.4823853E-1,-2.9585952E-1,1.4561233E-1,1.2955314E-1,5.123357E-1,-2.336859E-3,-6.0967705E-3,2.9369039E-3,-8.5957436E-4,2.190666E-3,-1.1630653E-3,6.868129E-3,4.463022E-3],"categories":[],"categories_nodes":[],"categories_segments":[],"categories_sizes":[],"default_left":[0,0,0,0,0,0,0,0,0,0,0,0,0,0,0],"id":55,"left_children":[1,3,5,7,9,11,13,-1,-1,-1,-1,-1,-1,-1,-1],"loss_changes":[3.386889E2,1.46009E2,1.1283316E2,3.596823E1,4.3190933E1,2.9737112E1,2.0397766E1,0E0,0E0,0E0,0E0,0E0,0E0,0E0,0E0],"parents":[2147483647,0,0,1,1,2,2,3,3,4,4,5,5,6,6],"right_children":[2,4,6,8,10,12,14,-1,-1,-1,-1,-1,-1,-1,-1],"split_conditions":[5.14E-1,1.7E1,1.2E1,7.33E-1,2.4E1,6.2E0,3.29E-1,-2.336859E-3,-6.0967705E-3,2.9369039E-3,-8.5957436E-4,2.190666E-3,-1.1630653E-3,6.868129E-3,4.463022E-3],"split_indices":[3,80,80,55,28,77,55,0,0,0,0,0,0,0,0],"split_type":[0,0,0,0,0,0,0,0,0,0,0,0,0,0,0],"sum_hessian":[6.252688E3,3.1075981E3,3.1450898E3,1.8497711E3,1.257827E3,1.3490533E3,1.7960364E3,1.5453506E3,3.044205E2,7.6705975E2,4.907672E2,9.890614E2,3.5999203E2,4.9053043E2,1.305506E3],"tree_param":{"num_deleted":"0","num_feature":"106","num_nodes":"15","size_leaf_vector":"1"}},{"base_weights":[-1.1585534E-1,2.0336057E-1,-2.8249615E-1,3.2060745E-1,-1.921682E-1,-3.972478E-1,4.0404674E-2,6.0745864E-3,2.6027022E-3,-6.551654E-3,-1.3607786E-3,-5.693674E-3,-2.9266789E-3,1.483821E-3,-2.6595914E-3],"categories":[],"categories_nodes":[],"categories_segments":[],"categories_sizes":[],"default_left":[0,0,0,0,0,0,0,0,0,0,0,0,0,0,0],"id":56,"left_children":[1,3,5,7,9,11,13,-1,-1,-1,-1,-1,-1,-1,-1],"loss_changes":[3.3248834E2,9.948893E1,1.5217023E2,2.8471634E1,1.2658205E1,5.4369904E1,3.568637E1,0E0,0E0,0E0,0E0,0E0,0E0,0E0,0E0],"parents":[2147483647,0,0,1,1,2,2,3,3,4,4,5,5,6,6],"right_children":[2,4,6,8,10,12,14,-1,-1,-1,-1,-1,-1,-1,-1],"split_conditions":[4.47E-1,2.3E1,6.18E-1,2.31E-1,1.94E-1,4.09E-1,6.71E-1,6.0745864E-3,2.6027022E-3,-6.551654E-3,-1.3607786E-3,-5.693674E-3,-2.9266789E-3,1.483821E-3,-2.6595914E-3],"split_indices":[3,81,55,3,55,55,3,0,0,0,0,0,0,0,0],"split_type":[0,0,0,0,0,0,0,0,0,0,0,0,0,0,0],"sum_hessian":[6.2483584E3,2.1430078E3,4.10535E3,1.6531522E3,4.8985568E2,3.0287656E3,1.0765846E3,2.8572232E2,1.3674299E3,5.1777565E1,4.3807812E2,1.1430564E3,1.8857092E3,7.964077E2,2.8017694E2],"tree_param":{"num_deleted":"0","num_feature":"106","num_nodes":"15","size_leaf_vector":"1"}},{"base_weights":[1.15855336E-1,-2.0336057E-1,2.8249615E-1,-3.2060745E-1,1.9216824E-1,3.9724776E-1,-4.0404674E-2,-6.0745864E-3,-2.6027022E-3,6.551655E-3,1.3607789E-3,5.693674E-3,2.9266789E-3,-1.483821E-3,2.6595914E-3],"categories":[],"categories_nodes":[],"categories_segments":[],"categories_sizes":[],"default_left":[0,0,0,0,0,0,0,0,0,0,0,0,0,0,0],"id":57,"left_children":[1,3,5,7,9,11,13,-1,-1,-1,-1,-1,-1,-1,-1],"loss_changes":[3.324883E2,9.948895E1,1.5217023E2,2.8471634E1,1.2658205E1,5.4369904E1,3.568637E1,0E0,0E0,0E0,0E0,0E0,0E0,0E0,0E0],"parents":[2147483647,0,0,1,1,2,2,3,3,4,4,5,5,6,6],"right_children":[2,4,6,8,10,12,14,-1,-1,-1,-1,-1,-1,-1,-1],"split_conditions":[4.47E-1,2.3E1,6.18E-1,2.31E-1,1.94E-1,4.09E-1,6.71E-1,-6.0745864E-3,-2.6027022E-3,6.551655E-3,1.3607789E-3,5.693674E-3,2.9266789E-3,-1.483821E-3,2.6595914E-3],"split_indices":[3,81,55,3,55,55,3,0,0,0,0,0,0,0,0],"split_type":[0,0,0,0,0,0,0,0,0,0,0,0,0,0,0],"sum_hessian":[6.248358E3,2.1430078E3,4.10535E3,1.6531522E3,4.8985568E2,3.0287656E3,1.0765846E3,2.8572232E2,1.3674299E3,5.1777565E1,4.3807812E2,1.1430564E3,1.8857092E3,7.964077E2,2.8017694E2],"tree_param":{"num_deleted":"0","num_feature":"106","num_nodes":"15","size_leaf_vector":"1"}},{"base_weights":[-1.1477763E-1,1.15508415E-1,-3.4248295E-1,2.9129705E-1,-1.4296678E-1,-1.2722275E-1,-5.044344E-1,2.2984678E-3,6.018795E-3,-2.8850974E-3,8.4410084E-4,-3.3346014E-3,-2.2074513E-4,-6.7741605E-3,-4.391176E-3],"categories":[],"categories_nodes":[],"categories_segments":[],"categories_sizes":[],"default_left":[0,0,0,0,0,0,0,0,0,0,0,0,0,0,0],"id":58,"left_children":[1,3,5,7,9,11,13,-1,-1,-1,-1,-1,-1,-1,-1],"loss_changes":[3.2751526E2,1.4115509E2,1.0941522E2,3.514763E1,4.16504E1,2.9259987E1,1.994696E1,0E0,0E0,0E0,0E0,0E0,0E0,0E0,0E0],"parents":[2147483647,0,0,1,1,2,2,3,3,4,4,5,5,6,6],"right_children":[2,4,6,8,10,12,14,-1,-1,-1,-1,-1,-1,-1,-1],"split_conditions":[5.14E-1,1.7E1,1.2E1,7.33E-1,2.4E1,5E0,3.29E-1,2.2984678E-3,6.018795E-3,-2.8850974E-3,8.4410084E-4,-3.3346014E-3,-2.2074513E-4,-6.7741605E-3,-4.391176E-3],"split_indices":[3,80,80,55,28,28,55,0,0,0,0,0,0,0,0],"split_type":[0,0,0,0,0,0,0,0,0,0,0,0,0,0,0],"sum_hessian":[6.2440845E3,3.1046946E3,3.1393896E3,1.8478485E3,1.2568462E3,1.3486274E3,1.7907622E3,1.544084E3,3.0376453E2,7.6616095E2,4.9068527E2,4.546693E2,8.939581E2,4.8827322E2,1.302489E3],"tree_param":{"num_deleted":"0","num_feature":"106","num_nodes":"15","size_leaf_vector":"1"}},{"base_weights":[1.14777654E-1,-1.155084E-1,3.4248295E-1,-2.9129702E-1,1.4296678E-1,1.2722275E-1,5.0443447E-1,-2.2984676E-3,-6.0187946E-3,2.8850974E-3,-8.441006E-4,3.3346014E-3,2.2074513E-4,6.774162E-3,4.391176E-3],"categories":[],"categories_nodes":[],"categories_segments":[],"categories_sizes":[],"default_left":[0,0,0,0,0,0,0,0,0,0,0,0,0,0,0],"id":59,"left_children":[1,3,5,7,9,11,13,-1,-1,-1,-1,-1,-1,-1,-1],"loss_changes":[3.275153E2,1.4115509E2,1.0941516E2,3.5147614E1,4.1650387E1,2.9259987E1,1.9946991E1,0E0,0E0,0E0,0E0,0E0,0E0,0E0,0E0],"parents":[2147483647,0,0,1,1,2,2,3,3,4,4,5,5,6,6],"right_children":[2,4,6,8,10,12,14,-1,-1,-1,-1,-1,-1,-1,-1],"split_conditions":[5.14E-1,1.7E1,1.2E1,7.33E-1,2.4E1,5E0,3.29E-1,-2.2984676E-3,-6.0187946E-3,2.8850974E-3,-8.441006E-4,3.3346014E-3,2.2074513E-4,6.774162E-3,4.391176E-3],"split_indices":[3,80,80,55,28,28,55,0,0,0,0,0,0,0,0],"split_type":[0,0,0,0,0,0,0,0,0,0,0,0,0,0,0],"sum_hessian":[6.2440845E3,3.1046948E3,3.1393896E3,1.8478485E3,1.2568462E3,1.3486274E3,1.7907623E3,1.544084E3,3.0376453E2,7.6616095E2,4.9068527E2,4.546693E2,8.939581E2,4.8827325E2,1.302489E3],"tree_param":{"num_deleted":"0","num_feature":"106","num_nodes":"15","size_leaf_vector":"1"}},{"base_weights":[-1.1371571E-1,1.144081E-1,-3.394067E-1,-1.2458954E-1,3.0120417E-1,-1.259767E-1,-5.002128E-1,-2.3245807E-3,1.5772514E-3,4.3592546E-3,1.6279818E-3,-2.1426496E-3,1.1641209E-3,-6.7241606E-3,-4.3527833E-3],"categories":[],"categories_nodes":[],"categories_segments":[],"categories_sizes":[],"default_left":[0,0,0,0,0,0,0,0,0,0,0,0,0,0,0],"id":60,"left_children":[1,3,5,7,9,11,13,-1,-1,-1,-1,-1,-1,-1,-1],"loss_changes":[3.2133435E2,1.3862415E2,1.0760947E2,4.1530376E1,3.2424194E1,2.8901768E1,1.9710114E1,0E0,0E0,0E0,0E0,0E0,0E0,0E0,0E0],"parents":[2147483647,0,0,1,1,2,2,3,3,4,4,5,5,6,6],"right_children":[2,4,6,8,10,12,14,-1,-1,-1,-1,-1,-1,-1,-1],"split_conditions":[5.14E-1,4.93E-1,1.2E1,2.6E1,3.96E-1,6.2E0,3.29E-1,-2.3245807E-3,1.5772514E-3,4.3592546E-3,1.6279818E-3,-2.1426496E-3,1.1641209E-3,-6.7241606E-3,-4.3527833E-3],"split_indices":[3,55,80,28,3,77,55,0,0,0,0,0,0,0,0],"split_type":[0,0,0,0,0,0,0,0,0,0,0,0,0,0,0],"sum_hessian":[6.2395063E3,3.103274E3,3.1362322E3,1.361555E3,1.7417189E3,1.3483788E3,1.7878535E3,9.8527264E2,3.7628244E2,8.8151874E2,8.602001E2,9.8845685E2,3.599219E2,4.8699878E2,1.3008547E3],"tree_param":{"num_deleted":"0","num_feature":"106","num_nodes":"15","size_leaf_vector":"1"}},{"base_weights":[1.13715686E-1,-1.1440811E-1,3.3940667E-1,1.24589525E-1,-3.0120417E-1,1.2597667E-1,5.002128E-1,2.3245807E-3,-1.5772515E-3,-4.3592546E-3,-1.6279818E-3,2.1426494E-3,-1.164121E-3,6.7241606E-3,4.352783E-3],"categories":[],"categories_nodes":[],"categories_segments":[],"categories_sizes":[],"default_left":[0,0,0,0,0,0,0,0,0,0,0,0,0,0,0],"id":61,"left_children":[1,3,5,7,9,11,13,-1,-1,-1,-1,-1,-1,-1,-1],"loss_changes":[3.2133435E2,1.3862418E2,1.07609436E2,4.153038E1,3.242418E1,2.8901766E1,1.9710144E1,0E0,0E0,0E0,0E0,0E0,0E0,0E0,0E0],"parents":[2147483647,0,0,1,1,2,2,3,3,4,4,5,5,6,6],"right_children":[2,4,6,8,10,12,14,-1,-1,-1,-1,-1,-1,-1,-1],"split_conditions":[5.14E-1,4.93E-1,1.2E1,2.6E1,3.96E-1,6.2E0,3.29E-1,2.3245807E-3,-1.5772515E-3,-4.3592546E-3,-1.6279818E-3,2.1426494E-3,-1.164121E-3,6.7241606E-3,4.352783E-3],"split_indices":[3,55,80,28,3,77,55,0,0,0,0,0,0,0,0],"split_type":[0,0,0,0,0,0,0,0,0,0,0,0,0,0,0],"sum_hessian":[6.2395063E3,3.103274E3,3.1362322E3,1.361555E3,1.7417189E3,1.3483788E3,1.7878534E3,9.852726E2,3.7628247E2,8.8151874E2,8.6020013E2,9.8845685E2,3.5992194E2,4.8699878E2,1.3008546E3],"tree_param":{"num_deleted":"0","num_feature":"106","num_nodes":"15","size_leaf_vector":"1"}},{"base_weights":[-1.1266647E-1,1.984699E-1,-2.752369E-1,3.133616E-1,-1.886181E-1,-3.8770276E-1,4.0349644E-2,5.9708366E-3,2.5380454E-3,-6.465355E-3,-1.3318629E-3,-5.569233E-3,-2.852799E-3,1.4613213E-3,-2.59993E-3],"categories":[],"categories_nodes":[],"categories_segments":[],"categories_sizes":[],"default_left":[0,0,0,0,0,0,0,0,0,0,0,0,0,0,0],"id":62,"left_children":[1,3,5,7,9,11,13,-1,-1,-1,-1,-1,-1,-1,-1],"loss_changes":[3.1546875E2,9.52591E1,1.4539862E2,2.7747375E1,1.2365923E1,5.2184204E1,3.4259113E1,0E0,0E0,0E0,0E0,0E0,0E0,0E0,0E0],"parents":[2147483647,0,0,1,1,2,2,3,3,4,4,5,5,6,6],"right_children":[2,4,6,8,10,12,14,-1,-1,-1,-1,-1,-1,-1,-1],"split_conditions":[4.47E-1,2.3E1,6.18E-1,2.31E-1,1.94E-1,4.09E-1,6.71E-1,5.9708366E-3,2.5380454E-3,-6.465355E-3,-1.3318629E-3,-5.569233E-3,-2.852799E-3,1.4613213E-3,-2.59993E-3],"split_indices":[3,81,55,3,55,55,3,0,0,0,0,0,0,0,0],"split_type":[0,0,0,0,0,0,0,0,0,0,0,0,0,0,0],"sum_hessian":[6.234751E3,2.139615E3,4.0951362E3,1.6500529E3,4.8956216E2,3.0190176E3,1.0761185E3,2.8470932E2,1.3653435E3,5.1711784E1,4.3785037E2,1.1366442E3,1.8823734E3,7.962041E2,2.7991443E2],"tree_param":{"num_deleted":"0","num_feature":"106","num_nodes":"15","size_leaf_vector":"1"}},{"base_weights":[1.1266647E-1,-1.9846992E-1,2.752369E-1,-3.1336161E-1,1.886181E-1,3.8770276E-1,-4.0349618E-2,-5.9708366E-3,-2.5380456E-3,6.4653545E-3,1.3318631E-3,5.569233E-3,2.8527987E-3,-1.4613209E-3,2.59993E-3],"categories":[],"categories_nodes":[],"categories_segments":[],"categories_sizes":[],"default_left":[0,0,0,0,0,0,0,0,0,0,0,0,0,0,0],"id":63,"left_children":[1,3,5,7,9,11,13,-1,-1,-1,-1,-1,-1,-1,-1],"loss_changes":[3.1546872E2,9.5259094E1,1.4539859E2,2.774739E1,1.2365915E1,5.2184296E1,3.425911E1,0E0,0E0,0E0,0E0,0E0,0E0,0E0,0E0],"parents":[2147483647,0,0,1,1,2,2,3,3,4,4,5,5,6,6],"right_children":[2,4,6,8,10,12,14,-1,-1,-1,-1,-1,-1,-1,-1],"split_conditions":[4.47E-1,2.3E1,6.18E-1,2.31E-1,1.94E-1,4.09E-1,6.71E-1,-5.9708366E-3,-2.5380456E-3,6.4653545E-3,1.3318631E-3,5.569233E-3,2.8527987E-3,-1.4613209E-3,2.59993E-3],"split_indices":[3,81,55,3,55,55,3,0,0,0,0,0,0,0,0],"split_type":[0,0,0,0,0,0,0,0,0,0,0,0,0,0,0],"sum_hessian":[6.234751E3,2.139615E3,4.095136E3,1.6500529E3,4.8956216E2,3.0190176E3,1.0761187E3,2.8470932E2,1.3653436E3,5.171179E1,4.3785037E2,1.136644E3,1.8823734E3,7.9620416E2,2.7991446E2],"tree_param":{"num_deleted":"0","num_feature":"106","num_nodes":"15","size_leaf_vector":"1"}},{"base_weights":[-1.1162356E-1,1.1278708E-1,-3.3383968E-1,2.8432333E-1,-1.3928783E-1,-1.23716936E-1,-4.9259698E-1,2.2558065E-3,6.0187904E-3,-3.0907062E-3,4.7130426E-4,-3.2678647E-3,-2.0289511E-4,-6.634593E-3,-4.283303E-3],"categories":[],"categories_nodes":[],"categories_segments":[],"categories_sizes":[],"default_left":[0,0,0,0,0,0,0,0,0,0,0,0,0,0,0],"id":64,"left_children":[1,3,5,7,9,11,13,-1,-1,-1,-1,-1,-1,-1,-1],"loss_changes":[3.107733E2,1.3412859E2,1.04390076E2,3.4292953E1,3.978042E1,2.8324574E1,1.9297241E1,0E0,0E0,0E0,0E0,0E0,0E0,0E0,0E0],"parents":[2147483647,0,0,1,1,2,2,3,3,4,4,5,5,6,6],"right_children":[2,4,6,8,10,12,14,-1,-1,-1,-1,-1,-1,-1,-1],"split_conditions":[5.14E-1,1.7E1,1.2E1,7.38E-1,2.2E1,5E0,3.29E-1,2.2558065E-3,6.0187904E-3,-3.0907062E-3,4.7130426E-4,-3.2678647E-3,-2.0289511E-4,-6.634593E-3,-4.283303E-3],"split_indices":[3,80,80,55,27,28,55,0,0,0,0,0,0,0,0],"split_type":[0,0,0,0,0,0,0,0,0,0,0,0,0,0,0],"sum_hessian":[6.2302056E3,3.1000415E3,3.130164E3,1.8446409E3,1.2554008E3,1.3479148E3,1.7822493E3,1.5581234E3,2.8651736E2,6.566712E2,5.9872955E2,4.5412518E2,8.9378955E2,4.845853E2,1.297664E3],"tree_param":{"num_deleted":"0","num_feature":"106","num_nodes":"15","size_leaf_vector":"1"}},{"base_weights":[1.1162356E-1,-1.12787075E-1,3.3383968E-1,-2.8432333E-1,1.3928784E-1,1.2371694E-1,4.9259695E-1,-2.2558065E-3,-6.01879E-3,3.0907062E-3,-4.7130417E-4,3.2678647E-3,2.0289508E-4,6.634593E-3,4.2833025E-3],"categories":[],"categories_nodes":[],"categories_segments":[],"categories_sizes":[],"default_left":[0,0,0,0,0,0,0,0,0,0,0,0,0,0,0],"id":65,"left_children":[1,3,5,7,9,11,13,-1,-1,-1,-1,-1,-1,-1,-1],"loss_changes":[3.107733E2,1.341286E2,1.04390045E2,3.4292923E1,3.978042E1,2.8324572E1,1.9297272E1,0E0,0E0,0E0,0E0,0E0,0E0,0E0,0E0],"parents":[2147483647,0,0,1,1,2,2,3,3,4,4,5,5,6,6],"right_children":[2,4,6,8,10,12,14,-1,-1,-1,-1,-1,-1,-1,-1],"split_conditions":[5.14E-1,1.7E1,1.2E1,7.38E-1,2.2E1,5E0,3.29E-1,-2.2558065E-3,-6.01879E-3,3.0907062E-3,-4.7130417E-4,3.2678647E-3,2.0289508E-4,6.634593E-3,4.2833025E-3],"split_indices":[3,80,80,55,27,28,55,0,0,0,0,0,0,0,0],"split_type":[0,0,0,0,0,0,0,0,0,0,0,0,0,0,0],"sum_hessian":[6.2302056E3,3.1000415E3,3.130164E3,1.8446409E3,1.2554008E3,1.3479148E3,1.7822493E3,1.5581235E3,2.8651736E2,6.566712E2,5.9872955E2,4.541252E2,8.9378955E2,4.8458527E2,1.297664E3],"tree_param":{"num_deleted":"0","num_feature":"106","num_nodes":"15","size_leaf_vector":"1"}},{"base_weights":[-1.1059523E-1,1.1171432E-1,-3.3086172E-1,-1.21341355E-1,2.9400977E-1,-1.2250667E-1,-4.8852476E-1,-2.2683165E-3,1.5448062E-3,2.4500312E-3,6.674706E-3,-2.0959543E-3,1.1647671E-3,-5.9666447E-3,-3.878071E-3],"categories":[],"categories_nodes":[],"categories_segments":[],"categories_sizes":[],"default_left":[0,0,0,0,0,0,0,0,0,0,0,0,0,0,0],"id":66,"left_children":[1,3,5,7,9,11,13,-1,-1,-1,-1,-1,-1,-1,-1],"loss_changes":[3.0492712E2,1.3172108E2,1.0268875E2,3.96382E1,3.1672546E1,2.809356E1,1.915747E1,0E0,0E0,0E0,0E0,0E0,0E0,0E0,0E0],"parents":[2147483647,0,0,1,1,2,2,3,3,4,4,5,5,6,6],"right_children":[2,4,6,8,10,12,14,-1,-1,-1,-1,-1,-1,-1,-1],"split_conditions":[5.14E-1,4.93E-1,1.2E1,2.6E1,7.78E-1,6.2E0,4.07E-1,-2.2683165E-3,1.5448062E-3,2.4500312E-3,6.674706E-3,-2.0959543E-3,1.1647671E-3,-5.9666447E-3,-3.878071E-3],"split_indices":[3,55,80,28,55,77,55,0,0,0,0,0,0,0,0],"split_type":[0,0,0,0,0,0,0,0,0,0,0,0,0,0,0],"sum_hessian":[6.225397E3,3.0985747E3,3.1268223E3,1.3600952E3,1.7384796E3,1.3476505E3,1.7791718E3,9.839524E2,3.7614276E2,1.5382781E3,2.0020146E2,9.878043E2,3.598462E2,8.5559845E2,9.235733E2],"tree_param":{"num_deleted":"0","num_feature":"106","num_nodes":"15","size_leaf_vector":"1"}},{"base_weights":[1.10595234E-1,-1.1171431E-1,3.3086175E-1,1.2134134E-1,-2.9400975E-1,1.2250665E-1,4.885248E-1,2.2683165E-3,-1.5448065E-3,-2.450031E-3,-6.6747055E-3,2.095954E-3,-1.1647673E-3,5.966645E-3,3.8780712E-3],"categories":[],"categories_nodes":[],"categories_segments":[],"categories_sizes":[],"default_left":[0,0,0,0,0,0,0,0,0,0,0,0,0,0,0],"id":67,"left_children":[1,3,5,7,9,11,13,-1,-1,-1,-1,-1,-1,-1,-1],"loss_changes":[3.0492706E2,1.3172105E2,1.0268881E2,3.9638206E1,3.1672562E1,2.8093557E1,1.9157532E1,0E0,0E0,0E0,0E0,0E0,0E0,0E0,0E0],"parents":[2147483647,0,0,1,1,2,2,3,3,4,4,5,5,6,6],"right_children":[2,4,6,8,10,12,14,-1,-1,-1,-1,-1,-1,-1,-1],"split_conditions":[5.14E-1,4.93E-1,1.2E1,2.6E1,7.78E-1,6.2E0,4.07E-1,2.2683165E-3,-1.5448065E-3,-2.450031E-3,-6.6747055E-3,2.095954E-3,-1.1647673E-3,5.966645E-3,3.8780712E-3],"split_indices":[3,55,80,28,55,77,55,0,0,0,0,0,0,0,0],"split_type":[0,0,0,0,0,0,0,0,0,0,0,0,0,0,0],"sum_hessian":[6.225397E3,3.0985747E3,3.1268223E3,1.3600952E3,1.7384796E3,1.3476505E3,1.7791718E3,9.839524E2,3.7614276E2,1.5382781E3,2.0020146E2,9.878043E2,3.598462E2,8.5559845E2,9.235733E2],"tree_param":{"num_deleted":"0","num_feature":"106","num_nodes":"15","size_leaf_vector":"1"}},{"base_weights":[-1.09577335E-1,1.9396088E-1,-2.6835456E-1,3.066721E-1,-1.8528554E-1,-3.7852675E-1,3.9893653E-2,5.8762007E-3,2.4782205E-3,-6.380394E-3,-1.3053095E-3,-5.446704E-3,-2.7839385E-3,1.4340263E-3,-2.5418391E-3],"categories":[],"categories_nodes":[],"categories_segments":[],"categories_sizes":[],"default_left":[0,0,0,0,0,0,0,0,0,0,0,0,0,0,0],"id":68,"left_children":[1,3,5,7,9,11,13,-1,-1,-1,-1,-1,-1,-1,-1],"loss_changes":[2.998959E2,9.141551E1,1.3874997E2,2.7101898E1,1.2071182E1,4.991812E1,3.2806507E1,0E0,0E0,0E0,0E0,0E0,0E0,0E0,0E0],"parents":[2147483647,0,0,1,1,2,2,3,3,4,4,5,5,6,6],"right_children":[2,4,6,8,10,12,14,-1,-1,-1,-1,-1,-1,-1,-1],"split_conditions":[4.47E-1,2.3E1,6.18E-1,2.31E-1,1.94E-1,4.09E-1,6.71E-1,5.8762007E-3,2.4782205E-3,-6.380394E-3,-1.3053095E-3,-5.446704E-3,-2.7839385E-3,1.4340263E-3,-2.5418391E-3],"split_indices":[3,81,55,3,55,55,3,0,0,0,0,0,0,0,0],"split_type":[0,0,0,0,0,0,0,0,0,0,0,0,0,0,0],"sum_hessian":[6.2204775E3,2.1362795E3,4.084198E3,1.6469893E3,4.8929028E2,3.0086404E3,1.0755576E3,2.8368793E2,1.3633014E3,5.163973E1,4.3765054E2,1.129725E3,1.8789154E3,7.959224E2,2.796352E2],"tree_param":{"num_deleted":"0","num_feature":"106","num_nodes":"15","size_leaf_vector":"1"}},{"base_weights":[1.0957732E-1,-1.9396088E-1,2.6835456E-1,-3.066721E-1,1.8528555E-1,3.7852672E-1,-3.989368E-2,-5.8762007E-3,-2.4782207E-3,6.380394E-3,1.3053098E-3,5.446704E-3,2.7839385E-3,-1.4340265E-3,2.541839E-3],"categories":[],"categories_nodes":[],"categories_segments":[],"categories_sizes":[],"default_left":[0,0,0,0,0,0,0,0,0,0,0,0,0,0,0],"id":69,"left_children":[1,3,5,7,9,11,13,-1,-1,-1,-1,-1,-1,-1,-1],"loss_changes":[2.998959E2,9.141554E1,1.3874997E2,2.7101898E1,1.2071178E1,4.991806E1,3.2806503E1,0E0,0E0,0E0,0E0,0E0,0E0,0E0,0E0],"parents":[2147483647,0,0,1,1,2,2,3,3,4,4,5,5,6,6],"right_children":[2,4,6,8,10,12,14,-1,-1,-1,-1,-1,-1,-1,-1],"split_conditions":[4.47E-1,2.3E1,6.18E-1,2.31E-1,1.94E-1,4.09E-1,6.71E-1,-5.8762007E-3,-2.4782207E-3,6.380394E-3,1.3053098E-3,5.446704E-3,2.7839385E-3,-1.4340265E-3,2.541839E-3],"split_indices":[3,81,55,3,55,55,3,0,0,0,0,0,0,0,0],"split_type":[0,0,0,0,0,0,0,0,0,0,0,0,0,0,0],"sum_hessian":[6.2204775E3,2.1362795E3,4.084198E3,1.6469893E3,4.8929028E2,3.0086404E3,1.0755576E3,2.8368793E2,1.3633014E3,5.163973E1,4.3765057E2,1.129725E3,1.8789154E3,7.959224E2,2.796352E2],"tree_param":{"num_deleted":"0","num_feature":"106","num_nodes":"15","size_leaf_vector":"1"}},{"base_weights":[-1.08567506E-1,1.10132664E-1,-3.2547486E-1,2.775134E-1,-1.3569039E-1,-1.20311916E-1,-4.81184E-1,2.1793062E-3,5.7997387E-3,-3.015794E-3,4.615679E-4,-3.20289E-3,-1.8569348E-4,-4.443276E-3,-7.7452688E-3],"categories":[],"categories_nodes":[],"categories_segments":[],"categories_sizes":[],"default_left":[0,0,0,0,0,0,0,0,0,0,0,0,0,0,0],"id":70,"left_children":[1,3,5,7,9,11,13,-1,-1,-1,-1,-1,-1,-1,-1],"loss_changes":[2.949411E2,1.2743811E2,9.965729E1,3.3075897E1,3.7870445E1,2.7423788E1,1.8838104E1,0E0,0E0,0E0,0E0,0E0,0E0,0E0,0E0],"parents":[2147483647,0,0,1,1,2,2,3,3,4,4,5,5,6,6],"right_children":[2,4,6,8,10,12,14,-1,-1,-1,-1,-1,-1,-1,-1],"split_conditions":[5.14E-1,1.7E1,1.2E1,7.33E-1,2.2E1,5E0,7.85E-1,2.1793062E-3,5.7997387E-3,-3.015794E-3,4.615679E-4,-3.20289E-3,-1.8569348E-4,-4.443276E-3,-7.7452688E-3],"split_indices":[3,80,80,55,27,28,3,0,0,0,0,0,0,0,0],"split_type":[0,0,0,0,0,0,0,0,0,0,0,0,0,0,0],"sum_hessian":[6.215689E3,3.0952986E3,3.1203901E3,1.8413772E3,1.2539214E3,1.3471514E3,1.7732388E3,1.5397723E3,3.016048E2,6.553886E2,5.9853284E2,4.5354715E2,8.9360425E2,1.5775465E3,1.9569226E2],"tree_param":{"num_deleted":"0","num_feature":"106","num_nodes":"15","size_leaf_vector":"1"}},{"base_weights":[1.085675E-1,-1.10132664E-1,3.2547486E-1,-2.775134E-1,1.3569038E-1,1.20311916E-1,4.81184E-1,-2.1793065E-3,-5.7997387E-3,3.0157939E-3,-4.6156798E-4,3.2028898E-3,1.8569363E-4,4.443276E-3,7.7452688E-3],"categories":[],"categories_nodes":[],"categories_segments":[],"categories_sizes":[],"default_left":[0,0,0,0,0,0,0,0,0,0,0,0,0,0,0],"id":71,"left_children":[1,3,5,7,9,11,13,-1,-1,-1,-1,-1,-1,-1,-1],"loss_changes":[2.949411E2,1.2743811E2,9.965723E1,3.3075882E1,3.787044E1,2.742378E1,1.8838135E1,0E0,0E0,0E0,0E0,0E0,0E0,0E0,0E0],"parents":[2147483647,0,0,1,1,2,2,3,3,4,4,5,5,6,6],"right_children":[2,4,6,8,10,12,14,-1,-1,-1,-1,-1,-1,-1,-1],"split_conditions":[5.14E-1,1.7E1,1.2E1,7.33E-1,2.2E1,5E0,7.85E-1,-2.1793065E-3,-5.7997387E-3,3.0157939E-3,-4.6156798E-4,3.2028898E-3,1.8569363E-4,4.443276E-3,7.7452688E-3],"split_indices":[3,80,80,55,27,28,3,0,0,0,0,0,0,0,0],"split_type":[0,0,0,0,0,0,0,0,0,0,0,0,0,0,0],"sum_hessian":[6.215689E3,3.0952986E3,3.1203901E3,1.8413772E3,1.2539214E3,1.3471514E3,1.7732388E3,1.5397723E3,3.016048E2,6.553886E2,5.9853284E2,4.5354715E2,8.9360425E2,1.5775465E3,1.9569226E2],"tree_param":{"num_deleted":"0","num_feature":"106","num_nodes":"15","size_leaf_vector":"1"}},{"base_weights":[-1.0757055E-1,1.4532779E-1,-2.9197124E-1,-7.926207E-2,3.1963545E-1,-4.023227E-1,1.2656628E-2,-1.9209196E-3,1.5131158E-3,5.1133144E-3,2.3589043E-3,-5.6042937E-3,-3.070333E-3,1.2106311E-3,-2.4912085E-3],"categories":[],"categories_nodes":[],"categories_segments":[],"categories_sizes":[],"default_left":[0,0,0,0,0,0,0,0,0,0,0,0,0,0,0],"id":72,"left_children":[1,3,5,7,9,11,13,-1,-1,-1,-1,-1,-1,-1,-1],"loss_changes":[2.897237E2,1.0259364E2,1.20777374E2,2.983478E1,2.356398E1,3.956195E1,2.7169493E1,0E0,0E0,0E0,0E0,0E0,0E0,0E0,0E0],"parents":[2147483647,0,0,1,1,2,2,3,3,4,4,5,5,6,6],"right_children":[2,4,6,8,10,12,14,-1,-1,-1,-1,-1,-1,-1,-1],"split_conditions":[4.89E-1,4.93E-1,6.18E-1,2.6E1,-5.9E0,4.07E-1,6.71E-1,-1.9209196E-3,1.5131158E-3,5.1133144E-3,2.3589043E-3,-5.6042937E-3,-3.070333E-3,1.2106311E-3,-2.4912085E-3],"split_indices":[3,55,55,28,25,55,3,0,0,0,0,0,0,0,0],"split_type":[0,0,0,0,0,0,0,0,0,0,0,0,0,0,0],"sum_hessian":[6.2107207E3,2.619032E3,3.5916885E3,1.144686E3,1.4743461E3,2.6363499E3,9.5533856E2,7.68696E2,3.7599008E2,4.467074E2,1.0276387E3,9.8956177E2,1.6467881E3,6.759527E2,2.7938593E2],"tree_param":{"num_deleted":"0","num_feature":"106","num_nodes":"15","size_leaf_vector":"1"}},{"base_weights":[1.0757055E-1,-1.4532778E-1,2.9197124E-1,7.926207E-2,-3.1963545E-1,4.023227E-1,-1.2656638E-2,1.9209196E-3,-1.5131157E-3,-5.1133144E-3,-2.3589043E-3,5.6042937E-3,3.0703326E-3,-1.2106315E-3,2.4912087E-3],"categories":[],"categories_nodes":[],"categories_segments":[],"categories_sizes":[],"default_left":[0,0,0,0,0,0,0,0,0,0,0,0,0,0,0],"id":73,"left_children":[1,3,5,7,9,11,13,-1,-1,-1,-1,-1,-1,-1,-1],"loss_changes":[2.8972366E2,1.02593636E2,1.20777405E2,2.9834778E1,2.356398E1,3.956195E1,2.7169504E1,0E0,0E0,0E0,0E0,0E0,0E0,0E0,0E0],"parents":[2147483647,0,0,1,1,2,2,3,3,4,4,5,5,6,6],"right_children":[2,4,6,8,10,12,14,-1,-1,-1,-1,-1,-1,-1,-1],"split_conditions":[4.89E-1,4.93E-1,6.18E-1,2.6E1,-5.9E0,4.07E-1,6.71E-1,1.9209196E-3,-1.5131157E-3,-5.1133144E-3,-2.3589043E-3,5.6042937E-3,3.0703326E-3,-1.2106315E-3,2.4912087E-3],"split_indices":[3,55,55,28,25,55,3,0,0,0,0,0,0,0,0],"split_type":[0,0,0,0,0,0,0,0,0,0,0,0,0,0,0],"sum_hessian":[6.2107207E3,2.6190322E3,3.5916885E3,1.144686E3,1.4743461E3,2.6363499E3,9.553386E2,7.68696E2,3.7599008E2,4.467074E2,1.0276387E3,9.8956177E2,1.646788E3,6.759527E2,2.7938593E2],"tree_param":{"num_deleted":"0","num_feature":"106","num_nodes":"15","size_leaf_vector":"1"}},{"base_weights":[-1.0658581E-1,1.08336315E-1,-3.1997272E-1,2.7281553E-1,-1.3311109E-1,-1.17959656E-1,-4.7375613E-1,2.1573058E-3,5.8276695E-3,-2.7009146E-3,8.0048456E-4,-2.035115E-3,1.1665164E-3,-6.4321933E-3,-4.1037924E-3],"categories":[],"categories_nodes":[],"categories_segments":[],"categories_sizes":[],"default_left":[0,0,0,0,0,0,0,0,0,0,0,0,0,0,0],"id":74,"left_children":[1,3,5,7,9,11,13,-1,-1,-1,-1,-1,-1,-1,-1],"loss_changes":[2.8467474E2,1.2286397E2,9.670398E1,3.2430206E1,3.663351E1,2.7070904E1,1.8725311E1,0E0,0E0,0E0,0E0,0E0,0E0,0E0,0E0],"parents":[2147483647,0,0,1,1,2,2,3,3,4,4,5,5,6,6],"right_children":[2,4,6,8,10,12,14,-1,-1,-1,-1,-1,-1,-1,-1],"split_conditions":[5.14E-1,1.7E1,1.2E1,7.38E-1,2.4E1,6.2E0,3.29E-1,2.1573058E-3,5.8276695E-3,-2.7009146E-3,8.0048456E-4,-2.035115E-3,1.1665164E-3,-6.4321933E-3,-4.1037924E-3],"split_indices":[3,80,80,55,28,77,55,0,0,0,0,0,0,0,0],"split_type":[0,0,0,0,0,0,0,0,0,0,0,0,0,0,0],"sum_hessian":[6.2055054E3,3.0918767E3,3.113629E3,1.838988E3,1.2528885E3,1.3465457E3,1.7670831E3,1.5544036E3,2.8458447E2,7.625757E2,4.903128E2,9.86828E2,3.597177E2,4.7849298E2,1.2885902E3],"tree_param":{"num_deleted":"0","num_feature":"106","num_nodes":"15","size_leaf_vector":"1"}},{"base_weights":[1.065858E-1,-1.08336315E-1,3.1997272E-1,-2.728155E-1,1.3311104E-1,1.1795964E-1,4.7375613E-1,-2.1573056E-3,-5.8276686E-3,2.7009144E-3,-8.0048456E-4,2.0351147E-3,-1.1665166E-3,6.432193E-3,4.103793E-3],"categories":[],"categories_nodes":[],"categories_segments":[],"categories_sizes":[],"default_left":[0,0,0,0,0,0,0,0,0,0,0,0,0,0,0],"id":75,"left_children":[1,3,5,7,9,11,13,-1,-1,-1,-1,-1,-1,-1,-1],"loss_changes":[2.8467474E2,1.2286394E2,9.670398E1,3.2430206E1,3.66335E1,2.7070902E1,1.8725311E1,0E0,0E0,0E0,0E0,0E0,0E0,0E0,0E0],"parents":[2147483647,0,0,1,1,2,2,3,3,4,4,5,5,6,6],"right_children":[2,4,6,8,10,12,14,-1,-1,-1,-1,-1,-1,-1,-1],"split_conditions":[5.14E-1,1.7E1,1.2E1,7.38E-1,2.4E1,6.2E0,3.29E-1,-2.1573056E-3,-5.8276686E-3,2.7009144E-3,-8.0048456E-4,2.0351147E-3,-1.1665166E-3,6.432193E-3,4.103793E-3],"split_indices":[3,80,80,55,28,77,55,0,0,0,0,0,0,0,0],"split_type":[0,0,0,0,0,0,0,0,0,0,0,0,0,0,0],"sum_hessian":[6.2055054E3,3.0918767E3,3.113629E3,1.838988E3,1.2528885E3,1.3465457E3,1.7670831E3,1.5544036E3,2.8458447E2,7.625757E2,4.9031284E2,9.86828E2,3.597177E2,4.7849295E2,1.2885902E3],"tree_param":{"num_deleted":"0","num_feature":"106","num_nodes":"15","size_leaf_vector":"1"}},{"base_weights":[-1.0561009E-1,1.8799086E-1,-2.5941673E-1,2.9798532E-1,-1.814202E-1,-3.6652714E-1,3.903732E-2,5.7551754E-3,2.4002613E-3,-6.288305E-3,-1.2737786E-3,-2.4059904E-3,-4.953E-3,1.3931764E-3,-2.4615626E-3],"categories":[],"categories_nodes":[],"categories_segments":[],"categories_sizes":[],"default_left":[0,0,0,0,0,0,0,0,0,0,0,0,0,0,0],"id":76,"left_children":[1,3,5,7,9,11,13,-1,-1,-1,-1,-1,-1,-1,-1],"loss_changes":[2.800869E2,8.670138E1,1.3011896E2,2.6299164E1,1.1764864E1,4.8450134E1,3.0800642E1,0E0,0E0,0E0,0E0,0E0,0E0,0E0,0E0],"parents":[2147483647,0,0,1,1,2,2,3,3,4,4,5,5,6,6],"right_children":[2,4,6,8,10,12,14,-1,-1,-1,-1,-1,-1,-1,-1],"split_conditions":[4.47E-1,2.3E1,6.18E-1,2.31E-1,1.94E-1,5.92E-1,6.71E-1,5.7551754E-3,2.4002613E-3,-6.288305E-3,-1.2737786E-3,-2.4059904E-3,-4.953E-3,1.3931764E-3,-2.4615626E-3],"split_indices":[3,81,55,3,55,3,3,0,0,0,0,0,0,0,0],"split_type":[0,0,0,0,0,0,0,0,0,0,0,0,0,0,0],"sum_hessian":[6.200327E3,2.1314285E3,4.0688987E3,1.6425441E3,4.888844E2,2.9941262E3,1.0747726E3,2.8222174E2,1.3603224E3,5.1541595E1,4.373428E2,1.515234E3,1.4788921E3,7.955509E2,2.7922165E2],"tree_param":{"num_deleted":"0","num_feature":"106","num_nodes":"15","size_leaf_vector":"1"}},{"base_weights":[1.0561008E-1,-1.8799086E-1,2.594167E-1,-2.979853E-1,1.8142019E-1,3.6652714E-1,-3.9037324E-2,-5.7551754E-3,-2.400261E-3,6.288304E-3,1.2737786E-3,2.4059904E-3,4.9529998E-3,-1.3931764E-3,2.4615626E-3],"categories":[],"categories_nodes":[],