{"learner":{"attributes":{},"feature_names":[],"feature_types":[],"gradient_booster":{"model":{"gbtree_model_param":{"num_parallel_tree":"1","num_trees":"1500"},"iteration_indptr":[0,2,4,6,8,10,12,14,16,18,20,22,24,26,28,30,32,34,36,38,40,42,44,46,48,50,52,54,56,58,60,62,64,66,68,70,72,74,76,78,80,82,84,86,88,90,92,94,96,98,100,102,104,106,108,110,112,114,116,118,120,122,124,126,128,130,132,134,136,138,140,142,144,146,148,150,152,154,156,158,160,162,164,166,168,170,172,174,176,178,180,182,184,186,188,190,192,194,196,198,200,202,204,206,208,210,212,214,216,218,220,222,224,226,228,230,232,234,236,238,240,242,244,246,248,250,252,254,256,258,260,262,264,266,268,270,272,274,276,278,280,282,284,286,288,290,292,294,296,298,300,302,304,306,308,310,312,314,316,318,320,322,324,326,328,330,332,334,336,338,340,342,344,346,348,350,352,354,356,358,360,362,364,366,368,370,372,374,376,378,380,382,384,386,388,390,392,394,396,398,400,402,404,406,408,410,412,414,416,418,420,422,424,426,428,430,432,434,436,438,440,442,444,446,448,450,452,454,456,458,460,462,464,466,468,470,472,474,476,478,480,482,484,486,488,490,492,494,496,498,500,502,504,506,508,510,512,514,516,518,520,522,524,526,528,530,532,534,536,538,540,542,544,546,548,550,552,554,556,558,560,562,564,566,568,570,572,574,576,578,580,582,584,586,588,590,592,594,596,598,600,602,604,606,608,610,612,614,616,618,620,622,624,626,628,630,632,634,636,638,640,642,644,646,648,650,652,654,656,658,660,662,664,666,668,670,672,674,676,678,680,682,684,686,688,690,692,694,696,698,700,702,704,706,708,710,712,714,716,718,720,722,724,726,728,730,732,734,736,738,740,742,744,746,748,750,752,754,756,758,760,762,764,766,768,770,772,774,776,778,780,782,784,786,788,790,792,794,796,798,800,802,804,806,808,810,812,814,816,818,820,822,824,826,828,830,832,834,836,838,840,842,844,846,848,850,852,854,856,858,860,862,864,866,868,870,872,874,876,878,880,882,884,886,888,890,892,894,896,898,900,902,904,906,908,910,912,914,916,918,920,922,924,926,928,930,932,934,936,938,940,942,944,946,948,950,952,954,956,958,960,962,964,966,968,970,972,974,976,978,980,982,984,986,988,990,992,994,996,998,1000,1002,1004,1006,1008,1010,1012,1014,1016,1018,1020,1022,1024,1026,1028,1030,1032,1034,1036,1038,1040,1042,1044,1046,1048,1050,1052,1054,1056,1058,1060,1062,1064,1066,1068,1070,1072,1074,1076,1078,1080,1082,1084,1086,1088,1090,1092,1094,1096,1098,1100,1102,1104,1106,1108,1110,1112,1114,1116,1118,1120,1122,1124,1126,1128,1130,1132,1134,1136,1138,1140,1142,1144,1146,1148,1150,1152,1154,1156,1158,1160,1162,1164,1166,1168,1170,1172,1174,1176,1178,1180,1182,1184,1186,1188,1190,1192,1194,1196,1198,1200,1202,1204,1206,1208,1210,1212,1214,1216,1218,1220,1222,1224,1226,1228,1230,1232,1234,1236,1238,1240,1242,1244,1246,1248,1250,1252,1254,1256,1258,1260,1262,1264,1266,1268,1270,1272,1274,1276,1278,1280,1282,1284,1286,1288,1290,1292,1294,1296,1298,1300,1302,1304,1306,1308,1310,1312,1314,1316,1318,1320,1322,1324,1326,1328,1330,1332,1334,1336,1338,1340,1342,1344,1346,1348,1350,1352,1354,1356,1358,1360,1362,1364,1366,1368,1370,1372,1374,1376,1378,1380,1382,1384,1386,1388,1390,1392,1394,1396,1398,1400,1402,1404,1406,1408,1410,1412,1414,1416,1418,1420,1422,1424,1426,1428,1430,1432,1434,1436,1438,1440,1442,1444,1446,1448,1450,1452,1454,1456,1458,1460,1462,1464,1466,1468,1470,1472,1474,1476,1478,1480,1482,1484,1486,1488,1490,1492,1494,1496,1498,1500],"tree_info":[0,1,0,1,0,1,0,1,0,1,0,1,0,1,0,1,0,1,0,1,0,1,0,1,0,1,0,1,0,1,0,1,0,1,0,1,0,1,0,1,0,1,0,1,0,1,0,1,0,1,0,1,0,1,0,1,0,1,0,1,0,1,0,1,0,1,0,1,0,1,0,1,0,1,0,1,0,1,0,1,0,1,0,1,0,1,0,1,0,1,0,1,0,1,0,1,0,1,0,1,0,1,0,1,0,1,0,1,0,1,0,1,0,1,0,1,0,1,0,1,0,1,0,1,0,1,0,1,0,1,0,1,0,1,0,1,0,1,0,1,0,1,0,1,0,1,0,1,0,1,0,1,0,1,0,1,0,1,0,1,0,1,0,1,0,1,0,1,0,1,0,1,0,1,0,1,0,1,0,1,0,1,0,1,0,1,0,1,0,1,0,1,0,1,0,1,0,1,0,1,0,1,0,1,0,1,0,1,0,1,0,1,0,1,0,1,0,1,0,1,0,1,0,1,0,1,0,1,0,1,0,1,0,1,0,1,0,1,0,1,0,1,0,1,0,1,0,1,0,1,0,1,0,1,0,1,0,1,0,1,0,1,0,1,0,1,0,1,0,1,0,1,0,1,0,1,0,1,0,1,0,1,0,1,0,1,0,1,0,1,0,1,0,1,0,1,0,1,0,1,0,1,0,1,0,1,0,1,0,1,0,1,0,1,0,1,0,1,0,1,0,1,0,1,0,1,0,1,0,1,0,1,0,1,0,1,0,1,0,1,0,1,0,1,0,1,0,1,0,1,0,1,0,1,0,1,0,1,0,1,0,1,0,1,0,1,0,1,0,1,0,1,0,1,0,1,0,1,0,1,0,1,0,1,0,1,0,1,0,1,0,1,0,1,0,1,0,1,0,1,0,1,0,1,0,1,0,1,0,1,0,1,0,1,0,1,0,1,0,1,0,1,0,1,0,1,0,1,0,1,0,1,0,1,0,1,0,1,0,1,0,1,0,1,0,1,0,1,0,1,0,1,0,1,0,1,0,1,0,1,0,1,0,1,0,1,0,1,0,1,0,1,0,1,0,1,0,1,0,1,0,1,0,1,0,1,0,1,0,1,0,1,0,1,0,1,0,1,0,1,0,1,0,1,0,1,0,1,0,1,0,1,0,1,0,1,0,1,0,1,0,1,0,1,0,1,0,1,0,1,0,1,0,1,0,1,0,1,0,1,0,1,0,1,0,1,0,1,0,1,0,1,0,1,0,1,0,1,0,1,0,1,0,1,0,1,0,1,0,1,0,1,0,1,0,1,0,1,0,1,0,1,0,1,0,1,0,1,0,1,0,1,0,1,0,1,0,1,0,1,0,1,0,1,0,1,0,1,0,1,0,1,0,1,0,1,0,1,0,1,0,1,0,1,0,1,0,1,0,1,0,1,0,1,0,1,0,1,0,1,0,1,0,1,0,1,0,1,0,1,0,1,0,1,0,1,0,1,0,1,0,1,0,1,0,1,0,1,0,1,0,1,0,1,0,1,0,1,0,1,0,1,0,1,0,1,0,1,0,1,0,1,0,1,0,1,0,1,0,1,0,1,0,1,0,1,0,1,0,1,0,1,0,1,0,1,0,1,0,1,0,1,0,1,0,1,0,1,0,1,0,1,0,1,0,1,0,1,0,1,0,1,0,1,0,1,0,1,0,1,0,1,0,1,0,1,0,1,0,1,0,1,0,1,0,1,0,1,0,1,0,1,0,1,0,1,0,1,0,1,0,1,0,1,0,1,0,1,0,1,0,1,0,1,0,1,0,1,0,1,0,1,0,1,0,1,0,1,0,1,0,1,0,1,0,1,0,1,0,1,0,1,0,1,0,1,0,1,0,1,0,1,0,1,0,1,0,1,0,1,0,1,0,1,0,1,0,1,0,1,0,1,0,1,0,1,0,1,0,1,0,1,0,1,0,1,0,1,0,1,0,1,0,1,0,1,0,1,0,1,0,1,0,1,0,1,0,1,0,1,0,1,0,1,0,1,0,1,0,1,0,1,0,1,0,1,0,1,0,1,0,1,0,1,0,1,0,1,0,1,0,1,0,1,0,1,0,1,0,1,0,1,0,1,0,1,0,1,0,1,0,1,0,1,0,1,0,1,0,1,0,1,0,1,0,1,0,1,0,1,0,1,0,1,0,1,0,1,0,1,0,1,0,1,0,1,0,1,0,1,0,1,0,1,0,1,0,1,0,1,0,1,0,1,0,1,0,1,0,1,0,1,0,1,0,1,0,1,0,1,0,1,0,1,0,1,0,1,0,1,0,1,0,1,0,1,0,1,0,1,0,1,0,1,0,1,0,1,0,1,0,1,0,1,0,1,0,1,0,1,0,1,0,1,0,1,0,1,0,1,0,1,0,1,0,1,0,1,0,1,0,1,0,1,0,1,0,1,0,1,0,1,0,1,0,1,0,1,0,1,0,1,0,1,0,1,0,1,0,1,0,1,0,1,0,1,0,1,0,1,0,1,0,1,0,1,0,1,0,1,0,1,0,1,0,1,0,1,0,1,0,1,0,1,0,1,0,1,0,1,0,1,0,1,0,1,0,1,0,1,0,1,0,1,0,1,0,1,0,1,0,1,0,1,0,1,0,1,0,1,0,1,0,1,0,1,0,1,0,1,0,1,0,1,0,1,0,1,0,1,0,1,0,1,0,1,0,1,0,1,0,1,0,1,0,1,0,1,0,1,0,1,0,1,0,1,0,1,0,1,0,1,0,1,0,1,0,1,0,1,0,1,0,1,0,1,0,1,0,1,0,1,0,1,0,1,0,1,0,1,0,1,0,1,0,1,0,1,0,1,0,1,0,1,0,1,0,1,0,1,0,1,0,1,0,1,0,1,0,1,0,1,0,1,0,1,0,1,0,1,0,1,0,1,0,1,0,1,0,1,0,1,0,1,0,1,0,1,0,1,0,1,0,1,0,1,0,1,0,1,0,1,0,1,0,1,0,1,0,1,0,1,0,1,0,1,0,1,0,1,0,1,0,1,0,1,0,1,0,1,0,1,0,1,0,1,0,1,0,1,0,1,0,1,0,1,0,1,0,1,0,1,0,1,0,1,0,1,0,1,0,1,0,1,0,1,0,1,0,1,0,1,0,1,0,1,0,1,0,1,0,1,0,1,0,1,0,1,0,1,0,1,0,1,0,1,0,1,0,1,0,1,0,1,0,1,0,1,0,1,0,1,0,1,0,1,0,1,0,1,0,1,0,1,0,1,0,1,0,1,0,1,0,1,0,1,0,1,0,1,0,1,0,1,0,1,0,1,0,1,0,1,0,1,0,1,0,1,0,1,0,1,0,1,0,1,0,1,0,1,0,1,0,1,0,1,0,1,0,1],"trees":[{"base_weights":[-1.5343246E-1,2.4312527E-1,-3.7872022E-1,-1.4155251E-1,4.3625042E-1,-9.504373E-2,-5.8843833E-1,-3.4403668E-3,1.2518854E-3,7.621832E-3,3.7007874E-3,-2.8883638E-3,9.373203E-4,-4.4254935E-3,-7.2282157E-3],"categories":[],"categories_nodes":[],"categories_segments":[],"categories_sizes":[],"default_left":[0,0,0,0,0,0,0,0,0,0,0,0,0,0,0],"id":0,"left_children":[1,3,5,7,9,11,13,-1,-1,-1,-1,-1,-1,-1,-1],"loss_changes":[5.648971E2,1.7026233E2,2.3981622E2,4.144238E1,3.26192E1,6.2767532E1,4.512451E1,0E0,0E0,0E0,0E0,0E0,0E0,0E0,0E0],"parents":[2147483647,0,0,1,1,2,2,3,3,4,4,5,5,6,6],"right_children":[2,4,6,8,10,12,14,-1,-1,-1,-1,-1,-1,-1,-1],"split_conditions":[4.58E-1,4.4E-1,1.2E1,2.5E1,2.3E-1,9E0,5.94E-1,-3.4403668E-3,1.2518854E-3,7.621832E-3,3.7007874E-3,-2.8883638E-3,9.373203E-4,-4.4254935E-3,-7.2282157E-3],"split_indices":[3,55,80,28,3,29,3,0,0,0,0,0,0,0,0],"split_type":[0,0,0,0,0,0,0,0,0,0,0,0,0,0,0],"sum_hessian":[6.321E3,2.29E3,4.031E3,7.655E2,1.5245E3,1.714E3,2.317E3,4.35E2,3.305E2,2.555E2,1.269E3,8.455E2,8.685E2,1.113E3,1.204E3],"tree_param":{"num_deleted":"0","num_feature":"106","num_nodes":"15","size_leaf_vector":"1"}},{"base_weights":[1.5343246E-1,-2.4312527E-1,3.7872022E-1,1.4155251E-1,-4.3625042E-1,9.504373E-2,5.8843833E-1,3.4403668E-3,-1.2518854E-3,-7.621832E-3,-3.7007874E-3,2.8883638E-3,-9.373203E-4,4.4254935E-3,7.2282157E-3],"categories":[],"categories_nodes":[],"categories_segments":[],"categories_sizes":[],"default_left":[0,0,0,0,0,0,0,0,0,0,0,0,0,0,0],"id":1,"left_children":[1,3,5,7,9,11,13,-1,-1,-1,-1,-1,-1,-1,-1],"loss_changes":[5.648971E2,1.7026233E2,2.3981622E2,4.144238E1,3.26192E1,6.2767532E1,4.512451E1,0E0,0E0,0E0,0E0,0E0,0E0,0E0,0E0],"parents":[2147483647,0,0,1,1,2,2,3,3,4,4,5,5,6,6],"right_children":[2,4,6,8,10,12,14,-1,-1,-1,-1,-1,-1,-1,-1],"split_conditions":[4.58E-1,4.4E-1,1.2E1,2.5E1,2.3E-1,9E0,5.94E-1,3.4403668E-3,-1.2518854E-3,-7.621832E-3,-3.7007874E-3,2.8883638E-3,-9.373203E-4,4.4254935E-3,7.2282157E-3],"split_indices":[3,55,80,28,3,29,3,0,0,0,0,0,0,0,0],"split_type":[0,0,0,0,0,0,0,0,0,0,0,0,0,0,0],"sum_hessian":[6.321E3,2.29E3,4.031E3,7.655E2,1.5245E3,1.714E3,2.317E3,4.35E2,3.305E2,2.555E2,1.269E3,8.455E2,8.685E2,1.113E3,1.204E3],"tree_param":{"num_deleted":"0","num_feature":"106","num_nodes":"15","size_leaf_vector":"1"}},{"base_weights":[-1.5190199E-1,2.4070205E-1,-3.7494507E-1,-1.4014085E-1,4.3190452E-1,-9.409485E-2,-5.825803E-1,-3.4060823E-3,1.2394069E-3,8.1491945E-3,3.7664145E-3,-2.8595375E-3,9.2795846E-4,-7.632631E-3,-4.7439174E-3],"categories":[],"categories_nodes":[],"categories_segments":[],"categories_sizes":[],"default_left":[0,0,0,0,0,0,0,0,0,0,0,0,0,0,0],"id":2,"left_children":[1,3,5,7,9,11,13,-1,-1,-1,-1,-1,-1,-1,-1],"loss_changes":[5.536813E2,1.6688403E2,2.3506348E2,4.0620224E1,3.1981995E1,6.1520405E1,4.494806E1,0E0,0E0,0E0,0E0,0E0,0E0,0E0,0E0],"parents":[2147483647,0,0,1,1,2,2,3,3,4,4,5,5,6,6],"right_children":[2,4,6,8,10,12,14,-1,-1,-1,-1,-1,-1,-1,-1],"split_conditions":[4.58E-1,4.4E-1,1.2E1,2.5E1,2.06E-1,9E0,3.68E-1,-3.4060823E-3,1.2394069E-3,8.1491945E-3,3.7664145E-3,-2.8595375E-3,9.2795846E-4,-7.632631E-3,-4.7439174E-3],"split_indices":[3,55,80,28,3,29,55,0,0,0,0,0,0,0,0],"split_type":[0,0,0,0,0,0,0,0,0,0,0,0,0,0,0],"sum_hessian":[6.3208696E3,2.2899622E3,4.0309075E3,7.654943E2,1.5244678E3,1.7139922E3,2.3169153E3,4.3499484E2,3.3049948E2,1.9048892E2,1.3339789E3,8.45493E2,8.684992E2,8.654676E2,1.4514478E3],"tree_param":{"num_deleted":"0","num_feature":"106","num_nodes":"15","size_leaf_vector":"1"}},{"base_weights":[1.5190199E-1,-2.4070202E-1,3.7494504E-1,1.4014088E-1,-4.3190452E-1,9.4094895E-2,5.8258027E-1,3.4060823E-3,-1.239406E-3,-8.149195E-3,-3.7664142E-3,2.8595384E-3,-9.2795846E-4,7.6326304E-3,4.7439164E-3],"categories":[],"categories_nodes":[],"categories_segments":[],"categories_sizes":[],"default_left":[0,0,0,0,0,0,0,0,0,0,0,0,0,0,0],"id":3,"left_children":[1,3,5,7,9,11,13,-1,-1,-1,-1,-1,-1,-1,-1],"loss_changes":[5.5368115E2,1.6688406E2,2.3506335E2,4.062021E1,3.1981995E1,6.152044E1,4.494818E1,0E0,0E0,0E0,0E0,0E0,0E0,0E0,0E0],"parents":[2147483647,0,0,1,1,2,2,3,3,4,4,5,5,6,6],"right_children":[2,4,6,8,10,12,14,-1,-1,-1,-1,-1,-1,-1,-1],"split_conditions":[4.58E-1,4.4E-1,1.2E1,2.5E1,2.06E-1,9E0,3.68E-1,3.4060823E-3,-1.239406E-3,-8.149195E-3,-3.7664142E-3,2.8595384E-3,-9.2795846E-4,7.6326304E-3,4.7439164E-3],"split_indices":[3,55,80,28,3,29,55,0,0,0,0,0,0,0,0],"split_type":[0,0,0,0,0,0,0,0,0,0,0,0,0,0,0],"sum_hessian":[6.3208696E3,2.289962E3,4.0309075E3,7.654943E2,1.5244677E3,1.7139922E3,2.3169153E3,4.3499484E2,3.304995E2,1.9048892E2,1.3339788E3,8.454929E2,8.684992E2,8.654676E2,1.4514476E3],"tree_param":{"num_deleted":"0","num_feature":"106","num_nodes":"15","size_leaf_vector":"1"}},{"base_weights":[-1.5039273E-1,2.3831092E-1,-3.7122378E-1,-1.3874531E-1,4.2761987E-1,-9.315633E-2,-5.7682043E-1,-3.3722173E-3,1.2270557E-3,3.4612815E-3,6.8484684E-3,-3.994111E-3,2.2099249E-4,-4.3241773E-3,-7.098484E-3],"categories":[],"categories_nodes":[],"categories_segments":[],"categories_sizes":[],"default_left":[0,0,0,0,0,0,0,0,0,0,0,0,0,0,0],"id":4,"left_children":[1,3,5,7,9,11,13,-1,-1,-1,-1,-1,-1,-1,-1],"loss_changes":[5.427118E2,1.635805E2,2.3043414E2,3.9815315E1,3.173767E1,6.0543068E1,4.421466E1,0E0,0E0,0E0,0E0,0E0,0E0,0E0,0E0],"parents":[2147483647,0,0,1,1,2,2,3,3,4,4,5,5,6,6],"right_children":[2,4,6,8,10,12,14,-1,-1,-1,-1,-1,-1,-1,-1],"split_conditions":[4.58E-1,4.4E-1,1.2E1,2.5E1,6.88E-1,5E0,5.94E-1,-3.3722173E-3,1.2270557E-3,3.4612815E-3,6.8484684E-3,-3.994111E-3,2.2099249E-4,-4.3241773E-3,-7.098484E-3],"split_indices":[3,55,80,28,55,28,3,0,0,0,0,0,0,0,0],"split_type":[0,0,0,0,0,0,0,0,0,0,0,0,0,0,0],"sum_hessian":[6.320493E3,2.289851E3,4.030642E3,7.654776E2,1.5243735E3,1.7139691E3,2.316673E3,4.3497964E2,3.3049796E2,1.1594086E3,3.649649E2,4.679846E2,1.2459845E3,1.1128823E3,1.2037906E3],"tree_param":{"num_deleted":"0","num_feature":"106","num_nodes":"15","size_leaf_vector":"1"}},{"base_weights":[1.5039271E-1,-2.3831092E-1,3.7122375E-1,1.3874531E-1,-4.2761984E-1,9.315627E-2,5.7682043E-1,3.3722173E-3,-1.2270554E-3,-3.4612813E-3,-6.8484684E-3,3.99411E-3,-2.2099284E-4,4.3241773E-3,7.0984825E-3],"categories":[],"categories_nodes":[],"categories_segments":[],"categories_sizes":[],"default_left":[0,0,0,0,0,0,0,0,0,0,0,0,0,0,0],"id":5,"left_children":[1,3,5,7,9,11,13,-1,-1,-1,-1,-1,-1,-1,-1],"loss_changes":[5.427117E2,1.6358054E2,2.304342E2,3.98153E1,3.173761E1,6.054304E1,4.421454E1,0E0,0E0,0E0,0E0,0E0,0E0,0E0,0E0],"parents":[2147483647,0,0,1,1,2,2,3,3,4,4,5,5,6,6],"right_children":[2,4,6,8,10,12,14,-1,-1,-1,-1,-1,-1,-1,-1],"split_conditions":[4.58E-1,4.4E-1,1.2E1,2.5E1,6.88E-1,5E0,5.94E-1,3.3722173E-3,-1.2270554E-3,-3.4612813E-3,-6.8484684E-3,3.99411E-3,-2.2099284E-4,4.3241773E-3,7.0984825E-3],"split_indices":[3,55,80,28,55,28,3,0,0,0,0,0,0,0,0],"split_type":[0,0,0,0,0,0,0,0,0,0,0,0,0,0,0],"sum_hessian":[6.320493E3,2.289851E3,4.0306423E3,7.6547754E2,1.5243734E3,1.7139691E3,2.316673E3,4.349796E2,3.3049792E2,1.1594086E3,3.6496487E2,4.679846E2,1.2459845E3,1.1128823E3,1.2037908E3],"tree_param":{"num_deleted":"0","num_feature":"106","num_nodes":"15","size_leaf_vector":"1"}},{"base_weights":[-1.4890432E-1,2.3594928E-1,-3.67555E-1,-6.6972025E-2,4.6735382E-1,-9.222853E-2,-5.711571E-1,-2.9212502E-3,1.3065994E-3,8.236867E-3,4.1005337E-3,-2.8100933E-3,9.1653387E-4,-7.170463E-3,-4.398483E-3],"categories":[],"categories_nodes":[],"categories_segments":[],"categories_sizes":[],"default_left":[0,0,0,0,0,0,0,0,0,0,0,0,0,0,0],"id":6,"left_children":[1,3,5,7,9,11,13,-1,-1,-1,-1,-1,-1,-1,-1],"loss_changes":[5.3198E2,1.606018E2,2.2592499E2,4.4220375E1,2.618039E1,5.955713E1,4.40755E1,0E0,0E0,0E0,0E0,0E0,0E0,0E0,0E0],"parents":[2147483647,0,0,1,1,2,2,3,3,4,4,5,5,6,6],"right_children":[2,4,6,8,10,12,14,-1,-1,-1,-1,-1,-1,-1,-1],"split_conditions":[4.58E-1,4.92E-1,1.2E1,2.4E1,2.12E-1,9E0,4.04E-1,-2.9212502E-3,1.3065994E-3,8.236867E-3,4.1005337E-3,-2.8100933E-3,9.1653387E-4,-7.170463E-3,-4.398483E-3],"split_indices":[3,55,80,28,3,29,55,0,0,0,0,0,0,0,0],"split_type":[0,0,0,0,0,0,0,0,0,0,0,0,0,0,0],"sum_hessian":[6.319888E3,2.2896782E3,4.03021E3,9.9191595E2,1.2977622E3,1.7139403E3,2.3162698E3,4.6345026E2,5.284657E2,1.7792554E2,1.1198367E3,8.4544415E2,8.684962E2,1.0951044E3,1.2211653E3],"tree_param":{"num_deleted":"0","num_feature":"106","num_nodes":"15","size_leaf_vector":"1"}},{"base_weights":[1.4890431E-1,-2.3594926E-1,3.6755496E-1,6.6972025E-2,-4.6735376E-1,9.222853E-2,5.7115704E-1,2.9212502E-3,-1.3065992E-3,-8.236868E-3,-4.100533E-3,2.8100933E-3,-9.1653387E-4,7.1704625E-3,4.3984824E-3],"categories":[],"categories_nodes":[],"categories_segments":[],"categories_sizes":[],"default_left":[0,0,0,0,0,0,0,0,0,0,0,0,0,0,0],"id":7,"left_children":[1,3,5,7,9,11,13,-1,-1,-1,-1,-1,-1,-1,-1],"loss_changes":[5.3197986E2,1.6060179E2,2.2592499E2,4.422037E1,2.618042E1,5.9557125E1,4.40755E1,0E0,0E0,0E0,0E0,0E0,0E0,0E0,0E0],"parents":[2147483647,0,0,1,1,2,2,3,3,4,4,5,5,6,6],"right_children":[2,4,6,8,10,12,14,-1,-1,-1,-1,-1,-1,-1,-1],"split_conditions":[4.58E-1,4.92E-1,1.2E1,2.4E1,2.12E-1,9E0,4.04E-1,2.9212502E-3,-1.3065992E-3,-8.236868E-3,-4.100533E-3,2.8100933E-3,-9.1653387E-4,7.1704625E-3,4.3984824E-3],"split_indices":[3,55,80,28,3,29,55,0,0,0,0,0,0,0,0],"split_type":[0,0,0,0,0,0,0,0,0,0,0,0,0,0,0],"sum_hessian":[6.319888E3,2.2896782E3,4.03021E3,9.9191595E2,1.2977622E3,1.7139403E3,2.3162698E3,4.6345026E2,5.284657E2,1.7792554E2,1.1198367E3,8.4544415E2,8.684962E2,1.0951045E3,1.2211653E3],"tree_param":{"num_deleted":"0","num_feature":"106","num_nodes":"15","size_leaf_vector":"1"}},{"base_weights":[-1.4743514E-1,2.3361792E-1,-3.6393714E-1,-1.3661829E-1,4.1953164E-1,-9.130993E-2,-5.655853E-1,-3.3158152E-3,1.2018181E-3,7.3694806E-3,3.5512217E-3,-3.926784E-3,2.2094088E-4,-7.431505E-3,-4.5929537E-3],"categories":[],"categories_nodes":[],"categories_segments":[],"categories_sizes":[],"default_left":[0,0,0,0,0,0,0,0,0,0,0,0,0,0,0],"id":8,"left_children":[1,3,5,7,9,11,13,-1,-1,-1,-1,-1,-1,-1,-1],"loss_changes":[5.214823E2,1.577136E2,2.2153033E2,3.8412E1,3.09169E1,5.8617508E1,4.3383057E1,0E0,0E0,0E0,0E0,0E0,0E0,0E0,0E0],"parents":[2147483647,0,0,1,1,2,2,3,3,4,4,5,5,6,6],"right_children":[2,4,6,8,10,12,14,-1,-1,-1,-1,-1,-1,-1,-1],"split_conditions":[4.58E-1,4.4E-1,1.2E1,2.5E1,2.3E-1,5E0,3.68E-1,-3.3158152E-3,1.2018181E-3,7.3694806E-3,3.5512217E-3,-3.926784E-3,2.2094088E-4,-7.431505E-3,-4.5929537E-3],"split_indices":[3,55,80,28,3,28,55,0,0,0,0,0,0,0,0],"split_type":[0,0,0,0,0,0,0,0,0,0,0,0,0,0,0],"sum_hessian":[6.319063E3,2.2894504E3,4.0296125E3,7.6542236E2,1.5240281E3,1.7138923E3,2.3157202E3,4.349307E2,3.3049164E2,2.5532397E2,1.2687041E3,4.6792642E2,1.245966E3,8.648811E2,1.450839E3],"tree_param":{"num_deleted":"0","num_feature":"106","num_nodes":"15","size_leaf_vector":"1"}},{"base_weights":[1.4743516E-1,-2.3361792E-1,3.6393717E-1,1.366183E-1,-4.1953167E-1,9.130999E-2,5.655853E-1,3.3158152E-3,-1.2018178E-3,-7.3694806E-3,-3.551222E-3,3.926784E-3,-2.2094006E-4,7.4315052E-3,4.5929532E-3],"categories":[],"categories_nodes":[],"categories_segments":[],"categories_sizes":[],"default_left":[0,0,0,0,0,0,0,0,0,0,0,0,0,0,0],"id":9,"left_children":[1,3,5,7,9,11,13,-1,-1,-1,-1,-1,-1,-1,-1],"loss_changes":[5.214823E2,1.577136E2,2.2153027E2,3.841199E1,3.09169E1,5.861749E1,4.3383118E1,0E0,0E0,0E0,0E0,0E0,0E0,0E0,0E0],"parents":[2147483647,0,0,1,1,2,2,3,3,4,4,5,5,6,6],"right_children":[2,4,6,8,10,12,14,-1,-1,-1,-1,-1,-1,-1,-1],"split_conditions":[4.58E-1,4.4E-1,1.2E1,2.5E1,2.3E-1,5E0,3.68E-1,3.3158152E-3,-1.2018178E-3,-7.3694806E-3,-3.551222E-3,3.926784E-3,-2.2094006E-4,7.4315052E-3,4.5929532E-3],"split_indices":[3,55,80,28,3,28,55,0,0,0,0,0,0,0,0],"split_type":[0,0,0,0,0,0,0,0,0,0,0,0,0,0,0],"sum_hessian":[6.319063E3,2.2894504E3,4.0296123E3,7.654223E2,1.5240281E3,1.7138923E3,2.3157202E3,4.349307E2,3.3049164E2,2.5532397E2,1.2687041E3,4.6792642E2,1.245966E3,8.648811E2,1.450839E3],"tree_param":{"num_deleted":"0","num_feature":"106","num_nodes":"15","size_leaf_vector":"1"}},{"base_weights":[-1.459867E-1,1.8865222E-1,-3.878156E-1,-1.1018213E-1,4.1961452E-1,-1.1926774E-1,-5.8807975E-1,-3.1005528E-3,1.2680308E-3,6.4003915E-3,3.205921E-3,-2.3517183E-3,1.5712953E-3,-7.218726E-3,-4.6442924E-3],"categories":[],"categories_nodes":[],"categories_segments":[],"categories_sizes":[],"default_left":[0,0,0,0,0,0,0,0,0,0,0,0,0,0,0],"id":10,"left_children":[1,3,5,7,9,11,13,-1,-1,-1,-1,-1,-1,-1,-1],"loss_changes":[5.114405E2,1.8305139E2,1.972237E2,5.482875E1,3.2443573E1,5.0279655E1,3.4425354E1,0E0,0E0,0E0,0E0,0E0,0E0,0E0,0E0],"parents":[2147483647,0,0,1,1,2,2,3,3,4,4,5,5,6,6],"right_children":[2,4,6,8,10,12,14,-1,-1,-1,-1,-1,-1,-1,-1],"split_conditions":[4.9E-1,4.92E-1,1.2E1,2.4E1,-5.9E0,6.9E-1,4.04E-1,-3.1005528E-3,1.2680308E-3,6.4003915E-3,3.205921E-3,-2.3517183E-3,1.5712953E-3,-7.218726E-3,-4.6442924E-3],"split_indices":[3,55,80,28,25,55,55,0,0,0,0,0,0,0,0],"split_type":[0,0,0,0,0,0,0,0,0,0,0,0,0,0,0],"sum_hessian":[6.318E3,2.6505002E3,3.6674995E3,1.1557008E3,1.4947994E3,1.5673407E3,2.1001587E3,6.267728E2,5.2892804E2,4.6166534E2,1.0331342E3,1.1043804E3,4.629604E2,1.0063862E3,1.0937726E3],"tree_param":{"num_deleted":"0","num_feature":"106","num_nodes":"15","size_leaf_vector":"1"}},{"base_weights":[1.4598672E-1,-1.8865217E-1,3.878156E-1,1.10182144E-1,-4.1961446E-1,1.1926772E-1,5.8807975E-1,3.100553E-3,-1.2680308E-3,-6.4003905E-3,-3.2059203E-3,2.351718E-3,-1.5712953E-3,7.218727E-3,4.644292E-3],"categories":[],"categories_nodes":[],"categories_segments":[],"categories_sizes":[],"default_left":[0,0,0,0,0,0,0,0,0,0,0,0,0,0,0],"id":11,"left_children":[1,3,5,7,9,11,13,-1,-1,-1,-1,-1,-1,-1,-1],"loss_changes":[5.1144046E2,1.8305136E2,1.972237E2,5.4828747E1,3.2443573E1,5.027965E1,3.4425354E1,0E0,0E0,0E0,0E0,0E0,0E0,0E0,0E0],"parents":[2147483647,0,0,1,1,2,2,3,3,4,4,5,5,6,6],"right_children":[2,4,6,8,10,12,14,-1,-1,-1,-1,-1,-1,-1,-1],"split_conditions":[4.9E-1,4.92E-1,1.2E1,2.4E1,-5.9E0,6.9E-1,4.04E-1,3.100553E-3,-1.2680308E-3,-6.4003905E-3,-3.2059203E-3,2.351718E-3,-1.5712953E-3,7.218727E-3,4.644292E-3],"split_indices":[3,55,80,28,25,55,55,0,0,0,0,0,0,0,0],"split_type":[0,0,0,0,0,0,0,0,0,0,0,0,0,0,0],"sum_hessian":[6.318E3,2.6505002E3,3.6674995E3,1.1557008E3,1.4947994E3,1.5673408E3,2.1001587E3,6.267728E2,5.2892804E2,4.6166534E2,1.0331342E3,1.1043804E3,4.6296042E2,1.0063862E3,1.0937725E3],"tree_param":{"num_deleted":"0","num_feature":"106","num_nodes":"15","size_leaf_vector":"1"}},{"base_weights":[-1.4455551E-1,2.2922595E-1,-3.5695246E-1,-1.3441172E-1,4.1187054E-1,-8.958551E-2,-5.5483097E-1,-3.25862E-3,1.1772305E-3,3.3177042E-3,6.648152E-3,-2.748367E-3,9.0831466E-4,-4.1218917E-3,-6.862999E-3],"categories":[],"categories_nodes":[],"categories_segments":[],"categories_sizes":[],"default_left":[0,0,0,0,0,0,0,0,0,0,0,0,0,0,0],"id":12,"left_children":[1,3,5,7,9,11,13,-1,-1,-1,-1,-1,-1,-1,-1],"loss_changes":[5.016516E2,1.5213641E2,2.1310846E2,3.703015E1,3.0666748E1,5.7337883E1,4.3133606E1,0E0,0E0,0E0,0E0,0E0,0E0,0E0,0E0],"parents":[2147483647,0,0,1,1,2,2,3,3,4,4,5,5,6,6],"right_children":[2,4,6,8,10,12,14,-1,-1,-1,-1,-1,-1,-1,-1],"split_conditions":[4.58E-1,4.4E-1,1.2E1,2.5E1,6.88E-1,9E0,5.94E-1,-3.25862E-3,1.1772305E-3,3.3177042E-3,6.648152E-3,-2.748367E-3,9.0831466E-4,-4.1218917E-3,-6.862999E-3],"split_indices":[3,55,80,28,55,29,3,0,0,0,0,0,0,0,0],"split_type":[0,0,0,0,0,0,0,0,0,0,0,0,0,0,0],"sum_hessian":[6.3167935E3,2.2888096E3,4.0279836E3,7.653314E2,1.5234783E3,1.7138026E3,2.314181E3,4.3484995E2,3.3048145E2,1.1588243E3,3.6465387E2,8.453147E2,8.684879E2,1.1119104E3,1.2022706E3],"tree_param":{"num_deleted":"0","num_feature":"106","num_nodes":"15","size_leaf_vector":"1"}},{"base_weights":[1.4455552E-1,-2.2922593E-1,3.5695246E-1,1.3441174E-1,-4.1187057E-1,8.958553E-2,5.5483097E-1,3.2586204E-3,-1.1772306E-3,-3.3177042E-3,-6.648152E-3,2.748367E-3,-9.0831425E-4,4.1218917E-3,6.862999E-3],"categories":[],"categories_nodes":[],"categories_segments":[],"categories_sizes":[],"default_left":[0,0,0,0,0,0,0,0,0,0,0,0,0,0,0],"id":13,"left_children":[1,3,5,7,9,11,13,-1,-1,-1,-1,-1,-1,-1,-1],"loss_changes":[5.0165167E2,1.5213641E2,2.1310846E2,3.7030163E1,3.0666748E1,5.7337875E1,4.3133545E1,0E0,0E0,0E0,0E0,0E0,0E0,0E0,0E0],"parents":[2147483647,0,0,1,1,2,2,3,3,4,4,5,5,6,6],"right_children":[2,4,6,8,10,12,14,-1,-1,-1,-1,-1,-1,-1,-1],"split_conditions":[4.58E-1,4.4E-1,1.2E1,2.5E1,6.88E-1,9E0,5.94E-1,3.2586204E-3,-1.1772306E-3,-3.3177042E-3,-6.648152E-3,2.748367E-3,-9.0831425E-4,4.1218917E-3,6.862999E-3],"split_indices":[3,55,80,28,55,29,3,0,0,0,0,0,0,0,0],"split_type":[0,0,0,0,0,0,0,0,0,0,0,0,0,0,0],"sum_hessian":[6.3167935E3,2.2888096E3,4.0279836E3,7.653314E2,1.5234783E3,1.7138027E3,2.314181E3,4.3484995E2,3.3048148E2,1.1588243E3,3.6465387E2,8.453147E2,8.68488E2,1.1119103E3,1.2022706E3],"tree_param":{"num_deleted":"0","num_feature":"106","num_nodes":"15","size_leaf_vector":"1"}},{"base_weights":[-1.4314432E-1,1.8513387E-1,-3.8042244E-1,-1.08280316E-1,4.1196093E-1,-1.17020436E-1,-5.7699865E-1,-3.0451368E-3,1.2434704E-3,6.297619E-3,3.141566E-3,-2.3167278E-3,1.5637329E-3,-7.096906E-3,-4.5441813E-3],"categories":[],"categories_nodes":[],"categories_segments":[],"categories_sizes":[],"default_left":[0,0,0,0,0,0,0,0,0,0,0,0,0,0,0],"id":14,"left_children":[1,3,5,7,9,11,13,-1,-1,-1,-1,-1,-1,-1,-1],"loss_changes":[4.9206952E2,1.7645842E2,1.8978638E2,5.2831036E1,3.1652267E1,4.9192875E1,3.382538E1,0E0,0E0,0E0,0E0,0E0,0E0,0E0,0E0],"parents":[2147483647,0,0,1,1,2,2,3,3,4,4,5,5,6,6],"right_children":[2,4,6,8,10,12,14,-1,-1,-1,-1,-1,-1,-1,-1],"split_conditions":[4.9E-1,4.92E-1,1.2E1,2.4E1,-5.9E0,6.9E-1,4.04E-1,-3.0451368E-3,1.2434704E-3,6.297619E-3,3.141566E-3,-2.3167278E-3,1.5637329E-3,-7.096906E-3,-4.5441813E-3],"split_indices":[3,55,80,28,25,55,55,0,0,0,0,0,0,0,0],"split_type":[0,0,0,0,0,0,0,0,0,0,0,0,0,0,0],"sum_hessian":[6.3153257E3,2.6496755E3,3.6656501E3,1.155496E3,1.4941796E3,1.5672334E3,2.0984167E3,6.266092E2,5.288867E2,4.6135242E2,1.0328271E3,1.1042852E3,4.6294833E2,1.00534906E3,1.0930677E3],"tree_param":{"num_deleted":"0","num_feature":"106","num_nodes":"15","size_leaf_vector":"1"}},{"base_weights":[1.4314435E-1,-1.8513386E-1,3.8042247E-1,1.08280316E-1,-4.119609E-1,1.1702046E-1,5.769987E-1,3.0451368E-3,-1.2434702E-3,-6.297619E-3,-3.1415655E-3,2.3167282E-3,-1.563733E-3,7.096906E-3,4.5441817E-3],"categories":[],"categories_nodes":[],"categories_segments":[],"categories_sizes":[],"default_left":[0,0,0,0,0,0,0,0,0,0,0,0,0,0,0],"id":15,"left_children":[1,3,5,7,9,11,13,-1,-1,-1,-1,-1,-1,-1,-1],"loss_changes":[4.9206952E2,1.7645837E2,1.8978644E2,5.2831024E1,3.1652313E1,4.919289E1,3.382538E1,0E0,0E0,0E0,0E0,0E0,0E0,0E0,0E0],"parents":[2147483647,0,0,1,1,2,2,3,3,4,4,5,5,6,6],"right_children":[2,4,6,8,10,12,14,-1,-1,-1,-1,-1,-1,-1,-1],"split_conditions":[4.9E-1,4.92E-1,1.2E1,2.4E1,-5.9E0,6.9E-1,4.04E-1,3.0451368E-3,-1.2434702E-3,-6.297619E-3,-3.1415655E-3,2.3167282E-3,-1.563733E-3,7.096906E-3,4.5441817E-3],"split_indices":[3,55,80,28,25,55,55,0,0,0,0,0,0,0,0],"split_type":[0,0,0,0,0,0,0,0,0,0,0,0,0,0,0],"sum_hessian":[6.3153257E3,2.6496755E3,3.6656501E3,1.1554958E3,1.4941796E3,1.5672334E3,2.0984167E3,6.266092E2,5.288867E2,4.6135242E2,1.0328271E3,1.1042852E3,4.6294833E2,1.00534906E3,1.0930677E3],"tree_param":{"num_deleted":"0","num_feature":"106","num_nodes":"15","size_leaf_vector":"1"}},{"base_weights":[-1.4175032E-1,2.2493705E-1,-3.5015318E-1,-1.3224731E-1,4.0439802E-1,-8.789462E-2,-5.4441094E-1,-3.2026405E-3,1.1531451E-3,3.2527798E-3,6.5435683E-3,-3.8334485E-3,2.3249497E-4,-4.0341336E-3,-6.744269E-3],"categories":[],"categories_nodes":[],"categories_segments":[],"categories_sizes":[],"default_left":[0,0,0,0,0,0,0,0,0,0,0,0,0,0,0],"id":16,"left_children":[1,3,5,7,9,11,13,-1,-1,-1,-1,-1,-1,-1,-1],"loss_changes":[4.8264056E2,1.4677673E2,2.0509842E2,3.5700657E1,2.992186E1,5.6314377E1,4.213141E1,0E0,0E0,0E0,0E0,0E0,0E0,0E0,0E0],"parents":[2147483647,0,0,1,1,2,2,3,3,4,4,5,5,6,6],"right_children":[2,4,6,8,10,12,14,-1,-1,-1,-1,-1,-1,-1,-1],"split_conditions":[4.58E-1,4.4E-1,1.2E1,2.5E1,6.88E-1,5E0,5.94E-1,-3.2026405E-3,1.1531451E-3,3.2527798E-3,6.5435683E-3,-3.8334485E-3,2.3249497E-4,-4.0341336E-3,-6.744269E-3],"split_indices":[3,55,80,28,55,28,3,0,0,0,0,0,0,0,0],"split_type":[0,0,0,0,0,0,0,0,0,0,0,0,0,0,0],"sum_hessian":[6.3137095E3,2.2879514E3,4.025758E3,7.6520776E2,1.5227437E3,1.7136669E3,2.312091E3,4.3474023E2,3.3046753E2,1.1583802E3,3.643634E2,4.6776788E2,1.245899E3,1.1111703E3,1.2009208E3],"tree_param":{"num_deleted":"0","num_feature":"106","num_nodes":"15","size_leaf_vector":"1"}},{"base_weights":[1.4175035E-1,-2.2493705E-1,3.501532E-1,1.3224733E-1,-4.0439802E-1,8.789463E-2,5.4441094E-1,3.2026411E-3,-1.153146E-3,-3.25278E-3,-6.5435674E-3,3.8334494E-3,-2.3249497E-4,4.034134E-3,6.744269E-3],"categories":[],"categories_nodes":[],"categories_segments":[],"categories_sizes":[],"default_left":[0,0,0,0,0,0,0,0,0,0,0,0,0,0,0],"id":17,"left_children":[1,3,5,7,9,11,13,-1,-1,-1,-1,-1,-1,-1,-1],"loss_changes":[4.8264062E2,1.467768E2,2.0509842E2,3.5700687E1,2.9921814E1,5.6314404E1,4.213141E1,0E0,0E0,0E0,0E0,0E0,0E0,0E0,0E0],"parents":[2147483647,0,0,1,1,2,2,3,3,4,4,5,5,6,6],"right_children":[2,4,6,8,10,12,14,-1,-1,-1,-1,-1,-1,-1,-1],"split_conditions":[4.58E-1,4.4E-1,1.2E1,2.5E1,6.88E-1,5E0,5.94E-1,3.2026411E-3,-1.153146E-3,-3.25278E-3,-6.5435674E-3,3.8334494E-3,-2.3249497E-4,4.034134E-3,6.744269E-3],"split_indices":[3,55,80,28,55,28,3,0,0,0,0,0,0,0,0],"split_type":[0,0,0,0,0,0,0,0,0,0,0,0,0,0,0],"sum_hessian":[6.3137095E3,2.2879514E3,4.025758E3,7.652077E2,1.5227435E3,1.7136669E3,2.312091E3,4.3474023E2,3.304675E2,1.1583802E3,3.643634E2,4.6776785E2,1.245899E3,1.1111703E3,1.2009208E3],"tree_param":{"num_deleted":"0","num_feature":"106","num_nodes":"15","size_leaf_vector":"1"}},{"base_weights":[-1.403755E-1,1.8173364E-1,-3.7325355E-1,-1.0641588E-1,4.04562E-1,-1.1488031E-1,-5.662686E-1,-2.9909296E-3,1.2194247E-3,6.1979317E-3,3.0796304E-3,-2.2830348E-3,1.5555744E-3,-6.9794217E-3,-4.4469466E-3],"categories":[],"categories_nodes":[],"categories_segments":[],"categories_sizes":[],"default_left":[0,0,0,0,0,0,0,0,0,0,0,0,0,0,0],"id":18,"left_children":[1,3,5,7,9,11,13,-1,-1,-1,-1,-1,-1,-1,-1],"loss_changes":[4.7360883E2,1.7016888E2,1.8267075E2,5.0910336E1,3.0878723E1,4.8135227E1,3.3260986E1,0E0,0E0,0E0,0E0,0E0,0E0,0E0,0E0],"parents":[2147483647,0,0,1,1,2,2,3,3,4,4,5,5,6,6],"right_children":[2,4,6,8,10,12,14,-1,-1,-1,-1,-1,-1,-1,-1],"split_conditions":[4.9E-1,4.92E-1,1.2E1,2.4E1,-5.9E0,6.9E-1,4.04E-1,-2.9909296E-3,1.2194247E-3,6.1979317E-3,3.0796304E-3,-2.2830348E-3,1.5555744E-3,-6.9794217E-3,-4.4469466E-3],"split_indices":[3,55,80,28,25,55,55,0,0,0,0,0,0,0,0],"split_type":[0,0,0,0,0,0,0,0,0,0,0,0,0,0,0],"sum_hessian":[6.3118574E3,2.6486094E3,3.663248E3,1.1552393E3,1.49337E3,1.5670986E3,2.0961494E3,6.2640283E2,5.288364E2,4.6093942E2,1.0324307E3,1.1041624E3,4.6293634E2,1.00400116E3,1.0921482E3],"tree_param":{"num_deleted":"0","num_feature":"106","num_nodes":"15","size_leaf_vector":"1"}},{"base_weights":[1.4037551E-1,-1.8173361E-1,3.7325355E-1,1.0641587E-1,-4.0456197E-1,1.1488029E-1,5.662687E-1,2.9909294E-3,-1.2194248E-3,-6.1979312E-3,-3.0796297E-3,2.2830344E-3,-1.5555742E-3,6.9794226E-3,4.446947E-3],"categories":[],"categories_nodes":[],"categories_segments":[],"categories_sizes":[],"default_left":[0,0,0,0,0,0,0,0,0,0,0,0,0,0,0],"id":19,"left_children":[1,3,5,7,9,11,13,-1,-1,-1,-1,-1,-1,-1,-1],"loss_changes":[4.736088E2,1.7016881E2,1.8267078E2,5.091033E1,3.0878723E1,4.8135216E1,3.3260986E1,0E0,0E0,0E0,0E0,0E0,0E0,0E0,0E0],"parents":[2147483647,0,0,1,1,2,2,3,3,4,4,5,5,6,6],"right_children":[2,4,6,8,10,12,14,-1,-1,-1,-1,-1,-1,-1,-1],"split_conditions":[4.9E-1,4.92E-1,1.2E1,2.4E1,-5.9E0,6.9E-1,4.04E-1,2.9909294E-3,-1.2194248E-3,-6.1979312E-3,-3.0796297E-3,2.2830344E-3,-1.5555742E-3,6.9794226E-3,4.446947E-3],"split_indices":[3,55,80,28,25,55,55,0,0,0,0,0,0,0,0],"split_type":[0,0,0,0,0,0,0,0,0,0,0,0,0,0,0],"sum_hessian":[6.3118574E3,2.6486094E3,3.663248E3,1.1552393E3,1.4933701E3,1.5670986E3,2.0961494E3,6.2640283E2,5.288364E2,4.6093945E2,1.0324307E3,1.1041624E3,4.629363E2,1.00400116E3,1.0921482E3],"tree_param":{"num_deleted":"0","num_feature":"106","num_nodes":"15","size_leaf_vector":"1"}},{"base_weights":[-1.3901706E-1,2.3731491E-1,-3.3463466E-1,-1.1088452E-1,4.120095E-1,-1.1471788E-1,-5.6043845E-1,-3.009442E-3,1.146551E-3,7.653299E-3,3.576708E-3,-3.1387913E-3,7.243444E-4,-4.167177E-3,-6.751004E-3],"categories":[],"categories_nodes":[],"categories_segments":[],"categories_sizes":[],"default_left":[0,0,0,0,0,0,0,0,0,0,0,0,0,0,0],"id":20,"left_children":[1,3,5,7,9,11,13,-1,-1,-1,-1,-1,-1,-1,-1],"loss_changes":[4.646667E2,1.3137561E2,2.061576E2,3.0987947E1,2.733281E1,7.8487206E1,3.3480408E1,0E0,0E0,0E0,0E0,0E0,0E0,0E0,0E0],"parents":[2147483647,0,0,1,1,2,2,3,3,4,4,5,5,6,6],"right_children":[2,4,6,8,10,12,14,-1,-1,-1,-1,-1,-1,-1,-1],"split_conditions":[4.47E-1,4.4E-1,1.5E1,2.5E1,2.06E-1,9E0,5.77E-1,-3.009442E-3,1.146551E-3,7.653299E-3,3.576708E-3,-3.1387913E-3,7.243444E-4,-4.167177E-3,-6.751004E-3],"split_indices":[3,55,81,28,3,29,3,0,0,0,0,0,0,0,0],"split_type":[0,0,0,0,0,0,0,0,0,0,0,0,0,0,0],"sum_hessian":[6.309856E3,2.1580176E3,4.1518384E3,7.21098E2,1.4369196E3,2.1041013E3,2.0477369E3,3.9114783E2,3.2995016E2,1.8978926E2,1.2471304E3,1.0190186E3,1.0850826E3,9.107769E2,1.13696E3],"tree_param":{"num_deleted":"0","num_feature":"106","num_nodes":"15","size_leaf_vector":"1"}},{"base_weights":[1.3901703E-1,-2.3731491E-1,3.3463463E-1,1.1088449E-1,-4.120095E-1,1.1471783E-1,5.604384E-1,3.009442E-3,-1.1465519E-3,-7.653299E-3,-3.576708E-3,3.1387906E-3,-7.2434475E-4,4.167177E-3,6.751004E-3],"categories":[],"categories_nodes":[],"categories_segments":[],"categories_sizes":[],"default_left":[0,0,0,0,0,0,0,0,0,0,0,0,0,0,0],"id":21,"left_children":[1,3,5,7,9,11,13,-1,-1,-1,-1,-1,-1,-1,-1],"loss_changes":[4.646667E2,1.3137561E2,2.0615753E2,3.0987963E1,2.733281E1,7.848721E1,3.348047E1,0E0,0E0,0E0,0E0,0E0,0E0,0E0,0E0],"parents":[2147483647,0,0,1,1,2,2,3,3,4,4,5,5,6,6],"right_children":[2,4,6,8,10,12,14,-1,-1,-1,-1,-1,-1,-1,-1],"split_conditions":[4.47E-1,4.4E-1,1.5E1,2.5E1,2.06E-1,9E0,5.77E-1,3.009442E-3,-1.1465519E-3,-7.653299E-3,-3.576708E-3,3.1387906E-3,-7.2434475E-4,4.167177E-3,6.751004E-3],"split_indices":[3,55,81,28,3,29,3,0,0,0,0,0,0,0,0],"split_type":[0,0,0,0,0,0,0,0,0,0,0,0,0,0,0],"sum_hessian":[6.309856E3,2.1580176E3,4.1518384E3,7.2109796E2,1.4369196E3,2.1041013E3,2.0477369E3,3.9114783E2,3.2995016E2,1.8978928E2,1.2471304E3,1.0190186E3,1.0850826E3,9.107769E2,1.13696E3],"tree_param":{"num_deleted":"0","num_feature":"106","num_nodes":"15","size_leaf_vector":"1"}},{"base_weights":[-1.3767564E-1,1.7839798E-1,-3.662593E-1,-1.0464303E-1,3.9735827E-1,-1.123558E-1,-5.561566E-1,-2.9363786E-3,1.1929299E-3,6.0948026E-3,3.0223015E-3,-2.2454222E-3,1.550997E-3,-6.950045E-3,-4.43561E-3],"categories":[],"categories_nodes":[],"categories_segments":[],"categories_sizes":[],"default_left":[0,0,0,0,0,0,0,0,0,0,0,0,0,0,0],"id":22,"left_children":[1,3,5,7,9,11,13,-1,-1,-1,-1,-1,-1,-1,-1],"loss_changes":[4.5586237E2,1.6417041E2,1.7647186E2,4.8956787E1,2.9950699E1,4.707962E1,3.2435608E1,0E0,0E0,0E0,0E0,0E0,0E0,0E0,0E0],"parents":[2147483647,0,0,1,1,2,2,3,3,4,4,5,5,6,6],"right_children":[2,4,6,8,10,12,14,-1,-1,-1,-1,-1,-1,-1,-1],"split_conditions":[4.9E-1,4.92E-1,1.2E1,2.4E1,-5.9E0,6.9E-1,3.94E-1,-2.9363786E-3,1.1929299E-3,6.0948026E-3,3.0223015E-3,-2.2454222E-3,1.550997E-3,-6.950045E-3,-4.43561E-3],"split_indices":[3,55,80,28,25,55,55,0,0,0,0,0,0,0,0],"split_type":[0,0,0,0,0,0,0,0,0,0,0,0,0,0,0],"sum_hessian":[6.307673E3,2.647318E3,3.6603545E3,1.154921E3,1.4923971E3,1.566905E3,2.0934495E3,6.2615497E2,5.2876605E2,4.60389E2,1.0320082E3,1.1039884E3,4.6291666E2,9.3512366E2,1.1583259E3],"tree_param":{"num_deleted":"0","num_feature":"106","num_nodes":"15","size_leaf_vector":"1"}},{"base_weights":[1.3767563E-1,-1.78398E-1,3.6625928E-1,1.0464304E-1,-3.973583E-1,1.1235579E-1,5.561566E-1,2.9363784E-3,-1.1929292E-3,-6.0948026E-3,-3.022302E-3,2.2454222E-3,-1.5509969E-3,6.9500445E-3,4.43561E-3],"categories":[],"categories_nodes":[],"categories_segments":[],"categories_sizes":[],"default_left":[0,0,0,0,0,0,0,0,0,0,0,0,0,0,0],"id":23,"left_children":[1,3,5,7,9,11,13,-1,-1,-1,-1,-1,-1,-1,-1],"loss_changes":[4.5586234E2,1.6417044E2,1.7647183E2,4.8956764E1,2.9950714E1,4.7079617E1,3.2435608E1,0E0,0E0,0E0,0E0,0E0,0E0,0E0,0E0],"parents":[2147483647,0,0,1,1,2,2,3,3,4,4,5,5,6,6],"right_children":[2,4,6,8,10,12,14,-1,-1,-1,-1,-1,-1,-1,-1],"split_conditions":[4.9E-1,4.92E-1,1.2E1,2.4E1,-5.9E0,6.9E-1,3.94E-1,2.9363784E-3,-1.1929292E-3,-6.0948026E-3,-3.022302E-3,2.2454222E-3,-1.5509969E-3,6.9500445E-3,4.43561E-3],"split_indices":[3,55,80,28,25,55,55,0,0,0,0,0,0,0,0],"split_type":[0,0,0,0,0,0,0,0,0,0,0,0,0,0,0],"sum_hessian":[6.307673E3,2.647318E3,3.6603545E3,1.154921E3,1.4923971E3,1.566905E3,2.0934495E3,6.2615497E2,5.2876605E2,4.60389E2,1.032008E3,1.1039884E3,4.6291666E2,9.3512366E2,1.1583259E3],"tree_param":{"num_deleted":"0","num_feature":"106","num_nodes":"15","size_leaf_vector":"1"}},{"base_weights":[-1.3635127E-1,2.3297156E-1,-3.2836786E-1,-1.0911209E-1,4.0468866E-1,-7.417932E-2,-5.169813E-1,-2.9577329E-3,1.1232987E-3,7.5388383E-3,3.5104665E-3,-2.6318547E-3,9.895674E-4,-3.7963716E-3,-6.523272E-3],"categories":[],"categories_nodes":[],"categories_segments":[],"categories_sizes":[],"default_left":[0,0,0,0,0,0,0,0,0,0,0,0,0,0,0],"id":24,"left_children":[1,3,5,7,9,11,13,-1,-1,-1,-1,-1,-1,-1,-1],"loss_changes":[4.472954E2,1.2679536E2,1.9890436E2,2.9874207E1,2.6649536E1,5.790394E1,4.4028564E1,0E0,0E0,0E0,0E0,0E0,0E0,0E0,0E0],"parents":[2147483647,0,0,1,1,2,2,3,3,4,4,5,5,6,6],"right_children":[2,4,6,8,10,12,14,-1,-1,-1,-1,-1,-1,-1,-1],"split_conditions":[4.47E-1,4.4E-1,1.2E1,2.5E1,2.06E-1,9E0,5.94E-1,-2.9577329E-3,1.1232987E-3,7.5388383E-3,3.5104665E-3,-2.6318547E-3,9.895674E-4,-3.7963716E-3,-6.523272E-3],"split_indices":[3,55,80,28,3,29,3,0,0,0,0,0,0,0,0],"split_type":[0,0,0,0,0,0,0,0,0,0,0,0,0,0,0],"sum_hessian":[6.305309E3,2.1567751E3,4.148534E3,7.2093665E2,1.4358386E3,1.7676797E3,2.3808542E3,3.9100723E2,3.299294E2,1.8945871E2,1.2463799E3,8.448588E2,9.2282086E2,1.1835928E3,1.1972615E3],"tree_param":{"num_deleted":"0","num_feature":"106","num_nodes":"15","size_leaf_vector":"1"}},{"base_weights":[1.3635127E-1,-2.3297158E-1,3.2836786E-1,1.0911212E-1,-4.046887E-1,7.417933E-2,5.169813E-1,2.9577329E-3,-1.1232983E-3,-7.5388383E-3,-3.5104668E-3,2.6318547E-3,-9.895671E-4,3.796372E-3,6.523272E-3],"categories":[],"categories_nodes":[],"categories_segments":[],"categories_sizes":[],"default_left":[0,0,0,0,0,0,0,0,0,0,0,0,0,0,0],"id":25,"left_children":[1,3,5,7,9,11,13,-1,-1,-1,-1,-1,-1,-1,-1],"loss_changes":[4.4729547E2,1.2679536E2,1.9890427E2,2.9874197E1,2.6649551E1,5.7903927E1,4.4028625E1,0E0,0E0,0E0,0E0,0E0,0E0,0E0,0E0],"parents":[2147483647,0,0,1,1,2,2,3,3,4,4,5,5,6,6],"right_children":[2,4,6,8,10,12,14,-1,-1,-1,-1,-1,-1,-1,-1],"split_conditions":[4.47E-1,4.4E-1,1.2E1,2.5E1,2.06E-1,9E0,5.94E-1,2.9577329E-3,-1.1232983E-3,-7.5388383E-3,-3.5104668E-3,2.6318547E-3,-9.895671E-4,3.796372E-3,6.523272E-3],"split_indices":[3,55,80,28,3,29,3,0,0,0,0,0,0,0,0],"split_type":[0,0,0,0,0,0,0,0,0,0,0,0,0,0,0],"sum_hessian":[6.3053096E3,2.1567751E3,4.148534E3,7.2093665E2,1.4358386E3,1.7676797E3,2.3808545E3,3.9100723E2,3.2992938E2,1.8945871E2,1.2463799E3,8.448589E2,9.2282086E2,1.1835928E3,1.1972616E3],"tree_param":{"num_deleted":"0","num_feature":"106","num_nodes":"15","size_leaf_vector":"1"}},{"base_weights":[-1.3504367E-1,1.7516229E-1,-3.5946494E-1,-1.0294429E-1,3.904031E-1,-1.1028506E-1,-5.4609E-1,-2.883705E-3,1.1669884E-3,5.9948056E-3,2.9672885E-3,-2.212691E-3,1.5426908E-3,-6.7545953E-3,-4.2682504E-3],"categories":[],"categories_nodes":[],"categories_segments":[],"categories_sizes":[],"default_left":[0,0,0,0,0,0,0,0,0,0,0,0,0,0,0],"id":26,"left_children":[1,3,5,7,9,11,13,-1,-1,-1,-1,-1,-1,-1,-1],"loss_changes":[4.3890967E2,1.5847765E2,1.700458E2,4.7096703E1,2.904805E1,4.606369E1,3.1978027E1,0E0,0E0,0E0,0E0,0E0,0E0,0E0,0E0],"parents":[2147483647,0,0,1,1,2,2,3,3,4,4,5,5,6,6],"right_children":[2,4,6,8,10,12,14,-1,-1,-1,-1,-1,-1,-1,-1],"split_conditions":[4.9E-1,4.92E-1,1.2E1,2.4E1,-5.9E0,6.9E-1,4.04E-1,-2.883705E-3,1.1669884E-3,5.9948056E-3,2.9672885E-3,-2.212691E-3,1.5426908E-3,-6.7545953E-3,-4.2682504E-3],"split_indices":[3,55,80,28,25,55,55,0,0,0,0,0,0,0,0],"split_type":[0,0,0,0,0,0,0,0,0,0,0,0,0,0,0],"sum_hessian":[6.3027456E3,2.6458052E3,3.6569404E3,1.1545568E3,1.4912484E3,1.5666956E3,2.0902446E3,6.258724E2,5.286843E2,4.5973563E2,1.0315127E3,1.1038002E3,4.6289542E2,1.0004115E3,1.0898333E3],"tree_param":{"num_deleted":"0","num_feature":"106","num_nodes":"15","size_leaf_vector":"1"}},{"base_weights":[1.3504367E-1,-1.7516224E-1,3.594649E-1,1.02944314E-1,-3.9040306E-1,1.1028506E-1,5.4609E-1,2.8837058E-3,-1.1669884E-3,-5.9948056E-3,-2.9672878E-3,2.212691E-3,-1.5426909E-3,6.754595E-3,4.26825E-3],"categories":[],"categories_nodes":[],"categories_segments":[],"categories_sizes":[],"default_left":[0,0,0,0,0,0,0,0,0,0,0,0,0,0,0],"id":27,"left_children":[1,3,5,7,9,11,13,-1,-1,-1,-1,-1,-1,-1,-1],"loss_changes":[4.3890955E2,1.5847763E2,1.7004578E2,4.7096714E1,2.904808E1,4.606369E1,3.1977966E1,0E0,0E0,0E0,0E0,0E0,0E0,0E0,0E0],"parents":[2147483647,0,0,1,1,2,2,3,3,4,4,5,5,6,6],"right_children":[2,4,6,8,10,12,14,-1,-1,-1,-1,-1,-1,-1,-1],"split_conditions":[4.9E-1,4.92E-1,1.2E1,2.4E1,-5.9E0,6.9E-1,4.04E-1,2.8837058E-3,-1.1669884E-3,-5.9948056E-3,-2.9672878E-3,2.212691E-3,-1.5426909E-3,6.754595E-3,4.26825E-3],"split_indices":[3,55,80,28,25,55,55,0,0,0,0,0,0,0,0],"split_type":[0,0,0,0,0,0,0,0,0,0,0,0,0,0,0],"sum_hessian":[6.3027456E3,2.6458052E3,3.6569402E3,1.1545568E3,1.4912484E3,1.5666956E3,2.0902446E3,6.258724E2,5.286843E2,4.5973563E2,1.0315127E3,1.1038002E3,4.6289542E2,1.0004115E3,1.0898333E3],"tree_param":{"num_deleted":"0","num_feature":"106","num_nodes":"15","size_leaf_vector":"1"}},{"base_weights":[-1.3375199E-1,2.2872789E-1,-3.2226002E-1,-1.07370906E-1,3.9754418E-1,-1.0991986E-1,-5.4081947E-1,-2.9070787E-3,1.1005445E-3,3.4937619E-3,7.7771684E-3,-3.0410741E-3,7.2456815E-4,-4.002062E-3,-6.5319072E-3],"categories":[],"categories_nodes":[],"categories_segments":[],"categories_sizes":[],"default_left":[0,0,0,0,0,0,0,0,0,0,0,0,0,0,0],"id":28,"left_children":[1,3,5,7,9,11,13,-1,-1,-1,-1,-1,-1,-1,-1],"loss_changes":[4.306261E2,1.2239133E2,1.9233798E2,2.880254E1,2.6017014E1,7.453656E1,3.2014587E1,0E0,0E0,0E0,0E0,0E0,0E0,0E0,0E0],"parents":[2147483647,0,0,1,1,2,2,3,3,4,4,5,5,6,6],"right_children":[2,4,6,8,10,12,14,-1,-1,-1,-1,-1,-1,-1,-1],"split_conditions":[4.47E-1,4.4E-1,1.5E1,2.5E1,7.78E-1,9E0,5.77E-1,-2.9070787E-3,1.1005445E-3,3.4937619E-3,7.7771684E-3,-3.0410741E-3,7.2456815E-4,-4.002062E-3,-6.5319072E-3],"split_indices":[3,55,81,28,55,29,3,0,0,0,0,0,0,0,0],"split_type":[0,0,0,0,0,0,0,0,0,0,0,0,0,0,0],"sum_hessian":[6.3000396E3,2.1553428E3,4.144697E3,7.207517E2,1.4345911E3,2.1030215E3,2.0416752E3,3.9084613E2,3.2990558E2,1.274971E3,1.5962009E2,1.01820703E3,1.0848146E3,9.089022E2,1.132773E3],"tree_param":{"num_deleted":"0","num_feature":"106","num_nodes":"15","size_leaf_vector":"1"}},{"base_weights":[1.3375197E-1,-2.2872789E-1,3.2226E-1,1.0737086E-1,-3.9754418E-1,1.0991986E-1,5.4081947E-1,2.907078E-3,-1.1005445E-3,-3.4937619E-3,-7.7771684E-3,3.041074E-3,-7.2456803E-4,4.0020626E-3,6.531907E-3],"categories":[],"categories_nodes":[],"categories_segments":[],"categories_sizes":[],"default_left":[0,0,0,0,0,0,0,0,0,0,0,0,0,0,0],"id":29,"left_children":[1,3,5,7,9,11,13,-1,-1,-1,-1,-1,-1,-1,-1],"loss_changes":[4.3062604E2,1.2239128E2,1.9233795E2,2.8802526E1,2.6017029E1,7.453654E1,3.2014587E1,0E0,0E0,0E0,0E0,0E0,0E0,0E0,0E0],"parents":[2147483647,0,0,1,1,2,2,3,3,4,4,5,5,6,6],"right_children":[2,4,6,8,10,12,14,-1,-1,-1,-1,-1,-1,-1,-1],"split_conditions":[4.47E-1,4.4E-1,1.5E1,2.5E1,7.78E-1,9E0,5.77E-1,2.907078E-3,-1.1005445E-3,-3.4937619E-3,-7.7771684E-3,3.041074E-3,-7.2456803E-4,4.0020626E-3,6.531907E-3],"split_indices":[3,55,81,28,55,29,3,0,0,0,0,0,0,0,0],"split_type":[0,0,0,0,0,0,0,0,0,0,0,0,0,0,0],"sum_hessian":[6.3000396E3,2.1553428E3,4.144697E3,7.207517E2,1.4345911E3,2.1030217E3,2.0416752E3,3.9084613E2,3.2990558E2,1.274971E3,1.5962009E2,1.0182071E3,1.0848146E3,9.089023E2,1.132773E3],"tree_param":{"num_deleted":"0","num_feature":"106","num_nodes":"15","size_leaf_vector":"1"}},{"base_weights":[-1.3247532E-1,1.7197065E-1,-3.5281992E-1,-1.0116693E-1,3.834744E-1,-1.07865274E-1,-5.365639E-1,-2.8315515E-3,1.1432546E-3,5.90258E-3,2.909169E-3,-2.17648E-3,1.537804E-3,-6.9307634E-3,-4.3970346E-3],"categories":[],"categories_nodes":[],"categories_segments":[],"categories_sizes":[],"default_left":[0,0,0,0,0,0,0,0,0,0,0,0,0,0,0],"id":30,"left_children":[1,3,5,7,9,11,13,-1,-1,-1,-1,-1,-1,-1,-1],"loss_changes":[4.2256317E2,1.528457E2,1.6440897E2,4.5334003E1,2.8364273E1,4.5056557E1,3.1343994E1,0E0,0E0,0E0,0E0,0E0,0E0,0E0,0E0],"parents":[2147483647,0,0,1,1,2,2,3,3,4,4,5,5,6,6],"right_children":[2,4,6,8,10,12,14,-1,-1,-1,-1,-1,-1,-1,-1],"split_conditions":[4.9E-1,4.92E-1,1.2E1,2.4E1,-5.9E0,6.9E-1,3.68E-1,-2.8315515E-3,1.1432546E-3,5.90258E-3,2.909169E-3,-2.17648E-3,1.537804E-3,-6.9307634E-3,-4.3970346E-3],"split_indices":[3,55,80,28,25,55,55,0,0,0,0,0,0,0,0],"split_type":[0,0,0,0,0,0,0,0,0,0,0,0,0,0,0],"sum_hessian":[6.297203E3,2.6441082E3,3.6530947E3,1.1541508E3,1.4899575E3,1.5664285E3,2.0866663E3,6.255476E2,5.2860315E2,4.5903824E2,1.0309192E3,1.1035592E3,4.6286923E2,7.953458E2,1.2913204E3],"tree_param":{"num_deleted":"0","num_feature":"106","num_nodes":"15","size_leaf_vector":"1"}},{"base_weights":[1.3247532E-1,-1.7197067E-1,3.5281992E-1,1.0116693E-1,-3.8347444E-1,1.07865304E-1,5.365639E-1,2.831551E-3,-1.1432546E-3,-5.90258E-3,-2.9091698E-3,2.1764804E-3,-1.5378041E-3,6.9307634E-3,4.3970346E-3],"categories":[],"categories_nodes":[],"categories_segments":[],"categories_sizes":[],"default_left":[0,0,0,0,0,0,0,0,0,0,0,0,0,0,0],"id":31,"left_children":[1,3,5,7,9,11,13,-1,-1,-1,-1,-1,-1,-1,-1],"loss_changes":[4.2256323E2,1.5284573E2,1.6440906E2,4.5334E1,2.8364243E1,4.5056572E1,3.1343994E1,0E0,0E0,0E0,0E0,0E0,0E0,0E0,0E0],"parents":[2147483647,0,0,1,1,2,2,3,3,4,4,5,5,6,6],"right_children":[2,4,6,8,10,12,14,-1,-1,-1,-1,-1,-1,-1,-1],"split_conditions":[4.9E-1,4.92E-1,1.2E1,2.4E1,-5.9E0,6.9E-1,3.68E-1,2.831551E-3,-1.1432546E-3,-5.90258E-3,-2.9091698E-3,2.1764804E-3,-1.5378041E-3,6.9307634E-3,4.3970346E-3],"split_indices":[3,55,80,28,25,55,55,0,0,0,0,0,0,0,0],"split_type":[0,0,0,0,0,0,0,0,0,0,0,0,0,0,0],"sum_hessian":[6.297203E3,2.6441082E3,3.6530947E3,1.1541508E3,1.4899575E3,1.5664283E3,2.0866663E3,6.255476E2,5.2860315E2,4.5903824E2,1.0309193E3,1.1035592E3,4.6286923E2,7.953458E2,1.2913204E3],"tree_param":{"num_deleted":"0","num_feature":"106","num_nodes":"15","size_leaf_vector":"1"}},{"base_weights":[-1.3121493E-1,1.3016592E-1,-3.8341492E-1,-1.4294082E-1,3.4274366E-1,-1.4808515E-1,-5.5863065E-1,-3.0708443E-3,1.1318965E-3,4.9118046E-3,1.8562976E-3,-2.527968E-3,1.0500036E-3,-6.8234E-3,-4.4751684E-3],"categories":[],"categories_nodes":[],"categories_segments":[],"categories_sizes":[],"default_left":[0,0,0,0,0,0,0,0,0,0,0,0,0,0,0],"id":32,"left_children":[1,3,5,7,9,11,13,-1,-1,-1,-1,-1,-1,-1,-1],"loss_changes":[4.1502985E2,1.7956352E2,1.3203397E2,5.6962593E1,4.046501E1,3.630207E1,2.493573E1,0E0,0E0,0E0,0E0,0E0,0E0,0E0,0E0],"parents":[2147483647,0,0,1,1,2,2,3,3,4,4,5,5,6,6],"right_children":[2,4,6,8,10,12,14,-1,-1,-1,-1,-1,-1,-1,-1],"split_conditions":[5.13E-1,4.92E-1,1.2E1,2.4E1,3.95E-1,6E0,4.04E-1,-3.0708443E-3,1.1318965E-3,4.9118046E-3,1.8562976E-3,-2.527968E-3,1.0500036E-3,-6.8234E-3,-4.4751684E-3],"split_indices":[3,55,80,28,3,77,55,0,0,0,0,0,0,0,0],"split_type":[0,0,0,0,0,0,0,0,0,0,0,0,0,0,0],"sum_hessian":[6.294182E3,3.0910706E3,3.2031113E3,1.3530646E3,1.738006E3,1.3678358E3,1.8352756E3,8.2448596E2,5.2857855E2,8.925879E2,8.454181E2,9.675306E2,4.003052E2,8.6598456E2,9.692911E2],"tree_param":{"num_deleted":"0","num_feature":"106","num_nodes":"15","size_leaf_vector":"1"}},{"base_weights":[1.3121495E-1,-1.301659E-1,3.8341492E-1,1.4294083E-1,-3.4274366E-1,1.4808518E-1,5.5863065E-1,3.0708443E-3,-1.1318963E-3,-4.911804E-3,-1.8562976E-3,2.5279683E-3,-1.0500031E-3,6.8234005E-3,4.475168E-3],"categories":[],"categories_nodes":[],"categories_segments":[],"categories_sizes":[],"default_left":[0,0,0,0,0,0,0,0,0,0,0,0,0,0,0],"id":33,"left_children":[1,3,5,7,9,11,13,-1,-1,-1,-1,-1,-1,-1,-1],"loss_changes":[4.150299E2,1.7956352E2,1.3203394E2,5.6962585E1,4.0465027E1,3.6302067E1,2.493573E1,0E0,0E0,0E0,0E0,0E0,0E0,0E0,0E0],"parents":[2147483647,0,0,1,1,2,2,3,3,4,4,5,5,6,6],"right_children":[2,4,6,8,10,12,14,-1,-1,-1,-1,-1,-1,-1,-1],"split_conditions":[5.13E-1,4.92E-1,1.2E1,2.4E1,3.95E-1,6E0,4.04E-1,3.0708443E-3,-1.1318963E-3,-4.911804E-3,-1.8562976E-3,2.5279683E-3,-1.0500031E-3,6.8234005E-3,4.475168E-3],"split_indices":[3,55,80,28,3,77,55,0,0,0,0,0,0,0,0],"split_type":[0,0,0,0,0,0,0,0,0,0,0,0,0,0,0],"sum_hessian":[6.294182E3,3.0910706E3,3.2031113E3,1.3530646E3,1.738006E3,1.3678358E3,1.8352756E3,8.2448596E2,5.2857855E2,8.925879E2,8.454181E2,9.675306E2,4.003052E2,8.6598456E2,9.692911E2],"tree_param":{"num_deleted":"0","num_feature":"106","num_nodes":"15","size_leaf_vector":"1"}},{"base_weights":[-1.2996964E-1,2.2264625E-1,-3.1343123E-1,-1.0489395E-1,3.8733277E-1,-1.0665813E-1,-5.267608E-1,-2.8342034E-3,1.0670245E-3,7.308586E-3,3.347132E-3,-2.9747616E-3,7.2463625E-4,-3.8830747E-3,-6.3758143E-3],"categories":[],"categories_nodes":[],"categories_segments":[],"categories_sizes":[],"default_left":[0,0,0,0,0,0,0,0,0,0,0,0,0,0,0],"id":34,"left_children":[1,3,5,7,9,11,13,-1,-1,-1,-1,-1,-1,-1,-1],"loss_changes":[4.0711124E2,1.1622554E2,1.8252438E2,2.7282639E1,2.5667175E1,7.190551E1,3.1007385E1,0E0,0E0,0E0,0E0,0E0,0E0,0E0,0E0],"parents":[2147483647,0,0,1,1,2,2,3,3,4,4,5,5,6,6],"right_children":[2,4,6,8,10,12,14,-1,-1,-1,-1,-1,-1,-1,-1],"split_conditions":[4.47E-1,4.4E-1,1.5E1,2.5E1,2.06E-1,9E0,5.77E-1,-2.8342034E-3,1.0670245E-3,7.308586E-3,3.347132E-3,-2.9747616E-3,7.2463625E-4,-3.8830747E-3,-6.3758143E-3],"split_indices":[3,55,81,28,3,29,3,0,0,0,0,0,0,0,0],"split_type":[0,0,0,0,0,0,0,0,0,0,0,0,0,0,0],"sum_hessian":[6.291042E3,2.1529077E3,4.1381343E3,7.204296E2,1.4324783E3,2.1021206E3,2.0360138E3,3.9056546E2,3.2986414E2,1.885625E2,1.2439158E3,1.0175093E3,1.0846113E3,9.071603E2,1.1288534E3],"tree_param":{"num_deleted":"0","num_feature":"106","num_nodes":"15","size_leaf_vector":"1"}},{"base_weights":[1.2996964E-1,-2.2264627E-1,3.1343123E-1,1.04893915E-1,-3.873328E-1,1.0665815E-1,5.267609E-1,2.8342032E-3,-1.0670249E-3,-7.3085865E-3,-3.347132E-3,2.9747623E-3,-7.2463625E-4,3.8830747E-3,6.3758143E-3],"categories":[],"categories_nodes":[],"categories_segments":[],"categories_sizes":[],"default_left":[0,0,0,0,0,0,0,0,0,0,0,0,0,0,0],"id":35,"left_children":[1,3,5,7,9,11,13,-1,-1,-1,-1,-1,-1,-1,-1],"loss_changes":[4.071113E2,1.1622555E2,1.8252444E2,2.7282642E1,2.5667206E1,7.190554E1,3.1007385E1,0E0,0E0,0E0,0E0,0E0,0E0,0E0,0E0],"parents":[2147483647,0,0,1,1,2,2,3,3,4,4,5,5,6,6],"right_children":[2,4,6,8,10,12,14,-1,-1,-1,-1,-1,-1,-1,-1],"split_conditions":[4.47E-1,4.4E-1,1.5E1,2.5E1,2.06E-1,9E0,5.77E-1,2.8342032E-3,-1.0670249E-3,-7.3085865E-3,-3.347132E-3,2.9747623E-3,-7.2463625E-4,3.8830747E-3,6.3758143E-3],"split_indices":[3,55,81,28,3,29,3,0,0,0,0,0,0,0,0],"split_type":[0,0,0,0,0,0,0,0,0,0,0,0,0,0,0],"sum_hessian":[6.291042E3,2.1529077E3,4.1381343E3,7.204296E2,1.4324781E3,2.1021206E3,2.0360137E3,3.9056543E2,3.2986417E2,1.885625E2,1.2439156E3,1.0175093E3,1.0846113E3,9.071603E2,1.1288534E3],"tree_param":{"num_deleted":"0","num_feature":"106","num_nodes":"15","size_leaf_vector":"1"}},{"base_weights":[-1.2873888E-1,1.2787771E-1,-3.764889E-1,-1.4043069E-1,3.3678752E-1,-1.4505346E-1,-5.4913276E-1,-3.0147838E-3,1.1072629E-3,4.8288964E-3,1.8232065E-3,-2.5524956E-3,9.0630486E-4,-6.716892E-3,-4.391927E-3],"categories":[],"categories_nodes":[],"categories_segments":[],"categories_sizes":[],"default_left":[0,0,0,0,0,0,0,0,0,0,0,0,0,0,0],"id":36,"left_children":[1,3,5,7,9,11,13,-1,-1,-1,-1,-1,-1,-1,-1],"loss_changes":[3.9986572E2,1.7323972E2,1.2777518E2,5.477327E1,3.9123917E1,3.5565674E1,2.4394165E1,0E0,0E0,0E0,0E0,0E0,0E0,0E0,0E0],"parents":[2147483647,0,0,1,1,2,2,3,3,4,4,5,5,6,6],"right_children":[2,4,6,8,10,12,14,-1,-1,-1,-1,-1,-1,-1,-1],"split_conditions":[5.13E-1,4.92E-1,1.2E1,2.4E1,3.95E-1,5.8E0,4.04E-1,-3.0147838E-3,1.1072629E-3,4.8288964E-3,1.8232065E-3,-2.5524956E-3,9.0630486E-4,-6.716892E-3,-4.391927E-3],"split_indices":[3,55,80,28,3,77,55,0,0,0,0,0,0,0,0],"split_type":[0,0,0,0,0,0,0,0,0,0,0,0,0,0,0],"sum_hessian":[6.287737E3,3.0888381E3,3.198899E3,1.3523312E3,1.7365068E3,1.3675234E3,1.8313754E3,8.238555E2,5.2847565E2,8.913241E2,8.451828E2,9.31779E2,4.3574442E2,8.6358185E2,9.677936E2],"tree_param":{"num_deleted":"0","num_feature":"106","num_nodes":"15","size_leaf_vector":"1"}},{"base_weights":[1.287389E-1,-1.278777E-1,3.764889E-1,1.4043075E-1,-3.3678755E-1,1.4505346E-1,5.4913276E-1,3.0147843E-3,-1.1072623E-3,-4.8288964E-3,-1.8232067E-3,2.5524956E-3,-9.06305E-4,6.716892E-3,4.3919263E-3],"categories":[],"categories_nodes":[],"categories_segments":[],"categories_sizes":[],"default_left":[0,0,0,0,0,0,0,0,0,0,0,0,0,0,0],"id":37,"left_children":[1,3,5,7,9,11,13,-1,-1,-1,-1,-1,-1,-1,-1],"loss_changes":[3.9986572E2,1.7323978E2,1.2777515E2,5.477327E1,3.91239E1,3.5565674E1,2.4394165E1,0E0,0E0,0E0,0E0,0E0,0E0,0E0,0E0],"parents":[2147483647,0,0,1,1,2,2,3,3,4,4,5,5,6,6],"right_children":[2,4,6,8,10,12,14,-1,-1,-1,-1,-1,-1,-1,-1],"split_conditions":[5.13E-1,4.92E-1,1.2E1,2.4E1,3.95E-1,5.8E0,4.04E-1,3.0147843E-3,-1.1072623E-3,-4.8288964E-3,-1.8232067E-3,2.5524956E-3,-9.06305E-4,6.716892E-3,4.3919263E-3],"split_indices":[3,55,80,28,3,77,55,0,0,0,0,0,0,0,0],"split_type":[0,0,0,0,0,0,0,0,0,0,0,0,0,0,0],"sum_hessian":[6.287737E3,3.0888381E3,3.1988987E3,1.3523312E3,1.7365068E3,1.3675233E3,1.8313755E3,8.238555E2,5.284757E2,8.913241E2,8.4518274E2,9.3177893E2,4.3574442E2,8.6358185E2,9.6779364E2],"tree_param":{"num_deleted":"0","num_feature":"106","num_nodes":"15","size_leaf_vector":"1"}},{"base_weights":[-1.2752326E-1,1.2664776E-1,-3.7299734E-1,-1.3906246E-1,3.335798E-1,-1.4361897E-1,-5.442905E-1,-2.9857864E-3,1.0962693E-3,4.784521E-3,1.8051944E-3,-2.4632744E-3,1.0452438E-3,-6.660528E-3,-4.3515177E-3],"categories":[],"categories_nodes":[],"categories_segments":[],"categories_sizes":[],"default_left":[0,0,0,0,0,0,0,0,0,0,0,0,0,0,0],"id":38,"left_children":[1,3,5,7,9,11,13,-1,-1,-1,-1,-1,-1,-1,-1],"loss_changes":[3.9220218E2,1.698751E2,1.2555878E2,5.3706104E1,3.8423523E1,3.490094E1,2.4031982E1,0E0,0E0,0E0,0E0,0E0,0E0,0E0,0E0],"parents":[2147483647,0,0,1,1,2,2,3,3,4,4,5,5,6,6],"right_children":[2,4,6,8,10,12,14,-1,-1,-1,-1,-1,-1,-1,-1],"split_conditions":[5.13E-1,4.92E-1,1.2E1,2.4E1,3.95E-1,6E0,4.04E-1,-2.9857864E-3,1.0962693E-3,4.784521E-3,1.8051944E-3,-2.4632744E-3,1.0452438E-3,-6.660528E-3,-4.3515177E-3],"split_indices":[3,55,80,28,3,77,55,0,0,0,0,0,0,0,0],"split_type":[0,0,0,0,0,0,0,0,0,0,0,0,0,0,0],"sum_hessian":[6.2843003E3,3.087695E3,3.1966055E3,1.3519971E3,1.735698E3,1.367383E3,1.8292223E3,8.235494E2,5.284477E2,8.906079E2,8.4509015E2,9.671001E2,4.00283E2,8.621963E2,9.67026E2],"tree_param":{"num_deleted":"0","num_feature":"106","num_nodes":"15","size_leaf_vector":"1"}},{"base_weights":[1.2752327E-1,-1.2664776E-1,3.7299737E-1,1.3906248E-1,-3.335798E-1,1.4361896E-1,5.442905E-1,2.9857864E-3,-1.0962691E-3,-4.784521E-3,-1.8051944E-3,2.4632742E-3,-1.0452437E-3,6.660528E-3,4.3515186E-3],"categories":[],"categories_nodes":[],"categories_segments":[],"categories_sizes":[],"default_left":[0,0,0,0,0,0,0,0,0,0,0,0,0,0,0],"id":39,"left_children":[1,3,5,7,9,11,13,-1,-1,-1,-1,-1,-1,-1,-1],"loss_changes":[3.9220224E2,1.698751E2,1.2555878E2,5.3706097E1,3.8423523E1,3.4900932E1,2.4031982E1,0E0,0E0,0E0,0E0,0E0,0E0,0E0,0E0],"parents":[2147483647,0,0,1,1,2,2,3,3,4,4,5,5,6,6],"right_children":[2,4,6,8,10,12,14,-1,-1,-1,-1,-1,-1,-1,-1],"split_conditions":[5.13E-1,4.92E-1,1.2E1,2.4E1,3.95E-1,6E0,4.04E-1,2.9857864E-3,-1.0962691E-3,-4.784521E-3,-1.8051944E-3,2.4632742E-3,-1.0452437E-3,6.660528E-3,4.3515186E-3],"split_indices":[3,55,80,28,3,77,55,0,0,0,0,0,0,0,0],"split_type":[0,0,0,0,0,0,0,0,0,0,0,0,0,0,0],"sum_hessian":[6.2843003E3,3.087695E3,3.1966052E3,1.3519971E3,1.735698E3,1.367383E3,1.8292223E3,8.2354944E2,5.284477E2,8.906079E2,8.4509015E2,9.6710004E2,4.00283E2,8.621962E2,9.6702606E2],"tree_param":{"num_deleted":"0","num_feature":"106","num_nodes":"15","size_leaf_vector":"1"}},{"base_weights":[-1.2632224E-1,2.167651E-1,-3.049156E-1,-1.0236697E-1,3.7741402E-1,-1.0348346E-1,-5.133006E-1,-2.761447E-3,1.0345683E-3,3.300207E-3,7.5242547E-3,-2.9079376E-3,7.223508E-4,-3.7720825E-3,-6.2244767E-3],"categories":[],"categories_nodes":[],"categories_segments":[],"categories_sizes":[],"default_left":[0,0,0,0,0,0,0,0,0,0,0,0,0,0,0],"id":40,"left_children":[1,3,5,7,9,11,13,-1,-1,-1,-1,-1,-1,-1,-1],"loss_changes":[3.8496616E2,1.1032067E2,1.733739E2,2.5818792E1,2.5185425E1,6.920984E1,2.9926697E1,0E0,0E0,0E0,0E0,0E0,0E0,0E0,0E0],"parents":[2147483647,0,0,1,1,2,2,3,3,4,4,5,5,6,6],"right_children":[2,4,6,8,10,12,14,-1,-1,-1,-1,-1,-1,-1,-1],"split_conditions":[4.47E-1,4.4E-1,1.5E1,2.5E1,7.78E-1,9E0,5.77E-1,-2.761447E-3,1.0345683E-3,3.300207E-3,7.5242547E-3,-2.9079376E-3,7.223508E-4,-3.7720825E-3,-6.2244767E-3],"split_indices":[3,55,81,28,55,29,3,0,0,0,0,0,0,0,0],"split_type":[0,0,0,0,0,0,0,0,0,0,0,0,0,0,0],"sum_hessian":[6.2807114E3,2.15008E3,4.130632E3,7.2005E2,1.43003E3,2.1011165E3,2.0295153E3,3.9023315E2,3.2981683E2,1.2712515E3,1.5877856E2,1.0166961E3,1.0844203E3,9.052461E2,1.1242692E3],"tree_param":{"num_deleted":"0","num_feature":"106","num_nodes":"15","size_leaf_vector":"1"}},{"base_weights":[1.2632222E-1,-2.1676512E-1,3.0491558E-1,1.0236694E-1,-3.7741402E-1,1.0348344E-1,5.133006E-1,2.761447E-3,-1.0345686E-3,-3.3002072E-3,-7.5242547E-3,2.9079376E-3,-7.223511E-4,3.7720827E-3,6.224476E-3],"categories":[],"categories_nodes":[],"categories_segments":[],"categories_sizes":[],"default_left":[0,0,0,0,0,0,0,0,0,0,0,0,0,0,0],"id":41,"left_children":[1,3,5,7,9,11,13,-1,-1,-1,-1,-1,-1,-1,-1],"loss_changes":[3.8496616E2,1.10320656E2,1.7337393E2,2.5818798E1,2.5185425E1,6.9209854E1,2.9926636E1,0E0,0E0,0E0,0E0,0E0,0E0,0E0,0E0],"parents":[2147483647,0,0,1,1,2,2,3,3,4,4,5,5,6,6],"right_children":[2,4,6,8,10,12,14,-1,-1,-1,-1,-1,-1,-1,-1],"split_conditions":[4.47E-1,4.4E-1,1.5E1,2.5E1,7.78E-1,9E0,5.77E-1,2.761447E-3,-1.0345686E-3,-3.3002072E-3,-7.5242547E-3,2.9079376E-3,-7.223511E-4,3.7720827E-3,6.224476E-3],"split_indices":[3,55,81,28,55,29,3,0,0,0,0,0,0,0,0],"split_type":[0,0,0,0,0,0,0,0,0,0,0,0,0,0,0],"sum_hessian":[6.2807114E3,2.1500798E3,4.130632E3,7.2005E2,1.43003E3,2.1011165E3,2.0295153E3,3.902331E2,3.2981686E2,1.2712515E3,1.5877856E2,1.0166961E3,1.0844203E3,9.052461E2,1.1242692E3],"tree_param":{"num_deleted":"0","num_feature":"106","num_nodes":"15","size_leaf_vector":"1"}},{"base_weights":[-1.251339E-1,1.2442798E-1,-3.663225E-1,-1.3656723E-1,3.2776645E-1,-1.4067778E-1,-5.351905E-1,-2.9315792E-3,1.0740042E-3,4.7051064E-3,1.7714335E-3,-2.4877924E-3,9.042179E-4,-6.5592276E-3,-4.271323E-3],"categories":[],"categories_nodes":[],"categories_segments":[],"categories_sizes":[],"default_left":[0,0,0,0,0,0,0,0,0,0,0,0,0,0,0],"id":42,"left_children":[1,3,5,7,9,11,13,-1,-1,-1,-1,-1,-1,-1,-1],"loss_changes":[3.7792877E2,1.6383038E2,1.21584595E2,5.168953E1,3.7220154E1,3.419861E1,2.3539429E1,0E0,0E0,0E0,0E0,0E0,0E0,0E0,0E0],"parents":[2147483647,0,0,1,1,2,2,3,3,4,4,5,5,6,6],"right_children":[2,4,6,8,10,12,14,-1,-1,-1,-1,-1,-1,-1,-1],"split_conditions":[5.13E-1,4.92E-1,1.2E1,2.4E1,3.95E-1,5.8E0,4.04E-1,-2.9315792E-3,1.0740042E-3,4.7051064E-3,1.7714335E-3,-2.4877924E-3,9.042179E-4,-6.5592276E-3,-4.271323E-3],"split_indices":[3,55,80,28,3,77,55,0,0,0,0,0,0,0,0],"split_type":[0,0,0,0,0,0,0,0,0,0,0,0,0,0,0],"sum_hessian":[6.2770186E3,3.0851973E3,3.1918215E3,1.3511964E3,1.7340009E3,1.3670186E3,1.824803E3,8.2284906E2,5.283474E2,8.891948E2,8.44806E2,9.313053E2,4.3571326E2,8.594638E2,9.653391E2],"tree_param":{"num_deleted":"0","num_feature":"106","num_nodes":"15","size_leaf_vector":"1"}},{"base_weights":[1.2513389E-1,-1.24428E-1,3.6632246E-1,1.3656725E-1,-3.2776648E-1,1.4067775E-1,5.351905E-1,2.931579E-3,-1.0740036E-3,-4.705107E-3,-1.7714336E-3,2.487792E-3,-9.042179E-4,6.5592276E-3,4.271323E-3],"categories":[],"categories_nodes":[],"categories_segments":[],"categories_sizes":[],"default_left":[0,0,0,0,0,0,0,0,0,0,0,0,0,0,0],"id":43,"left_children":[1,3,5,7,9,11,13,-1,-1,-1,-1,-1,-1,-1,-1],"loss_changes":[3.779288E2,1.6383041E2,1.21584564E2,5.1689507E1,3.7220184E1,3.4198605E1,2.353949E1,0E0,0E0,0E0,0E0,0E0,0E0,0E0,0E0],"parents":[2147483647,0,0,1,1,2,2,3,3,4,4,5,5,6,6],"right_children":[2,4,6,8,10,12,14,-1,-1,-1,-1,-1,-1,-1,-1],"split_conditions":[5.13E-1,4.92E-1,1.2E1,2.4E1,3.95E-1,5.8E0,4.04E-1,2.931579E-3,-1.0740036E-3,-4.705107E-3,-1.7714336E-3,2.487792E-3,-9.042179E-4,6.5592276E-3,4.271323E-3],"split_indices":[3,55,80,28,3,77,55,0,0,0,0,0,0,0,0],"split_type":[0,0,0,0,0,0,0,0,0,0,0,0,0,0,0],"sum_hessian":[6.2770186E3,3.0851973E3,3.1918215E3,1.3511965E3,1.7340007E3,1.3670186E3,1.824803E3,8.2284906E2,5.283474E2,8.8919476E2,8.44806E2,9.313053E2,4.3571326E2,8.594638E2,9.653392E2],"tree_param":{"num_deleted":"0","num_feature":"106","num_nodes":"15","size_leaf_vector":"1"}},{"base_weights":[-1.23960845E-1,1.6155817E-1,-3.309779E-1,-9.438492E-2,3.602105E-1,-5.142658E-1,-1.1136816E-1,-2.6418634E-3,1.0633466E-3,6.8395524E-3,3.0398308E-3,-6.577908E-3,-4.1887606E-3,-2.8406724E-3,4.7401697E-4],"categories":[],"categories_nodes":[],"categories_segments":[],"categories_sizes":[],"default_left":[0,0,0,0,0,0,0,0,0,0,0,0,0,0,0],"id":44,"left_children":[1,3,5,7,9,11,13,-1,-1,-1,-1,-1,-1,-1,-1],"loss_changes":[3.7090228E2,1.3414719E2,1.4635492E2,3.9340767E1,2.6829453E1,2.686493E1,4.5420578E1,0E0,0E0,0E0,0E0,0E0,0E0,0E0,0E0],"parents":[2147483647,0,0,1,1,2,2,3,3,4,4,5,5,6,6],"right_children":[2,4,6,8,10,12,14,-1,-1,-1,-1,-1,-1,-1,-1],"split_conditions":[4.9E-1,4.92E-1,5.31E-1,2.4E1,2.3E-1,3.68E-1,8E0,-2.6418634E-3,1.0633466E-3,6.8395524E-3,3.0398308E-3,-6.577908E-3,-4.1887606E-3,-2.8406724E-3,4.7401697E-4],"split_indices":[3,55,55,28,3,55,29,0,0,0,0,0,0,0,0],"split_type":[0,0,0,0,0,0,0,0,0,0,0,0,0,0,0],"sum_hessian":[6.2731616E3,2.636755E3,3.6364067E3,1.1524573E3,1.4842977E3,1.9813859E3,1.655021E3,6.241408E2,5.2831647E2,2.1799097E2,1.2663068E3,7.887394E2,1.1926465E3,7.923582E2,8.626628E2],"tree_param":{"num_deleted":"0","num_feature":"106","num_nodes":"15","size_leaf_vector":"1"}},{"base_weights":[1.23960845E-1,-1.6155814E-1,3.3097786E-1,9.438496E-2,-3.6021048E-1,5.142658E-1,1.11368135E-1,2.6418641E-3,-1.0633466E-3,-6.8395524E-3,-3.0398306E-3,6.5779076E-3,4.18876E-3,2.8406724E-3,-4.740172E-4],"categories":[],"categories_nodes":[],"categories_segments":[],"categories_sizes":[],"default_left":[0,0,0,0,0,0,0,0,0,0,0,0,0,0,0],"id":45,"left_children":[1,3,5,7,9,11,13,-1,-1,-1,-1,-1,-1,-1,-1],"loss_changes":[3.7090216E2,1.3414722E2,1.4635495E2,3.934078E1,2.6829453E1,2.686493E1,4.5420586E1,0E0,0E0,0E0,0E0,0E0,0E0,0E0,0E0],"parents":[2147483647,0,0,1,1,2,2,3,3,4,4,5,5,6,6],"right_children":[2,4,6,8,10,12,14,-1,-1,-1,-1,-1,-1,-1,-1],"split_conditions":[4.9E-1,4.92E-1,5.31E-1,2.4E1,2.3E-1,3.68E-1,8E0,2.6418641E-3,-1.0633466E-3,-6.8395524E-3,-3.0398306E-3,6.5779076E-3,4.18876E-3,2.8406724E-3,-4.740172E-4],"split_indices":[3,55,55,28,3,55,29,0,0,0,0,0,0,0,0],"split_type":[0,0,0,0,0,0,0,0,0,0,0,0,0,0,0],"sum_hessian":[6.2731616E3,2.636755E3,3.636407E3,1.1524573E3,1.4842977E3,1.9813859E3,1.655021E3,6.241408E2,5.2831647E2,2.1799097E2,1.2663068E3,7.887394E2,1.1926465E3,7.923582E2,8.626628E2],"tree_param":{"num_deleted":"0","num_feature":"106","num_nodes":"15","size_leaf_vector":"1"}},{"base_weights":[-1.22800425E-1,1.2230895E-1,-3.5985485E-1,-1.3369821E-1,3.2185465E-1,-1.3789259E-1,-5.2635205E-1,-2.8721245E-3,1.0527967E-3,4.6266424E-3,1.7347857E-3,-2.3862603E-3,1.0533726E-3,-6.4559416E-3,-4.1982783E-3],"categories":[],"categories_nodes":[],"categories_segments":[],"categories_sizes":[],"default_left":[0,0,0,0,0,0,0,0,0,0,0,0,0,0,0],"id":46,"left_children":[1,3,5,7,9,11,13,-1,-1,-1,-1,-1,-1,-1,-1],"loss_changes":[3.643694E2,1.5756258E2,1.1773334E2,4.9606888E1,3.6129288E1,3.3534294E1,2.2860687E1,0E0,0E0,0E0,0E0,0E0,0E0,0E0,0E0],"parents":[2147483647,0,0,1,1,2,2,3,3,4,4,5,5,6,6],"right_children":[2,4,6,8,10,12,14,-1,-1,-1,-1,-1,-1,-1,-1],"split_conditions":[5.13E-1,4.92E-1,1.2E1,2.4E1,3.95E-1,6E0,4.04E-1,-2.8721245E-3,1.0527967E-3,4.6266424E-3,1.7347857E-3,-2.3862603E-3,1.0533726E-3,-6.4559416E-3,-4.1982783E-3],"split_indices":[3,55,80,28,3,77,55,0,0,0,0,0,0,0,0],"split_type":[0,0,0,0,0,0,0,0,0,0,0,0,0,0,0],"sum_hessian":[6.2691997E3,3.0824717E3,3.1867278E3,1.3503589E3,1.7321129E3,1.3666434E3,1.8200844E3,8.220742E2,5.2828467E2,8.876299E2,8.44483E2,9.6642017E2,4.0022324E2,8.5638965E2,9.6369476E2],"tree_param":{"num_deleted":"0","num_feature":"106","num_nodes":"15","size_leaf_vector":"1"}},{"base_weights":[1.2280043E-1,-1.2230893E-1,3.5985485E-1,1.3369825E-1,-3.2185465E-1,1.3789257E-1,5.2635205E-1,2.8721252E-3,-1.0527967E-3,-4.626642E-3,-1.7347857E-3,2.38626E-3,-1.0533726E-3,6.455942E-3,4.198278E-3],"categories":[],"categories_nodes":[],"categories_segments":[],"categories_sizes":[],"default_left":[0,0,0,0,0,0,0,0,0,0,0,0,0,0,0],"id":47,"left_children":[1,3,5,7,9,11,13,-1,-1,-1,-1,-1,-1,-1,-1],"loss_changes":[3.6436932E2,1.575626E2,1.1773334E2,4.9606903E1,3.6129272E1,3.3534286E1,2.2860748E1,0E0,0E0,0E0,0E0,0E0,0E0,0E0,0E0],"parents":[2147483647,0,0,1,1,2,2,3,3,4,4,5,5,6,6],"right_children":[2,4,6,8,10,12,14,-1,-1,-1,-1,-1,-1,-1,-1],"split_conditions":[5.13E-1,4.92E-1,1.2E1,2.4E1,3.95E-1,6E0,4.04E-1,2.8721252E-3,-1.0527967E-3,-4.626642E-3,-1.7347857E-3,2.38626E-3,-1.0533726E-3,6.455942E-3,4.198278E-3],"split_indices":[3,55,80,28,3,77,55,0,0,0,0,0,0,0,0],"split_type":[0,0,0,0,0,0,0,0,0,0,0,0,0,0,0],"sum_hessian":[6.2691997E3,3.0824717E3,3.1867278E3,1.3503589E3,1.7321129E3,1.3666434E3,1.8200845E3,8.220743E2,5.2828467E2,8.876299E2,8.44483E2,9.664202E2,4.0022324E2,8.5638965E2,9.6369476E2],"tree_param":{"num_deleted":"0","num_feature":"106","num_nodes":"15","size_leaf_vector":"1"}},{"base_weights":[-1.21654354E-1,2.0932303E-1,-2.9408073E-1,-9.931534E-2,3.6496705E-1,-6.476226E-2,-4.6598414E-1,-2.6715205E-3,9.926681E-4,3.182078E-3,7.358402E-3,-3.502157E-3,3.791131E-4,-3.364671E-3,-5.9447866E-3],"categories":[],"categories_nodes":[],"categories_segments":[],"categories_sizes":[],"default_left":[0,0,0,0,0,0,0,0,0,0,0,0,0,0,0],"id":48,"left_children":[1,3,5,7,9,11,13,-1,-1,-1,-1,-1,-1,-1,-1],"loss_changes":[3.5766226E2,1.0316604E2,1.6239209E2,2.4039898E1,2.451883E1,5.1786068E1,3.8988495E1,0E0,0E0,0E0,0E0,0E0,0E0,0E0,0E0],"parents":[2147483647,0,0,1,1,2,2,3,3,4,4,5,5,6,6],"right_children":[2,4,6,8,10,12,14,-1,-1,-1,-1,-1,-1,-1,-1],"split_conditions":[4.47E-1,4.4E-1,1.2E1,2.5E1,7.78E-1,5E0,5.94E-1,-2.6715205E-3,9.926681E-4,3.182078E-3,7.358402E-3,-3.502157E-3,3.791131E-4,-3.364671E-3,-5.9447866E-3],"split_indices":[3,55,80,28,55,28,3,0,0,0,0,0,0,0,0],"split_type":[0,0,0,0,0,0,0,0,0,0,0,0,0,0,0],"sum_hessian":[6.2650864E3,2.1458506E3,4.119236E3,7.1948694E2,1.4263635E3,1.7654755E3,2.3537603E3,3.8974167E2,3.297453E2,1.2683141E3,1.580495E2,4.66394E2,1.2990814E3,1.1740183E3,1.179742E3],"tree_param":{"num_deleted":"0","num_feature":"106","num_nodes":"15","size_leaf_vector":"1"}},{"base_weights":[1.2165435E-1,-2.0932305E-1,2.9408073E-1,9.931534E-2,-3.6496708E-1,6.4762264E-2,4.6598414E-1,2.6715205E-3,-9.926681E-4,-3.1820785E-3,-7.358402E-3,3.5021573E-3,-3.7911301E-4,3.364671E-3,5.9447866E-3],"categories":[],"categories_nodes":[],"categories_segments":[],"categories_sizes":[],"default_left":[0,0,0,0,0,0,0,0,0,0,0,0,0,0,0],"id":49,"left_children":[1,3,5,7,9,11,13,-1,-1,-1,-1,-1,-1,-1,-1],"loss_changes":[3.576623E2,1.0316606E2,1.6239206E2,2.4039898E1,2.4518814E1,5.178607E1,3.8988495E1,0E0,0E0,0E0,0E0,0E0,0E0,0E0,0E0],"parents":[2147483647,0,0,1,1,2,2,3,3,4,4,5,5,6,6],"right_children":[2,4,6,8,10,12,14,-1,-1,-1,-1,-1,-1,-1,-1],"split_conditions":[4.47E-1,4.4E-1,1.2E1,2.5E1,7.78E-1,5E0,5.94E-1,2.6715205E-3,-9.926681E-4,-3.1820785E-3,-7.358402E-3,3.5021573E-3,-3.7911301E-4,3.364671E-3,5.9447866E-3],"split_indices":[3,55,80,28,55,28,3,0,0,0,0,0,0,0,0],"split_type":[0,0,0,0,0,0,0,0,0,0,0,0,0,0,0],"sum_hessian":[6.2650864E3,2.1458506E3,4.119236E3,7.1948694E2,1.4263635E3,1.7654755E3,2.3537603E3,3.8974167E2,3.297453E2,1.2683141E3,1.580495E2,4.66394E2,1.2990814E3,1.1740183E3,1.179742E3],"tree_param":{"num_deleted":"0","num_feature":"106","num_nodes":"15","size_leaf_vector":"1"}},{"base_weights":[-1.2051901E-1,1.2028002E-1,-3.53589E-1,-1.3137299E-1,3.1652555E-1,-1.356057E-1,-5.175157E-1,-2.8212946E-3,1.0314253E-3,4.55092E-3,1.7072265E-3,-2.4165155E-3,9.096624E-4,-6.363429E-3,-4.115198E-3],"categories":[],"categories_nodes":[],"categories_segments":[],"categories_sizes":[],"default_left":[0,0,0,0,0,0,0,0,0,0,0,0,0,0,0],"id":50,"left_children":[1,3,5,7,9,11,13,-1,-1,-1,-1,-1,-1,-1,-1],"loss_changes":[3.5148157E2,1.5218181E2,1.13643555E2,4.7775112E1,3.4897675E1,3.287378E1,2.2611115E1,0E0,0E0,0E0,0E0,0E0,0E0,0E0,0E0],"parents":[2147483647,0,0,1,1,2,2,3,3,4,4,5,5,6,6],"right_children":[2,4,6,8,10,12,14,-1,-1,-1,-1,-1,-1,-1,-1],"split_conditions":[5.13E-1,4.92E-1,1.2E1,2.4E1,3.95E-1,5.8E0,4.04E-1,-2.8212946E-3,1.0314253E-3,4.55092E-3,1.7072265E-3,-2.4165155E-3,9.096624E-4,-6.363429E-3,-4.115198E-3],"split_indices":[3,55,80,28,3,77,55,0,0,0,0,0,0,0,0],"split_type":[0,0,0,0,0,0,0,0,0,0,0,0,0,0,0],"sum_hessian":[6.26094E3,3.0796484E3,3.1812915E3,1.3494844E3,1.7301641E3,1.3662858E3,1.8150057E3,8.213092E2,5.2817523E2,8.860085E2,8.4415564E2,9.3063855E2,4.3564728E2,8.5335034E2,9.616554E2],"tree_param":{"num_deleted":"0","num_feature":"106","num_nodes":"15","size_leaf_vector":"1"}},{"base_weights":[1.20519005E-1,-1.2028003E-1,3.53589E-1,1.3137302E-1,-3.1652555E-1,1.3560565E-1,5.175157E-1,2.8212948E-3,-1.0314249E-3,-4.55092E-3,-1.7072266E-3,2.416515E-3,-9.0966275E-4,6.3634287E-3,4.1151983E-3],"categories":[],"categories_nodes":[],"categories_segments":[],"categories_sizes":[],"default_left":[0,0,0,0,0,0,0,0,0,0,0,0,0,0,0],"id":51,"left_children":[1,3,5,7,9,11,13,-1,-1,-1,-1,-1,-1,-1,-1],"loss_changes":[3.5148157E2,1.5218182E2,1.1364365E2,4.7775112E1,3.489769E1,3.287377E1,2.2611084E1,0E0,0E0,0E0,0E0,0E0,0E0,0E0,0E0],"parents":[2147483647,0,0,1,1,2,2,3,3,4,4,5,5,6,6],"right_children":[2,4,6,8,10,12,14,-1,-1,-1,-1,-1,-1,-1,-1],"split_conditions":[5.13E-1,4.92E-1,1.2E1,2.4E1,3.95E-1,5.8E0,4.04E-1,2.8212948E-3,-1.0314249E-3,-4.55092E-3,-1.7072266E-3,2.416515E-3,-9.0966275E-4,6.3634287E-3,4.1151983E-3],"split_indices":[3,55,80,28,3,77,55,0,0,0,0,0,0,0,0],"split_type":[0,0,0,0,0,0,0,0,0,0,0,0,0,0,0],"sum_hessian":[6.26094E3,3.0796484E3,3.1812915E3,1.3494844E3,1.7301641E3,1.3662858E3,1.8150059E3,8.2130914E2,5.281752E2,8.860085E2,8.4415564E2,9.3063855E2,4.3564728E2,8.533504E2,9.6165546E2],"tree_param":{"num_deleted":"0","num_feature":"106","num_nodes":"15","size_leaf_vector":"1"}},{"base_weights":[-1.1939886E-1,1.19135134E-1,-3.5037845E-1,-1.2728956E-1,3.1580815E-1,-1.3426997E-1,-5.131147E-1,-2.7788691E-3,1.0679979E-3,2.6354012E-3,6.9260946E-3,-2.3311258E-3,1.0427138E-3,-6.312892E-3,-4.0781377E-3],"categories":[],"categories_nodes":[],"categories_segments":[],"categories_sizes":[],"default_left":[0,0,0,0,0,0,0,0,0,0,0,0,0,0,0],"id":52,"left_children":[1,3,5,7,9,11,13,-1,-1,-1,-1,-1,-1,-1,-1],"loss_changes":[3.4481323E2,1.4927399E2,1.11746124E2,4.823655E1,3.3549667E1,3.2257668E1,2.2307068E1,0E0,0E0,0E0,0E0,0E0,0E0,0E0,0E0],"parents":[2147483647,0,0,1,1,2,2,3,3,4,4,5,5,6,6],"right_children":[2,4,6,8,10,12,14,-1,-1,-1,-1,-1,-1,-1,-1],"split_conditions":[5.13E-1,4.94E-1,1.2E1,2.4E1,7.78E-1,6E0,4.04E-1,-2.7788691E-3,1.0679979E-3,2.6354012E-3,6.9260946E-3,-2.3311258E-3,1.0427138E-3,-6.312892E-3,-4.0781377E-3],"split_indices":[3,55,80,28,55,77,55,0,0,0,0,0,0,0,0],"split_type":[0,0,0,0,0,0,0,0,0,0,0,0,0,0,0],"sum_hessian":[6.2565947E3,3.078202E3,3.1783928E3,1.366445E3,1.7117568E3,1.3660918E3,1.8123011E3,8.313945E2,5.350505E2,1.5047278E3,2.0702911E2,9.6588715E2,4.0020468E2,8.5159674E2,9.6070435E2],"tree_param":{"num_deleted":"0","num_feature":"106","num_nodes":"15","size_leaf_vector":"1"}},{"base_weights":[1.1939885E-1,-1.1913515E-1,3.5037845E-1,1.2728955E-1,-3.1580818E-1,1.3426995E-1,5.131147E-1,2.7788691E-3,-1.0679981E-3,-2.6354012E-3,-6.9260946E-3,2.3311253E-3,-1.0427138E-3,6.312892E-3,4.078138E-3],"categories":[],"categories_nodes":[],"categories_segments":[],"categories_sizes":[],"default_left":[0,0,0,0,0,0,0,0,0,0,0,0,0,0,0],"id":53,"left_children":[1,3,5,7,9,11,13,-1,-1,-1,-1,-1,-1,-1,-1],"loss_changes":[3.4481323E2,1.49274E2,1.11746124E2,4.823655E1,3.3549652E1,3.225766E1,2.2307098E1,0E0,0E0,0E0,0E0,0E0,0E0,0E0,0E0],"parents":[2147483647,0,0,1,1,2,2,3,3,4,4,5,5,6,6],"right_children":[2,4,6,8,10,12,14,-1,-1,-1,-1,-1,-1,-1,-1],"split_conditions":[5.13E-1,4.94E-1,1.2E1,2.4E1,7.78E-1,6E0,4.04E-1,2.7788691E-3,-1.0679981E-3,-2.6354012E-3,-6.9260946E-3,2.3311253E-3,-1.0427138E-3,6.312892E-3,4.078138E-3],"split_indices":[3,55,80,28,55,77,55,0,0,0,0,0,0,0,0],"split_type":[0,0,0,0,0,0,0,0,0,0,0,0,0,0,0],"sum_hessian":[6.2565947E3,3.078202E3,3.1783928E3,1.366445E3,1.7117568E3,1.3660918E3,1.8123011E3,8.313945E2,5.350505E2,1.5047278E3,2.0702911E2,9.6588715E2,4.0020468E2,8.5159674E2,9.6070435E2],"tree_param":{"num_deleted":"0","num_feature":"106","num_nodes":"15","size_leaf_vector":"1"}},{"base_weights":[-1.1828852E-1,1.9001143E-1,-2.9413334E-1,-1.140053E-1,3.4372887E-1,-7.2066225E-2,-4.6129632E-1,-2.7307086E-3,9.454461E-4,2.6939698E-3,5.801074E-3,-3.442371E-3,3.004078E-4,-6.230759E-3,-3.656067E-3],"categories":[],"categories_nodes":[],"categories_segments":[],"categories_sizes":[],"default_left":[0,0,0,0,0,0,0,0,0,0,0,0,0,0,0],"id":54,"left_children":[1,3,5,7,9,11,13,-1,-1,-1,-1,-1,-1,-1,-1],"loss_changes":[3.3906332E2,1.06208084E2,1.4779987E2,2.5359592E1,2.6360184E1,4.757441E1,3.4942688E1,0E0,0E0,0E0,0E0,0E0,0E0,0E0,0E0],"parents":[2147483647,0,0,1,1,2,2,3,3,4,4,5,5,6,6],"right_children":[2,4,6,8,10,12,14,-1,-1,-1,-1,-1,-1,-1,-1],"split_conditions":[4.58E-1,4.4E-1,1.2E1,2.5E1,6.88E-1,5E0,3.68E-1,-2.7307086E-3,9.454461E-4,2.6939698E-3,5.801074E-3,-3.442371E-3,3.004078E-4,-6.230759E-3,-3.656067E-3],"split_indices":[3,55,80,28,55,28,55,0,0,0,0,0,0,0,0],"split_type":[0,0,0,0,0,0,0,0,0,0,0,0,0,0,0],"sum_hessian":[6.2522563E3,2.2708345E3,3.9814216E3,7.626841E2,1.5081505E3,1.7105192E3,2.2709023E3,4.324986E2,3.3018552E2,1.1489806E3,3.5916992E2,4.6600098E2,1.2445182E3,8.41943E2,1.4289594E3],"tree_param":{"num_deleted":"0","num_feature":"106","num_nodes":"15","size_leaf_vector":"1"}},{"base_weights":[1.18288524E-1,-1.9001143E-1,2.9413334E-1,1.1400523E-1,-3.4372884E-1,7.2066255E-2,4.6129632E-1,2.7307079E-3,-9.454463E-4,-2.6939698E-3,-5.801074E-3,3.442371E-3,-3.0040753E-4,6.2307594E-3,3.656067E-3],"categories":[],"categories_nodes":[],"categories_segments":[],"categories_sizes":[],"default_left":[0,0,0,0,0,0,0,0,0,0,0,0,0,0,0],"id":55,"left_children":[1,3,5,7,9,11,13,-1,-1,-1,-1,-1,-1,-1,-1],"loss_changes":[3.390634E2,1.0620802E2,1.477998E2,2.535959E1,2.6360214E1,4.7574406E1,3.4942627E1,0E0,0E0,0E0,0E0,0E0,0E0,0E0,0E0],"parents":[2147483647,0,0,1,1,2,2,3,3,4,4,5,5,6,6],"right_children":[2,4,6,8,10,12,14,-1,-1,-1,-1,-1,-1,-1,-1],"split_conditions":[4.58E-1,4.4E-1,1.2E1,2.5E1,6.88E-1,5E0,3.68E-1,2.7307079E-3,-9.454463E-4,-2.6939698E-3,-5.801074E-3,3.442371E-3,-3.0040753E-4,6.2307594E-3,3.656067E-3],"split_indices":[3,55,80,28,55,28,55,0,0,0,0,0,0,0,0],"split_type":[0,0,0,0,0,0,0,0,0,0,0,0,0,0,0],"sum_hessian":[6.2522563E3,2.2708347E3,3.9814214E3,7.6268414E2,1.5081505E3,1.7105192E3,2.2709023E3,4.324986E2,3.3018552E2,1.1489806E3,3.591699E2,4.66001E2,1.2445182E3,8.41943E2,1.4289594E3],"tree_param":{"num_deleted":"0","num_feature":"106","num_nodes":"15","size_leaf_vector":"1"}},{"base_weights":[-1.17191635E-1,1.1730974E-1,-3.4445354E-1,-1.2746385E-1,3.08318E-1,-1.3199136E-1,-5.048726E-1,-2.7395848E-3,1.0011856E-3,4.4490052E-3,1.648926E-3,-2.3605449E-3,9.022207E-4,-6.218385E-3,-4.008752E-3],"categories":[],"categories_nodes":[],"categories_segments":[],"categories_sizes":[],"default_left":[0,0,0,0,0,0,0,0,0,0,0,0,0,0,0],"id":56,"left_children":[1,3,5,7,9,11,13,-1,-1,-1,-1,-1,-1,-1,-1],"loss_changes":[3.3305768E2,1.4386084E2,1.08099976E2,4.500319E1,3.377968E1,3.162505E1,2.1742645E1,0E0,0E0,0E0,0E0,0E0,0E0,0E0,0E0],"parents":[2147483647,0,0,1,1,2,2,3,3,4,4,5,5,6,6],"right_children":[2,4,6,8,10,12,14,-1,-1,-1,-1,-1,-1,-1,-1],"split_conditions":[5.13E-1,4.92E-1,1.2E1,2.4E1,3.95E-1,5.8E0,4.04E-1,-2.7395848E-3,1.0011856E-3,4.4490052E-3,1.648926E-3,-2.3605449E-3,9.022207E-4,-6.218385E-3,-4.008752E-3],"split_indices":[3,55,80,28,3,77,55,0,0,0,0,0,0,0,0],"split_type":[0,0,0,0,0,0,0,0,0,0,0,0,0,0,0],"sum_hessian":[6.2477725E3,3.0751484E3,3.172624E3,1.3480193E3,1.7271293E3,1.3656945E3,1.8069297E3,8.199891E2,5.2803015E2,8.835918E2,8.435375E2,9.300753E2,4.3561908E2,8.4809674E2,9.588329E2],"tree_param":{"num_deleted":"0","num_feature":"106","num_nodes":"15","size_leaf_vector":"1"}},{"base_weights":[1.1719163E-1,-1.17309764E-1,3.4445354E-1,1.2746382E-1,-3.0831802E-1,1.3199137E-1,5.048726E-1,2.7395843E-3,-1.0011856E-3,-4.4490052E-3,-1.6489264E-3,2.360545E-3,-9.022209E-4,6.2183854E-3,4.008751E-3],"categories":[],"categories_nodes":[],"categories_segments":[],"categories_sizes":[],"default_left":[0,0,0,0,0,0,0,0,0,0,0,0,0,0,0],"id":57,"left_children":[1,3,5,7,9,11,13,-1,-1,-1,-1,-1,-1,-1,-1],"loss_changes":[3.330577E2,1.4386084E2,1.08099976E2,4.500318E1,3.377968E1,3.162506E1,2.1742676E1,0E0,0E0,0E0,0E0,0E0,0E0,0E0,0E0],"parents":[2147483647,0,0,1,1,2,2,3,3,4,4,5,5,6,6],"right_children":[2,4,6,8,10,12,14,-1,-1,-1,-1,-1,-1,-1,-1],"split_conditions":[5.13E-1,4.92E-1,1.2E1,2.4E1,3.95E-1,5.8E0,4.04E-1,2.7395843E-3,-1.0011856E-3,-4.4490052E-3,-1.6489264E-3,2.360545E-3,-9.022209E-4,6.2183854E-3,4.008751E-3],"split_indices":[3,55,80,28,3,77,55,0,0,0,0,0,0,0,0],"split_type":[0,0,0,0,0,0,0,0,0,0,0,0,0,0,0],"sum_hessian":[6.2477725E3,3.0751484E3,3.172624E3,1.3480192E3,1.7271293E3,1.3656945E3,1.8069297E3,8.199891E2,5.2803015E2,8.835918E2,8.435375E2,9.300754E2,4.3561908E2,8.480967E2,9.5883295E2],"tree_param":{"num_deleted":"0","num_feature":"106","num_nodes":"15","size_leaf_vector":"1"}},{"base_weights":[-1.16108686E-1,2.0064369E-1,-2.8132004E-1,-9.528668E-2,3.5023755E-1,-1.062873E-1,-4.8963252E-1,-2.5574344E-3,9.427287E-4,6.8662534E-3,2.9911317E-3,-2.8911585E-3,6.460227E-4,-6.105429E-3,-3.8448458E-3],"categories":[],"categories_nodes":[],"categories_segments":[],"categories_sizes":[],"default_left":[0,0,0,0,0,0,0,0,0,0,0,0,0,0,0],"id":58,"left_children":[1,3,5,7,9,11,13,-1,-1,-1,-1,-1,-1,-1,-1],"loss_changes":[3.2681708E2,9.481346E1,1.4959021E2,2.191355E1,2.4255127E1,6.973798E1,2.3585663E1,0E0,0E0,0E0,0E0,0E0,0E0,0E0,0E0],"parents":[2147483647,0,0,1,1,2,2,3,3,4,4,5,5,6,6],"right_children":[2,4,6,8,10,12,14,-1,-1,-1,-1,-1,-1,-1,-1],"split_conditions":[4.47E-1,4.4E-1,1.6E1,2.5E1,2.06E-1,9E0,3.68E-1,-2.5574344E-3,9.427287E-4,6.8662534E-3,2.9911317E-3,-2.8911585E-3,6.460227E-4,-6.105429E-3,-3.8448458E-3],"split_indices":[3,55,81,28,3,29,55,0,0,0,0,0,0,0,0],"split_type":[0,0,0,0,0,0,0,0,0,0,0,0,0,0,0],"sum_hessian":[6.243102E3,2.1399863E3,4.1031157E3,7.18666E2,1.4213204E3,2.2304827E3,1.872633E3,3.8902136E2,3.2964462E2,1.8587437E2,1.235446E3,1.0772645E3,1.153218E3,8.6879376E2,1.00383923E3],"tree_param":{"num_deleted":"0","num_feature":"106","num_nodes":"15","size_leaf_vector":"1"}},{"base_weights":[1.1610871E-1,-2.0064366E-1,2.8132004E-1,9.52868E-2,-3.5023755E-1,1.06287315E-1,4.8963252E-1,2.5574353E-3,-9.4272755E-4,-6.866254E-3,-2.991132E-3,2.8911587E-3,-6.460225E-4,6.1054295E-3,3.8448458E-3],"categories":[],"categories_nodes":[],"categories_segments":[],"categories_sizes":[],"default_left":[0,0,0,0,0,0,0,0,0,0,0,0,0,0,0],"id":59,"left_children":[1,3,5,7,9,11,13,-1,-1,-1,-1,-1,-1,-1,-1],"loss_changes":[3.2681705E2,9.481352E1,1.4959018E2,2.1913551E1,2.4255127E1,6.973798E1,2.3585663E1,0E0,0E0,0E0,0E0,0E0,0E0,0E0,0E0],"parents":[2147483647,0,0,1,1,2,2,3,3,4,4,5,5,6,6],"right_children":[2,4,6,8,10,12,14,-1,-1,-1,-1,-1,-1,-1,-1],"split_conditions":[4.47E-1,4.4E-1,1.6E1,2.5E1,2.06E-1,9E0,3.68E-1,2.5574353E-3,-9.4272755E-4,-6.866254E-3,-2.991132E-3,2.8911587E-3,-6.460225E-4,6.1054295E-3,3.8448458E-3],"split_indices":[3,55,81,28,3,29,55,0,0,0,0,0,0,0,0],"split_type":[0,0,0,0,0,0,0,0,0,0,0,0,0,0,0],"sum_hessian":[6.243102E3,2.1399863E3,4.1031157E3,7.18666E2,1.4213204E3,2.2304827E3,1.872633E3,3.890214E2,3.2964462E2,1.8587437E2,1.235446E3,1.0772645E3,1.153218E3,8.6879376E2,1.00383923E3],"tree_param":{"num_deleted":"0","num_feature":"106","num_nodes":"15","size_leaf_vector":"1"}},{"base_weights":[-1.1503524E-1,1.15438014E-1,-3.3857235E-1,-1.2214485E-1,3.0520672E-1,-1.2917966E-1,-4.9709842E-1,-2.6695158E-3,1.0252423E-3,2.536658E-3,6.777774E-3,-2.2616936E-3,1.0472076E-3,-6.1264494E-3,-3.946122E-3],"categories":[],"categories_nodes":[],"categories_segments":[],"categories_sizes":[],"default_left":[0,0,0,0,0,0,0,0,0,0,0,0,0,0,0],"id":60,"left_children":[1,3,5,7,9,11,13,-1,-1,-1,-1,-1,-1,-1,-1],"loss_changes":[3.2149036E2,1.3857689E2,1.05082825E2,4.4442707E1,3.2637405E1,3.1017124E1,2.110257E1,0E0,0E0,0E0,0E0,0E0,0E0,0E0,0E0],"parents":[2147483647,0,0,1,1,2,2,3,3,4,4,5,5,6,6],"right_children":[2,4,6,8,10,12,14,-1,-1,-1,-1,-1,-1,-1,-1],"split_conditions":[5.13E-1,4.94E-1,1.2E1,2.4E1,7.78E-1,6E0,4.04E-1,-2.6695158E-3,1.0252423E-3,2.536658E-3,6.777774E-3,-2.2616936E-3,1.0472076E-3,-6.1264494E-3,-3.946122E-3],"split_indices":[3,55,80,28,55,77,55,0,0,0,0,0,0,0,0],"split_type":[0,0,0,0,0,0,0,0,0,0,0,0,0,0,0],"sum_hessian":[6.2384316E3,3.0718E3,3.1666318E3,1.3642142E3,1.7075858E3,1.3651965E3,1.8014352E3,8.294304E2,5.347839E2,1.501545E3,2.0604076E2,9.650569E2,4.0013968E2,8.444241E2,9.570111E2],"tree_param":{"num_deleted":"0","num_feature":"106","num_nodes":"15","size_leaf_vector":"1"}},{"base_weights":[1.15035236E-1,-1.1543801E-1,3.3857232E-1,1.22144826E-1,-3.052067E-1,1.2917963E-1,4.970984E-1,2.6695156E-3,-1.0252425E-3,-2.5366577E-3,-6.777773E-3,2.2616931E-3,-1.047208E-3,6.126449E-3,3.946122E-3],"categories":[],"categories_nodes":[],"categories_segments":[],"categories_sizes":[],"default_left":[0,0,0,0,0,0,0,0,0,0,0,0,0,0,0],"id":61,"left_children":[1,3,5,7,9,11,13,-1,-1,-1,-1,-1,-1,-1,-1],"loss_changes":[3.2149033E2,1.3857687E2,1.05082825E2,4.44427E1,3.263742E1,3.1017124E1,2.110257E1,0E0,0E0,0E0,0E0,0E0,0E0,0E0,0E0],"parents":[2147483647,0,0,1,1,2,2,3,3,4,4,5,5,6,6],"right_children":[2,4,6,8,10,12,14,-1,-1,-1,-1,-1,-1,-1,-1],"split_conditions":[5.13E-1,4.94E-1,1.2E1,2.4E1,7.78E-1,6E0,4.04E-1,2.6695156E-3,-1.0252425E-3,-2.5366577E-3,-6.777773E-3,2.2616931E-3,-1.047208E-3,6.126449E-3,3.946122E-3],"split_indices":[3,55,80,28,55,77,55,0,0,0,0,0,0,0,0],"split_type":[0,0,0,0,0,0,0,0,0,0,0,0,0,0,0],"sum_hessian":[6.2384316E3,3.0718E3,3.1666318E3,1.3642144E3,1.7075857E3,1.3651965E3,1.8014353E3,8.294304E2,5.3478394E2,1.5015449E3,2.0604074E2,9.650569E2,4.0013968E2,8.4442413E2,9.5701117E2],"tree_param":{"num_deleted":"0","num_feature":"106","num_nodes":"15","size_leaf_vector":"1"}},{"base_weights":[-1.1397309E-1,1.4980295E-1,-3.058074E-1,-8.611947E-2,3.3358118E-1,-4.195869E-1,9.1440445E-3,-2.4142815E-3,9.691708E-4,6.9358284E-3,2.8534585E-3,-5.883488E-3,-3.213985E-3,1.2434114E-3,-2.659372E-3],"categories":[],"categories_nodes":[],"categories_segments":[],"categories_sizes":[],"default_left":[0,0,0,0,0,0,0,0,0,0,0,0,0,0,0],"id":62,"left_children":[1,3,5,7,9,11,13,-1,-1,-1,-1,-1,-1,-1,-1],"loss_changes":[3.1552942E2,1.13875885E2,1.2936499E2,3.2730873E1,2.5436218E1,4.3754303E1,3.0422424E1,0E0,0E0,0E0,0E0,0E0,0E0,0E0,0E0],"parents":[2147483647,0,0,1,1,2,2,3,3,4,4,5,5,6,6],"right_children":[2,4,6,8,10,12,14,-1,-1,-1,-1,-1,-1,-1,-1],"split_conditions":[4.9E-1,4.92E-1,6.18E-1,2.4E1,2.12E-1,4.04E-1,6.71E-1,-2.4142815E-3,9.691708E-4,6.9358284E-3,2.8534585E-3,-5.883488E-3,-3.213985E-3,1.2434114E-3,-2.659372E-3],"split_indices":[3,55,55,28,3,55,3,0,0,0,0,0,0,0,0],"split_type":[0,0,0,0,0,0,0,0,0,0,0,0,0,0,0],"sum_hessian":[6.233694E3,2.6247834E3,3.6089106E3,1.149571E3,1.4752124E3,2.65091E3,9.580008E2,6.217174E2,5.2785364E2,1.7272319E2,1.3024891E3,9.7320886E2,1.6777009E3,6.756173E2,2.823835E2],"tree_param":{"num_deleted":"0","num_feature":"106","num_nodes":"15","size_leaf_vector":"1"}},{"base_weights":[1.139731E-1,-1.4980291E-1,3.058074E-1,8.611952E-2,-3.3358115E-1,4.195869E-1,-9.144063E-3,2.414282E-3,-9.691705E-4,-6.9358274E-3,-2.8534585E-3,5.8834883E-3,3.213985E-3,-1.2434116E-3,2.6593718E-3],"categories":[],"categories_nodes":[],"categories_segments":[],"categories_sizes":[],"default_left":[0,0,0,0,0,0,0,0,0,0,0,0,0,0,0],"id":63,"left_children":[1,3,5,7,9,11,13,-1,-1,-1,-1,-1,-1,-1,-1],"loss_changes":[3.1552936E2,1.138759E2,1.2936505E2,3.2730873E1,2.5436218E1,4.3754303E1,3.0422422E1,0E0,0E0,0E0,0E0,0E0,0E0,0E0,0E0],"parents":[2147483647,0,0,1,1,2,2,3,3,4,4,5,5,6,6],"right_children":[2,4,6,8,10,12,14,-1,-1,-1,-1,-1,-1,-1,-1],"split_conditions":[4.9E-1,4.92E-1,6.18E-1,2.4E1,2.12E-1,4.04E-1,6.71E-1,2.414282E-3,-9.691705E-4,-6.9358274E-3,-2.8534585E-3,5.8834883E-3,3.213985E-3,-1.2434116E-3,2.6593718E-3],"split_indices":[3,55,55,28,3,55,3,0,0,0,0,0,0,0,0],"split_type":[0,0,0,0,0,0,0,0,0,0,0,0,0,0,0],"sum_hessian":[6.233694E3,2.6247834E3,3.6089106E3,1.149571E3,1.4752124E3,2.65091E3,9.580008E2,6.217174E2,5.278536E2,1.7272319E2,1.3024891E3,9.7320886E2,1.6777009E3,6.756173E2,2.823835E2],"tree_param":{"num_deleted":"0","num_feature":"106","num_nodes":"15","size_leaf_vector":"1"}},{"base_weights":[-1.12922706E-1,1.0940009E-1,-3.3688477E-1,-1.2089884E-1,2.9467124E-1,-1.2799764E-1,-4.9650034E-1,-2.586552E-3,1.0051829E-3,4.318584E-3,1.5474177E-3,-2.3135094E-3,9.147691E-4,-6.1288006E-3,-3.934958E-3],"categories":[],"categories_nodes":[],"categories_segments":[],"categories_sizes":[],"default_left":[0,0,0,0,0,0,0,0,0,0,0,0,0,0,0],"id":64,"left_children":[1,3,5,7,9,11,13,-1,-1,-1,-1,-1,-1,-1,-1],"loss_changes":[3.10232E2,1.3346254E2,1.03419586E2,4.2571228E1,3.3205765E1,3.0546518E1,2.0845154E1,0E0,0E0,0E0,0E0,0E0,0E0,0E0,0E0],"parents":[2147483647,0,0,1,1,2,2,3,3,4,4,5,5,6,6],"right_children":[2,4,6,8,10,12,14,-1,-1,-1,-1,-1,-1,-1,-1],"split_conditions":[5.17E-1,4.94E-1,1.2E1,2.4E1,3.95E-1,5.8E0,4.04E-1,-2.586552E-3,1.0051829E-3,4.318584E-3,1.5474177E-3,-2.3135094E-3,9.147691E-4,-6.1288006E-3,-3.934958E-3],"split_indices":[3,55,80,28,3,77,55,0,0,0,0,0,0,0,0],"split_type":[0,0,0,0,0,0,0,0,0,0,0,0,0,0,0],"sum_hessian":[6.2288345E3,3.1261135E3,3.1027207E3,1.3938516E3,1.732262E3,1.3447123E3,1.7580084E3,8.591542E2,5.3469745E2,8.736487E2,8.5861334E2,9.1416595E2,4.305463E2,8.2308966E2,9.3491876E2],"tree_param":{"num_deleted":"0","num_feature":"106","num_nodes":"15","size_leaf_vector":"1"}},{"base_weights":[1.129227E-1,-1.094001E-1,3.3688477E-1,1.2089883E-1,-2.9467124E-1,1.2799762E-1,4.965003E-1,2.5865512E-3,-1.0051827E-3,-4.3185838E-3,-1.547418E-3,2.3135091E-3,-9.147691E-4,6.1288006E-3,3.934958E-3],"categories":[],"categories_nodes":[],"categories_segments":[],"categories_sizes":[],"default_left":[0,0,0,0,0,0,0,0,0,0,0,0,0,0,0],"id":65,"left_children":[1,3,5,7,9,11,13,-1,-1,-1,-1,-1,-1,-1,-1],"loss_changes":[3.10232E2,1.3346252E2,1.03419586E2,4.2571213E1,3.320578E1,3.0546515E1,2.0845184E1,0E0,0E0,0E0,0E0,0E0,0E0,0E0,0E0],"parents":[2147483647,0,0,1,1,2,2,3,3,4,4,5,5,6,6],"right_children":[2,4,6,8,10,12,14,-1,-1,-1,-1,-1,-1,-1,-1],"split_conditions":[5.17E-1,4.94E-1,1.2E1,2.4E1,3.95E-1,5.8E0,4.04E-1,2.5865512E-3,-1.0051827E-3,-4.3185838E-3,-1.547418E-3,2.3135091E-3,-9.147691E-4,6.1288006E-3,3.934958E-3],"split_indices":[3,55,80,28,3,77,55,0,0,0,0,0,0,0,0],"split_type":[0,0,0,0,0,0,0,0,0,0,0,0,0,0,0],"sum_hessian":[6.2288345E3,3.1261135E3,3.1027207E3,1.3938516E3,1.732262E3,1.3447123E3,1.7580084E3,8.591542E2,5.346974E2,8.736487E2,8.586133E2,9.14166E2,4.305463E2,8.2308966E2,9.349188E2],"tree_param":{"num_deleted":"0","num_feature":"106","num_nodes":"15","size_leaf_vector":"1"}},{"base_weights":[-1.11886375E-1,1.9414696E-1,-2.7168012E-1,-2.2535229E-1,2.9372045E-1,-9.094524E-2,-4.6143344E-1,5.727023E-3,-2.654951E-3,4.3210927E-3,1.5833026E-3,-2.6413728E-3,7.101175E-4,-5.609483E-3,-3.2321538E-3],"categories":[],"categories_nodes":[],"categories_segments":[],"categories_sizes":[],"default_left":[0,0,0,0,0,0,0,0,0,0,0,0,0,0,0],"id":66,"left_children":[1,3,5,7,9,11,13,-1,-1,-1,-1,-1,-1,-1,-1],"loss_changes":[3.0445865E2,8.9284325E1,1.4022137E2,1.329624E1,3.228192E1,5.8810135E1,2.7258392E1,0E0,0E0,0E0,0E0,0E0,0E0,0E0,0E0],"parents":[2147483647,0,0,1,1,2,2,3,3,4,4,5,5,6,6],"right_children":[2,4,6,8,10,12,14,-1,-1,-1,-1,-1,-1,-1,-1],"split_conditions":[4.47E-1,3.58E-1,1.5E1,1.88E-1,1.1E1,9E0,1E1,5.727023E-3,-2.654951E-3,4.3210927E-3,1.5833026E-3,-2.6413728E-3,7.101175E-4,-5.609483E-3,-3.2321538E-3],"split_indices":[3,55,81,3,80,29,27,0,0,0,0,0,0,0,0],"split_type":[0,0,0,0,0,0,0,0,0,0,0,0,0,0,0],"sum_hessian":[6.223788E3,2.1348867E3,4.0889011E3,4.0929205E2,1.7255947E3,2.0949744E3,1.9939269E3,1.89664E1,3.9032565E2,8.5226355E2,8.733311E2,1.01206775E3,1.0829065E3,1.157492E3,8.3643494E2],"tree_param":{"num_deleted":"0","num_feature":"106","num_nodes":"15","size_leaf_vector":"1"}},{"base_weights":[1.1188635E-1,-1.9414698E-1,2.7168012E-1,2.2535224E-1,-2.9372048E-1,9.0945214E-2,4.6143344E-1,-5.727023E-3,2.6549508E-3,-4.3210927E-3,-1.5833029E-3,2.6413726E-3,-7.101178E-4,5.609483E-3,3.2321536E-3],"categories":[],"categories_nodes":[],"categories_segments":[],"categories_sizes":[],"default_left":[0,0,0,0,0,0,0,0,0,0,0,0,0,0,0],"id":67,"left_children":[1,3,5,7,9,11,13,-1,-1,-1,-1,-1,-1,-1,-1],"loss_changes":[3.0445868E2,8.928432E1,1.4022137E2,1.3296236E1,3.228189E1,5.8810143E1,2.7258453E1,0E0,0E0,0E0,0E0,0E0,0E0,0E0,0E0],"parents":[2147483647,0,0,1,1,2,2,3,3,4,4,5,5,6,6],"right_children":[2,4,6,8,10,12,14,-1,-1,-1,-1,-1,-1,-1,-1],"split_conditions":[4.47E-1,3.58E-1,1.5E1,1.88E-1,1.1E1,9E0,1E1,-5.727023E-3,2.6549508E-3,-4.3210927E-3,-1.5833029E-3,2.6413726E-3,-7.101178E-4,5.609483E-3,3.2321536E-3],"split_indices":[3,55,81,3,80,29,27,0,0,0,0,0,0,0,0],"split_type":[0,0,0,0,0,0,0,0,0,0,0,0,0,0,0],"sum_hessian":[6.223788E3,2.1348867E3,4.0889011E3,4.0929208E2,1.7255947E3,2.0949744E3,1.9939269E3,1.89664E1,3.9032568E2,8.5226355E2,8.733312E2,1.0120678E3,1.0829065E3,1.1574918E3,8.3643494E2],"tree_param":{"num_deleted":"0","num_feature":"106","num_nodes":"15","size_leaf_vector":"1"}},{"base_weights":[-1.1085548E-1,1.075066E-1,-3.3105928E-1,2.2760019E-1,-2.3654719E-1,-4.381363E-1,-2.7105862E-2,3.701784E-3,8.6153526E-4,-3.5845577E-3,1.5120963E-5,-6.0213176E-3,-3.4233278E-3,9.374849E-4,-2.5692305E-3],"categories":[],"categories_nodes":[],"categories_segments":[],"categories_sizes":[],"default_left":[0,0,0,0,0,0,0,0,0,0,0,0,0,0,0],"id":68,"left_children":[1,3,5,7,9,11,13,-1,-1,-1,-1,-1,-1,-1,-1],"loss_changes":[2.991153E2,1.2912402E2,1.00789185E2,4.667617E1,2.3471272E1,3.5776703E1,2.2463017E1,0E0,0E0,0E0,0E0,0E0,0E0,0E0,0E0],"parents":[2147483647,0,0,1,1,2,2,3,3,4,4,5,5,6,6],"right_children":[2,4,6,8,10,12,14,-1,-1,-1,-1,-1,-1,-1,-1],"split_conditions":[5.17E-1,2.2E1,6.22E-1,3.92E-1,2.4E1,4.08E-1,6.71E-1,3.701784E-3,8.6153526E-4,-3.5845577E-3,1.5120963E-5,-6.0213176E-3,-3.4233278E-3,9.374849E-4,-2.5692305E-3],"split_indices":[3,80,55,3,27,55,3,0,0,0,0,0,0,0,0],"split_type":[0,0,0,0,0,0,0,0,0,0,0,0,0,0,0],"sum_hessian":[6.2189214E3,3.1227754E3,3.0961458E3,2.3150388E3,8.0773663E2,2.2892463E3,8.0689954E2,1.1521025E3,1.1629362E3,5.338499E2,2.7388675E2,8.422339E2,1.4470125E3,5.292002E2,2.7769934E2],"tree_param":{"num_deleted":"0","num_feature":"106","num_nodes":"15","size_leaf_vector":"1"}},{"base_weights":[1.1085549E-1,-1.0750659E-1,3.3105928E-1,-2.2760019E-1,2.365472E-1,4.381363E-1,2.710586E-2,-3.701784E-3,-8.6153514E-4,3.584558E-3,-1.5120983E-5,6.0213176E-3,3.423328E-3,-9.374847E-4,2.56923E-3],"categories":[],"categories_nodes":[],"categories_segments":[],"categories_sizes":[],"default_left":[0,0,0,0,0,0,0,0,0,0,0,0,0,0,0],"id":69,"left_children":[1,3,5,7,9,11,13,-1,-1,-1,-1,-1,-1,-1,-1],"loss_changes":[2.9911523E2,1.2912405E2,1.00789185E2,4.667617E1,2.3471272E1,3.5776672E1,2.2463013E1,0E0,0E0,0E0,0E0,0E0,0E0,0E0,0E0],"parents":[2147483647,0,0,1,1,2,2,3,3,4,4,5,5,6,6],"right_children":[2,4,6,8,10,12,14,-1,-1,-1,-1,-1,-1,-1,-1],"split_conditions":[5.17E-1,2.2E1,6.22E-1,3.92E-1,2.4E1,4.08E-1,6.71E-1,-3.701784E-3,-8.6153514E-4,3.584558E-3,-1.5120983E-5,6.0213176E-3,3.423328E-3,-9.374847E-4,2.56923E-3],"split_indices":[3,80,55,3,27,55,3,0,0,0,0,0,0,0,0],"split_type":[0,0,0,0,0,0,0,0,0,0,0,0,0,0,0],"sum_hessian":[6.2189214E3,3.1227754E3,3.0961458E3,2.3150388E3,8.077367E2,2.2892463E3,8.0689954E2,1.1521025E3,1.1629362E3,5.338499E2,2.7388675E2,8.422338E2,1.4470125E3,5.292002E2,2.776993E2],"tree_param":{"num_deleted":"0","num_feature":"106","num_nodes":"15","size_leaf_vector":"1"}},{"base_weights":[-1.09836265E-1,1.0648251E-1,-3.281177E-1,-1.18273824E-1,2.874585E-1,-4.3439788E-1,-2.6839463E-2,-2.5295164E-3,9.794895E-4,2.368721E-3,6.5883216E-3,-5.976467E-3,-3.3919474E-3,9.280998E-4,-2.5444617E-3],"categories":[],"categories_nodes":[],"categories_segments":[],"categories_sizes":[],"default_left":[0,0,0,0,0,0,0,0,0,0,0,0,0,0,0],"id":70,"left_children":[1,3,5,7,9,11,13,-1,-1,-1,-1,-1,-1,-1,-1],"loss_changes":[2.934982E2,1.2703511E2,9.904901E1,4.0601257E1,3.2342575E1,3.5339783E1,2.2023119E1,0E0,0E0,0E0,0E0,0E0,0E0,0E0,0E0],"parents":[2147483647,0,0,1,1,2,2,3,3,4,4,5,5,6,6],"right_children":[2,4,6,8,10,12,14,-1,-1,-1,-1,-1,-1,-1,-1],"split_conditions":[5.17E-1,4.94E-1,6.22E-1,2.4E1,7.78E-1,4.08E-1,6.71E-1,-2.5295164E-3,9.794895E-4,2.368721E-3,6.5883216E-3,-5.976467E-3,-3.3919474E-3,9.280998E-4,-2.5444617E-3],"split_indices":[3,55,55,28,55,55,3,0,0,0,0,0,0,0,0],"split_type":[0,0,0,0,0,0,0,0,0,0,0,0,0,0,0],"sum_hessian":[6.214022E3,3.1212996E3,3.0927224E3,1.3924032E3,1.7288964E3,2.2858977E3,8.068247E2,8.5788556E2,5.345177E2,1.5230702E3,2.0582616E2,8.4008716E2,1.4458105E3,5.29216E2,2.7760867E2],"tree_param":{"num_deleted":"0","num_feature":"106","num_nodes":"15","size_leaf_vector":"1"}},{"base_weights":[1.09836265E-1,-1.0648252E-1,3.2811773E-1,1.1827382E-1,-2.8745854E-1,4.343979E-1,2.6839443E-2,2.5295164E-3,-9.794895E-4,-2.368721E-3,-6.5883216E-3,5.976467E-3,3.3919476E-3,-9.281E-4,2.5444617E-3],"categories":[],"categories_nodes":[],"categories_segments":[],"categories_sizes":[],"default_left":[0,0,0,0,0,0,0,0,0,0,0,0,0,0,0],"id":71,"left_children":[1,3,5,7,9,11,13,-1,-1,-1,-1,-1,-1,-1,-1],"loss_changes":[2.934982E2,1.27035126E2,9.904904E1,4.0601257E1,3.2342575E1,3.5339783E1,2.2023125E1,0E0,0E0,0E0,0E0,0E0,0E0,0E0,0E0],"parents":[2147483647,0,0,1,1,2,2,3,3,4,4,5,5,6,6],"right_children":[2,4,6,8,10,12,14,-1,-1,-1,-1,-1,-1,-1,-1],"split_conditions":[5.17E-1,4.94E-1,6.22E-1,2.4E1,7.78E-1,4.08E-1,6.71E-1,2.5295164E-3,-9.794895E-4,-2.368721E-3,-6.5883216E-3,5.976467E-3,3.3919476E-3,-9.281E-4,2.5444617E-3],"split_indices":[3,55,55,28,55,55,3,0,0,0,0,0,0,0,0],"split_type":[0,0,0,0,0,0,0,0,0,0,0,0,0,0,0],"sum_hessian":[6.214022E3,3.1212996E3,3.0927224E3,1.3924032E3,1.7288964E3,2.2858977E3,8.068247E2,8.5788556E2,5.345177E2,1.5230702E3,2.0582616E2,8.4008716E2,1.4458105E3,5.29216E2,2.7760867E2],"tree_param":{"num_deleted":"0","num_feature":"106","num_nodes":"15","size_leaf_vector":"1"}},{"base_weights":[-1.0882902E-1,1.8940051E-1,-2.647073E-1,-2.2084314E-1,2.8688806E-1,-9.930697E-2,-4.633606E-1,5.660496E-3,-2.6043914E-3,4.2302203E-3,1.539754E-3,-2.952193E-3,4.633797E-4,-5.8173845E-3,-3.610901E-3],"categories":[],"categories_nodes":[],"categories_segments":[],"categories_sizes":[],"default_left":[0,0,0,0,0,0,0,0,0,0,0,0,0,0,0],"id":72,"left_children":[1,3,5,7,9,11,13,-1,-1,-1,-1,-1,-1,-1,-1],"loss_changes":[2.887337E2,8.5338455E1,1.3396921E2,1.2921007E1,3.111528E1,6.355523E1,2.2221008E1,0E0,0E0,0E0,0E0,0E0,0E0,0E0,0E0],"parents":[2147483647,0,0,1,1,2,2,3,3,4,4,5,5,6,6],"right_children":[2,4,6,8,10,12,14,-1,-1,-1,-1,-1,-1,-1,-1],"split_conditions":[4.47E-1,3.58E-1,1.6E1,1.88E-1,1.1E1,8E0,3.68E-1,5.660496E-3,-2.6043914E-3,4.2302203E-3,1.539754E-3,-2.952193E-3,4.633797E-4,-5.8173845E-3,-3.610901E-3],"split_indices":[3,55,81,3,80,29,55,0,0,0,0,0,0,0,0],"split_type":[0,0,0,0,0,0,0,0,0,0,0,0,0,0,0],"sum_hessian":[6.2089175E3,2.131216E3,4.0777014E3,4.0896384E2,1.7222522E3,2.2258994E3,1.8518019E3,1.8955963E1,3.9000787E2,8.497375E2,8.725148E2,9.4871765E2,1.2771818E3,8.561371E2,9.956648E2],"tree_param":{"num_deleted":"0","num_feature":"106","num_nodes":"15","size_leaf_vector":"1"}},{"base_weights":[1.0882902E-1,-1.8940052E-1,2.6470733E-1,2.2084314E-1,-2.868881E-1,9.9306986E-2,4.6336058E-1,-5.660496E-3,2.6043914E-3,-4.230221E-3,-1.5397541E-3,2.952193E-3,-4.6337934E-4,5.817384E-3,3.610901E-3],"categories":[],"categories_nodes":[],"categories_segments":[],"categories_sizes":[],"default_left":[0,0,0,0,0,0,0,0,0,0,0,0,0,0,0],"id":73,"left_children":[1,3,5,7,9,11,13,-1,-1,-1,-1,-1,-1,-1,-1],"loss_changes":[2.8873376E2,8.533846E1,1.3396915E2,1.2921003E1,3.111528E1,6.3555214E1,2.2221008E1,0E0,0E0,0E0,0E0,0E0,0E0,0E0,0E0],"parents":[2147483647,0,0,1,1,2,2,3,3,4,4,5,5,6,6],"right_children":[2,4,6,8,10,12,14,-1,-1,-1,-1,-1,-1,-1,-1],"split_conditions":[4.47E-1,3.58E-1,1.6E1,1.88E-1,1.1E1,8E0,3.68E-1,-5.660496E-3,2.6043914E-3,-4.230221E-3,-1.5397541E-3,2.952193E-3,-4.6337934E-4,5.817384E-3,3.610901E-3],"split_indices":[3,55,81,3,80,29,55,0,0,0,0,0,0,0,0],"split_type":[0,0,0,0,0,0,0,0,0,0,0,0,0,0,0],"sum_hessian":[6.2089175E3,2.131216E3,4.0777014E3,4.0896384E2,1.7222523E3,2.2258994E3,1.851802E3,1.8955963E1,3.9000787E2,8.497375E2,8.725148E2,9.4871765E2,1.2771818E3,8.5613715E2,9.956648E2],"tree_param":{"num_deleted":"0","num_feature":"106","num_nodes":"15","size_leaf_vector":"1"}},{"base_weights":[-1.078303E-1,1.0483677E-1,-3.2264805E-1,2.2198184E-1,-2.3075919E-1,-1.2097212E-1,-4.7791818E-1,1.4802361E-3,4.8563937E-3,-3.5001268E-3,1.609345E-5,-2.223539E-3,9.4079605E-4,-5.916858E-3,-3.779011E-3],"categories":[],"categories_nodes":[],"categories_segments":[],"categories_sizes":[],"default_left":[0,0,0,0,0,0,0,0,0,0,0,0,0,0,0],"id":74,"left_children":[1,3,5,7,9,11,13,-1,-1,-1,-1,-1,-1,-1,-1],"loss_changes":[2.835002E2,1.226614E2,9.661124E1,4.5017586E1,2.2376038E1,2.9327576E1,1.9619293E1,0E0,0E0,0E0,0E0,0E0,0E0,0E0,0E0],"parents":[2147483647,0,0,1,1,2,2,3,3,4,4,5,5,6,6],"right_children":[2,4,6,8,10,12,14,-1,-1,-1,-1,-1,-1,-1,-1],"split_conditions":[5.17E-1,2.2E1,1.2E1,6.82E-1,2.4E1,5.8E0,4.04E-1,1.4802361E-3,4.8563937E-3,-3.5001268E-3,1.609345E-5,-2.223539E-3,9.4079605E-4,-5.916858E-3,-3.779011E-3],"split_indices":[3,80,80,55,27,77,55,0,0,0,0,0,0,0,0],"split_type":[0,0,0,0,0,0,0,0,0,0,0,0,0,0,0],"sum_hessian":[6.203849E3,3.1177876E3,3.0860618E3,2.3113225E3,8.06465E2,1.3431986E3,1.742863E3,1.8062228E3,5.050998E2,5.326158E2,2.738492E2,9.1282965E2,4.3036902E2,8.130814E2,9.297816E2],"tree_param":{"num_deleted":"0","num_feature":"106","num_nodes":"15","size_leaf_vector":"1"}},{"base_weights":[1.078303E-1,-1.0483677E-1,3.2264802E-1,-2.2198182E-1,2.3075916E-1,1.209721E-1,4.7791818E-1,-1.4802358E-3,-4.8563937E-3,3.5001263E-3,-1.6093278E-5,2.2235387E-3,-9.407961E-4,5.916858E-3,3.7790106E-3],"categories":[],"categories_nodes":[],"categories_segments":[],"categories_sizes":[],"default_left":[0,0,0,0,0,0,0,0,0,0,0,0,0,0,0],"id":75,"left_children":[1,3,5,7,9,11,13,-1,-1,-1,-1,-1,-1,-1,-1],"loss_changes":[2.8350018E2,1.2266137E2,9.661124E1,4.5017586E1,2.2376022E1,2.9327574E1,1.9619293E1,0E0,0E0,0E0,0E0,0E0,0E0,0E0,0E0],"parents":[2147483647,0,0,1,1,2,2,3,3,4,4,5,5,6,6],"right_children":[2,4,6,8,10,12,14,-1,-1,-1,-1,-1,-1,-1,-1],"split_conditions":[5.17E-1,2.2E1,1.2E1,6.82E-1,2.4E1,5.8E0,4.04E-1,-1.4802358E-3,-4.8563937E-3,3.5001263E-3,-1.6093278E-5,2.2235387E-3,-9.407961E-4,5.916858E-3,3.7790106E-3],"split_indices":[3,80,80,55,27,77,55,0,0,0,0,0,0,0,0],"split_type":[0,0,0,0,0,0,0,0,0,0,0,0,0,0,0],"sum_hessian":[6.203849E3,3.1177876E3,3.0860618E3,2.3113225E3,8.06465E2,1.3431986E3,1.742863E3,1.8062228E3,5.050998E2,5.326158E2,2.738492E2,9.1282965E2,4.3036902E2,8.130814E2,9.297816E2],"tree_param":{"num_deleted":"0","num_feature":"106","num_nodes":"15","size_leaf_vector":"1"}},{"base_weights":[-1.0684156E-1,2.349502E-1,-2.3862623E-1,-4.111109E-2,3.6360082E-1,-7.123127E-2,-4.4017646E-1,-5.4280916E-3,6.411535E-5,7.0025343E-3,3.1260434E-3,-2.6969751E-3,8.4027345E-4,-5.4889936E-3,-3.1896878E-3],"categories":[],"categories_nodes":[],"categories_segments":[],"categories_sizes":[],"default_left":[0,0,0,0,0,0,0,0,0,0,0,0,0,0,0],"id":76,"left_children":[1,3,5,7,9,11,13,-1,-1,-1,-1,-1,-1,-1,-1],"loss_changes":[2.79313E2,6.130593E1,1.5094986E2,1.3104306E1,1.99926E1,7.538822E1,2.6578857E1,0E0,0E0,0E0,0E0,0E0,0E0,0E0,0E0],"parents":[2147483647,0,0,1,1,2,2,3,3,4,4,5,5,6,6],"right_children":[2,4,6,8,10,12,14,-1,-1,-1,-1,-1,-1,-1,-1],"split_conditions":[4.11E-1,4.31E-1,1.6E1,1.9E1,2E-1,9E0,1E1,-5.4280916E-3,6.411535E-5,7.0025343E-3,3.1260434E-3,-2.6969751E-3,8.4027345E-4,-5.4889936E-3,-3.1896878E-3],"split_indices":[3,55,81,51,3,29,27,0,0,0,0,0,0,0,0],"split_type":[0,0,0,0,0,0,0,0,0,0,0,0,0,0,0],"sum_hessian":[6.1987983E3,1.7247554E3,4.4740435E3,5.48485E2,1.1762704E3,2.4448542E3,2.029189E3,4.6557163E1,5.019278E2,1.5306726E2,1.0232031E3,1.0727837E3,1.3720706E3,1.0678248E3,9.6136414E2],"tree_param":{"num_deleted":"0","num_feature":"106","num_nodes":"15","size_leaf_vector":"1"}},{"base_weights":[1.06841564E-1,-2.3495018E-1,2.3862623E-1,4.111109E-2,-3.636008E-1,7.1231276E-2,4.4017646E-1,5.428091E-3,-6.411532E-5,-7.0025343E-3,-3.1260434E-3,2.6969751E-3,-8.402734E-4,5.4889936E-3,3.1896878E-3],"categories":[],"categories_nodes":[],"categories_segments":[],"categories_sizes":[],"default_left":[0,0,0,0,0,0,0,0,0,0,