{"learner":{"attributes":{},"feature_names":[],"feature_types":[],"gradient_booster":{"model":{"gbtree_model_param":{"num_parallel_tree":"1","num_trees":"1500"},"iteration_indptr":[0,2,4,6,8,10,12,14,16,18,20,22,24,26,28,30,32,34,36,38,40,42,44,46,48,50,52,54,56,58,60,62,64,66,68,70,72,74,76,78,80,82,84,86,88,90,92,94,96,98,100,102,104,106,108,110,112,114,116,118,120,122,124,126,128,130,132,134,136,138,140,142,144,146,148,150,152,154,156,158,160,162,164,166,168,170,172,174,176,178,180,182,184,186,188,190,192,194,196,198,200,202,204,206,208,210,212,214,216,218,220,222,224,226,228,230,232,234,236,238,240,242,244,246,248,250,252,254,256,258,260,262,264,266,268,270,272,274,276,278,280,282,284,286,288,290,292,294,296,298,300,302,304,306,308,310,312,314,316,318,320,322,324,326,328,330,332,334,336,338,340,342,344,346,348,350,352,354,356,358,360,362,364,366,368,370,372,374,376,378,380,382,384,386,388,390,392,394,396,398,400,402,404,406,408,410,412,414,416,418,420,422,424,426,428,430,432,434,436,438,440,442,444,446,448,450,452,454,456,458,460,462,464,466,468,470,472,474,476,478,480,482,484,486,488,490,492,494,496,498,500,502,504,506,508,510,512,514,516,518,520,522,524,526,528,530,532,534,536,538,540,542,544,546,548,550,552,554,556,558,560,562,564,566,568,570,572,574,576,578,580,582,584,586,588,590,592,594,596,598,600,602,604,606,608,610,612,614,616,618,620,622,624,626,628,630,632,634,636,638,640,642,644,646,648,650,652,654,656,658,660,662,664,666,668,670,672,674,676,678,680,682,684,686,688,690,692,694,696,698,700,702,704,706,708,710,712,714,716,718,720,722,724,726,728,730,732,734,736,738,740,742,744,746,748,750,752,754,756,758,760,762,764,766,768,770,772,774,776,778,780,782,784,786,788,790,792,794,796,798,800,802,804,806,808,810,812,814,816,818,820,822,824,826,828,830,832,834,836,838,840,842,844,846,848,850,852,854,856,858,860,862,864,866,868,870,872,874,876,878,880,882,884,886,888,890,892,894,896,898,900,902,904,906,908,910,912,914,916,918,920,922,924,926,928,930,932,934,936,938,940,942,944,946,948,950,952,954,956,958,960,962,964,966,968,970,972,974,976,978,980,982,984,986,988,990,992,994,996,998,1000,1002,1004,1006,1008,1010,1012,1014,1016,1018,1020,1022,1024,1026,1028,1030,1032,1034,1036,1038,1040,1042,1044,1046,1048,1050,1052,1054,1056,1058,1060,1062,1064,1066,1068,1070,1072,1074,1076,1078,1080,1082,1084,1086,1088,1090,1092,1094,1096,1098,1100,1102,1104,1106,1108,1110,1112,1114,1116,1118,1120,1122,1124,1126,1128,1130,1132,1134,1136,1138,1140,1142,1144,1146,1148,1150,1152,1154,1156,1158,1160,1162,1164,1166,1168,1170,1172,1174,1176,1178,1180,1182,1184,1186,1188,1190,1192,1194,1196,1198,1200,1202,1204,1206,1208,1210,1212,1214,1216,1218,1220,1222,1224,1226,1228,1230,1232,1234,1236,1238,1240,1242,1244,1246,1248,1250,1252,1254,1256,1258,1260,1262,1264,1266,1268,1270,1272,1274,1276,1278,1280,1282,1284,1286,1288,1290,1292,1294,1296,1298,1300,1302,1304,1306,1308,1310,1312,1314,1316,1318,1320,1322,1324,1326,1328,1330,1332,1334,1336,1338,1340,1342,1344,1346,1348,1350,1352,1354,1356,1358,1360,1362,1364,1366,1368,1370,1372,1374,1376,1378,1380,1382,1384,1386,1388,1390,1392,1394,1396,1398,1400,1402,1404,1406,1408,1410,1412,1414,1416,1418,1420,1422,1424,1426,1428,1430,1432,1434,1436,1438,1440,1442,1444,1446,1448,1450,1452,1454,1456,1458,1460,1462,1464,1466,1468,1470,1472,1474,1476,1478,1480,1482,1484,1486,1488,1490,1492,1494,1496,1498,1500],"tree_info":[0,1,0,1,0,1,0,1,0,1,0,1,0,1,0,1,0,1,0,1,0,1,0,1,0,1,0,1,0,1,0,1,0,1,0,1,0,1,0,1,0,1,0,1,0,1,0,1,0,1,0,1,0,1,0,1,0,1,0,1,0,1,0,1,0,1,0,1,0,1,0,1,0,1,0,1,0,1,0,1,0,1,0,1,0,1,0,1,0,1,0,1,0,1,0,1,0,1,0,1,0,1,0,1,0,1,0,1,0,1,0,1,0,1,0,1,0,1,0,1,0,1,0,1,0,1,0,1,0,1,0,1,0,1,0,1,0,1,0,1,0,1,0,1,0,1,0,1,0,1,0,1,0,1,0,1,0,1,0,1,0,1,0,1,0,1,0,1,0,1,0,1,0,1,0,1,0,1,0,1,0,1,0,1,0,1,0,1,0,1,0,1,0,1,0,1,0,1,0,1,0,1,0,1,0,1,0,1,0,1,0,1,0,1,0,1,0,1,0,1,0,1,0,1,0,1,0,1,0,1,0,1,0,1,0,1,0,1,0,1,0,1,0,1,0,1,0,1,0,1,0,1,0,1,0,1,0,1,0,1,0,1,0,1,0,1,0,1,0,1,0,1,0,1,0,1,0,1,0,1,0,1,0,1,0,1,0,1,0,1,0,1,0,1,0,1,0,1,0,1,0,1,0,1,0,1,0,1,0,1,0,1,0,1,0,1,0,1,0,1,0,1,0,1,0,1,0,1,0,1,0,1,0,1,0,1,0,1,0,1,0,1,0,1,0,1,0,1,0,1,0,1,0,1,0,1,0,1,0,1,0,1,0,1,0,1,0,1,0,1,0,1,0,1,0,1,0,1,0,1,0,1,0,1,0,1,0,1,0,1,0,1,0,1,0,1,0,1,0,1,0,1,0,1,0,1,0,1,0,1,0,1,0,1,0,1,0,1,0,1,0,1,0,1,0,1,0,1,0,1,0,1,0,1,0,1,0,1,0,1,0,1,0,1,0,1,0,1,0,1,0,1,0,1,0,1,0,1,0,1,0,1,0,1,0,1,0,1,0,1,0,1,0,1,0,1,0,1,0,1,0,1,0,1,0,1,0,1,0,1,0,1,0,1,0,1,0,1,0,1,0,1,0,1,0,1,0,1,0,1,0,1,0,1,0,1,0,1,0,1,0,1,0,1,0,1,0,1,0,1,0,1,0,1,0,1,0,1,0,1,0,1,0,1,0,1,0,1,0,1,0,1,0,1,0,1,0,1,0,1,0,1,0,1,0,1,0,1,0,1,0,1,0,1,0,1,0,1,0,1,0,1,0,1,0,1,0,1,0,1,0,1,0,1,0,1,0,1,0,1,0,1,0,1,0,1,0,1,0,1,0,1,0,1,0,1,0,1,0,1,0,1,0,1,0,1,0,1,0,1,0,1,0,1,0,1,0,1,0,1,0,1,0,1,0,1,0,1,0,1,0,1,0,1,0,1,0,1,0,1,0,1,0,1,0,1,0,1,0,1,0,1,0,1,0,1,0,1,0,1,0,1,0,1,0,1,0,1,0,1,0,1,0,1,0,1,0,1,0,1,0,1,0,1,0,1,0,1,0,1,0,1,0,1,0,1,0,1,0,1,0,1,0,1,0,1,0,1,0,1,0,1,0,1,0,1,0,1,0,1,0,1,0,1,0,1,0,1,0,1,0,1,0,1,0,1,0,1,0,1,0,1,0,1,0,1,0,1,0,1,0,1,0,1,0,1,0,1,0,1,0,1,0,1,0,1,0,1,0,1,0,1,0,1,0,1,0,1,0,1,0,1,0,1,0,1,0,1,0,1,0,1,0,1,0,1,0,1,0,1,0,1,0,1,0,1,0,1,0,1,0,1,0,1,0,1,0,1,0,1,0,1,0,1,0,1,0,1,0,1,0,1,0,1,0,1,0,1,0,1,0,1,0,1,0,1,0,1,0,1,0,1,0,1,0,1,0,1,0,1,0,1,0,1,0,1,0,1,0,1,0,1,0,1,0,1,0,1,0,1,0,1,0,1,0,1,0,1,0,1,0,1,0,1,0,1,0,1,0,1,0,1,0,1,0,1,0,1,0,1,0,1,0,1,0,1,0,1,0,1,0,1,0,1,0,1,0,1,0,1,0,1,0,1,0,1,0,1,0,1,0,1,0,1,0,1,0,1,0,1,0,1,0,1,0,1,0,1,0,1,0,1,0,1,0,1,0,1,0,1,0,1,0,1,0,1,0,1,0,1,0,1,0,1,0,1,0,1,0,1,0,1,0,1,0,1,0,1,0,1,0,1,0,1,0,1,0,1,0,1,0,1,0,1,0,1,0,1,0,1,0,1,0,1,0,1,0,1,0,1,0,1,0,1,0,1,0,1,0,1,0,1,0,1,0,1,0,1,0,1,0,1,0,1,0,1,0,1,0,1,0,1,0,1,0,1,0,1,0,1,0,1,0,1,0,1,0,1,0,1,0,1,0,1,0,1,0,1,0,1,0,1,0,1,0,1,0,1,0,1,0,1,0,1,0,1,0,1,0,1,0,1,0,1,0,1,0,1,0,1,0,1,0,1,0,1,0,1,0,1,0,1,0,1,0,1,0,1,0,1,0,1,0,1,0,1,0,1,0,1,0,1,0,1,0,1,0,1,0,1,0,1,0,1,0,1,0,1,0,1,0,1,0,1,0,1,0,1,0,1,0,1,0,1,0,1,0,1,0,1,0,1,0,1,0,1,0,1,0,1,0,1,0,1,0,1,0,1,0,1,0,1,0,1,0,1,0,1,0,1,0,1,0,1,0,1,0,1,0,1,0,1,0,1,0,1,0,1,0,1,0,1,0,1,0,1,0,1,0,1,0,1,0,1,0,1,0,1,0,1,0,1,0,1,0,1,0,1,0,1,0,1,0,1,0,1,0,1,0,1,0,1,0,1,0,1,0,1,0,1,0,1,0,1,0,1,0,1,0,1,0,1,0,1,0,1,0,1,0,1,0,1,0,1,0,1,0,1,0,1,0,1,0,1,0,1,0,1,0,1,0,1,0,1,0,1,0,1,0,1,0,1,0,1,0,1,0,1,0,1,0,1,0,1,0,1,0,1,0,1,0,1,0,1,0,1,0,1,0,1,0,1,0,1,0,1,0,1,0,1,0,1,0,1,0,1,0,1,0,1,0,1,0,1,0,1,0,1,0,1,0,1,0,1,0,1,0,1,0,1,0,1,0,1,0,1,0,1,0,1,0,1,0,1,0,1,0,1,0,1,0,1,0,1,0,1,0,1,0,1,0,1,0,1,0,1,0,1,0,1,0,1,0,1,0,1,0,1,0,1,0,1,0,1,0,1,0,1,0,1,0,1,0,1,0,1,0,1,0,1],"trees":[{"base_weights":[-1.4900348E-1,2.4239106E-1,-3.7021908E-1,-1.424767E-1,4.3071404E-1,-8.589669E-2,-5.814455E-1,-3.4570764E-3,1.3084111E-3,6.541353E-3,3.330215E-3,-2.720848E-3,9.4857137E-4,-7.6249996E-3,-4.7028153E-3],"categories":[],"categories_nodes":[],"categories_segments":[],"categories_sizes":[],"default_left":[0,0,0,0,0,0,0,0,0,0,0,0,0,0,0],"id":0,"left_children":[1,3,5,7,9,11,13,-1,-1,-1,-1,-1,-1,-1,-1],"loss_changes":[5.4746484E2,1.6556818E2,2.4254791E2,4.176076E1,3.3253235E1,5.801202E1,4.6285095E1,0E0,0E0,0E0,0E0,0E0,0E0,0E0,0E0],"parents":[2147483647,0,0,1,1,2,2,3,3,4,4,5,5,6,6],"right_children":[2,4,6,8,10,12,14,-1,-1,-1,-1,-1,-1,-1,-1],"split_conditions":[4.57E-1,4.4E-1,1.2E1,2.5E1,-6.6E0,9E0,3.7E-1,-3.4570764E-3,1.3084111E-3,6.541353E-3,3.330215E-3,-2.720848E-3,9.4857137E-4,-7.6249996E-3,-4.7028153E-3],"split_indices":[3,55,80,28,25,29,55,0,0,0,0,0,0,0,0],"split_type":[0,0,0,0,0,0,0,0,0,0,0,0,0,0,0],"sum_hessian":[6.321E3,2.2825E3,4.0385E3,7.5E2,1.5325E3,1.722E3,2.3165E3,4.3E2,3.2E2,4.645E2,1.068E3,8.48E2,8.74E2,8.79E2,1.4375E3],"tree_param":{"num_deleted":"0","num_feature":"106","num_nodes":"15","size_leaf_vector":"1"}},{"base_weights":[1.4900348E-1,-2.4239106E-1,3.7021908E-1,1.424767E-1,-4.3071404E-1,8.589669E-2,5.814455E-1,3.4570764E-3,-1.3084111E-3,-6.541353E-3,-3.330215E-3,2.720848E-3,-9.4857137E-4,7.6249996E-3,4.7028153E-3],"categories":[],"categories_nodes":[],"categories_segments":[],"categories_sizes":[],"default_left":[0,0,0,0,0,0,0,0,0,0,0,0,0,0,0],"id":1,"left_children":[1,3,5,7,9,11,13,-1,-1,-1,-1,-1,-1,-1,-1],"loss_changes":[5.4746484E2,1.6556818E2,2.4254791E2,4.176076E1,3.3253235E1,5.801202E1,4.6285095E1,0E0,0E0,0E0,0E0,0E0,0E0,0E0,0E0],"parents":[2147483647,0,0,1,1,2,2,3,3,4,4,5,5,6,6],"right_children":[2,4,6,8,10,12,14,-1,-1,-1,-1,-1,-1,-1,-1],"split_conditions":[4.57E-1,4.4E-1,1.2E1,2.5E1,-6.6E0,9E0,3.7E-1,3.4570764E-3,-1.3084111E-3,-6.541353E-3,-3.330215E-3,2.720848E-3,-9.4857137E-4,7.6249996E-3,4.7028153E-3],"split_indices":[3,55,80,28,25,29,55,0,0,0,0,0,0,0,0],"split_type":[0,0,0,0,0,0,0,0,0,0,0,0,0,0,0],"sum_hessian":[6.321E3,2.2825E3,4.0385E3,7.5E2,1.5325E3,1.722E3,2.3165E3,4.3E2,3.2E2,4.645E2,1.068E3,8.48E2,8.74E2,8.79E2,1.4375E3],"tree_param":{"num_deleted":"0","num_feature":"106","num_nodes":"15","size_leaf_vector":"1"}},{"base_weights":[-1.4751744E-1,2.399745E-1,-3.6652857E-1,-6.903903E-2,4.704903E-1,-8.503908E-2,-5.75657E-1,-2.4780273E-3,2.0507402E-3,7.109858E-3,3.8712611E-3,-2.6936915E-3,9.390976E-4,-7.549276E-3,-4.655923E-3],"categories":[],"categories_nodes":[],"categories_segments":[],"categories_sizes":[],"default_left":[0,0,0,0,0,0,0,0,0,0,0,0,0,0,0],"id":2,"left_children":[1,3,5,7,9,11,13,-1,-1,-1,-1,-1,-1,-1,-1],"loss_changes":[5.36594E2,1.6268927E2,2.3774084E2,4.7900223E1,2.5947937E1,5.6859344E1,4.537439E1,0E0,0E0,0E0,0E0,0E0,0E0,0E0,0E0],"parents":[2147483647,0,0,1,1,2,2,3,3,4,4,5,5,6,6],"right_children":[2,4,6,8,10,12,14,-1,-1,-1,-1,-1,-1,-1,-1],"split_conditions":[4.57E-1,4.92E-1,1.2E1,2.6E1,2.63E-1,9E0,3.7E-1,-2.4780273E-3,2.0507402E-3,7.109858E-3,3.8712611E-3,-2.6936915E-3,9.390976E-4,-7.549276E-3,-4.655923E-3],"split_indices":[3,55,80,29,3,29,55,0,0,0,0,0,0,0,0],"split_type":[0,0,0,0,0,0,0,0,0,0,0,0,0,0,0],"sum_hessian":[6.3208726E3,2.2824626E3,4.0384102E3,9.754895E2,1.306973E3,1.7219929E3,2.3164172E3,5.9049335E2,3.8499612E2,3.3448782E2,9.724853E2,8.4799365E2,8.739992E2,8.789489E2,1.4374683E3],"tree_param":{"num_deleted":"0","num_feature":"106","num_nodes":"15","size_leaf_vector":"1"}},{"base_weights":[1.4751743E-1,-2.3997448E-1,3.6652857E-1,6.903906E-2,-4.7049034E-1,8.5039094E-2,5.75657E-1,2.4780273E-3,-2.0507392E-3,-7.109858E-3,-3.8712614E-3,2.6936915E-3,-9.390976E-4,7.549276E-3,4.6559228E-3],"categories":[],"categories_nodes":[],"categories_segments":[],"categories_sizes":[],"default_left":[0,0,0,0,0,0,0,0,0,0,0,0,0,0,0],"id":3,"left_children":[1,3,5,7,9,11,13,-1,-1,-1,-1,-1,-1,-1,-1],"loss_changes":[5.36594E2,1.6268927E2,2.377409E2,4.7900208E1,2.5947937E1,5.685935E1,4.537433E1,0E0,0E0,0E0,0E0,0E0,0E0,0E0,0E0],"parents":[2147483647,0,0,1,1,2,2,3,3,4,4,5,5,6,6],"right_children":[2,4,6,8,10,12,14,-1,-1,-1,-1,-1,-1,-1,-1],"split_conditions":[4.57E-1,4.92E-1,1.2E1,2.6E1,2.63E-1,9E0,3.7E-1,2.4780273E-3,-2.0507392E-3,-7.109858E-3,-3.8712614E-3,2.6936915E-3,-9.390976E-4,7.549276E-3,4.6559228E-3],"split_indices":[3,55,80,29,3,29,55,0,0,0,0,0,0,0,0],"split_type":[0,0,0,0,0,0,0,0,0,0,0,0,0,0,0],"sum_hessian":[6.3208726E3,2.2824626E3,4.0384102E3,9.754895E2,1.3069731E3,1.7219929E3,2.3164172E3,5.904934E2,3.8499612E2,3.3448782E2,9.7248535E2,8.479937E2,8.739992E2,8.789489E2,1.4374683E3],"tree_param":{"num_deleted":"0","num_feature":"106","num_nodes":"15","size_leaf_vector":"1"}},{"base_weights":[-1.4605138E-1,2.3758997E-1,-3.6289087E-1,-1.4029302E-1,4.2250562E-1,-8.419077E-2,-5.6996644E-1,-3.3997137E-3,1.2824148E-3,6.423257E-3,3.2639827E-3,-2.666845E-3,9.297195E-4,-7.1230135E-3,-4.3382132E-3],"categories":[],"categories_nodes":[],"categories_segments":[],"categories_sizes":[],"default_left":[0,0,0,0,0,0,0,0,0,0,0,0,0,0,0],"id":4,"left_children":[1,3,5,7,9,11,13,-1,-1,-1,-1,-1,-1,-1,-1],"loss_changes":[5.259633E2,1.5961258E2,2.3305902E2,4.031166E1,3.2184998E1,5.573035E1,4.4593567E1,0E0,0E0,0E0,0E0,0E0,0E0,0E0,0E0],"parents":[2147483647,0,0,1,1,2,2,3,3,4,4,5,5,6,6],"right_children":[2,4,6,8,10,12,14,-1,-1,-1,-1,-1,-1,-1,-1],"split_conditions":[4.57E-1,4.4E-1,1.2E1,2.5E1,-6.6E0,9E0,4.09E-1,-3.3997137E-3,1.2824148E-3,6.423257E-3,3.2639827E-3,-2.666845E-3,9.297195E-4,-7.1230135E-3,-4.3382132E-3],"split_indices":[3,55,80,28,25,29,55,0,0,0,0,0,0,0,0],"split_type":[0,0,0,0,0,0,0,0,0,0,0,0,0,0,0],"sum_hessian":[6.3205054E3,2.2823616E3,4.0381438E3,7.499823E2,1.5323793E3,1.721972E3,2.3161716E3,4.299854E2,3.1999692E2,4.6443167E2,1.0679476E3,8.4797516E2,8.739969E2,1.1302756E3,1.1858961E3],"tree_param":{"num_deleted":"0","num_feature":"106","num_nodes":"15","size_leaf_vector":"1"}},{"base_weights":[1.4605139E-1,-2.3758996E-1,3.628909E-1,1.4029297E-1,-4.225056E-1,8.419077E-2,5.6996644E-1,3.3997123E-3,-1.2824143E-3,-6.423257E-3,-3.2639822E-3,2.666845E-3,-9.297195E-4,7.123014E-3,4.3382137E-3],"categories":[],"categories_nodes":[],"categories_segments":[],"categories_sizes":[],"default_left":[0,0,0,0,0,0,0,0,0,0,0,0,0,0,0],"id":5,"left_children":[1,3,5,7,9,11,13,-1,-1,-1,-1,-1,-1,-1,-1],"loss_changes":[5.259634E2,1.5961249E2,2.3305902E2,4.0311634E1,3.2185028E1,5.573035E1,4.459369E1,0E0,0E0,0E0,0E0,0E0,0E0,0E0,0E0],"parents":[2147483647,0,0,1,1,2,2,3,3,4,4,5,5,6,6],"right_children":[2,4,6,8,10,12,14,-1,-1,-1,-1,-1,-1,-1,-1],"split_conditions":[4.57E-1,4.4E-1,1.2E1,2.5E1,-6.6E0,9E0,4.09E-1,3.3997123E-3,-1.2824143E-3,-6.423257E-3,-3.2639822E-3,2.666845E-3,-9.297195E-4,7.123014E-3,4.3382137E-3],"split_indices":[3,55,80,28,25,29,55,0,0,0,0,0,0,0,0],"split_type":[0,0,0,0,0,0,0,0,0,0,0,0,0,0,0],"sum_hessian":[6.3205054E3,2.2823616E3,4.0381438E3,7.499823E2,1.5323794E3,1.721972E3,2.3161719E3,4.299854E2,3.1999692E2,4.644317E2,1.0679476E3,8.4797516E2,8.739969E2,1.1302756E3,1.1858961E3],"tree_param":{"num_deleted":"0","num_feature":"106","num_nodes":"15","size_leaf_vector":"1"}},{"base_weights":[-1.4460574E-1,2.352353E-1,-3.593041E-1,-6.8264246E-2,4.6166453E-1,-8.33515E-2,-5.643695E-1,-2.4379948E-3,2.0089878E-3,6.983509E-3,3.7963886E-3,-2.6403037E-3,9.2043815E-4,-7.405994E-3,-4.5620045E-3],"categories":[],"categories_nodes":[],"categories_segments":[],"categories_sizes":[],"default_left":[0,0,0,0,0,0,0,0,0,0,0,0,0,0,0],"id":6,"left_children":[1,3,5,7,9,11,13,-1,-1,-1,-1,-1,-1,-1,-1],"loss_changes":[5.1556165E2,1.5693495E2,2.2849689E2,4.6183315E1,2.5124023E1,5.4624588E1,4.3825867E1,0E0,0E0,0E0,0E0,0E0,0E0,0E0,0E0],"parents":[2147483647,0,0,1,1,2,2,3,3,4,4,5,5,6,6],"right_children":[2,4,6,8,10,12,14,-1,-1,-1,-1,-1,-1,-1,-1],"split_conditions":[4.57E-1,4.92E-1,1.2E1,2.6E1,2.63E-1,9E0,3.7E-1,-2.4379948E-3,2.0089878E-3,6.983509E-3,3.7963886E-3,-2.6403037E-3,9.2043815E-4,-7.405994E-3,-4.5620045E-3],"split_indices":[3,55,80,29,3,29,55,0,0,0,0,0,0,0,0],"split_type":[0,0,0,0,0,0,0,0,0,0,0,0,0,0,0],"sum_hessian":[6.319899E3,2.2821892E3,4.03771E3,9.754376E2,1.3067515E3,1.7219376E3,2.3157722E3,5.904613E2,3.8497635E2,3.3437964E2,9.723719E2,8.479446E2,8.7399304E2,8.785631E2,1.4372092E3],"tree_param":{"num_deleted":"0","num_feature":"106","num_nodes":"15","size_leaf_vector":"1"}},{"base_weights":[1.4460577E-1,-2.3523527E-1,3.5930413E-1,6.826423E-2,-4.6166444E-1,8.335156E-2,5.643695E-1,2.4379948E-3,-2.008988E-3,-6.983509E-3,-3.796388E-3,2.6403037E-3,-9.20437E-4,7.405994E-3,4.5620045E-3],"categories":[],"categories_nodes":[],"categories_segments":[],"categories_sizes":[],"default_left":[0,0,0,0,0,0,0,0,0,0,0,0,0,0,0],"id":7,"left_children":[1,3,5,7,9,11,13,-1,-1,-1,-1,-1,-1,-1,-1],"loss_changes":[5.1556177E2,1.5693484E2,2.284967E2,4.618331E1,2.5124084E1,5.4624546E1,4.3825928E1,0E0,0E0,0E0,0E0,0E0,0E0,0E0,0E0],"parents":[2147483647,0,0,1,1,2,2,3,3,4,4,5,5,6,6],"right_children":[2,4,6,8,10,12,14,-1,-1,-1,-1,-1,-1,-1,-1],"split_conditions":[4.57E-1,4.92E-1,1.2E1,2.6E1,2.63E-1,9E0,3.7E-1,2.4379948E-3,-2.008988E-3,-6.983509E-3,-3.796388E-3,2.6403037E-3,-9.20437E-4,7.405994E-3,4.5620045E-3],"split_indices":[3,55,80,29,3,29,55,0,0,0,0,0,0,0,0],"split_type":[0,0,0,0,0,0,0,0,0,0,0,0,0,0,0],"sum_hessian":[6.3198994E3,2.2821892E3,4.03771E3,9.754376E2,1.3067516E3,1.7219376E3,2.3157725E3,5.9046124E2,3.8497635E2,3.3437964E2,9.723719E2,8.479446E2,8.7399304E2,8.785632E2,1.4372092E3],"tree_param":{"num_deleted":"0","num_feature":"106","num_nodes":"15","size_leaf_vector":"1"}},{"base_weights":[-1.4317933E-1,2.3291141E-1,-3.5576788E-1,-1.3814653E-1,4.1451678E-1,-8.252135E-2,-5.588653E-1,-3.3435086E-3,1.2569808E-3,6.309105E-3,3.1993566E-3,-2.614062E-3,9.1124873E-4,-4.1687433E-3,-6.9109253E-3],"categories":[],"categories_nodes":[],"categories_segments":[],"categories_sizes":[],"default_left":[0,0,0,0,0,0,0,0,0,0,0,0,0,0,0],"id":8,"left_children":[1,3,5,7,9,11,13,-1,-1,-1,-1,-1,-1,-1,-1],"loss_changes":[5.0538837E2,1.5389688E2,2.2405148E2,3.8915787E1,3.1174225E1,5.3541412E1,4.3199097E1,0E0,0E0,0E0,0E0,0E0,0E0,0E0,0E0],"parents":[2147483647,0,0,1,1,2,2,3,3,4,4,5,5,6,6],"right_children":[2,4,6,8,10,12,14,-1,-1,-1,-1,-1,-1,-1,-1],"split_conditions":[4.57E-1,4.4E-1,1.2E1,2.5E1,-6.6E0,9E0,5.94E-1,-3.3435086E-3,1.2569808E-3,6.309105E-3,3.1993566E-3,-2.614062E-3,9.1124873E-4,-4.1687433E-3,-6.9109253E-3],"split_indices":[3,55,80,28,25,29,3,0,0,0,0,0,0,0,0],"split_type":[0,0,0,0,0,0,0,0,0,0,0,0,0,0,0],"sum_hessian":[6.3190654E3,2.2819568E3,4.0371086E3,7.499305E2,1.5320262E3,1.7218903E3,2.3152183E3,4.2994257E2,3.199879E2,4.6423172E2,1.0677946E3,8.479025E2,8.739878E2,1.1183942E3,1.1968241E3],"tree_param":{"num_deleted":"0","num_feature":"106","num_nodes":"15","size_leaf_vector":"1"}},{"base_weights":[1.4317931E-1,-2.329114E-1,3.5576785E-1,1.3814655E-1,-4.1451678E-1,8.2521304E-2,5.588653E-1,3.3435086E-3,-1.2569808E-3,-6.309105E-3,-3.1993566E-3,2.614061E-3,-9.1124873E-4,4.1687433E-3,6.9109253E-3],"categories":[],"categories_nodes":[],"categories_segments":[],"categories_sizes":[],"default_left":[0,0,0,0,0,0,0,0,0,0,0,0,0,0,0],"id":9,"left_children":[1,3,5,7,9,11,13,-1,-1,-1,-1,-1,-1,-1,-1],"loss_changes":[5.0538834E2,1.5389685E2,2.2405154E2,3.8915787E1,3.1174225E1,5.3541386E1,4.3198975E1,0E0,0E0,0E0,0E0,0E0,0E0,0E0,0E0],"parents":[2147483647,0,0,1,1,2,2,3,3,4,4,5,5,6,6],"right_children":[2,4,6,8,10,12,14,-1,-1,-1,-1,-1,-1,-1,-1],"split_conditions":[4.57E-1,4.4E-1,1.2E1,2.5E1,-6.6E0,9E0,5.94E-1,3.3435086E-3,-1.2569808E-3,-6.309105E-3,-3.1993566E-3,2.614061E-3,-9.1124873E-4,4.1687433E-3,6.9109253E-3],"split_indices":[3,55,80,28,25,29,3,0,0,0,0,0,0,0,0],"split_type":[0,0,0,0,0,0,0,0,0,0,0,0,0,0,0],"sum_hessian":[6.3190654E3,2.2819568E3,4.0371086E3,7.499305E2,1.5320262E3,1.7218904E3,2.3152183E3,4.2994257E2,3.199879E2,4.6423175E2,1.0677946E3,8.479025E2,8.739878E2,1.1183942E3,1.1968241E3],"tree_param":{"num_deleted":"0","num_feature":"106","num_nodes":"15","size_leaf_vector":"1"}},{"base_weights":[-1.4177167E-1,2.3061614E-1,-3.5227752E-1,-6.7498E-2,4.530801E-1,-1.2237244E-1,-5.8963215E-1,-2.3987037E-3,1.9681454E-3,6.861637E-3,3.7233788E-3,-3.0468532E-3,5.941019E-4,-4.429436E-3,-7.035224E-3],"categories":[],"categories_nodes":[],"categories_segments":[],"categories_sizes":[],"default_left":[0,0,0,0,0,0,0,0,0,0,0,0,0,0,0],"id":10,"left_children":[1,3,5,7,9,11,13,-1,-1,-1,-1,-1,-1,-1,-1],"loss_changes":[4.954292E2,1.5141556E2,2.2024374E2,4.452949E1,2.4347778E1,6.802856E1,3.2871338E1,0E0,0E0,0E0,0E0,0E0,0E0,0E0,0E0],"parents":[2147483647,0,0,1,1,2,2,3,3,4,4,5,5,6,6],"right_children":[2,4,6,8,10,12,14,-1,-1,-1,-1,-1,-1,-1,-1],"split_conditions":[4.57E-1,4.92E-1,1.5E1,2.6E1,2.63E-1,9E0,5.79E-1,-2.3987037E-3,1.9681454E-3,6.861637E-3,3.7233788E-3,-3.0468532E-3,5.941019E-4,-4.429436E-3,-7.035224E-3],"split_indices":[3,55,81,29,3,29,3,0,0,0,0,0,0,0,0],"split_type":[0,0,0,0,0,0,0,0,0,0,0,0,0,0,0],"sum_hessian":[6.318035E3,2.2816567E3,4.0363784E3,9.753413E2,1.3063154E3,2.0511353E3,1.9852432E3,5.9040137E2,3.8493994E2,3.3416418E2,9.721512E2,1.0237365E3,1.0273988E3,8.6981995E2,1.1154232E3],"tree_param":{"num_deleted":"0","num_feature":"106","num_nodes":"15","size_leaf_vector":"1"}},{"base_weights":[1.4177169E-1,-2.306161E-1,3.5227752E-1,6.749805E-2,-4.5308006E-1,1.2237247E-1,5.8963215E-1,2.3987042E-3,-1.9681444E-3,-6.8616364E-3,-3.7233783E-3,3.0468528E-3,-5.94101E-4,4.4294354E-3,7.0352238E-3],"categories":[],"categories_nodes":[],"categories_segments":[],"categories_sizes":[],"default_left":[0,0,0,0,0,0,0,0,0,0,0,0,0,0,0],"id":11,"left_children":[1,3,5,7,9,11,13,-1,-1,-1,-1,-1,-1,-1,-1],"loss_changes":[4.9542908E2,1.5141557E2,2.2024368E2,4.452949E1,2.4347778E1,6.802852E1,3.2871338E1,0E0,0E0,0E0,0E0,0E0,0E0,0E0,0E0],"parents":[2147483647,0,0,1,1,2,2,3,3,4,4,5,5,6,6],"right_children":[2,4,6,8,10,12,14,-1,-1,-1,-1,-1,-1,-1,-1],"split_conditions":[4.57E-1,4.92E-1,1.5E1,2.6E1,2.63E-1,9E0,5.79E-1,2.3987042E-3,-1.9681444E-3,-6.8616364E-3,-3.7233783E-3,3.0468528E-3,-5.94101E-4,4.4294354E-3,7.0352238E-3],"split_indices":[3,55,81,29,3,29,3,0,0,0,0,0,0,0,0],"split_type":[0,0,0,0,0,0,0,0,0,0,0,0,0,0,0],"sum_hessian":[6.318035E3,2.2816567E3,4.0363784E3,9.753413E2,1.3063153E3,2.0511353E3,1.9852432E3,5.904013E2,3.8493994E2,3.3416418E2,9.721511E2,1.02373645E3,1.0273988E3,8.6981995E2,1.1154232E3],"tree_param":{"num_deleted":"0","num_feature":"106","num_nodes":"15","size_leaf_vector":"1"}},{"base_weights":[-1.4038204E-1,2.2835039E-1,-3.488338E-1,-6.682675E-2,4.4866383E-1,-8.047147E-2,-5.4841006E-1,-2.3748802E-3,1.9486028E-3,6.796484E-3,3.6867484E-3,-2.5576358E-3,8.9662813E-4,-6.8782642E-3,-4.1514975E-3],"categories":[],"categories_nodes":[],"categories_segments":[],"categories_sizes":[],"default_left":[0,0,0,0,0,0,0,0,0,0,0,0,0,0,0],"id":12,"left_children":[1,3,5,7,9,11,13,-1,-1,-1,-1,-1,-1,-1,-1],"loss_changes":[4.856851E2,1.4845139E2,2.161463E2,4.3647392E1,2.389798E1,5.1400784E1,4.2719727E1,0E0,0E0,0E0,0E0,0E0,0E0,0E0,0E0],"parents":[2147483647,0,0,1,1,2,2,3,3,4,4,5,5,6,6],"right_children":[2,4,6,8,10,12,14,-1,-1,-1,-1,-1,-1,-1,-1],"split_conditions":[4.57E-1,4.92E-1,1.2E1,2.6E1,2.63E-1,9E0,4.09E-1,-2.3748802E-3,1.9486028E-3,6.796484E-3,3.6867484E-3,-2.5576358E-3,8.9662813E-4,-6.8782642E-3,-4.1514975E-3],"split_indices":[3,55,80,29,3,29,55,0,0,0,0,0,0,0,0],"split_type":[0,0,0,0,0,0,0,0,0,0,0,0,0,0,0],"sum_hessian":[6.316811E3,2.2813003E3,4.0355105E3,9.7529346E2,1.3060068E3,1.7217477E3,2.313763E3,5.9037085E2,3.8492255E2,3.3400424E2,9.7200256E2,8.4777155E2,8.7397614E2,1.1287292E3,1.1850336E3],"tree_param":{"num_deleted":"0","num_feature":"106","num_nodes":"15","size_leaf_vector":"1"}},{"base_weights":[1.4038204E-1,-2.2835039E-1,3.488338E-1,6.682678E-2,-4.4866383E-1,8.047147E-2,5.4841006E-1,2.3748805E-3,-1.9486025E-3,-6.7964843E-3,-3.6867484E-3,2.5576358E-3,-8.9662813E-4,6.878265E-3,4.1514975E-3],"categories":[],"categories_nodes":[],"categories_segments":[],"categories_sizes":[],"default_left":[0,0,0,0,0,0,0,0,0,0,0,0,0,0,0],"id":13,"left_children":[1,3,5,7,9,11,13,-1,-1,-1,-1,-1,-1,-1,-1],"loss_changes":[4.85685E2,1.4845139E2,2.1614636E2,4.364738E1,2.389798E1,5.1400784E1,4.2719666E1,0E0,0E0,0E0,0E0,0E0,0E0,0E0,0E0],"parents":[2147483647,0,0,1,1,2,2,3,3,4,4,5,5,6,6],"right_children":[2,4,6,8,10,12,14,-1,-1,-1,-1,-1,-1,-1,-1],"split_conditions":[4.57E-1,4.92E-1,1.2E1,2.6E1,2.63E-1,9E0,4.09E-1,2.3748805E-3,-1.9486025E-3,-6.7964843E-3,-3.6867484E-3,2.5576358E-3,-8.9662813E-4,6.878265E-3,4.1514975E-3],"split_indices":[3,55,80,29,3,29,55,0,0,0,0,0,0,0,0],"split_type":[0,0,0,0,0,0,0,0,0,0,0,0,0,0,0],"sum_hessian":[6.3168105E3,2.2813003E3,4.0355105E3,9.752934E2,1.3060068E3,1.7217477E3,2.3137627E3,5.9037085E2,3.8492255E2,3.3400424E2,9.7200256E2,8.4777155E2,8.7397614E2,1.1287292E3,1.1850336E3],"tree_param":{"num_deleted":"0","num_feature":"106","num_nodes":"15","size_leaf_vector":"1"}},{"base_weights":[-1.3901126E-1,2.2611329E-1,-3.4543905E-1,-1.3530582E-1,4.0307912E-1,-1.1980429E-1,-5.785479E-1,-3.2666677E-3,1.2198588E-3,5.873636E-3,2.9641883E-3,-2.9887029E-3,5.870823E-4,-4.332023E-3,-6.9143306E-3],"categories":[],"categories_nodes":[],"categories_segments":[],"categories_sizes":[],"default_left":[0,0,0,0,0,0,0,0,0,0,0,0,0,0,0],"id":14,"left_children":[1,3,5,7,9,11,13,-1,-1,-1,-1,-1,-1,-1,-1],"loss_changes":[4.761525E2,1.4600093E2,2.1218576E2,3.70058E1,2.9940277E1,6.560654E1,3.226239E1,0E0,0E0,0E0,0E0,0E0,0E0,0E0,0E0],"parents":[2147483647,0,0,1,1,2,2,3,3,4,4,5,5,6,6],"right_children":[2,4,6,8,10,12,14,-1,-1,-1,-1,-1,-1,-1,-1],"split_conditions":[4.57E-1,4.4E-1,1.5E1,2.5E1,-5.9E0,9E0,5.79E-1,-3.2666677E-3,1.2198588E-3,5.873636E-3,2.9641883E-3,-2.9887029E-3,5.870823E-4,-4.332023E-3,-6.9143306E-3],"split_indices":[3,55,81,28,25,29,3,0,0,0,0,0,0,0,0],"split_type":[0,0,0,0,0,0,0,0,0,0,0,0,0,0,0],"sum_hessian":[6.3153423E3,2.2808804E3,4.0344622E3,7.4979724E2,1.531083E3,2.0508665E3,1.9835958E3,4.2983636E2,3.1996088E2,5.5964246E2,9.7144055E2,1.02350934E3,1.027357E3,8.692404E2,1.1143555E3],"tree_param":{"num_deleted":"0","num_feature":"106","num_nodes":"15","size_leaf_vector":"1"}},{"base_weights":[1.3901126E-1,-2.2611332E-1,3.4543905E-1,1.3530578E-1,-4.0307915E-1,1.1980433E-1,5.785479E-1,3.2666668E-3,-1.2198585E-3,-5.8736363E-3,-2.9641883E-3,2.988703E-3,-5.8708154E-4,4.3320237E-3,6.91433E-3],"categories":[],"categories_nodes":[],"categories_segments":[],"categories_sizes":[],"default_left":[0,0,0,0,0,0,0,0,0,0,0,0,0,0,0],"id":15,"left_children":[1,3,5,7,9,11,13,-1,-1,-1,-1,-1,-1,-1,-1],"loss_changes":[4.7615256E2,1.4600096E2,2.1218579E2,3.7005775E1,2.9940262E1,6.5606514E1,3.226239E1,0E0,0E0,0E0,0E0,0E0,0E0,0E0,0E0],"parents":[2147483647,0,0,1,1,2,2,3,3,4,4,5,5,6,6],"right_children":[2,4,6,8,10,12,14,-1,-1,-1,-1,-1,-1,-1,-1],"split_conditions":[4.57E-1,4.4E-1,1.5E1,2.5E1,-5.9E0,9E0,5.79E-1,3.2666668E-3,-1.2198585E-3,-5.8736363E-3,-2.9641883E-3,2.988703E-3,-5.8708154E-4,4.3320237E-3,6.91433E-3],"split_indices":[3,55,81,28,25,29,3,0,0,0,0,0,0,0,0],"split_type":[0,0,0,0,0,0,0,0,0,0,0,0,0,0,0],"sum_hessian":[6.315343E3,2.2808804E3,4.0344624E3,7.4979724E2,1.531083E3,2.0508665E3,1.9835958E3,4.298364E2,3.1996085E2,5.5964246E2,9.7144055E2,1.02350934E3,1.027357E3,8.692404E2,1.1143555E3],"tree_param":{"num_deleted":"0","num_feature":"106","num_nodes":"15","size_leaf_vector":"1"}},{"base_weights":[-1.3765812E-1,2.2390178E-1,-3.4208703E-1,-6.607599E-2,4.4042277E-1,-7.847036E-2,-5.3828216E-1,-2.3364977E-3,1.9087452E-3,6.6815238E-3,3.6161866E-3,-2.502502E-3,8.822185E-4,-7.105966E-3,-4.3264492E-3],"categories":[],"categories_nodes":[],"categories_segments":[],"categories_sizes":[],"default_left":[0,0,0,0,0,0,0,0,0,0,0,0,0,0,0],"id":16,"left_children":[1,3,5,7,9,11,13,-1,-1,-1,-1,-1,-1,-1,-1],"loss_changes":[4.6681787E2,1.432703E2,2.0861316E2,4.207537E1,2.3200745E1,4.9346207E1,4.17912E1,0E0,0E0,0E0,0E0,0E0,0E0,0E0,0E0],"parents":[2147483647,0,0,1,1,2,2,3,3,4,4,5,5,6,6],"right_children":[2,4,6,8,10,12,14,-1,-1,-1,-1,-1,-1,-1,-1],"split_conditions":[4.57E-1,4.92E-1,1.2E1,2.6E1,2.63E-1,9E0,3.7E-1,-2.3364977E-3,1.9087452E-3,6.6815238E-3,3.6161866E-3,-2.502502E-3,8.822185E-4,-7.105966E-3,-4.3264492E-3],"split_indices":[3,55,80,29,3,29,55,0,0,0,0,0,0,0,0],"split_type":[0,0,0,0,0,0,0,0,0,0,0,0,0,0,0],"sum_hessian":[6.3137134E3,2.2804092E3,4.0333042E3,9.751394E2,1.3052698E3,1.7215505E3,2.3117537E3,5.9027454E2,3.8486493E2,3.336379E2,9.7163184E2,8.4758997E2,8.7396063E2,8.7641943E2,1.4353341E3],"tree_param":{"num_deleted":"0","num_feature":"106","num_nodes":"15","size_leaf_vector":"1"}},{"base_weights":[1.3765812E-1,-2.2390176E-1,3.4208703E-1,6.6076025E-2,-4.4042277E-1,7.847034E-2,5.3828216E-1,2.3364983E-3,-1.9087452E-3,-6.6815238E-3,-3.6161866E-3,2.5025015E-3,-8.822185E-4,7.105966E-3,4.3264492E-3],"categories":[],"categories_nodes":[],"categories_segments":[],"categories_sizes":[],"default_left":[0,0,0,0,0,0,0,0,0,0,0,0,0,0,0],"id":17,"left_children":[1,3,5,7,9,11,13,-1,-1,-1,-1,-1,-1,-1,-1],"loss_changes":[4.668178E2,1.4327028E2,2.0861319E2,4.207539E1,2.320076E1,4.9346207E1,4.17912E1,0E0,0E0,0E0,0E0,0E0,0E0,0E0,0E0],"parents":[2147483647,0,0,1,1,2,2,3,3,4,4,5,5,6,6],"right_children":[2,4,6,8,10,12,14,-1,-1,-1,-1,-1,-1,-1,-1],"split_conditions":[4.57E-1,4.92E-1,1.2E1,2.6E1,2.63E-1,9E0,3.7E-1,2.3364983E-3,-1.9087452E-3,-6.6815238E-3,-3.6161866E-3,2.5025015E-3,-8.822185E-4,7.105966E-3,4.3264492E-3],"split_indices":[3,55,80,29,3,29,55,0,0,0,0,0,0,0,0],"split_type":[0,0,0,0,0,0,0,0,0,0,0,0,0,0,0],"sum_hessian":[6.3137134E3,2.2804092E3,4.0333042E3,9.751394E2,1.3052698E3,1.7215505E3,2.3117537E3,5.902745E2,3.8486493E2,3.3363788E2,9.7163184E2,8.475899E2,8.7396063E2,8.7641943E2,1.4353341E3],"tree_param":{"num_deleted":"0","num_feature":"106","num_nodes":"15","size_leaf_vector":"1"}},{"base_weights":[-1.3632263E-1,2.2171941E-1,-3.387819E-1,-1.3324793E-1,3.9559615E-1,-7.769154E-2,-5.33187E-1,-3.213182E-3,1.1957673E-3,5.7721846E-3,2.9054352E-3,-2.9269233E-3,5.2927464E-4,-7.0407693E-3,-4.2847213E-3],"categories":[],"categories_nodes":[],"categories_segments":[],"categories_sizes":[],"default_left":[0,0,0,0,0,0,0,0,0,0,0,0,0,0,0],"id":18,"left_children":[1,3,5,7,9,11,13,-1,-1,-1,-1,-1,-1,-1,-1],"loss_changes":[4.576869E2,1.4082965E2,2.046615E2,3.5731834E1,2.9047562E1,4.838713E1,4.106256E1,0E0,0E0,0E0,0E0,0E0,0E0,0E0,0E0],"parents":[2147483647,0,0,1,1,2,2,3,3,4,4,5,5,6,6],"right_children":[2,4,6,8,10,12,14,-1,-1,-1,-1,-1,-1,-1,-1],"split_conditions":[4.57E-1,4.4E-1,1.2E1,2.5E1,-5.9E0,7E0,3.7E-1,-3.213182E-3,1.1957673E-3,5.7721846E-3,2.9054352E-3,-2.9269233E-3,5.2927464E-4,-7.0407693E-3,-4.2847213E-3],"split_indices":[3,55,80,28,25,29,55,0,0,0,0,0,0,0,0],"split_type":[0,0,0,0,0,0,0,0,0,0,0,0,0,0,0],"sum_hessian":[6.311851E3,2.279876E3,4.031975E3,7.4966895E2,1.530207E3,1.7214412E3,2.310534E3,4.297312E2,3.1993774E2,5.5910034E2,9.711066E2,6.501099E2,1.0713312E3,8.757024E2,1.4348315E3],"tree_param":{"num_deleted":"0","num_feature":"106","num_nodes":"15","size_leaf_vector":"1"}},{"base_weights":[1.3632265E-1,-2.2171937E-1,3.3878192E-1,1.3324797E-1,-3.9559606E-1,7.76916E-2,5.33187E-1,3.213183E-3,-1.1957673E-3,-5.7721846E-3,-2.9054342E-3,2.9269243E-3,-5.292743E-4,7.0407693E-3,4.2847213E-3],"categories":[],"categories_nodes":[],"categories_segments":[],"categories_sizes":[],"default_left":[0,0,0,0,0,0,0,0,0,0,0,0,0,0,0],"id":19,"left_children":[1,3,5,7,9,11,13,-1,-1,-1,-1,-1,-1,-1,-1],"loss_changes":[4.5768686E2,1.4082965E2,2.046614E2,3.5731846E1,2.9047577E1,4.838714E1,4.106256E1,0E0,0E0,0E0,0E0,0E0,0E0,0E0,0E0],"parents":[2147483647,0,0,1,1,2,2,3,3,4,4,5,5,6,6],"right_children":[2,4,6,8,10,12,14,-1,-1,-1,-1,-1,-1,-1,-1],"split_conditions":[4.57E-1,4.4E-1,1.2E1,2.5E1,-5.9E0,7E0,3.7E-1,3.213183E-3,-1.1957673E-3,-5.7721846E-3,-2.9054342E-3,2.9269243E-3,-5.292743E-4,7.0407693E-3,4.2847213E-3],"split_indices":[3,55,80,28,25,29,55,0,0,0,0,0,0,0,0],"split_type":[0,0,0,0,0,0,0,0,0,0,0,0,0,0,0],"sum_hessian":[6.311851E3,2.279876E3,4.031975E3,7.496689E2,1.530207E3,1.721441E3,2.310534E3,4.2973117E2,3.1993774E2,5.5910034E2,9.711067E2,6.5010986E2,1.0713312E3,8.757024E2,1.4348315E3],"tree_param":{"num_deleted":"0","num_feature":"106","num_nodes":"15","size_leaf_vector":"1"}},{"base_weights":[-1.350044E-1,2.1956156E-1,-3.3551893E-1,-6.53336E-2,4.3239582E-1,-1.1590544E-1,-5.627329E-1,-2.2988147E-3,1.8697391E-3,3.8158675E-3,7.846218E-3,-3.121136E-3,3.9315477E-4,-4.186796E-3,-6.7468234E-3],"categories":[],"categories_nodes":[],"categories_segments":[],"categories_sizes":[],"default_left":[0,0,0,0,0,0,0,0,0,0,0,0,0,0,0],"id":20,"left_children":[1,3,5,7,9,11,13,-1,-1,-1,-1,-1,-1,-1,-1],"loss_changes":[4.4874554E2,1.3829492E2,2.0110492E2,4.056102E1,2.3061478E1,6.24862E1,3.1667969E1,0E0,0E0,0E0,0E0,0E0,0E0,0E0,0E0],"parents":[2147483647,0,0,1,1,2,2,3,3,4,4,5,5,6,6],"right_children":[2,4,6,8,10,12,14,-1,-1,-1,-1,-1,-1,-1,-1],"split_conditions":[4.57E-1,4.92E-1,1.5E1,2.6E1,7.78E-1,8E0,5.79E-1,-2.2988147E-3,1.8697391E-3,3.8158675E-3,7.846218E-3,-3.121136E-3,3.9315477E-4,-4.186796E-3,-6.7468234E-3],"split_indices":[3,55,81,29,55,29,3,0,0,0,0,0,0,0,0],"split_type":[0,0,0,0,0,0,0,0,0,0,0,0,0,0,0],"sum_hessian":[6.309822E3,2.2792944E3,4.0305273E3,9.7494635E2,1.3043481E3,2.0503108E3,1.9802166E3,5.901536E2,3.8479276E2,1.1417347E3,1.6261342E2,9.051448E2,1.1451659E3,8.6801764E2,1.1121989E3],"tree_param":{"num_deleted":"0","num_feature":"106","num_nodes":"15","size_leaf_vector":"1"}},{"base_weights":[1.3500439E-1,-2.1956158E-1,3.3551893E-1,6.5333605E-2,-4.3239588E-1,1.15905404E-1,5.627329E-1,2.2988147E-3,-1.8697385E-3,-3.8158677E-3,-7.846218E-3,3.1211358E-3,-3.9315506E-4,4.186796E-3,6.7468234E-3],"categories":[],"categories_nodes":[],"categories_segments":[],"categories_sizes":[],"default_left":[0,0,0,0,0,0,0,0,0,0,0,0,0,0,0],"id":21,"left_children":[1,3,5,7,9,11,13,-1,-1,-1,-1,-1,-1,-1,-1],"loss_changes":[4.4874557E2,1.3829495E2,2.0110492E2,4.0561005E1,2.3061462E1,6.2486195E1,3.166803E1,0E0,0E0,0E0,0E0,0E0,0E0,0E0,0E0],"parents":[2147483647,0,0,1,1,2,2,3,3,4,4,5,5,6,6],"right_children":[2,4,6,8,10,12,14,-1,-1,-1,-1,-1,-1,-1,-1],"split_conditions":[4.57E-1,4.92E-1,1.5E1,2.6E1,7.78E-1,8E0,5.79E-1,2.2988147E-3,-1.8697385E-3,-3.8158677E-3,-7.846218E-3,3.1211358E-3,-3.9315506E-4,4.186796E-3,6.7468234E-3],"split_indices":[3,55,81,29,55,29,3,0,0,0,0,0,0,0,0],"split_type":[0,0,0,0,0,0,0,0,0,0,0,0,0,0,0],"sum_hessian":[6.309822E3,2.2792944E3,4.030527E3,9.7494635E2,1.3043483E3,2.0503105E3,1.9802166E3,5.9015356E2,3.8479276E2,1.1417347E3,1.6261343E2,9.051447E2,1.1451659E3,8.6801764E2,1.112199E3],"tree_param":{"num_deleted":"0","num_feature":"106","num_nodes":"15","size_leaf_vector":"1"}},{"base_weights":[-1.3370074E-1,1.7496124E-1,-3.5979885E-1,-1.0706606E-1,3.8959578E-1,-1.0231816E-1,-5.5481607E-1,-2.5349953E-3,1.8512377E-3,5.992451E-3,2.94272E-3,-2.1400137E-3,1.4680667E-3,-6.9426056E-3,-4.397433E-3],"categories":[],"categories_nodes":[],"categories_segments":[],"categories_sizes":[],"default_left":[0,0,0,0,0,0,0,0,0,0,0,0,0,0,0],"id":22,"left_children":[1,3,5,7,9,11,13,-1,-1,-1,-1,-1,-1,-1,-1],"loss_changes":[4.403319E2,1.6154309E2,1.8280331E2,4.9412605E1,3.0104813E1,4.3733444E1,3.2941895E1,0E0,0E0,0E0,0E0,0E0,0E0,0E0,0E0],"parents":[2147483647,0,0,1,1,2,2,3,3,4,4,5,5,6,6],"right_children":[2,4,6,8,10,12,14,-1,-1,-1,-1,-1,-1,-1,-1],"split_conditions":[4.9E-1,4.92E-1,1.2E1,2.6E1,-5.9E0,6.85E-1,3.95E-1,-2.5349953E-3,1.8512377E-3,5.992451E-3,2.94272E-3,-2.1400137E-3,1.4680667E-3,-6.9426056E-3,-4.397433E-3],"split_indices":[3,55,80,29,25,55,55,0,0,0,0,0,0,0,0],"split_type":[0,0,0,0,0,0,0,0,0,0,0,0,0,0,0],"sum_hessian":[6.307673E3,2.6669978E3,3.640675E3,1.1527711E3,1.5142267E3,1.5697124E3,2.0709624E3,7.680091E2,3.8476202E2,4.7164127E2,1.0425854E3,1.0839266E3,4.8578577E2,9.340511E2,1.1369114E3],"tree_param":{"num_deleted":"0","num_feature":"106","num_nodes":"15","size_leaf_vector":"1"}},{"base_weights":[1.3370079E-1,-1.7496122E-1,3.597989E-1,1.0706601E-1,-3.8959572E-1,1.0231825E-1,5.5481607E-1,2.5349946E-3,-1.8512383E-3,-5.992451E-3,-2.9427188E-3,2.1400147E-3,-1.4680658E-3,6.9426065E-3,4.3974333E-3],"categories":[],"categories_nodes":[],"categories_segments":[],"categories_sizes":[],"default_left":[0,0,0,0,0,0,0,0,0,0,0,0,0,0,0],"id":23,"left_children":[1,3,5,7,9,11,13,-1,-1,-1,-1,-1,-1,-1,-1],"loss_changes":[4.4033197E2,1.6154303E2,1.8280316E2,4.9412613E1,3.0104813E1,4.3733448E1,3.2942078E1,0E0,0E0,0E0,0E0,0E0,0E0,0E0,0E0],"parents":[2147483647,0,0,1,1,2,2,3,3,4,4,5,5,6,6],"right_children":[2,4,6,8,10,12,14,-1,-1,-1,-1,-1,-1,-1,-1],"split_conditions":[4.9E-1,4.92E-1,1.2E1,2.6E1,-5.9E0,6.85E-1,3.95E-1,2.5349946E-3,-1.8512383E-3,-5.992451E-3,-2.9427188E-3,2.1400147E-3,-1.4680658E-3,6.9426065E-3,4.3974333E-3],"split_indices":[3,55,80,29,25,55,55,0,0,0,0,0,0,0,0],"split_type":[0,0,0,0,0,0,0,0,0,0,0,0,0,0,0],"sum_hessian":[6.307673E3,2.6669978E3,3.640675E3,1.1527711E3,1.5142267E3,1.5697124E3,2.0709626E3,7.680091E2,3.84762E2,4.7164127E2,1.0425854E3,1.0839266E3,4.8578574E2,9.340511E2,1.1369115E3],"tree_param":{"num_deleted":"0","num_feature":"106","num_nodes":"15","size_leaf_vector":"1"}},{"base_weights":[-1.3241291E-1,2.1552339E-1,-3.292226E-1,-1.3036442E-1,3.8507596E-1,-7.5092584E-2,-5.187653E-1,-3.137623E-3,1.1610605E-3,5.9080166E-3,2.9538786E-3,-2.41852E-3,8.6657656E-4,-3.8166498E-3,-6.4664036E-3],"categories":[],"categories_nodes":[],"categories_segments":[],"categories_sizes":[],"default_left":[0,0,0,0,0,0,0,0,0,0,0,0,0,0,0],"id":24,"left_children":[1,3,5,7,9,11,13,-1,-1,-1,-1,-1,-1,-1,-1],"loss_changes":[4.3191473E2,1.3370593E2,1.9400119E2,3.3957203E1,2.8048264E1,4.6472847E1,4.020288E1,0E0,0E0,0E0,0E0,0E0,0E0,0E0,0E0],"parents":[2147483647,0,0,1,1,2,2,3,3,4,4,5,5,6,6],"right_children":[2,4,6,8,10,12,14,-1,-1,-1,-1,-1,-1,-1,-1],"split_conditions":[4.57E-1,4.4E-1,1.2E1,2.5E1,-6.6E0,9E0,5.94E-1,-3.137623E-3,1.1610605E-3,5.9080166E-3,2.9538786E-3,-2.41852E-3,8.6657656E-4,-3.8166498E-3,-6.4664036E-3],"split_indices":[3,55,80,28,25,29,3,0,0,0,0,0,0,0,0],"split_type":[0,0,0,0,0,0,0,0,0,0,0,0,0,0,0],"sum_hessian":[6.305385E3,2.2780195E3,4.027365E3,7.494237E2,1.5285958E3,1.7211384E3,2.3062266E3,4.2953503E2,3.1988867E2,4.6238785E2,1.066208E3,8.472033E2,8.739352E2,1.1148906E3,1.191336E3],"tree_param":{"num_deleted":"0","num_feature":"106","num_nodes":"15","size_leaf_vector":"1"}},{"base_weights":[1.3241293E-1,-2.1552339E-1,3.2922262E-1,1.3036443E-1,-3.8507596E-1,7.5092606E-2,5.187653E-1,3.137623E-3,-1.1610603E-3,-5.9080166E-3,-2.9538786E-3,2.4185202E-3,-8.665763E-4,3.8166498E-3,6.4664036E-3],"categories":[],"categories_nodes":[],"categories_segments":[],"categories_sizes":[],"default_left":[0,0,0,0,0,0,0,0,0,0,0,0,0,0,0],"id":25,"left_children":[1,3,5,7,9,11,13,-1,-1,-1,-1,-1,-1,-1,-1],"loss_changes":[4.3191473E2,1.3370593E2,1.9400122E2,3.39572E1,2.8048294E1,4.6472843E1,4.020282E1,0E0,0E0,0E0,0E0,0E0,0E0,0E0,0E0],"parents":[2147483647,0,0,1,1,2,2,3,3,4,4,5,5,6,6],"right_children":[2,4,6,8,10,12,14,-1,-1,-1,-1,-1,-1,-1,-1],"split_conditions":[4.57E-1,4.4E-1,1.2E1,2.5E1,-6.6E0,9E0,5.94E-1,3.137623E-3,-1.1610603E-3,-5.9080166E-3,-2.9538786E-3,2.4185202E-3,-8.665763E-4,3.8166498E-3,6.4664036E-3],"split_indices":[3,55,80,28,25,29,3,0,0,0,0,0,0,0,0],"split_type":[0,0,0,0,0,0,0,0,0,0,0,0,0,0,0],"sum_hessian":[6.3053843E3,2.2780195E3,4.027365E3,7.494237E2,1.5285958E3,1.7211384E3,2.3062266E3,4.2953503E2,3.1988864E2,4.6238782E2,1.066208E3,8.4720325E2,8.739352E2,1.1148905E3,1.191336E3],"tree_param":{"num_deleted":"0","num_feature":"106","num_nodes":"15","size_leaf_vector":"1"}},{"base_weights":[-1.3114265E-1,1.7176647E-1,-3.5309684E-1,-1.0536109E-1,3.827638E-1,-1.00402094E-1,-5.4474956E-1,-2.4908048E-3,1.813706E-3,5.8880565E-3,2.8918611E-3,-2.108883E-3,1.460249E-3,-6.8330932E-3,-4.30507E-3],"categories":[],"categories_nodes":[],"categories_segments":[],"categories_sizes":[],"default_left":[0,0,0,0,0,0,0,0,0,0,0,0,0,0,0],"id":26,"left_children":[1,3,5,7,9,11,13,-1,-1,-1,-1,-1,-1,-1,-1],"loss_changes":[4.2388132E2,1.5595602E2,1.7615207E2,4.757493E1,2.9022217E1,4.279096E1,3.245526E1,0E0,0E0,0E0,0E0,0E0,0E0,0E0,0E0],"parents":[2147483647,0,0,1,1,2,2,3,3,4,4,5,5,6,6],"right_children":[2,4,6,8,10,12,14,-1,-1,-1,-1,-1,-1,-1,-1],"split_conditions":[4.9E-1,4.92E-1,1.2E1,2.6E1,-5.9E0,6.85E-1,3.95E-1,-2.4908048E-3,1.813706E-3,5.8880565E-3,2.8918611E-3,-2.108883E-3,1.460249E-3,-6.8330932E-3,-4.30507E-3],"split_indices":[3,55,80,29,25,55,55,0,0,0,0,0,0,0,0],"split_type":[0,0,0,0,0,0,0,0,0,0,0,0,0,0,0],"sum_hessian":[6.3028574E3,2.665448E3,3.6374094E3,1.1523855E3,1.5130625E3,1.5695183E3,2.0678914E3,7.677135E2,3.8467203E2,4.7090936E2,1.0421532E3,1.0837571E3,4.8576123E2,9.322389E2,1.1356523E3],"tree_param":{"num_deleted":"0","num_feature":"106","num_nodes":"15","size_leaf_vector":"1"}},{"base_weights":[1.3114268E-1,-1.7176646E-1,3.5309687E-1,1.0536112E-1,-3.827638E-1,1.0040211E-1,5.447496E-1,2.490805E-3,-1.813706E-3,-5.8880565E-3,-2.8918611E-3,2.108883E-3,-1.4602488E-3,6.833094E-3,4.30507E-3],"categories":[],"categories_nodes":[],"categories_segments":[],"categories_sizes":[],"default_left":[0,0,0,0,0,0,0,0,0,0,0,0,0,0,0],"id":27,"left_children":[1,3,5,7,9,11,13,-1,-1,-1,-1,-1,-1,-1,-1],"loss_changes":[4.2388135E2,1.5595602E2,1.7615207E2,4.7574936E1,2.9022247E1,4.2790962E1,3.245526E1,0E0,0E0,0E0,0E0,0E0,0E0,0E0,0E0],"parents":[2147483647,0,0,1,1,2,2,3,3,4,4,5,5,6,6],"right_children":[2,4,6,8,10,12,14,-1,-1,-1,-1,-1,-1,-1,-1],"split_conditions":[4.9E-1,4.92E-1,1.2E1,2.6E1,-5.9E0,6.85E-1,3.95E-1,2.490805E-3,-1.813706E-3,-5.8880565E-3,-2.8918611E-3,2.108883E-3,-1.4602488E-3,6.833094E-3,4.30507E-3],"split_indices":[3,55,80,29,25,55,55,0,0,0,0,0,0,0,0],"split_type":[0,0,0,0,0,0,0,0,0,0,0,0,0,0,0],"sum_hessian":[6.3028574E3,2.665448E3,3.6374094E3,1.1523855E3,1.5130625E3,1.5695183E3,2.0678914E3,7.677135E2,3.8467203E2,4.7090936E2,1.0421532E3,1.0837571E3,4.8576123E2,9.322389E2,1.1356523E3],"tree_param":{"num_deleted":"0","num_feature":"106","num_nodes":"15","size_leaf_vector":"1"}},{"base_weights":[-1.2988651E-1,2.258892E-1,-3.1540728E-1,-4.819599E-2,4.2964756E-1,-1.0115587E-1,-5.3746885E-1,-2.1155209E-3,1.7957924E-3,3.7889397E-3,7.6905764E-3,-2.81639E-3,6.885124E-4,-3.9869635E-3,-6.527803E-3],"categories":[],"categories_nodes":[],"categories_segments":[],"categories_sizes":[],"default_left":[0,0,0,0,0,0,0,0,0,0,0,0,0,0,0],"id":28,"left_children":[1,3,5,7,9,11,13,-1,-1,-1,-1,-1,-1,-1,-1],"loss_changes":[4.159764E2,1.20663414E2,1.9700974E2,3.434598E1,2.1055115E1,6.474007E1,3.228308E1,0E0,0E0,0E0,0E0,0E0,0E0,0E0,0E0],"parents":[2147483647,0,0,1,1,2,2,3,3,4,4,5,5,6,6],"right_children":[2,4,6,8,10,12,14,-1,-1,-1,-1,-1,-1,-1,-1],"split_conditions":[4.47E-1,4.92E-1,1.5E1,2.6E1,7.78E-1,9E0,5.79E-1,-2.1155209E-3,1.7957924E-3,3.7889397E-3,7.6905764E-3,-2.81639E-3,6.885124E-4,-3.9869635E-3,-6.527803E-3],"split_indices":[3,55,81,29,55,29,3,0,0,0,0,0,0,0,0],"split_type":[0,0,0,0,0,0,0,0,0,0,0,0,0,0,0],"sum_hessian":[6.3002324E3,2.15923E3,4.1410024E3,9.210478E2,1.2381823E3,2.1083047E3,2.0326976E3,5.364134E2,3.8463437E2,1.0789569E3,1.5922527E2,1.0223257E3,1.0859791E3,9.245264E2,1.1081711E3],"tree_param":{"num_deleted":"0","num_feature":"106","num_nodes":"15","size_leaf_vector":"1"}},{"base_weights":[1.2988651E-1,-2.258892E-1,3.1540728E-1,4.819597E-2,-4.2964756E-1,1.0115583E-1,5.374689E-1,2.1155204E-3,-1.7957924E-3,-3.7889394E-3,-7.690577E-3,2.8163895E-3,-6.885125E-4,3.986964E-3,6.5278034E-3],"categories":[],"categories_nodes":[],"categories_segments":[],"categories_sizes":[],"default_left":[0,0,0,0,0,0,0,0,0,0,0,0,0,0,0],"id":29,"left_children":[1,3,5,7,9,11,13,-1,-1,-1,-1,-1,-1,-1,-1],"loss_changes":[4.1597638E2,1.2066339E2,1.9700974E2,3.4345974E1,2.105513E1,6.474005E1,3.228308E1,0E0,0E0,0E0,0E0,0E0,0E0,0E0,0E0],"parents":[2147483647,0,0,1,1,2,2,3,3,4,4,5,5,6,6],"right_children":[2,4,6,8,10,12,14,-1,-1,-1,-1,-1,-1,-1,-1],"split_conditions":[4.47E-1,4.92E-1,1.5E1,2.6E1,7.78E-1,9E0,5.79E-1,2.1155204E-3,-1.7957924E-3,-3.7889394E-3,-7.690577E-3,2.8163895E-3,-6.885125E-4,3.986964E-3,6.5278034E-3],"split_indices":[3,55,81,29,55,29,3,0,0,0,0,0,0,0,0],"split_type":[0,0,0,0,0,0,0,0,0,0,0,0,0,0,0],"sum_hessian":[6.300232E3,2.15923E3,4.1410024E3,9.210477E2,1.2381821E3,2.1083047E3,2.0326975E3,5.364134E2,3.8463434E2,1.0789569E3,1.5922527E2,1.0223256E3,1.0859791E3,9.245264E2,1.1081711E3],"tree_param":{"num_deleted":"0","num_feature":"106","num_nodes":"15","size_leaf_vector":"1"}},{"base_weights":[-1.2864575E-1,1.6865319E-1,-3.4657145E-1,-1.0317726E-1,3.7572923E-1,-9.818142E-2,-5.3524566E-1,-2.4404426E-3,1.7780652E-3,6.340727E-3,3.0258321E-3,-1.7602601E-3,2.4486992E-3,-6.7242957E-3,-4.222619E-3],"categories":[],"categories_nodes":[],"categories_segments":[],"categories_sizes":[],"default_left":[0,0,0,0,0,0,0,0,0,0,0,0,0,0,0],"id":30,"left_children":[1,3,5,7,9,11,13,-1,-1,-1,-1,-1,-1,-1,-1],"loss_changes":[4.081278E2,1.5003545E2,1.7028674E2,4.5680588E1,2.8393967E1,4.197667E1,3.1729248E1,0E0,0E0,0E0,0E0,0E0,0E0,0E0,0E0],"parents":[2147483647,0,0,1,1,2,2,3,3,4,4,5,5,6,6],"right_children":[2,4,6,8,10,12,14,-1,-1,-1,-1,-1,-1,-1,-1],"split_conditions":[4.9E-1,4.92E-1,1.2E1,2.6E1,2.63E-1,7.3E-1,3.95E-1,-2.4404426E-3,1.7780652E-3,6.340727E-3,3.0258321E-3,-1.7602601E-3,2.4486992E-3,-6.7242957E-3,-4.222619E-3],"split_indices":[3,55,80,29,3,55,55,0,0,0,0,0,0,0,0],"split_type":[0,0,0,0,0,0,0,0,0,0,0,0,0,0,0],"sum_hessian":[6.297428E3,2.6637327E3,3.6336956E3,1.1519976E3,1.511735E3,1.5692695E3,2.064426E3,7.67403E2,3.8459457E2,3.318852E2,1.1798499E3,1.2794304E3,2.8983914E2,9.3012524E2,1.1343009E3],"tree_param":{"num_deleted":"0","num_feature":"106","num_nodes":"15","size_leaf_vector":"1"}},{"base_weights":[1.2864576E-1,-1.686532E-1,3.4657148E-1,1.0317726E-1,-3.7572926E-1,9.8181434E-2,5.352457E-1,2.4404426E-3,-1.7780652E-3,-6.340727E-3,-3.0258324E-3,1.7602603E-3,-2.4486997E-3,6.7242957E-3,4.2226193E-3],"categories":[],"categories_nodes":[],"categories_segments":[],"categories_sizes":[],"default_left":[0,0,0,0,0,0,0,0,0,0,0,0,0,0,0],"id":31,"left_children":[1,3,5,7,9,11,13,-1,-1,-1,-1,-1,-1,-1,-1],"loss_changes":[4.0812787E2,1.5003543E2,1.7028671E2,4.5680588E1,2.8393997E1,4.197668E1,3.1729248E1,0E0,0E0,0E0,0E0,0E0,0E0,0E0,0E0],"parents":[2147483647,0,0,1,1,2,2,3,3,4,4,5,5,6,6],"right_children":[2,4,6,8,10,12,14,-1,-1,-1,-1,-1,-1,-1,-1],"split_conditions":[4.9E-1,4.92E-1,1.2E1,2.6E1,2.63E-1,7.3E-1,3.95E-1,2.4404426E-3,-1.7780652E-3,-6.340727E-3,-3.0258324E-3,1.7602603E-3,-2.4486997E-3,6.7242957E-3,4.2226193E-3],"split_indices":[3,55,80,29,3,55,55,0,0,0,0,0,0,0,0],"split_type":[0,0,0,0,0,0,0,0,0,0,0,0,0,0,0],"sum_hessian":[6.297428E3,2.6637327E3,3.6336956E3,1.1519976E3,1.5117351E3,1.5692695E3,2.064426E3,7.67403E2,3.8459454E2,3.318852E2,1.1798499E3,1.2794304E3,2.8983914E2,9.3012524E2,1.1343009E3],"tree_param":{"num_deleted":"0","num_feature":"106","num_nodes":"15","size_leaf_vector":"1"}},{"base_weights":[-1.2741944E-1,2.218478E-1,-3.0959338E-1,-1.0977199E-1,3.849962E-1,-9.9192664E-2,-5.280048E-1,-2.9122839E-3,1.1337274E-3,3.383313E-3,7.584276E-3,-2.7729534E-3,6.851668E-4,-3.90746E-3,-6.4217234E-3],"categories":[],"categories_nodes":[],"categories_segments":[],"categories_sizes":[],"default_left":[0,0,0,0,0,0,0,0,0,0,0,0,0,0,0],"id":32,"left_children":[1,3,5,7,9,11,13,-1,-1,-1,-1,-1,-1,-1,-1],"loss_changes":[4.0063486E2,1.168312E2,1.9009894E2,2.8886147E1,2.4959885E1,6.3008255E1,3.1561035E1,0E0,0E0,0E0,0E0,0E0,0E0,0E0,0E0],"parents":[2147483647,0,0,1,1,2,2,3,3,4,4,5,5,6,6],"right_children":[2,4,6,8,10,12,14,-1,-1,-1,-1,-1,-1,-1,-1],"split_conditions":[4.47E-1,4.4E-1,1.5E1,2.5E1,7.78E-1,9E0,5.79E-1,-2.9122839E-3,1.1337274E-3,3.383313E-3,7.584276E-3,-2.7729534E-3,6.851668E-4,-3.90746E-3,-6.4217234E-3],"split_indices":[3,55,81,28,55,29,3,0,0,0,0,0,0,0,0],"split_type":[0,0,0,0,0,0,0,0,0,0,0,0,0,0,0],"sum_hessian":[6.2944995E3,2.157631E3,4.1368687E3,7.1158057E2,1.4460507E3,2.1078162E3,2.0290525E3,3.922811E2,3.1929947E2,1.2871156E3,1.5893501E2,1.0219161E3,1.0859E3,9.233589E2,1.1056936E3],"tree_param":{"num_deleted":"0","num_feature":"106","num_nodes":"15","size_leaf_vector":"1"}},{"base_weights":[1.2741943E-1,-2.2184782E-1,3.0959335E-1,1.0977197E-1,-3.849962E-1,9.9192634E-2,5.280049E-1,2.9122825E-3,-1.1337266E-3,-3.383313E-3,-7.584276E-3,2.7729531E-3,-6.85167E-4,3.9074603E-3,6.4217234E-3],"categories":[],"categories_nodes":[],"categories_segments":[],"categories_sizes":[],"default_left":[0,0,0,0,0,0,0,0,0,0,0,0,0,0,0],"id":33,"left_children":[1,3,5,7,9,11,13,-1,-1,-1,-1,-1,-1,-1,-1],"loss_changes":[4.0063486E2,1.1683117E2,1.9009897E2,2.8886116E1,2.49599E1,6.300824E1,3.1561035E1,0E0,0E0,0E0,0E0,0E0,0E0,0E0,0E0],"parents":[2147483647,0,0,1,1,2,2,3,3,4,4,5,5,6,6],"right_children":[2,4,6,8,10,12,14,-1,-1,-1,-1,-1,-1,-1,-1],"split_conditions":[4.47E-1,4.4E-1,1.5E1,2.5E1,7.78E-1,9E0,5.79E-1,2.9122825E-3,-1.1337266E-3,-3.383313E-3,-7.584276E-3,2.7729531E-3,-6.85167E-4,3.9074603E-3,6.4217234E-3],"split_indices":[3,55,81,28,55,29,3,0,0,0,0,0,0,0,0],"split_type":[0,0,0,0,0,0,0,0,0,0,0,0,0,0,0],"sum_hessian":[6.2944995E3,2.157631E3,4.1368687E3,7.1158057E2,1.4460505E3,2.1078162E3,2.0290525E3,3.922811E2,3.1929947E2,1.2871156E3,1.5893501E2,1.021916E3,1.0859E3,9.233589E2,1.1056936E3],"tree_param":{"num_deleted":"0","num_feature":"106","num_nodes":"15","size_leaf_vector":"1"}},{"base_weights":[-1.2620835E-1,1.6560479E-1,-3.4020472E-1,-1.0135887E-1,3.690846E-1,-9.600585E-2,-5.2601063E-1,-2.397022E-3,1.7452764E-3,5.714581E-3,2.7736772E-3,-2.0442118E-3,1.4573509E-3,-6.619067E-3,-4.1422467E-3],"categories":[],"categories_nodes":[],"categories_segments":[],"categories_sizes":[],"default_left":[0,0,0,0,0,0,0,0,0,0,0,0,0,0,0],"id":34,"left_children":[1,3,5,7,9,11,13,-1,-1,-1,-1,-1,-1,-1,-1],"loss_changes":[3.9299832E2,1.4468787E2,1.6468124E2,4.403089E1,2.789296E1,4.1176945E1,3.1043701E1,0E0,0E0,0E0,0E0,0E0,0E0,0E0,0E0],"parents":[2147483647,0,0,1,1,2,2,3,3,4,4,5,5,6,6],"right_children":[2,4,6,8,10,12,14,-1,-1,-1,-1,-1,-1,-1,-1],"split_conditions":[4.9E-1,4.92E-1,1.2E1,2.6E1,-5.9E0,6.85E-1,3.95E-1,-2.397022E-3,1.7452764E-3,5.714581E-3,2.7736772E-3,-2.0442118E-3,1.4573509E-3,-6.619067E-3,-4.1422467E-3],"split_indices":[3,55,80,29,25,55,55,0,0,0,0,0,0,0,0],"split_type":[0,0,0,0,0,0,0,0,0,0,0,0,0,0,0],"sum_hessian":[6.2914126E3,2.661848E3,3.629565E3,1.1515399E3,1.510308E3,1.5689973E3,2.0605676E3,7.670391E2,3.8450073E2,4.6938278E2,1.0409252E3,1.0833112E3,4.8568613E2,9.277716E2,1.1327959E3],"tree_param":{"num_deleted":"0","num_feature":"106","num_nodes":"15","size_leaf_vector":"1"}},{"base_weights":[1.2620836E-1,-1.6560477E-1,3.4020475E-1,1.0135888E-1,-3.690846E-1,9.600588E-2,5.2601063E-1,2.3970222E-3,-1.7452766E-3,-5.714581E-3,-2.7736772E-3,2.044212E-3,-1.4573506E-3,6.619067E-3,4.1422467E-3],"categories":[],"categories_nodes":[],"categories_segments":[],"categories_sizes":[],"default_left":[0,0,0,0,0,0,0,0,0,0,0,0,0,0,0],"id":35,"left_children":[1,3,5,7,9,11,13,-1,-1,-1,-1,-1,-1,-1,-1],"loss_changes":[3.9299832E2,1.4468788E2,1.6468124E2,4.4030907E1,2.789296E1,4.1176945E1,3.1043701E1,0E0,0E0,0E0,0E0,0E0,0E0,0E0,0E0],"parents":[2147483647,0,0,1,1,2,2,3,3,4,4,5,5,6,6],"right_children":[2,4,6,8,10,12,14,-1,-1,-1,-1,-1,-1,-1,-1],"split_conditions":[4.9E-1,4.92E-1,1.2E1,2.6E1,-5.9E0,6.85E-1,3.95E-1,2.3970222E-3,-1.7452766E-3,-5.714581E-3,-2.7736772E-3,2.044212E-3,-1.4573506E-3,6.619067E-3,4.1422467E-3],"split_indices":[3,55,80,29,25,55,55,0,0,0,0,0,0,0,0],"split_type":[0,0,0,0,0,0,0,0,0,0,0,0,0,0,0],"sum_hessian":[6.2914126E3,2.661848E3,3.629565E3,1.1515399E3,1.510308E3,1.5689973E3,2.0605676E3,7.670391E2,3.8450073E2,4.6938278E2,1.0409252E3,1.0833112E3,4.8568613E2,9.277716E2,1.132796E3],"tree_param":{"num_deleted":"0","num_feature":"106","num_nodes":"15","size_leaf_vector":"1"}},{"base_weights":[-1.2501176E-1,2.1787173E-1,-3.039086E-1,-1.07965514E-1,3.78292E-1,-9.72547E-2,-5.1880145E-1,-2.8624218E-3,1.1119723E-3,6.604073E-3,3.1734172E-3,-2.7301472E-3,6.818887E-4,-3.8298436E-3,-6.3189636E-3],"categories":[],"categories_nodes":[],"categories_segments":[],"categories_sizes":[],"default_left":[0,0,0,0,0,0,0,0,0,0,0,0,0,0,0],"id":36,"left_children":[1,3,5,7,9,11,13,-1,-1,-1,-1,-1,-1,-1,-1],"loss_changes":[3.8584937E2,1.12782974E2,1.8350299E2,2.786451E1,2.4646347E1,6.132374E1,3.0878174E1,0E0,0E0,0E0,0E0,0E0,0E0,0E0,0E0],"parents":[2147483647,0,0,1,1,2,2,3,3,4,4,5,5,6,6],"right_children":[2,4,6,8,10,12,14,-1,-1,-1,-1,-1,-1,-1,-1],"split_conditions":[4.47E-1,4.4E-1,1.5E1,2.5E1,2.3E-1,9E0,5.79E-1,-2.8624218E-3,1.1119723E-3,6.604073E-3,3.1734172E-3,-2.7301472E-3,6.818887E-4,-3.8298436E-3,-6.3189636E-3],"split_indices":[3,55,81,28,3,29,3,0,0,0,0,0,0,0,0],"split_type":[0,0,0,0,0,0,0,0,0,0,0,0,0,0,0],"sum_hessian":[6.2881807E3,2.1558816E3,4.1322993E3,7.113506E2,1.444531E3,2.1072725E3,2.0250267E3,3.9209616E2,3.1925443E2,2.5489325E2,1.1896378E3,1.02146375E3,1.0858087E3,9.2207794E2,1.1029487E3],"tree_param":{"num_deleted":"0","num_feature":"106","num_nodes":"15","size_leaf_vector":"1"}},{"base_weights":[1.2501177E-1,-2.1787174E-1,3.0390862E-1,1.07965514E-1,-3.7829202E-1,9.7254746E-2,5.188015E-1,2.8624218E-3,-1.1119723E-3,-6.604073E-3,-3.1734174E-3,2.7301477E-3,-6.818884E-4,3.8298438E-3,6.3189636E-3],"categories":[],"categories_nodes":[],"categories_segments":[],"categories_sizes":[],"default_left":[0,0,0,0,0,0,0,0,0,0,0,0,0,0,0],"id":37,"left_children":[1,3,5,7,9,11,13,-1,-1,-1,-1,-1,-1,-1,-1],"loss_changes":[3.8584946E2,1.1278298E2,1.835029E2,2.786451E1,2.4646347E1,6.1323746E1,3.0878235E1,0E0,0E0,0E0,0E0,0E0,0E0,0E0,0E0],"parents":[2147483647,0,0,1,1,2,2,3,3,4,4,5,5,6,6],"right_children":[2,4,6,8,10,12,14,-1,-1,-1,-1,-1,-1,-1,-1],"split_conditions":[4.47E-1,4.4E-1,1.5E1,2.5E1,2.3E-1,9E0,5.79E-1,2.8624218E-3,-1.1119723E-3,-6.604073E-3,-3.1734174E-3,2.7301477E-3,-6.818884E-4,3.8298438E-3,6.3189636E-3],"split_indices":[3,55,81,28,3,29,3,0,0,0,0,0,0,0,0],"split_type":[0,0,0,0,0,0,0,0,0,0,0,0,0,0,0],"sum_hessian":[6.2881807E3,2.1558816E3,4.1322993E3,7.113506E2,1.4445311E3,2.1072725E3,2.0250266E3,3.9209616E2,3.1925443E2,2.5489326E2,1.1896378E3,1.0214638E3,1.0858087E3,9.2207794E2,1.1029487E3],"tree_param":{"num_deleted":"0","num_feature":"106","num_nodes":"15","size_leaf_vector":"1"}},{"base_weights":[-1.2382989E-1,1.62622E-1,-3.3399212E-1,-9.965363E-2,3.6264914E-1,-9.387701E-2,-5.1703054E-1,-2.7220976E-3,1.1340071E-3,5.6231814E-3,2.722887E-3,-1.7030393E-3,2.428221E-3,-6.517206E-3,-4.063859E-3],"categories":[],"categories_nodes":[],"categories_segments":[],"categories_sizes":[],"default_left":[0,0,0,0,0,0,0,0,0,0,0,0,0,0,0],"id":38,"left_children":[1,3,5,7,9,11,13,-1,-1,-1,-1,-1,-1,-1,-1],"loss_changes":[3.7846725E2,1.3962537E2,1.5931659E2,4.2383858E1,2.7085648E1,4.0434E1,3.0395142E1,0E0,0E0,0E0,0E0,0E0,0E0,0E0,0E0],"parents":[2147483647,0,0,1,1,2,2,3,3,4,4,5,5,6,6],"right_children":[2,4,6,8,10,12,14,-1,-1,-1,-1,-1,-1,-1,-1],"split_conditions":[4.9E-1,4.92E-1,1.2E1,2.4E1,-5.9E0,7.3E-1,3.95E-1,-2.7220976E-3,1.1340071E-3,5.6231814E-3,2.722887E-3,-1.7030393E-3,2.428221E-3,-6.517206E-3,-4.063859E-3],"split_indices":[3,55,80,28,25,55,55,0,0,0,0,0,0,0,0],"split_type":[0,0,0,0,0,0,0,0,0,0,0,0,0,0,0],"sum_hessian":[6.2847866E3,2.6597559E3,3.6250308E3,1.1510286E3,1.5087273E3,1.5686903E3,2.0563406E3,6.3580347E2,5.152251E2,4.6842587E2,1.0403014E3,1.2788906E3,2.8979962E2,9.25193E2,1.1311476E3],"tree_param":{"num_deleted":"0","num_feature":"106","num_nodes":"15","size_leaf_vector":"1"}},{"base_weights":[1.2382987E-1,-1.6262203E-1,3.3399212E-1,9.965357E-2,-3.6264914E-1,9.387699E-2,5.1703054E-1,2.7220969E-3,-1.1340078E-3,-5.6231814E-3,-2.722887E-3,1.7030393E-3,-2.4282217E-3,6.517206E-3,4.0638596E-3],"categories":[],"categories_nodes":[],"categories_segments":[],"categories_sizes":[],"default_left":[0,0,0,0,0,0,0,0,0,0,0,0,0,0,0],"id":39,"left_children":[1,3,5,7,9,11,13,-1,-1,-1,-1,-1,-1,-1,-1],"loss_changes":[3.7846732E2,1.3962534E2,1.5931659E2,4.238386E1,2.7085648E1,4.043401E1,3.0395142E1,0E0,0E0,0E0,0E0,0E0,0E0,0E0,0E0],"parents":[2147483647,0,0,1,1,2,2,3,3,4,4,5,5,6,6],"right_children":[2,4,6,8,10,12,14,-1,-1,-1,-1,-1,-1,-1,-1],"split_conditions":[4.9E-1,4.92E-1,1.2E1,2.4E1,-5.9E0,7.3E-1,3.95E-1,2.7220969E-3,-1.1340078E-3,-5.6231814E-3,-2.722887E-3,1.7030393E-3,-2.4282217E-3,6.517206E-3,4.0638596E-3],"split_indices":[3,55,80,28,25,55,55,0,0,0,0,0,0,0,0],"split_type":[0,0,0,0,0,0,0,0,0,0,0,0,0,0,0],"sum_hessian":[6.2847866E3,2.6597559E3,3.6250308E3,1.1510286E3,1.5087273E3,1.5686902E3,2.0563406E3,6.3580347E2,5.152251E2,4.6842587E2,1.0403014E3,1.2788906E3,2.8979962E2,9.25193E2,1.1311476E3],"tree_param":{"num_deleted":"0","num_feature":"106","num_nodes":"15","size_leaf_vector":"1"}},{"base_weights":[-1.2266081E-1,2.1394487E-1,-2.983391E-1,-1.0626797E-1,3.717279E-1,-9.535572E-2,-5.098153E-1,-2.814206E-3,1.0896947E-3,3.256196E-3,7.4137356E-3,-2.897893E-3,5.0695287E-4,-3.7533122E-3,-6.219375E-3],"categories":[],"categories_nodes":[],"categories_segments":[],"categories_sizes":[],"default_left":[0,0,0,0,0,0,0,0,0,0,0,0,0,0,0],"id":40,"left_children":[1,3,5,7,9,11,13,-1,-1,-1,-1,-1,-1,-1,-1],"loss_changes":[3.7156345E2,1.0891812E2,1.771643E2,2.687724E1,2.436737E1,5.9867157E1,3.0250122E1,0E0,0E0,0E0,0E0,0E0,0E0,0E0,0E0],"parents":[2147483647,0,0,1,1,2,2,3,3,4,4,5,5,6,6],"right_children":[2,4,6,8,10,12,14,-1,-1,-1,-1,-1,-1,-1,-1],"split_conditions":[4.47E-1,4.4E-1,1.5E1,2.5E1,7.78E-1,8E0,5.79E-1,-2.814206E-3,1.0896947E-3,3.256196E-3,7.4137356E-3,-2.897893E-3,5.0695287E-4,-3.7533122E-3,-6.219375E-3],"split_indices":[3,55,81,28,55,29,3,0,0,0,0,0,0,0,0],"split_type":[0,0,0,0,0,0,0,0,0,0,0,0,0,0,0],"sum_hessian":[6.2813027E3,2.1539817E3,4.1273213E3,7.111218E2,1.4428599E3,2.1066877E3,2.0206333E3,3.9189996E2,3.192219E2,1.2845149E3,1.5834496E2,9.032425E2,1.2034453E3,9.2067957E2,1.0999537E3],"tree_param":{"num_deleted":"0","num_feature":"106","num_nodes":"15","size_leaf_vector":"1"}},{"base_weights":[1.2266082E-1,-2.1394487E-1,2.9833913E-1,1.0626793E-1,-3.717279E-1,9.535574E-2,5.098153E-1,2.8142056E-3,-1.0896947E-3,-3.256196E-3,-7.4137356E-3,2.8978928E-3,-5.0695223E-4,3.7533124E-3,6.219375E-3],"categories":[],"categories_nodes":[],"categories_segments":[],"categories_sizes":[],"default_left":[0,0,0,0,0,0,0,0,0,0,0,0,0,0,0],"id":41,"left_children":[1,3,5,7,9,11,13,-1,-1,-1,-1,-1,-1,-1,-1],"loss_changes":[3.7156348E2,1.0891811E2,1.771644E2,2.6877232E1,2.436737E1,5.9867126E1,3.025E1,0E0,0E0,0E0,0E0,0E0,0E0,0E0,0E0],"parents":[2147483647,0,0,1,1,2,2,3,3,4,4,5,5,6,6],"right_children":[2,4,6,8,10,12,14,-1,-1,-1,-1,-1,-1,-1,-1],"split_conditions":[4.47E-1,4.4E-1,1.5E1,2.5E1,7.78E-1,8E0,5.79E-1,2.8142056E-3,-1.0896947E-3,-3.256196E-3,-7.4137356E-3,2.8978928E-3,-5.0695223E-4,3.7533124E-3,6.219375E-3],"split_indices":[3,55,81,28,55,29,3,0,0,0,0,0,0,0,0],"split_type":[0,0,0,0,0,0,0,0,0,0,0,0,0,0,0],"sum_hessian":[6.2813027E3,2.1539817E3,4.1273213E3,7.111219E2,1.4428599E3,2.1066877E3,2.0206332E3,3.9189996E2,3.192219E2,1.2845149E3,1.5834496E2,9.0324243E2,1.2034454E3,9.2067957E2,1.0999537E3],"tree_param":{"num_deleted":"0","num_feature":"106","num_nodes":"15","size_leaf_vector":"1"}},{"base_weights":[-1.215055E-1,1.5971527E-1,-3.279362E-1,-9.790417E-2,3.5632333E-1,-9.181853E-2,-5.0829226E-1,-2.3159084E-3,1.6855436E-3,6.0748407E-3,2.8551277E-3,-1.9821643E-3,1.4534232E-3,-6.4185243E-3,-3.987363E-3],"categories":[],"categories_nodes":[],"categories_segments":[],"categories_sizes":[],"default_left":[0,0,0,0,0,0,0,0,0,0,0,0,0,0,0],"id":42,"left_children":[1,3,5,7,9,11,13,-1,-1,-1,-1,-1,-1,-1,-1],"loss_changes":[3.6454645E2,1.3469017E2,1.5416077E2,4.1058037E1,2.6646637E1,3.9629524E1,2.9780762E1,0E0,0E0,0E0,0E0,0E0,0E0,0E0,0E0],"parents":[2147483647,0,0,1,1,2,2,3,3,4,4,5,5,6,6],"right_children":[2,4,6,8,10,12,14,-1,-1,-1,-1,-1,-1,-1,-1],"split_conditions":[4.9E-1,4.92E-1,1.2E1,2.6E1,2.63E-1,6.85E-1,3.95E-1,-2.3159084E-3,1.6855436E-3,6.0748407E-3,2.8551277E-3,-1.9821643E-3,1.4534232E-3,-6.4185243E-3,-3.987363E-3],"split_indices":[3,55,80,29,3,55,55,0,0,0,0,0,0,0,0],"split_type":[0,0,0,0,0,0,0,0,0,0,0,0,0,0,0],"sum_hessian":[6.2776865E3,2.6575413E3,3.620145E3,1.1505089E3,1.5070323E3,1.5683757E3,2.0517693E3,7.6621625E2,3.8429263E2,3.2977194E2,1.1772605E3,1.0827733E3,4.8560242E2,9.224038E2,1.1293655E3],"tree_param":{"num_deleted":"0","num_feature":"106","num_nodes":"15","size_leaf_vector":"1"}},{"base_weights":[1.21505514E-1,-1.5971527E-1,3.2793623E-1,9.790415E-2,-3.5632333E-1,9.181855E-2,5.082923E-1,2.3159087E-3,-1.6855444E-3,-6.0748407E-3,-2.855128E-3,1.9821646E-3,-1.4534227E-3,6.418525E-3,3.987363E-3],"categories":[],"categories_nodes":[],"categories_segments":[],"categories_sizes":[],"default_left":[0,0,0,0,0,0,0,0,0,0,0,0,0,0,0],"id":43,"left_children":[1,3,5,7,9,11,13,-1,-1,-1,-1,-1,-1,-1,-1],"loss_changes":[3.645465E2,1.3469017E2,1.541607E2,4.1058067E1,2.6646637E1,3.9629524E1,2.9780823E1,0E0,0E0,0E0,0E0,0E0,0E0,0E0,0E0],"parents":[2147483647,0,0,1,1,2,2,3,3,4,4,5,5,6,6],"right_children":[2,4,6,8,10,12,14,-1,-1,-1,-1,-1,-1,-1,-1],"split_conditions":[4.9E-1,4.92E-1,1.2E1,2.6E1,2.63E-1,6.85E-1,3.95E-1,2.3159087E-3,-1.6855444E-3,-6.0748407E-3,-2.855128E-3,1.9821646E-3,-1.4534227E-3,6.418525E-3,3.987363E-3],"split_indices":[3,55,80,29,3,55,55,0,0,0,0,0,0,0,0],"split_type":[0,0,0,0,0,0,0,0,0,0,0,0,0,0,0],"sum_hessian":[6.2776865E3,2.6575413E3,3.620145E3,1.1505089E3,1.5070323E3,1.5683757E3,2.0517693E3,7.6621625E2,3.8429263E2,3.2977194E2,1.1772605E3,1.0827733E3,4.8560242E2,9.224038E2,1.1293655E3],"tree_param":{"num_deleted":"0","num_feature":"106","num_nodes":"15","size_leaf_vector":"1"}},{"base_weights":[-1.2036365E-1,2.1015877E-1,-2.9292715E-1,-1.2398198E-1,3.5634038E-1,-9.3519114E-2,-5.011026E-1,-2.9381583E-3,8.845857E-4,6.3793235E-3,2.9608202E-3,-2.8546015E-3,5.059554E-4,-3.67938E-3,-6.1227465E-3],"categories":[],"categories_nodes":[],"categories_segments":[],"categories_sizes":[],"default_left":[0,0,0,0,0,0,0,0,0,0,0,0,0,0,0],"id":44,"left_children":[1,3,5,7,9,11,13,-1,-1,-1,-1,-1,-1,-1,-1],"loss_changes":[3.5795923E2,1.0520536E2,1.7110587E2,2.3693161E1,2.5229156E1,5.8299088E1,2.9633545E1,0E0,0E0,0E0,0E0,0E0,0E0,0E0,0E0],"parents":[2147483647,0,0,1,1,2,2,3,3,4,4,5,5,6,6],"right_children":[2,4,6,8,10,12,14,-1,-1,-1,-1,-1,-1,-1,-1],"split_conditions":[4.47E-1,4.29E-1,1.5E1,2.5E1,2.3E-1,8E0,5.79E-1,-2.9381583E-3,8.845857E-4,6.3793235E-3,2.9608202E-3,-2.8546015E-3,5.059554E-4,-3.67938E-3,-6.1227465E-3],"split_indices":[3,55,81,28,3,29,3,0,0,0,0,0,0,0,0],"split_type":[0,0,0,0,0,0,0,0,0,0,0,0,0,0,0],"sum_hessian":[6.2739316E3,2.1519463E3,4.121985E3,6.54971E2,1.4969753E3,2.1060664E3,2.0159188E3,3.637728E2,2.911982E2,2.6218378E2,1.2347916E3,9.027482E2,1.2033181E3,9.1919464E2,1.0967241E3],"tree_param":{"num_deleted":"0","num_feature":"106","num_nodes":"15","size_leaf_vector":"1"}},{"base_weights":[1.2036367E-1,-2.1015874E-1,2.9292715E-1,1.2398194E-1,-3.5634035E-1,9.35191E-2,5.011026E-1,2.9381576E-3,-8.845859E-4,-6.3793235E-3,-2.9608195E-3,2.8546008E-3,-5.059553E-4,3.67938E-3,6.122747E-3],"categories":[],"categories_nodes":[],"categories_segments":[],"categories_sizes":[],"default_left":[0,0,0,0,0,0,0,0,0,0,0,0,0,0,0],"id":45,"left_children":[1,3,5,7,9,11,13,-1,-1,-1,-1,-1,-1,-1,-1],"loss_changes":[3.5795917E2,1.05205315E2,1.7110593E2,2.3693155E1,2.5229187E1,5.829908E1,2.9633545E1,0E0,0E0,0E0,0E0,0E0,0E0,0E0,0E0],"parents":[2147483647,0,0,1,1,2,2,3,3,4,4,5,5,6,6],"right_children":[2,4,6,8,10,12,14,-1,-1,-1,-1,-1,-1,-1,-1],"split_conditions":[4.47E-1,4.29E-1,1.5E1,2.5E1,2.3E-1,8E0,5.79E-1,2.9381576E-3,-8.845859E-4,-6.3793235E-3,-2.9608195E-3,2.8546008E-3,-5.059553E-4,3.67938E-3,6.122747E-3],"split_indices":[3,55,81,28,3,29,3,0,0,0,0,0,0,0,0],"split_type":[0,0,0,0,0,0,0,0,0,0,0,0,0,0,0],"sum_hessian":[6.2739316E3,2.1519465E3,4.121985E3,6.54971E2,1.4969753E3,2.1060662E3,2.0159188E3,3.637728E2,2.911982E2,2.6218378E2,1.2347916E3,9.0274817E2,1.203318E3,9.191947E2,1.0967241E3],"tree_param":{"num_deleted":"0","num_feature":"106","num_nodes":"15","size_leaf_vector":"1"}},{"base_weights":[-1.19235046E-1,1.568688E-1,-3.220218E-1,-9.635835E-2,3.5025918E-1,-8.980375E-2,-4.9978402E-1,-2.2758753E-3,1.6514129E-3,5.460501E-3,2.619077E-3,-1.6485906E-3,2.4073396E-3,-6.3228463E-3,-3.912681E-3],"categories":[],"categories_nodes":[],"categories_segments":[],"categories_sizes":[],"default_left":[0,0,0,0,0,0,0,0,0,0,0,0,0,0,0],"id":46,"left_children":[1,3,5,7,9,11,13,-1,-1,-1,-1,-1,-1,-1,-1],"loss_changes":[3.5116895E2,1.3011057E2,1.4921823E2,3.9533436E1,2.59124E1,3.896512E1,2.9197845E1,0E0,0E0,0E0,0E0,0E0,0E0,0E0,0E0],"parents":[2147483647,0,0,1,1,2,2,3,3,4,4,5,5,6,6],"right_children":[2,4,6,8,10,12,14,-1,-1,-1,-1,-1,-1,-1,-1],"split_conditions":[4.9E-1,4.92E-1,1.2E1,2.6E1,-5.9E0,7.3E-1,3.95E-1,-2.2758753E-3,1.6514129E-3,5.460501E-3,2.619077E-3,-1.6485906E-3,2.4073396E-3,-6.3228463E-3,-3.912681E-3],"split_indices":[3,55,80,29,25,55,55,0,0,0,0,0,0,0,0],"split_type":[0,0,0,0,0,0,0,0,0,0,0,0,0,0,0],"sum_hessian":[6.2700684E3,2.6551633E3,3.614905E3,1.1499326E3,1.5052307E3,1.568029E3,2.0468759E3,7.6577234E2,3.8416025E2,4.664269E2,1.0388038E3,1.2782726E3,2.8975656E2,9.194178E2,1.1274581E3],"tree_param":{"num_deleted":"0","num_feature":"106","num_nodes":"15","size_leaf_vector":"1"}},{"base_weights":[1.19235046E-1,-1.5686882E-1,3.220218E-1,9.635834E-2,-3.5025918E-1,8.9803755E-2,4.99784E-1,2.2758753E-3,-1.6514134E-3,-5.4605007E-3,-2.619077E-3,1.6485908E-3,-2.40734E-3,6.322845E-3,3.912681E-3],"categories":[],"categories_nodes":[],"categories_segments":[],"categories_sizes":[],"default_left":[0,0,0,0,0,0,0,0,0,0,0,0,0,0,0],"id":47,"left_children":[1,3,5,7,9,11,13,-1,-1,-1,-1,-1,-1,-1,-1],"loss_changes":[3.5116895E2,1.3011057E2,1.4921817E2,3.953344E1,2.5912384E1,3.8965134E1,2.9197784E1,0E0,0E0,0E0,0E0,0E0,0E0,0E0,0E0],"parents":[2147483647,0,0,1,1,2,2,3,3,4,4,5,5,6,6],"right_children":[2,4,6,8,10,12,14,-1,-1,-1,-1,-1,-1,-1,-1],"split_conditions":[4.9E-1,4.92E-1,1.2E1,2.6E1,-5.9E0,7.3E-1,3.95E-1,2.2758753E-3,-1.6514134E-3,-5.4605007E-3,-2.619077E-3,1.6485908E-3,-2.40734E-3,6.322845E-3,3.912681E-3],"split_indices":[3,55,80,29,25,55,55,0,0,0,0,0,0,0,0],"split_type":[0,0,0,0,0,0,0,0,0,0,0,0,0,0,0],"sum_hessian":[6.2700684E3,2.6551633E3,3.614905E3,1.1499326E3,1.5052307E3,1.568029E3,2.046876E3,7.6577234E2,3.8416025E2,4.6642694E2,1.0388038E3,1.2782725E3,2.8975656E2,9.194178E2,1.1274583E3],"tree_param":{"num_deleted":"0","num_feature":"106","num_nodes":"15","size_leaf_vector":"1"}},{"base_weights":[-1.18119076E-1,2.0643254E-1,-2.8762743E-1,-1.0299095E-1,3.5916972E-1,-5.6824848E-2,-4.6173236E-1,-2.721703E-3,1.0474343E-3,3.1361626E-3,7.2518312E-3,-2.6304978E-3,6.2488357E-4,-6.2598777E-3,-3.6227112E-3],"categories":[],"categories_nodes":[],"categories_segments":[],"categories_sizes":[],"default_left":[0,0,0,0,0,0,0,0,0,0,0,0,0,0,0],"id":48,"left_children":[1,3,5,7,9,11,13,-1,-1,-1,-1,-1,-1,-1,-1],"loss_changes":[3.4483752E2,1.01683365E2,1.65423E2,2.5036343E1,2.3785187E1,4.3605515E1,3.811261E1,0E0,0E0,0E0,0E0,0E0,0E0,0E0,0E0],"parents":[2147483647,0,0,1,1,2,2,3,3,4,4,5,5,6,6],"right_children":[2,4,6,8,10,12,14,-1,-1,-1,-1,-1,-1,-1,-1],"split_conditions":[4.47E-1,4.4E-1,1.2E1,2.5E1,7.78E-1,7E0,3.7E-1,-2.721703E-3,1.0474343E-3,3.1361626E-3,7.2518312E-3,-2.6304978E-3,6.2488357E-4,-6.2598777E-3,-3.6227112E-3],"split_indices":[3,55,80,28,55,29,55,0,0,0,0,0,0,0,0],"split_type":[0,0,0,0,0,0,0,0,0,0,0,0,0,0,0],"sum_hessian":[6.2660747E3,2.1497695E3,4.116305E3,7.1057434E2,1.4391952E3,1.7705278E3,2.3457773E3,3.91459E2,3.191153E2,1.2815521E3,1.576431E2,6.484758E2,1.122052E3,8.827179E2,1.4630594E3],"tree_param":{"num_deleted":"0","num_feature":"106","num_nodes":"15","size_leaf_vector":"1"}},{"base_weights":[1.18119076E-1,-2.0643252E-1,2.8762743E-1,1.0299092E-1,-3.591697E-1,5.6824848E-2,4.6173236E-1,2.7217027E-3,-1.0474344E-3,-3.1361624E-3,-7.2518312E-3,2.630498E-3,-6.248838E-4,6.2598777E-3,3.6227112E-3],"categories":[],"categories_nodes":[],"categories_segments":[],"categories_sizes":[],"default_left":[0,0,0,0,0,0,0,0,0,0,0,0,0,0,0],"id":49,"left_children":[1,3,5,7,9,11,13,-1,-1,-1,-1,-1,-1,-1,-1],"loss_changes":[3.4483752E2,1.0168334E2,1.65423E2,2.5036339E1,2.3785202E1,4.360553E1,3.811261E1,0E0,0E0,0E0,0E0,0E0,0E0,0E0,0E0],"parents":[2147483647,0,0,1,1,2,2,3,3,4,4,5,5,6,6],"right_children":[2,4,6,8,10,12,14,-1,-1,-1,-1,-1,-1,-1,-1],"split_conditions":[4.47E-1,4.4E-1,1.2E1,2.5E1,7.78E-1,7E0,3.7E-1,2.7217027E-3,-1.0474344E-3,-3.1361624E-3,-7.2518312E-3,2.630498E-3,-6.248838E-4,6.2598777E-3,3.6227112E-3],"split_indices":[3,55,80,28,55,29,55,0,0,0,0,0,0,0,0],"split_type":[0,0,0,0,0,0,0,0,0,0,0,0,0,0,0],"sum_hessian":[6.2660747E3,2.1497695E3,4.116305E3,7.1057434E2,1.4391952E3,1.7705278E3,2.3457773E3,3.9145898E2,3.1911533E2,1.2815521E3,1.5764311E2,6.484759E2,1.122052E3,8.8271783E2,1.4630594E3],"tree_param":{"num_deleted":"0","num_feature":"106","num_nodes":"15","size_leaf_vector":"1"}},{"base_weights":[-1.1701544E-1,1.1701203E-1,-3.4830302E-1,-1.3431467E-1,3.1550178E-1,-1.2694782E-1,-5.175428E-1,-2.8500978E-3,1.1261487E-3,2.495659E-3,6.130587E-3,-2.2376126E-3,1.0425586E-3,-6.3714837E-3,-4.043063E-3],"categories":[],"categories_nodes":[],"categories_segments":[],"categories_sizes":[],"default_left":[0,0,0,0,0,0,0,0,0,0,0,0,0,0,0],"id":50,"left_children":[1,3,5,7,9,11,13,-1,-1,-1,-1,-1,-1,-1,-1],"loss_changes":[3.3904196E2,1.5537706E2,1.1794696E2,5.1187138E1,3.398683E1,3.0605206E1,2.3916962E1,0E0,0E0,0E0,0E0,0E0,0E0,0E0,0E0],"parents":[2147483647,0,0,1,1,2,2,3,3,4,4,5,5,6,6],"right_children":[2,4,6,8,10,12,14,-1,-1,-1,-1,-1,-1,-1,-1],"split_conditions":[5.14E-1,4.94E-1,1.2E1,2.4E1,7.32E-1,6E0,4.09E-1,-2.8500978E-3,1.1261487E-3,2.495659E-3,6.130587E-3,-2.2376126E-3,1.0425586E-3,-6.3714837E-3,-4.043063E-3],"split_indices":[3,55,80,28,55,77,55,0,0,0,0,0,0,0,0],"split_type":[0,0,0,0,0,0,0,0,0,0,0,0,0,0,0],"sum_hessian":[6.261996E3,3.1128076E3,3.1491885E3,1.373726E3,1.7390815E3,1.365261E3,1.7839275E3,8.53004E2,5.207219E2,1.4251256E3,3.13956E2,9.623302E2,4.0293076E2,8.653148E2,9.1861273E2],"tree_param":{"num_deleted":"0","num_feature":"106","num_nodes":"15","size_leaf_vector":"1"}},{"base_weights":[1.17015414E-1,-1.1701205E-1,3.48303E-1,1.3431463E-1,-3.1550178E-1,1.2694776E-1,5.175428E-1,2.8500974E-3,-1.1261491E-3,-2.4956588E-3,-6.130587E-3,2.2376121E-3,-1.0425588E-3,6.3714837E-3,4.0430627E-3],"categories":[],"categories_nodes":[],"categories_segments":[],"categories_sizes":[],"default_left":[0,0,0,0,0,0,0,0,0,0,0,0,0,0,0],"id":51,"left_children":[1,3,5,7,9,11,13,-1,-1,-1,-1,-1,-1,-1,-1],"loss_changes":[3.39042E2,1.5537704E2,1.1794699E2,5.1187126E1,3.398683E1,3.0605202E1,2.39169E1,0E0,0E0,0E0,0E0,0E0,0E0,0E0,0E0],"parents":[2147483647,0,0,1,1,2,2,3,3,4,4,5,5,6,6],"right_children":[2,4,6,8,10,12,14,-1,-1,-1,-1,-1,-1,-1,-1],"split_conditions":[5.14E-1,4.94E-1,1.2E1,2.4E1,7.32E-1,6E0,4.09E-1,2.8500974E-3,-1.1261491E-3,-2.4956588E-3,-6.130587E-3,2.2376121E-3,-1.0425588E-3,6.3714837E-3,4.0430627E-3],"split_indices":[3,55,80,28,55,77,55,0,0,0,0,0,0,0,0],"split_type":[0,0,0,0,0,0,0,0,0,0,0,0,0,0,0],"sum_hessian":[6.261996E3,3.1128076E3,3.1491885E3,1.373726E3,1.7390815E3,1.365261E3,1.7839275E3,8.53004E2,5.207219E2,1.4251255E3,3.13956E2,9.623302E2,4.0293076E2,8.653148E2,9.186127E2],"tree_param":{"num_deleted":"0","num_feature":"106","num_nodes":"15","size_leaf_vector":"1"}},{"base_weights":[-1.1592194E-1,1.530143E-1,-3.1362388E-1,-9.340076E-2,3.414006E-1,-8.7537825E-2,-4.873096E-1,-2.2118837E-3,1.6109194E-3,5.8752E-3,2.7229746E-3,-1.9130353E-3,1.4364538E-3,-6.176754E-3,-3.8086867E-3],"categories":[],"categories_nodes":[],"categories_segments":[],"categories_sizes":[],"default_left":[0,0,0,0,0,0,0,0,0,0,0,0,0,0,0],"id":52,"left_children":[1,3,5,7,9,11,13,-1,-1,-1,-1,-1,-1,-1,-1],"loss_changes":[3.328314E2,1.2316041E2,1.4161752E2,3.7434734E1,2.5409622E1,3.7655357E1,2.807193E1,0E0,0E0,0E0,0E0,0E0,0E0,0E0,0E0],"parents":[2147483647,0,0,1,1,2,2,3,3,4,4,5,5,6,6],"right_children":[2,4,6,8,10,12,14,-1,-1,-1,-1,-1,-1,-1,-1],"split_conditions":[4.9E-1,4.92E-1,1.2E1,2.6E1,2.63E-1,6.85E-1,3.95E-1,-2.2118837E-3,1.6109194E-3,5.8752E-3,2.7229746E-3,-1.9130353E-3,1.4364538E-3,-6.176754E-3,-3.8086867E-3],"split_indices":[3,55,80,29,3,55,55,0,0,0,0,0,0,0,0],"split_type":[0,0,0,0,0,0,0,0,0,0,0,0,0,0,0],"sum_hessian":[6.257948E3,2.6514187E3,3.6065295E3,1.1489982E3,1.5024205E3,1.5675543E3,2.0389752E3,7.6500134E2,3.8399683E2,3.2771625E2,1.1747043E3,1.0820519E3,4.8550244E2,9.143288E2,1.1246465E3],"tree_param":{"num_deleted":"0","num_feature":"106","num_nodes":"15","size_leaf_vector":"1"}},{"base_weights":[1.1592192E-1,-1.5301432E-1,3.1362385E-1,9.340073E-2,-3.414006E-1,8.753782E-2,4.873096E-1,2.2118832E-3,-1.6109193E-3,-5.8752E-3,-2.7229749E-3,1.9130353E-3,-1.436454E-3,6.1767534E-3,3.8086867E-3],"categories":[],"categories_nodes":[],"categories_segments":[],"categories_sizes":[],"default_left":[0,0,0,0,0,0,0,0,0,0,0,0,0,0,0],"id":53,"left_children":[1,3,5,7,9,11,13,-1,-1,-1,-1,-1,-1,-1,-1],"loss_changes":[3.3283136E2,1.2316037E2,1.4161752E2,3.7434727E1,2.5409637E1,3.765536E1,2.807196E1,0E0,0E0,0E0,0E0,0E0,0E0,0E0,0E0],"parents":[2147483647,0,0,1,1,2,2,3,3,4,4,5,5,6,6],"right_children":[2,4,6,8,10,12,14,-1,-1,-1,-1,-1,-1,-1,-1],"split_conditions":[4.9E-1,4.92E-1,1.2E1,2.6E1,2.63E-1,6.85E-1,3.95E-1,2.2118832E-3,-1.6109193E-3,-5.8752E-3,-2.7229749E-3,1.9130353E-3,-1.436454E-3,6.1767534E-3,3.8086867E-3],"split_indices":[3,55,80,29,3,55,55,0,0,0,0,0,0,0,0],"split_type":[0,0,0,0,0,0,0,0,0,0,0,0,0,0,0],"sum_hessian":[6.257948E3,2.6514187E3,3.6065295E3,1.1489982E3,1.5024207E3,1.5675544E3,2.0389752E3,7.6500134E2,3.8399683E2,3.2771625E2,1.1747043E3,1.082052E3,4.8550244E2,9.143288E2,1.1246464E3],"tree_param":{"num_deleted":"0","num_feature":"106","num_nodes":"15","size_leaf_vector":"1"}},{"base_weights":[-1.1484339E-1,1.1511457E-1,-3.42282E-1,-1.3152115E-1,3.099759E-1,-1.248117E-1,-5.089942E-1,-2.7958604E-3,1.1089726E-3,2.4471623E-3,6.048078E-3,-2.2005322E-3,1.0256201E-3,-6.2734955E-3,-3.9718747E-3],"categories":[],"categories_nodes":[],"categories_segments":[],"categories_sizes":[],"default_left":[0,0,0,0,0,0,0,0,0,0,0,0,0,0,0],"id":54,"left_children":[1,3,5,7,9,11,13,-1,-1,-1,-1,-1,-1,-1,-1],"loss_changes":[3.271644E2,1.4954672E2,1.1395065E2,4.9338657E1,3.329451E1,2.9603321E1,2.3302948E1,0E0,0E0,0E0,0E0,0E0,0E0,0E0,0E0],"parents":[2147483647,0,0,1,1,2,2,3,3,4,4,5,5,6,6],"right_children":[2,4,6,8,10,12,14,-1,-1,-1,-1,-1,-1,-1,-1],"split_conditions":[5.14E-1,4.94E-1,1.2E1,2.4E1,7.32E-1,6E0,4.09E-1,-2.7958604E-3,1.1089726E-3,2.4471623E-3,6.048078E-3,-2.2005322E-3,1.0256201E-3,-6.2734955E-3,-3.9718747E-3],"split_indices":[3,55,80,28,55,77,55,0,0,0,0,0,0,0,0],"split_type":[0,0,0,0,0,0,0,0,0,0,0,0,0,0,0],"sum_hessian":[6.253622E3,3.109834E3,3.143788E3,1.3727152E3,1.7371188E3,1.3649747E3,1.7788134E3,8.521089E2,5.206064E2,1.423798E3,3.1332092E2,9.620336E2,4.0294113E2,8.6186145E2,9.169519E2],"tree_param":{"num_deleted":"0","num_feature":"106","num_nodes":"15","size_leaf_vector":"1"}},{"base_weights":[1.14843376E-1,-1.1511459E-1,3.42282E-1,1.3152117E-1,-3.0997595E-1,1.2481169E-1,5.089942E-1,2.7958604E-3,-1.1089724E-3,-2.447163E-3,-6.0480777E-3,2.200532E-3,-1.0256198E-3,6.2734955E-3,3.9718742E-3],"categories":[],"categories_nodes":[],"categories_segments":[],"categories_sizes":[],"default_left":[0,0,0,0,0,0,0,0,0,0,0,0,0,0,0],"id":55,"left_children":[1,3,5,7,9,11,13,-1,-1,-1,-1,-1,-1,-1,-1],"loss_changes":[3.271644E2,1.4954677E2,1.1395062E2,4.933866E1,3.3294464E1,2.9603312E1,2.3302979E1,0E0,0E0,0E0,0E0,0E0,0E0,0E0,0E0],"parents":[2147483647,0,0,1,1,2,2,3,3,4,4,5,5,6,6],"right_children":[2,4,6,8,10,12,14,-1,-1,-1,-1,-1,-1,-1,-1],"split_conditions":[5.14E-1,4.94E-1,1.2E1,2.4E1,7.32E-1,6E0,4.09E-1,2.7958604E-3,-1.1089724E-3,-2.447163E-3,-6.0480777E-3,2.200532E-3,-1.0256198E-3,6.2734955E-3,3.9718742E-3],"split_indices":[3,55,80,28,55,77,55,0,0,0,0,0,0,0,0],"split_type":[0,0,0,0,0,0,0,0,0,0,0,0,0,0,0],"sum_hessian":[6.253622E3,3.109834E3,3.143788E3,1.3727152E3,1.7371188E3,1.3649747E3,1.7788134E3,8.521089E2,5.206064E2,1.4237979E3,3.1332092E2,9.620336E2,4.0294113E2,8.6186145E2,9.1695184E2],"tree_param":{"num_deleted":"0","num_feature":"106","num_nodes":"15","size_leaf_vector":"1"}},{"base_weights":[-1.1377439E-1,1.9995399E-1,-2.7779204E-1,-1.1898948E-1,3.398433E-1,-8.861022E-2,-4.766353E-1,-2.8014379E-3,8.2315085E-4,6.161923E-3,2.8095192E-3,-2.7406567E-3,5.046544E-4,-3.4593358E-3,-5.861861E-3],"categories":[],"categories_nodes":[],"categories_segments":[],"categories_sizes":[],"default_left":[0,0,0,0,0,0,0,0,0,0,0,0,0,0,0],"id":56,"left_children":[1,3,5,7,9,11,13,-1,-1,-1,-1,-1,-1,-1,-1],"loss_changes":[3.2167978E2,9.5807014E1,1.54375E2,2.127666E1,2.4113098E1,5.4301445E1,2.8450378E1,0E0,0E0,0E0,0E0,0E0,0E0,0E0,0E0],"parents":[2147483647,0,0,1,1,2,2,3,3,4,4,5,5,6,6],"right_children":[2,4,6,8,10,12,14,-1,-1,-1,-1,-1,-1,-1,-1],"split_conditions":[4.47E-1,4.29E-1,1.5E1,2.5E1,2.3E-1,8E0,5.79E-1,-2.8014379E-3,8.2315085E-4,6.161923E-3,2.8095192E-3,-2.7406567E-3,5.046544E-4,-3.4593358E-3,-5.861861E-3],"split_indices":[3,55,81,28,3,29,3,0,0,0,0,0,0,0,0],"split_type":[0,0,0,0,0,0,0,0,0,0,0,0,0,0,0],"sum_hessian":[6.2493506E3,2.1454243E3,4.103927E3,6.541443E2,1.4912799E3,2.1037961E3,2.0001306E3,3.6308502E2,2.9105927E2,2.6030948E2,1.2309705E3,9.011519E2,1.2026442E3,9.139191E2,1.0862114E3],"tree_param":{"num_deleted":"0","num_feature":"106","num_nodes":"15","size_leaf_vector":"1"}},{"base_weights":[1.13774404E-1,-1.9995397E-1,2.7779207E-1,1.1898948E-1,-3.3984327E-1,8.861024E-2,4.766353E-1,2.8014379E-3,-8.231507E-4,-6.161923E-3,-2.8095187E-3,2.7406572E-3,-5.046544E-4,3.4593358E-3,5.861861E-3],"categories":[],"categories_nodes":[],"categories_segments":[],"categories_sizes":[],"default_left":[0,0,0,0,0,0,0,0,0,0,0,0,0,0,0],"id":57,"left_children":[1,3,5,7,9,11,13,-1,-1,-1,-1,-1,-1,-1,-1],"loss_changes":[3.2167975E2,9.5807E1,1.54375E2,2.1276659E1,2.4113113E1,5.430146E1,2.8450409E1,0E0,0E0,0E0,0E0,0E0,0E0,0E0,0E0],"parents":[2147483647,0,0,1,1,2,2,3,3,4,4,5,5,6,6],"right_children":[2,4,6,8,10,12,14,-1,-1,-1,-1,-1,-1,-1,-1],"split_conditions":[4.47E-1,4.29E-1,1.5E1,2.5E1,2.3E-1,8E0,5.79E-1,2.8014379E-3,-8.231507E-4,-6.161923E-3,-2.8095187E-3,2.7406572E-3,-5.046544E-4,3.4593358E-3,5.861861E-3],"split_indices":[3,55,81,28,3,29,3,0,0,0,0,0,0,0,0],"split_type":[0,0,0,0,0,0,0,0,0,0,0,0,0,0,0],"sum_hessian":[6.249351E3,2.1454243E3,4.103927E3,6.541443E2,1.4912799E3,2.103796E3,2.0001306E3,3.6308502E2,2.9105927E2,2.6030948E2,1.2309705E3,9.011519E2,1.2026442E3,9.139191E2,1.0862114E3],"tree_param":{"num_deleted":"0","num_feature":"106","num_nodes":"15","size_leaf_vector":"1"}},{"base_weights":[-1.1271918E-1,1.980727E-1,-2.752366E-1,-1.1783231E-1,3.3669433E-1,-8.773995E-2,-4.7256184E-1,-2.7746316E-3,8.149915E-4,6.1115054E-3,2.7828217E-3,-2.5188413E-3,6.6422165E-4,-3.4277486E-3,-5.814638E-3],"categories":[],"categories_nodes":[],"categories_segments":[],"categories_sizes":[],"default_left":[0,0,0,0,0,0,0,0,0,0,0,0,0,0,0],"id":58,"left_children":[1,3,5,7,9,11,13,-1,-1,-1,-1,-1,-1,-1,-1],"loss_changes":[3.1552768E2,9.39802E1,1.5171173E2,2.0863743E1,2.3736359E1,5.3269386E1,2.8043793E1,0E0,0E0,0E0,0E0,0E0,0E0,0E0,0E0],"parents":[2147483647,0,0,1,1,2,2,3,3,4,4,5,5,6,6],"right_children":[2,4,6,8,10,12,14,-1,-1,-1,-1,-1,-1,-1,-1],"split_conditions":[4.47E-1,4.29E-1,1.5E1,2.5E1,2.3E-1,9E0,5.79E-1,-2.7746316E-3,8.149915E-4,6.1115054E-3,2.7828217E-3,-2.5188413E-3,6.6422165E-4,-3.4277486E-3,-5.814638E-3],"split_indices":[3,55,81,28,3,29,3,0,0,0,0,0,0,0,0],"split_type":[0,0,0,0,0,0,0,0,0,0,0,0,0,0,0],"sum_hessian":[6.244868E3,2.1441885E3,4.1006797E3,6.5398083E2,1.4902076E3,2.1034475E3,1.9972322E3,3.6293732E2,2.9104352E2,2.5984296E2,1.2303646E3,1.01843475E3,1.0850128E3,9.131308E2,1.0841013E3],"tree_param":{"num_deleted":"0","num_feature":"106","num_nodes":"15","size_leaf_vector":"1"}},{"base_weights":[1.12719156E-1,-1.9807273E-1,2.7523658E-1,1.1783224E-1,-3.3669436E-1,8.773992E-2,4.7256184E-1,2.7746314E-3,-8.149924E-4,-6.1115054E-3,-2.782822E-3,2.518841E-3,-6.6422194E-4,3.4277486E-3,5.8146385E-3],"categories":[],"categories_nodes":[],"categories_segments":[],"categories_sizes":[],"default_left":[0,0,0,0,0,0,0,0,0,0,0,0,0,0,0],"id":59,"left_children":[1,3,5,7,9,11,13,-1,-1,-1,-1,-1,-1,-1,-1],"loss_changes":[3.155277E2,9.398017E1,1.5171179E2,2.086375E1,2.3736343E1,5.3269386E1,2.8043793E1,0E0,0E0,0E0,0E0,0E0,0E0,0E0,0E0],"parents":[2147483647,0,0,1,1,2,2,3,3,4,4,5,5,6,6],"right_children":[2,4,6,8,10,12,14,-1,-1,-1,-1,-1,-1,-1,-1],"split_conditions":[4.47E-1,4.29E-1,1.5E1,2.5E1,2.3E-1,9E0,5.79E-1,2.7746314E-3,-8.149924E-4,-6.1115054E-3,-2.782822E-3,2.518841E-3,-6.6422194E-4,3.4277486E-3,5.8146385E-3],"split_indices":[3,55,81,28,3,29,3,0,0,0,0,0,0,0,0],"split_type":[0,0,0,0,0,0,0,0,0,0,0,0,0,0,0],"sum_hessian":[6.244868E3,2.1441885E3,4.1006797E3,6.5398083E2,1.4902076E3,2.1034475E3,1.997232E3,3.6293732E2,2.9104352E2,2.5984296E2,1.2303646E3,1.01843475E3,1.0850128E3,9.1313074E2,1.0841013E3],"tree_param":{"num_deleted":"0","num_feature":"106","num_nodes":"15","size_leaf_vector":"1"}},{"base_weights":[-1.1167587E-1,1.1226651E-1,-3.3344498E-1,-1.2837423E-1,3.024915E-1,-1.2100412E-1,-4.9695525E-1,-2.7239297E-3,1.0715815E-3,2.3790824E-3,5.94711E-3,-2.1529861E-3,1.0402151E-3,-6.143551E-3,-3.8635703E-3],"categories":[],"categories_nodes":[],"categories_segments":[],"categories_sizes":[],"default_left":[0,0,0,0,0,0,0,0,0,0,0,0,0,0,0],"id":60,"left_children":[1,3,5,7,9,11,13,-1,-1,-1,-1,-1,-1,-1,-1],"loss_changes":[3.100006E2,1.4222629E2,1.0887625E2,4.6570885E1,3.260434E1,2.8992016E1,2.276828E1,0E0,0E0,0E0,0E0,0E0,0E0,0E0,0E0],"parents":[2147483647,0,0,1,1,2,2,3,3,4,4,5,5,6,6],"right_children":[2,4,6,8,10,12,14,-1,-1,-1,-1,-1,-1,-1,-1],"split_conditions":[5.14E-1,4.94E-1,1.2E1,2.4E1,7.32E-1,6E0,4.09E-1,-2.7239297E-3,1.0715815E-3,2.3790824E-3,5.94711E-3,-2.1529861E-3,1.0402151E-3,-6.143551E-3,-3.8635703E-3],"split_indices":[3,55,80,28,55,77,55,0,0,0,0,0,0,0,0],"split_type":[0,0,0,0,0,0,0,0,0,0,0,0,0,0,0],"sum_hessian":[6.240267E3,3.1051658E3,3.1351016E3,1.3710581E3,1.7341075E3,1.3642885E3,1.7708131E3,8.5072E2,5.2033813E2,1.4217103E3,3.123972E2,9.614477E2,4.028408E2,8.567836E2,9.140294E2],"tree_param":{"num_deleted":"0","num_feature":"106","num_nodes":"15","size_leaf_vector":"1"}},{"base_weights":[1.11675866E-1,-1.1226652E-1,3.3344498E-1,1.2837422E-1,-3.0249152E-1,1.2100414E-1,4.9695522E-1,2.7239295E-3,-1.0715815E-3,-2.3790824E-3,-5.94711E-3,2.1529864E-3,-1.0402149E-3,6.143551E-3,3.8635698E-3],"categories":[],"categories_nodes":[],"categories_segments":[],"categories_sizes":[],"default_left":[0,0,0,0,0,0,0,0,0,0,0,0,0,0,0],"id":61,"left_children":[1,3,5,7,9,11,13,-1,-1,-1,-1,-1,-1,-1,-1],"loss_changes":[3.100006E2,1.4222632E2,1.0887631E2,4.6570877E1,3.260428E1,2.8992018E1,2.276825E1,0E0,0E0,0E0,0E0,0E0,0E0,0E0,0E0],"parents":[2147483647,0,0,1,1,2,2,3,3,4,4,5,5,6,6],"right_children":[2,4,6,8,10,12,14,-1,-1,-1,-1,-1,-1,-1,-1],"split_conditions":[5.14E-1,4.94E-1,1.2E1,2.4E1,7.32E-1,6E0,4.09E-1,2.7239295E-3,-1.0715815E-3,-2.3790824E-3,-5.94711E-3,2.1529864E-3,-1.0402149E-3,6.143551E-3,3.8635698E-3],"split_indices":[3,55,80,28,55,77,55,0,0,0,0,0,0,0,0],"split_type":[0,0,0,0,0,0,0,0,0,0,0,0,0,0,0],"sum_hessian":[6.240267E3,3.1051655E3,3.1351016E3,1.3710581E3,1.7341075E3,1.3642885E3,1.7708131E3,8.507199E2,5.2033813E2,1.4217103E3,3.1239722E2,9.614477E2,4.028408E2,8.567837E2,9.140294E2],"tree_param":{"num_deleted":"0","num_feature":"106","num_nodes":"15","size_leaf_vector":"1"}},{"base_weights":[-1.1064163E-1,1.948381E-1,-2.704688E-1,-1.16009995E-1,3.3136296E-1,-5.3356893E-2,-4.3554837E-1,-2.7278343E-3,7.962947E-4,6.0376995E-3,2.7349307E-3,-3.0427144E-3,3.765731E-4,-3.128385E-3,-5.6217196E-3],"categories":[],"categories_nodes":[],"categories_segments":[],"categories_sizes":[],"default_left":[0,0,0,0,0,0,0,0,0,0,0,0,0,0,0],"id":62,"left_children":[1,3,5,7,9,11,13,-1,-1,-1,-1,-1,-1,-1,-1],"loss_changes":[3.0455368E2,9.097627E1,1.4674088E2,2.010096E1,2.3310074E1,4.042902E1,3.596631E1,0E0,0E0,0E0,0E0,0E0,0E0,0E0,0E0],"parents":[2147483647,0,0,1,1,2,2,3,3,4,4,5,5,6,6],"right_children":[2,4,6,8,10,12,14,-1,-1,-1,-1,-1,-1,-1,-1],"split_conditions":[4.47E-1,4.29E-1,1.2E1,2.5E1,2.3E-1,5E0,6E-1,-2.7278343E-3,7.962947E-4,6.0376995E-3,2.7349307E-3,-3.0427144E-3,3.765731E-4,-3.128385E-3,-5.6217196E-3],"split_indices":[3,55,80,28,3,28,3,0,0,0,0,0,0,0,0],"split_type":[0,0,0,0,0,0,0,0,0,0,0,0,0,0,0],"sum_hessian":[6.235712E3,2.1418147E3,4.0938972E3,6.536637E2,1.488151E3,1.7688444E3,2.325053E3,3.6265778E2,2.9100595E2,2.590954E2,1.2290557E3,4.7020523E2,1.2986392E3,1.1825371E3,1.1425157E3],"tree_param":{"num_deleted":"0","num_feature":"106","num_nodes":"15","size_leaf_vector":"1"}},{"base_weights":[1.1064163E-1,-1.9483806E-1,2.7046877E-1,1.16009995E-1,-3.313629E-1,5.335689E-2,4.3554837E-1,2.7278345E-3,-7.962949E-4,-6.037699E-3,-2.7349303E-3,3.042715E-3,-3.7657315E-4,3.128385E-3,5.6217196E-3],"categories":[],"categories_nodes":[],"categories_segments":[],"categories_sizes":[],"default_left":[0,0,0,0,0,0,0,0,0,0,0,0,0,0,0],"id":63,"left_children":[1,3,5,7,9,11,13,-1,-1,-1,-1,-1,-1,-1,-1],"loss_changes":[3.0455362E2,9.097624E1,1.4674088E2,2.0100964E1,2.331009E1,4.0429024E1,3.5966278E1,0E0,0E0,0E0,0E0,0E0,0E0,0E0,0E0],"parents":[2147483647,0,0,1,1,2,2,3,3,4,4,5,5,6,6],"right_children":[2,4,6,8,10,12,14,-1,-1,-1,-1,-1,-1,-1,-1],"split_conditions":[4.47E-1,4.29E-1,1.2E1,2.5E1,2.3E-1,5E0,6E-1,2.7278345E-3,-7.962949E-4,-6.037699E-3,-2.7349303E-3,3.042715E-3,-3.7657315E-4,3.128385E-3,5.6217196E-3],"split_indices":[3,55,80,28,3,28,3,0,0,0,0,0,0,0,0],"split_type":[0,0,0,0,0,0,0,0,0,0,0,0,0,0,0],"sum_hessian":[6.235712E3,2.1418147E3,4.0938972E3,6.5366376E2,1.488151E3,1.7688444E3,2.3250527E3,3.6265778E2,2.9100595E2,2.590954E2,1.2290555E3,4.7020523E2,1.2986392E3,1.1825371E3,1.1425156E3],"tree_param":{"num_deleted":"0","num_feature":"106","num_nodes":"15","size_leaf_vector":"1"}},{"base_weights":[-1.0961919E-1,1.1043038E-1,-3.2773066E-1,-1.2876731E-1,2.95719E-1,-1.1902517E-1,-4.8884133E-1,-2.6867276E-3,9.978599E-4,4.288224E-3,1.5567888E-3,-2.123937E-3,1.0372484E-3,-6.059794E-3,-3.786945E-3],"categories":[],"categories_nodes":[],"categories_segments":[],"categories_sizes":[],"default_left":[0,0,0,0,0,0,0,0,0,0,0,0,0,0,0],"id":64,"left_children":[1,3,5,7,9,11,13,-1,-1,-1,-1,-1,-1,-1,-1],"loss_changes":[2.991445E2,1.3756403E2,1.0518872E2,4.3358868E1,3.2531113E1,2.8409637E1,2.2557678E1,0E0,0E0,0E0,0E0,0E0,0E0,0E0,0E0],"parents":[2147483647,0,0,1,1,2,2,3,3,4,4,5,5,6,6],"right_children":[2,4,6,8,10,12,14,-1,-1,-1,-1,-1,-1,-1,-1],"split_conditions":[5.14E-1,4.92E-1,1.2E1,2.4E1,3.95E-1,6E0,4.09E-1,-2.6867276E-3,9.978599E-4,4.288224E-3,1.5567888E-3,-2.123937E-3,1.0372484E-3,-6.059794E-3,-3.786945E-3],"split_indices":[3,55,80,28,3,77,55,0,0,0,0,0,0,0,0],"split_type":[0,0,0,0,0,0,0,0,0,0,0,0,0,0,0],"sum_hessian":[6.231029E3,3.1019795E3,3.1290493E3,1.3541497E3,1.7478297E3,1.36393E3,1.7651193E3,8.398641E2,5.1428564E2,8.9505145E2,8.5277826E2,9.6111346E2,4.0281662E2,8.5323065E2,9.118886E2],"tree_param":{"num_deleted":"0","num_feature":"106","num_nodes":"15","size_leaf_vector":"1"}},{"base_weights":[1.096192E-1,-1.10430375E-1,3.2773066E-1,1.2876734E-1,-2.95719E-1,1.1902518E-1,4.8884133E-1,2.6867278E-3,-9.978596E-4,-4.288224E-3,-1.5567888E-3,2.1239372E-3,-1.0372485E-3,6.059794E-3,3.786945E-3],"categories":[],"categories_nodes":[],"categories_segments":[],"categories_sizes":[],"default_left":[0,0,0,0,0,0,0,0,0,0,0,0,0,0,0],"id":65,"left_children":[1,3,5,7,9,11,13,-1,-1,-1,-1,-1,-1,-1,-1],"loss_changes":[2.991445E2,1.3756403E2,1.0518872E2,4.3358875E1,3.2531113E1,2.8409637E1,2.2557709E1,0E0,0E0,0E0,0E0,0E0,0E0,0E0,0E0],"parents":[2147483647,0,0,1,1,2,2,3,3,4,4,5,5,6,6],"right_children":[2,4,6,8,10,12,14,-1,-1,-1,-1,-1,-1,-1,-1],"split_conditions":[5.14E-1,4.92E-1,1.2E1,2.4E1,3.95E-1,6E0,4.09E-1,2.6867278E-3,-9.978596E-4,-4.288224E-3,-1.5567888E-3,2.1239372E-3,-1.0372485E-3,6.059794E-3,3.786945E-3],"split_indices":[3,55,80,28,3,77,55,0,0,0,0,0,0,0,0],"split_type":[0,0,0,0,0,0,0,0,0,0,0,0,0,0,0],"sum_hessian":[6.231029E3,3.1019795E3,3.1290493E3,1.3541497E3,1.7478297E3,1.36393E3,1.7651193E3,8.398641E2,5.1428564E2,8.9505145E2,8.5277826E2,9.6111346E2,4.0281662E2,8.5323065E2,9.118886E2],"tree_param":{"num_deleted":"0","num_feature":"106","num_nodes":"15","size_leaf_vector":"1"}},{"base_weights":[-1.08609706E-1,1.093864E-1,-3.2479098E-1,-1.275276E-1,2.9296184E-1,-1.178518E-1,-4.8478937E-1,-2.661343E-3,9.879682E-4,2.2930894E-3,5.8466974E-3,-2.1031576E-3,1.0268638E-3,-6.0136705E-3,-3.7531443E-3],"categories":[],"categories_nodes":[],"categories_segments":[],"categories_sizes":[],"default_left":[0,0,0,0,0,0,0,0,0,0,0,0,0,0,0],"id":66,"left_children":[1,3,5,7,9,11,13,-1,-1,-1,-1,-1,-1,-1,-1],"loss_changes":[2.935017E2,1.3491876E2,1.0347281E2,4.2522026E1,3.2316635E1,2.7851265E1,2.2275665E1,0E0,0E0,0E0,0E0,0E0,0E0,0E0,0E0],"parents":[2147483647,0,0,1,1,2,2,3,3,4,4,5,5,6,6],"right_children":[2,4,6,8,10,12,14,-1,-1,-1,-1,-1,-1,-1,-1],"split_conditions":[5.14E-1,4.92E-1,1.2E1,2.4E1,7.32E-1,6E0,4.09E-1,-2.661343E-3,9.879682E-4,2.2930894E-3,5.8466974E-3,-2.1031576E-3,1.0268638E-3,-6.0136705E-3,-3.7531443E-3],"split_indices":[3,55,80,28,55,77,55,0,0,0,0,0,0,0,0],"split_type":[0,0,0,0,0,0,0,0,0,0,0,0,0,0,0],"sum_hessian":[6.2261763E3,3.1003218E3,3.1258545E3,1.3536582E3,1.7466636E3,1.3637456E3,1.7621089E3,8.3940796E2,5.1425024E2,1.4352642E3,3.1139938E2,9.609142E2,4.0283142E2,8.5119495E2,9.10914E2],"tree_param":{"num_deleted":"0","num_feature":"106","num_nodes":"15","size_leaf_vector":"1"}},{"base_weights":[1.0860971E-1,-1.0938639E-1,3.2479098E-1,1.2752761E-1,-2.9296184E-1,1.1785181E-1,4.8478937E-1,2.6613434E-3,-9.879685E-4,-2.2930894E-3,-5.8466974E-3,2.1031576E-3,-1.0268636E-3,6.0136705E-3,3.7531443E-3],"categories":[],"categories_nodes":[],"categories_segments":[],"categories_sizes":[],"default_left":[0,0,0,0,0,0,0,0,0,0,0,0,0,0,0],"id":67,"left_children":[1,3,5,7,9,11,13,-1,-1,-1,-1,-1,-1,-1,-1],"loss_changes":[2.9350165E2,1.3491878E2,1.0347281E2,4.2522057E1,3.2316635E1,2.7851257E1,2.2275696E1,0E0,0E0,0E0,0E0,0E0,0E0,0E0,0E0],"parents":[2147483647,0,0,1,1,2,2,3,3,4,4,5,5,6,6],"right_children":[2,4,6,8,10,12,14,-1,-1,-1,-1,-1,-1,-1,-1],"split_conditions":[5.14E-1,4.92E-1,1.2E1,2.4E1,7.32E-1,6E0,4.09E-1,2.6613434E-3,-9.879685E-4,-2.2930894E-3,-5.8466974E-3,2.1031576E-3,-1.0268636E-3,6.0136705E-3,3.7531443E-3],"split_indices":[3,55,80,28,55,77,55,0,0,0,0,0,0,0,0],"split_type":[0,0,0,0,0,0,0,0,0,0,0,0,0,0,0],"sum_hessian":[6.2261763E3,3.1003218E3,3.1258545E3,1.3536582E3,1.7466636E3,1.3637456E3,1.7621089E3,8.3940796E2,5.1425024E2,1.4352642E3,3.1139938E2,9.609142E2,4.0283145E2,8.5119495E2,9.10914E2],"tree_param":{"num_deleted":"0","num_feature":"106","num_nodes":"15","size_leaf_vector":"1"}},{"base_weights":[-1.0760869E-1,1.7808478E-1,-2.7000067E-1,-1.1047858E-1,3.2077932E-1,-1.02894306E-1,-4.7170153E-1,-2.624031E-3,9.270531E-4,5.1094973E-3,2.3888864E-3,-2.7856438E-3,3.692553E-4,-5.896788E-3,-3.7157666E-3],"categories":[],"categories_nodes":[],"categories_segments":[],"categories_sizes":[],"default_left":[0,0,0,0,0,0,0,0,0,0,0,0,0,0,0],"id":68,"left_children":[1,3,5,7,9,11,13,-1,-1,-1,-1,-1,-1,-1,-1],"loss_changes":[2.8873016E2,9.291566E1,1.3368448E2,2.3086212E1,2.3386719E1,5.333993E1,2.101358E1,0E0,0E0,0E0,0E0,0E0,0E0,0E0,0E0],"parents":[2147483647,0,0,1,1,2,2,3,3,4,4,5,5,6,6],"right_children":[2,4,6,8,10,12,14,-1,-1,-1,-1,-1,-1,-1,-1],"split_conditions":[4.57E-1,4.4E-1,1.6E1,2.5E1,-6.6E0,8E0,3.66E-1,-2.624031E-3,9.270531E-4,5.1094973E-3,2.3888864E-3,-2.7856438E-3,3.692553E-4,-5.896788E-3,-3.7157666E-3],"split_indices":[3,55,81,28,25,29,55,0,0,0,0,0,0,0,0],"split_type":[0,0,0,0,0,0,0,0,0,0,0,0,0,0,0],"sum_hessian":[6.221357E3,2.2546655E3,3.9666914E3,7.460981E2,1.5085674E3,2.1702114E3,1.79648E3,4.2673132E2,3.1936676E2,4.525034E2,1.056064E3,9.613615E2,1.20885E3,8.224714E2,9.740086E2],"tree_param":{"num_deleted":"0","num_feature":"106","num_nodes":"15","size_leaf_vector":"1"}},{"base_weights":[1.0760868E-1,-1.7808478E-1,2.7000067E-1,1.1047853E-1,-3.207793E-1,1.028943E-1,4.7170153E-1,2.624031E-3,-9.270539E-4,-5.1094973E-3,-2.388886E-3,2.7856443E-3,-3.6925558E-4,5.8967876E-3,3.7157666E-3],"categories":[],"categories_nodes":[],"categories_segments":[],"categories_sizes":[],"default_left":[0,0,0,0,0,0,0,0,0,0,0,0,0,0,0],"id":69,"left_children":[1,3,5,7,9,11,13,-1,-1,-1,-1,-1,-1,-1,-1],"loss_changes":[2.8873013E2,9.291564E1,1.3368451E2,2.308622E1,2.3386703E1,5.333996E1,2.101352E1,0E0,0E0,0E0,0E0,0E0,0E0,0E0,0E0],"parents":[2147483647,0,0,1,1,2,2,3,3,4,4,5,5,6,6],"right_children":[2,4,6,8,10,12,14,-1,-1,-1,-1,-1,-1,-1,-1],"split_conditions":[4.57E-1,4.4E-1,1.6E1,2.5E1,-6.6E0,8E0,3.66E-1,2.624031E-3,-9.270539E-4,-5.1094973E-3,-2.388886E-3,2.7856443E-3,-3.6925558E-4,5.8967876E-3,3.7157666E-3],"split_indices":[3,55,81,28,25,29,55,0,0,0,0,0,0,0,0],"split_type":[0,0,0,0,0,0,0,0,0,0,0,0,0,0,0],"sum_hessian":[6.221357E3,2.2546655E3,3.9666914E3,7.460981E2,1.5085674E3,2.1702114E3,1.79648E3,4.2673132E2,3.1936676E2,4.525034E2,1.0560641E3,9.613615E2,1.20885E3,8.224714E2,9.740086E2],"tree_param":{"num_deleted":"0","num_feature":"106","num_nodes":"15","size_leaf_vector":"1"}},{"base_weights":[-1.066206E-1,1.4196308E-1,-2.8995124E-1,-8.615019E-2,3.1697127E-1,-4.657027E-1,-9.4463885E-2,-2.0455811E-3,1.4924717E-3,5.058267E-3,2.3249674E-3,-5.80225E-3,-3.6066181E-3,-1.8948248E-3,1.4223825E-3],"categories":[],"categories_nodes":[],"categories_segments":[],"categories_sizes":[],"default_left":[0,0,0,0,0,0,0,0,0,0,0,0,0,0,0],"id":70,"left_children":[1,3,5,7,9,11,13,-1,-1,-1,-1,-1,-1,-1,-1],"loss_changes":[2.83384E2,1.054081E2,1.2290848E2,3.1994095E1,2.3715714E1,2.2456726E1,3.8159634E1,0E0,0E0,0E0,0E0,0E0,0E0,0E0,0E0],"parents":[2147483647,0,0,1,1,2,2,3,3,4,4,5,5,6,6],"right_children":[2,4,6,8,10,12,14,-1,-1,-1,-1,-1,-1,-1,-1],"split_conditions":[4.9E-1,4.92E-1,5.25E-1,2.6E1,-5.9E0,3.95E-1,6.85E-1,-2.0455811E-3,1.4924717E-3,5.058267E-3,2.3249674E-3,-5.80225E-3,-3.6066181E-3,-1.8948248E-3,1.4223825E-3],"split_indices":[3,55,55,29,25,55,55,0,0,0,0,0,0,0,0],"split_type":[0,0,0,0,0,0,0,0,0,0,0,0,0,0,0],"sum_hessian":[6.21634E3,2.6386873E3,3.5776523E3,1.1457607E3,1.4929265E3,1.8831962E3,1.694456E3,7.623965E2,3.8336432E2,4.5985788E2,1.0330687E3,8.987728E2,9.8442334E2,1.2092358E3,4.8522028E2],"tree_param":{"num_deleted":"0","num_feature":"106","num_nodes":"15","size_leaf_vector":"1"}},{"base_weights":[1.06620595E-1,-1.4196308E-1,2.8995124E-1,8.615019E-2,-3.1697127E-1,4.6570268E-1,9.44639E-2,2.0455816E-3,-1.4924724E-3,-5.058267E-3,-2.3249674E-3,5.802249E-3,3.6066181E-3,1.894825E-3,-1.4223827E-3],"categories":[],"categories_nodes":[],"categories_segments":[],"categories_sizes":[],"default_left":[0,0,0,0,0,0,0,0,0,0,0,0,0,0,0],"id":71,"left_children":[1,3,5,7,9,11,13,-1,-1,-1,-1,-1,-1,-1,-1],"loss_changes":[2.8338397E2,1.054081E2,1.2290839E2,3.199411E1,2.3715714E1,2.2456696E1,3.8159645E1,0E0,0E0,0E0,0E0,0E0,0E0,0E0,0E0],"parents":[2147483647,0,0,1,1,2,2,3,3,4,4,5,5,6,6],"right_children":[2,4,6,8,10,12,14,-1,-1,-1,-1,-1,-1,-1,-1],"split_conditions":[4.9E-1,4.92E-1,5.25E-1,2.6E1,-5.9E0,3.95E-1,6.85E-1,2.0455816E-3,-1.4924724E-3,-5.058267E-3,-2.3249674E-3,5.802249E-3,3.6066181E-3,1.894825E-3,-1.4223827E-3],"split_indices":[3,55,55,29,25,55,55,0,0,0,0,0,0,0,0],"split_type":[0,0,0,0,0,0,0,0,0,0,0,0,0,0,0],"sum_hessian":[6.2163394E3,2.6386873E3,3.5776523E3,1.1457607E3,1.4929265E3,1.8831962E3,1.694456E3,7.623965E2,3.8336432E2,4.5985785E2,1.0330687E3,8.987728E2,9.8442334E2,1.2092358E3,4.8522028E2],"tree_param":{"num_deleted":"0","num_feature":"106","num_nodes":"15","size_leaf_vector":"1"}},{"base_weights":[-1.0564233E-1,1.0695562E-1,-3.1673574E-1,-1.2125439E-1,2.8758344E-1,-1.1443958E-1,-4.7384596E-1,-2.4959345E-3,1.1543238E-3,2.2424695E-3,5.7511786E-3,-2.0538215E-3,1.0235222E-3,-5.88603E-3,-3.66523E-3],"categories":[],"categories_nodes":[],"categories_segments":[],"categories_sizes":[],"default_left":[0,0,0,0,0,0,0,0,0,0,0,0,0,0,0],"id":72,"left_children":[1,3,5,7,9,11,13,-1,-1,-1,-1,-1,-1,-1,-1],"loss_changes":[2.7882745E2,1.2764886E2,9.902573E1,4.1597717E1,3.1347137E1,2.6914211E1,2.139096E1,0E0,0E0,0E0,0E0,0E0,0E0,0E0,0E0],"parents":[2147483647,0,0,1,1,2,2,3,3,4,4,5,5,6,6],"right_children":[2,4,6,8,10,12,14,-1,-1,-1,-1,-1,-1,-1,-1],"split_conditions":[5.14E-1,4.94E-1,1.2E1,2.4E1,7.32E-1,6E0,4.09E-1,-2.4959345E-3,1.1543238E-3,2.2424695E-3,5.7511786E-3,-2.0538215E-3,1.0235222E-3,-5.88603E-3,-3.66523E-3],"split_indices":[3,55,80,27,55,77,55,0,0,0,0,0,0,0,0],"split_type":[0,0,0,0,0,0,0,0,0,0,0,0,0,0,0],"sum_hessian":[6.211251E3,3.094843E3,3.1164077E3,1.3674716E3,1.7273715E3,1.363056E3,1.7533517E3,8.866483E2,4.808233E2,1.4170184E3,3.10353E2,9.602787E2,4.027773E2,8.4516205E2,9.0818964E2],"tree_param":{"num_deleted":"0","num_feature":"106","num_nodes":"15","size_leaf_vector":"1"}},{"base_weights":[1.0564234E-1,-1.0695563E-1,3.1673577E-1,1.21254355E-1,-2.8758344E-1,1.1443961E-1,4.73846E-1,2.4959338E-3,-1.1543238E-3,-2.2424695E-3,-5.7511786E-3,2.0538222E-3,-1.0235223E-3,5.886031E-3,3.6652302E-3],"categories":[],"categories_nodes":[],"categories_segments":[],"categories_sizes":[],"default_left":[0,0,0,0,0,0,0,0,0,0,0,0,0,0,0],"id":73,"left_children":[1,3,5,7,9,11,13,-1,-1,-1,-1,-1,-1,-1,-1],"loss_changes":[2.788275E2,1.27648834E2,9.9025696E1,4.159771E1,3.1347137E1,2.6914225E1,2.139096E1,0E0,0E0,0E0,0E0,0E0,0E0,0E0,0E0],"parents":[2147483647,0,0,1,1,2,2,3,3,4,4,5,5,6,6],"right_children":[2,4,6,8,10,12,14,-1,-1,-1,-1,-1,-1,-1,-1],"split_conditions":[5.14E-1,4.94E-1,1.2E1,2.4E1,7.32E-1,6E0,4.09E-1,2.4959338E-3,-1.1543238E-3,-2.2424695E-3,-5.7511786E-3,2.0538222E-3,-1.0235223E-3,5.886031E-3,3.6652302E-3],"split_indices":[3,55,80,27,55,77,55,0,0,0,0,0,0,0,0],"split_type":[0,0,0,0,0,0,0,0,0,0,0,0,0,0,0],"sum_hessian":[6.2112505E3,3.094843E3,3.1164077E3,1.3674716E3,1.7273715E3,1.363056E3,1.7533517E3,8.866483E2,4.808233E2,1.4170184E3,3.10353E2,9.602787E2,4.027773E2,8.4516205E2,9.0818964E2],"tree_param":{"num_deleted":"0","num_feature":"106","num_nodes":"15","size_leaf_vector":"1"}},{"base_weights":[-1.0467258E-1,1.855225E-1,-2.5675306E-1,-1.1120354E-1,3.1624326E-1,-3.4019478E-2,-4.0350077E-1,-2.6007784E-3,7.4234477E-4,5.8451174E-3,2.5953632E-3,-2.9328077E-3,5.142021E-4,-5.7199476E-3,-3.1224675E-3],"categories":[],"categories_nodes":[],"categories_segments":[],"categories_sizes":[],"default_left":[0,0,0,0,0,0,0,0,0,0,0,0,0,0,0],"id":74,"left_children":[1,3,5,7,9,11,13,-1,-1,-1,-1,-1,-1,-1,-1],"loss_changes":[2.7399048E2,8.284756E1,1.3312222E2,1.8064764E1,2.239853E1,3.5874863E1,3.7574432E1,0E0,0E0,0E0,0E0,0E0,0E0,0E0,0E0],"parents":[2147483647,0,0,1,1,2,2,3,3,4,4,5,5,6,6],"right_children":[2,4,6,8,10,12,14,-1,-1,-1,-1,-1,-1,-1,-1],"split_conditions":[4.47E-1,4.29E-1,1.1E1,2.5E1,2.3E-1,5E0,3.7E-1,-2.6007784E-3,7.4234477E-4,5.8451174E-3,2.5953632E-3,-2.9328077E-3,5.142021E-4,-5.7199476E-3,-3.1224675E-3],"split_indices":[3,55,80,28,3,29,55,0,0,0,0,0,0,0,0],"split_type":[0,0,0,0,0,0,0,0,0,0,0,0,0,0,0],"sum_hessian":[6.2062104E3,2.1339863E3,4.072224E3,6.5265625E2,1.4813301E3,1.6178636E3,2.4543606E3,3.6179535E2,2.908609E2,2.5686215E2,1.2244679E3,4.0041058E2,1.2174531E3,8.604088E2,1.5939517E3],"tree_param":{"num_deleted":"0","num_feature":"106","num_nodes":"15","size_leaf_vector":"1"}},{"base_weights":[1.046726E-1,-1.8552248E-1,2.567531E-1,1.1120359E-1,-3.1624326E-1,3.4019507E-2,4.035008E-1,2.6007793E-3,-7.4234477E-4,-5.8451174E-3,-2.595363E-3,2.9328077E-3,-5.142017E-4,5.7199476E-3,3.1224675E-3],"categories":[],"categories_nodes":[],"categories_segments":[],"categories_sizes":[],"default_left":[0,0,0,0,0,0,0,0,0,0,0,0,0,0,0],"id":75,"left_children":[1,3,5,7,9,11,13,-1,-1,-1,-1,-1,-1,-1,-1],"loss_changes":[2.7399048E2,8.284758E1,1.331222E2,1.8064775E1,2.2398514E1,3.587485E1,3.7574463E1,0E0,0E0,0E0,0E0,0E0,0E0,0E0,0E0],"parents":[2147483647,0,0,1,1,2,2,3,3,4,4,5,5,6,6],"right_children":[2,4,6,8,10,12,14,-1,-1,-1,-1,-1,-1,-1,-1],"split_conditions":[4.47E-1,4.29E-1,1.1E1,2.5E1,2.3E-1,5E0,3.7E-1,2.6007793E-3,-7.4234477E-4,-5.8451174E-3,-2.595363E-3,2.9328077E-3,-5.142017E-4,5.7199476E-3,3.1224675E-3],"split_indices":[3,55,80,28,3,29,55,0,0,0,0,0,0,0,0],"split_type":[0,0,0,0,0,0,0,0,0,0,0,0,0,0,0],"sum_hessian":[6.2062104E3,2.1339863E3,4.072224E3,6.5265625E2,1.48133E3,1.6178636E3,2.4543606E3,3.6179535E2,2.908609E2,2.5686215E2,1.2244679E3,4.0041058E2,1.2174531E3,8.604088E2,1.5939517E3],"tree_param":{"num_deleted":"0","num_feature":"106","num_nodes":"15","size_leaf_vector":"1"}},{"base_weights":[-1.0371319E-1,1.054326E-1,-3.1156507E-1,-1.1888162E-1,2.830381E-1,-1.4216079E-1,-4.9380252E-1,-2.4478217E-3,1.1308701E-3,2.2033262E-3,5.6815087E-3,-1.0669696E-3,-6.983189E-3,-5.8080275E-3,-3.812997E-3],"categories":[],"categories_nodes":[],"categories_segments":[],"categories_sizes":[],"default_left":[0,0,0,0,0,0,0,0,0,0,0,0,0,0,0],"id":76,"left_children":[1,3,5,7,9,11,13,-1,-1,-1,-1,-1,-1,-1,-1],"loss_changes":[2.69646E2,1.2322397E2,9.596948E1,3.9954163E1,3.0733505E1,3.1751911E1,1.4443451E1,0E0,0E0,0E0,0E0,0E0,0E0,0E0,0E0],"parents":[2147483647,0,0,1,1,2,2,3,3,4,4,5,5,6,6],"right_children":[2,4,6,8,10,12,14,-1,-1,-1,-1,-1,-1,-1,-1],"split_conditions":[5.14E-1,4.94E-1,1.5E1,2.4E1,7.32E-1,8.17E-1,4.09E-1,-2.4478217E-3,1.1308701E-3,2.2033262E-3,5.6815087E-3,-1.0669696E-3,-6.983189E-3,-5.8080275E-3,-3.812997E-3],"split_indices":[3,55,81,27,55,3,55,0,0,0,0,0,0,0,0],"split_type":[0,0,0,0,0,0,0,0,0,0,0,0,0,0,0],"sum_hessian":[6.201089E3,3.0911694E3,3.1099194E3,1.3661123E3,1.7250571E3,1.6126305E3,1.497289E3,8.854699E2,4.8064236E2,1.415513E3,3.095442E2,1.5170845E3,9.554613E1,8.419967E2,6.552923E2],"tree_param":{"num_deleted":"0","num_feature":"106","num_nodes":"15","size_leaf_vector":"1"}},{"base_weights":[1.0371319E-1,-1.0543259E-1,3.1156507E-1,1.18881606E-1,-2.830381E-1,1.4216077E-1,4.9380252E-1,2.4478214E-3,-1.1308702E-3,-2.203326E-3,-5.681508E-3,1.0669696E-3,6.983189E-3,5.808028E-3,3.8129967E-3],"categories":[],"categories_nodes":[],"categories_segments":[],"categories_sizes":[],"default_left":[0,0,0,0,0,0,0,0,0,0,0,0,0,0,0],"id":77,